{
  "__kind": "NeuralNet",
  "version": 1,
  "layers": [
    {
      "weights": [
        0.8613308668136597,
        0.07512013614177704,
        0.9278450608253479,
        0.19433365762233734,
        -0.32199737429618835,
        -0.17276905477046967,
        0.3883137106895447,
        -0.09894547611474991,
        0.01700659468770027,
        -0.041644029319286346,
        0.6803181171417236,
        0.8086854219436646,
        0.24791207909584045,
        -0.40861278772354126,
        -0.4184645712375641,
        0.4454211890697479,
        0.7714518308639526,
        0.8363322019577026,
        1.3156222105026245,
        -0.15097352862358093,
        -0.03987542539834976,
        0.9037248492240906,
        0.835976243019104,
        0.9393366575241089,
        0.016158366575837135,
        0.20898258686065674,
        -0.21265394985675812,
        1.6176642179489136,
        0.3777278661727905,
        0.8482541441917419,
        -1.5278632640838623,
        0.33767494559288025,
        0.8713469505310059,
        -0.1646621823310852,
        0.5406277179718018,
        0.19228629767894745,
        0.17594820261001587,
        0.012702486477792263,
        -0.2760913074016571,
        0.12356732785701752,
        0.4457339942455292,
        -0.07942958921194077,
        0.5079678893089294,
        0.6061179637908936,
        0.045894280076026917,
        0.19678567349910736,
        0.2532557249069214,
        0.26307812333106995,
        0.8588942885398865,
        0.03599541261792183,
        0.42628756165504456,
        -0.025538556277751923,
        -0.10966891795396805,
        0.4954566955566406,
        0.5348612070083618,
        0.37495264410972595,
        0.06270378082990646,
        0.04288249835371971,
        -0.04621987044811249,
        0.2562118172645569,
        -0.20758593082427979,
        0.8156223893165588,
        -0.41781309247016907,
        0.24288465082645416,
        0.4735839068889618,
        -0.11823177337646484,
        1.553246259689331,
        -0.5019608736038208,
        -1.2455195188522339,
        -0.06650140136480331,
        1.0451072454452515,
        -0.5227137207984924,
        -0.0915137454867363,
        -0.18799909949302673,
        0.5396570563316345,
        0.6154919862747192,
        0.482728511095047,
        -2.0946743488311768,
        -1.9280837774276733,
        -0.8491391539573669,
        0.1946953982114792,
        0.09606018662452698,
        0.6668896079063416,
        -0.20732946693897247,
        -0.05973256379365921,
        0.5936643481254578,
        0.40395569801330566,
        0.8689173460006714,
        -0.3453613817691803,
        0.25247105956077576,
        0.05056789144873619,
        -0.03145797923207283,
        1.1873682737350464,
        0.48776787519454956,
        -0.4746192991733551,
        0.7392156720161438,
        0.01584186777472496,
        -0.014712261036038399,
        1.0002098083496094,
        -0.6640951633453369,
        -0.310949444770813,
        -0.15741071105003357,
        -0.11060814559459686,
        0.20435845851898193,
        0.13418324291706085,
        0.06291761994361877,
        -0.0016518263146281242,
        0.3593941628932953,
        0.5261366367340088,
        1.171951174736023,
        0.6083409786224365,
        0.002052467316389084,
        0.7196218967437744,
        -0.8475633263587952,
        0.851628839969635,
        -0.003987728152424097,
        0.04083385318517685,
        0.43468764424324036,
        1.356372356414795,
        1.0035666227340698,
        -0.28502199053764343,
        -0.2341892272233963,
        -0.03352711349725723,
        -0.01630944013595581,
        0.5193215012550354,
        0.474205881357193,
        2.897540807723999,
        0.4414941966533661,
        1.1133843660354614,
        -0.04895971342921257,
        1.584196925163269,
        0.029338153079152107,
        1.201343297958374,
        -0.31235459446907043,
        -0.29143956303596497,
        0.4293450117111206,
        -0.19824343919754028,
        0.20331363379955292,
        0.4047437906265259,
        0.4566650390625,
        -0.1572524607181549,
        0.5336116552352905,
        0.8155030608177185,
        -0.4428861737251282,
        0.9231353998184204,
        0.8634756207466125,
        0.8893669843673706,
        -0.15822039544582367,
        -0.17622029781341553,
        0.6536023020744324,
        0.06711176782846451,
        0.6335963606834412,
        -0.18957722187042236,
        -0.05977242812514305,
        -0.08829499036073685,
        -0.8503428101539612,
        -0.4782259464263916,
        0.9337283968925476,
        -0.9366363883018494,
        0.9548349976539612,
        1.7789843082427979,
        0.002522457391023636,
        1.5182299613952637,
        0.05371002480387688,
        0.32613226771354675,
        0.15333151817321777,
        0.009086305275559425,
        0.43105024099349976,
        -0.0002527923497837037,
        -0.09683680534362793,
        0.884131133556366,
        0.8329874873161316,
        0.26779937744140625,
        1.0580717325210571,
        0.9346600770950317,
        0.11012011766433716,
        1.0270884037017822,
        0.5848838090896606,
        1.1282215118408203,
        -0.055631134659051895,
        0.024575499817728996,
        1.1530078649520874,
        0.44829633831977844,
        0.9055520296096802,
        0.19485436379909515,
        -0.2707267701625824,
        -0.09193750470876694,
        -0.007735483348369598,
        -0.2611132264137268,
        1.021378993988037,
        -1.6351112127304077,
        0.47436025738716125,
        1.3333714008331299,
        0.01391619723290205,
        1.642646312713623,
        -0.028636731207370758,
        1.044161319732666,
        -0.20072107017040253,
        0.0026695781853049994,
        0.4314895272254944,
        -0.16993717849254608,
        0.16202102601528168,
        0.43804046511650085,
        0.5518015027046204,
        -0.027424216270446777,
        0.3911954462528229,
        0.8349549174308777,
        -0.49906378984451294,
        0.9490950107574463,
        0.417878121137619,
        0.8494173884391785,
        0.07383190840482712,
        -0.054172858595848083,
        0.9115294218063354,
        0.019637102261185646,
        0.6521545648574829,
        -0.19802846014499664,
        -0.061879388988018036,
        -0.030875083059072495,
        -0.8332253098487854,
        -0.3765312731266022,
        0.9298886060714722,
        -0.5831400752067566,
        0.7708120346069336,
        1.3875370025634766,
        0.04582381248474121,
        1.3329051733016968,
        -0.270807147026062,
        0.9977407455444336,
        -0.06702372431755066,
        -0.3287443518638611,
        0.27189165353775024,
        -0.21000197529792786,
        0.04471845552325249,
        0.6901218295097351,
        0.8098026514053345,
        0.1583878993988037,
        1.3883661031723022,
        1.078701376914978,
        -0.057139862328767776,
        1.1386704444885254,
        0.5385473370552063,
        1.0207390785217285,
        -0.12889817357063293,
        0.06165345758199692,
        1.0598537921905518,
        0.40625670552253723,
        0.6549035906791687,
        -0.18208672106266022,
        -0.03167985379695892,
        -0.08155588805675507,
        -0.4460979700088501,
        -0.43748152256011963,
        0.9341413378715515,
        -1.5062882900238037,
        0.7687322497367859,
        1.1552648544311523,
        -0.2832856774330139,
        0.3418278098106384,
        0.6057812571525574,
        -1.3230973482131958,
        -0.1643233448266983,
        0.12137790024280548,
        0.024343082681298256,
        0.6003707051277161,
        -0.17319239675998688,
        1.1692556142807007,
        0.9093173146247864,
        0.5908016562461853,
        0.2625313103199005,
        0.17858411371707916,
        0.7853187322616577,
        1.3459327220916748,
        -0.5426716208457947,
        1.2647252082824707,
        -0.09281502664089203,
        -0.19679440557956696,
        1.1340324878692627,
        1.54498291015625,
        0.8935246467590332,
        0.41473597288131714,
        0.14476428925991058,
        -0.060864195227622986,
        0.715355634689331,
        0.016347909346222878,
        0.9133784174919128,
        -0.14280536770820618,
        -0.04654528200626373,
        0.2360655963420868,
        -0.049527205526828766,
        -0.015269099734723568,
        0.15700024366378784,
        -0.44693464040756226,
        0.14338365197181702,
        -0.13780002295970917,
        0.10437165200710297,
        0.17468157410621643,
        -0.10552260279655457,
        0.21595336496829987,
        0.23955124616622925,
        0.23909613490104675,
        -0.5036032199859619,
        -0.2781718671321869,
        0.5208864808082581,
        0.4476241171360016,
        -0.30790022015571594,
        0.2516527771949768,
        -0.05942274630069733,
        0.15596510469913483,
        0.4471530020236969,
        0.7382720112800598,
        0.22861243784427643,
        -0.018443873152136803,
        -0.02297448366880417,
        0.09554306417703629,
        0.7752362489700317,
        0.14638976752758026,
        0.14001034200191498,
        0.47716787457466125,
        -0.15334294736385345,
        0.35276907682418823,
        0.045303501188755035,
        -1.1214122772216797,
        0.9209633469581604,
        -1.78984534740448,
        -0.02597205899655819,
        0.1196887418627739,
        -0.190616637468338,
        0.8794913291931152,
        -0.051093023270368576,
        1.1959441900253296,
        0.8917783498764038,
        0.9125999808311462,
        1.2939412593841553,
        -0.038973644375801086,
        1.5177522897720337,
        0.4527877867221832,
        -0.8123440742492676,
        0.9008792042732239,
        0.014515779912471771,
        -0.17409870028495789,
        0.5214869976043701,
        1.9253047704696655,
        0.1516970992088318,
        0.8815157413482666,
        -0.12487804144620895,
        -0.019141998142004013,
        1.417960286140442,
        0.28134340047836304,
        0.11548354476690292,
        -0.3730020523071289,
        -0.9522160887718201,
        0.8937481641769409,
        -0.10436400771141052,
        -0.16002723574638367,
        0.9459681510925293,
        -1.808401107788086,
        -0.16553330421447754,
        0.2572076916694641,
        -0.13543914258480072,
        0.8841478824615479,
        -0.04202787205576897,
        1.1695425510406494,
        0.965110182762146,
        0.5598995685577393,
        -0.049865636974573135,
        -0.14558032155036926,
        0.8931783437728882,
        0.9510051012039185,
        -0.6859273314476013,
        1.1142940521240234,
        0.0554877445101738,
        -0.11237971484661102,
        1.0109584331512451,
        1.7251509428024292,
        0.8839263319969177,
        0.7490732073783875,
        -0.2196858823299408,
        -0.08584649115800858,
        1.0500462055206299,
        0.4359547793865204,
        0.8515761494636536,
        0.51812344789505,
        -0.4764275550842285,
        1.5377897024154663,
        -0.019356554374098778,
        1.4730195999145508,
        -0.0856289267539978,
        0.7802019119262695,
        -0.0938553735613823,
        -0.19766587018966675,
        0.21684569120407104,
        0.027722759172320366,
        0.2540648281574249,
        0.561669647693634,
        0.49705010652542114,
        0.1327686309814453,
        0.6938021183013916,
        0.8509162664413452,
        -0.2786109149456024,
        0.9384633302688599,
        0.7644885182380676,
        0.9128282070159912,
        0.010596910491585732,
        -0.04264461249113083,
        1.034859299659729,
        0.15631629526615143,
        0.843134880065918,
        -0.1782093644142151,
        -0.36667943000793457,
        -0.07669759541749954,
        -0.5441746711730957,
        -0.14784888923168182,
        0.9947170615196228,
        -1.150383710861206,
        0.817565381526947,
        0.2923080027103424,
        -0.05244048312306404,
        0.26613059639930725,
        -0.0007525971159338951,
        0.2658461034297943,
        0.1965831071138382,
        -0.16724905371665955,
        0.36625155806541443,
        -0.1151515394449234,
        -0.03609466552734375,
        0.2565286159515381,
        0.22416619956493378,
        0.13820724189281464,
        0.5369454622268677,
        0.47188594937324524,
        0.1530424803495407,
        0.3752552568912506,
        0.011821908876299858,
        0.5049158930778503,
        -0.1893468201160431,
        0.1327308714389801,
        0.4095223546028137,
        0.28818628191947937,
        0.06713318079710007,
        0.1774507462978363,
        0.03569750860333443,
        0.05284953489899635,
        -0.05374839901924133,
        -0.34464797377586365,
        0.3198718726634979,
        -0.5313180685043335,
        0.2509087026119232,
        0.18059584498405457,
        -0.020981276407837868,
        0.08956384658813477,
        0.5850037336349487,
        -0.7249246835708618,
        0.021346107125282288,
        -0.005114771891385317,
        -0.21977204084396362,
        0.2381712645292282,
        -0.14038847386837006,
        0.6862422823905945,
        0.28235718607902527,
        0.4377916157245636,
        -1.2498246431350708,
        -0.9466949701309204,
        0.9236236810684204,
        0.472312867641449,
        -0.7271304726600647,
        0.5320769548416138,
        -0.0338841937482357,
        0.028565343469381332,
        0.6280157566070557,
        1.048874855041504,
        0.48193585872650146,
        0.3885723650455475,
        0.25682348012924194,
        0.037883784621953964,
        1.2722561359405518,
        0.22752636671066284,
        0.3935534954071045,
        1.4002346992492676,
        -0.09754663705825806,
        0.8341532349586487,
        -0.18612027168273926,
        1.7423572540283203,
        -0.44197237491607666,
        -0.558233380317688,
        -0.16348835825920105,
        0.843459963798523,
        -0.2699527144432068,
        -0.29271823167800903,
        -0.2144412398338318,
        0.03304791450500488,
        0.49368801712989807,
        0.24692237377166748,
        -0.8532624840736389,
        -0.5373292565345764,
        -0.30847108364105225,
        0.5703426003456116,
        0.5357572436332703,
        0.7063925266265869,
        0.26414188742637634,
        0.12987226247787476,
        0.6571137309074402,
        0.5315000414848328,
        0.9408631920814514,
        -0.3396975100040436,
        0.07942204177379608,
        0.044160209596157074,
        0.24724353849887848,
        0.5824109315872192,
        0.607119083404541,
        0.43446412682533264,
        0.8334614038467407,
        -0.3180791735649109,
        0.04990357533097267,
        0.9982871413230896,
        -0.5639626979827881,
        -1.3322383165359497,
        0.0294654481112957,
        1.0408316850662231,
        -0.1438407450914383,
        -0.10600414872169495,
        -0.19041812419891357,
        0.11247768998146057,
        0.1771450638771057,
        0.11723673343658447,
        -0.9208754301071167,
        -0.8954269289970398,
        -0.33006900548934937,
        -0.02685251086950302,
        0.16465641558170319,
        0.4464588463306427,
        0.027188917621970177,
        -0.0767851322889328,
        0.1701274812221527,
        0.4388883709907532,
        0.7048376202583313,
        -0.13327917456626892,
        -0.12880417704582214,
        -0.11559604108333588,
        0.5993229150772095,
        1.0446577072143555,
        0.18081572651863098,
        0.6770205497741699,
        0.3715876340866089
      ],
      "weightsShape": [
        17,
        32
      ],
      "bias": [
        2.480323314666748,
        0.01293279230594635,
        2.3719160556793213,
        0.5383963584899902,
        0.5757740139961243,
        0,
        -0.2577800154685974,
        0.08177972584962845,
        0.4499164819717407,
        0.05580133572220802,
        1.592930793762207,
        1.553061842918396,
        0.8119107484817505,
        -0.8475773334503174,
        -0.03488348051905632,
        0.8597261309623718,
        2.3474690914154053,
        -0.03718910366296768,
        2.3209712505340576,
        -0.07071103155612946,
        -0.000055212818551808596,
        2.139366865158081,
        2.057394027709961,
        1.7597806453704834,
        0.2735784947872162,
        0.16781355440616608,
        -0.03158289194107056,
        1.3688277006149292,
        -0.1439279168844223,
        1.8964763879776,
        0.2971056401729584,
        0.945975661277771
      ],
      "biasShape": [
        1,
        32
      ],
      "activation": "relu"
    },
    {
      "weights": [
        -0.4093773066997528,
        -0.0957547128200531,
        -0.01816408522427082,
        1.0083321332931519,
        -0.08784767985343933,
        0.4663660228252411,
        1.3571195602416992,
        0.01852966472506523,
        -0.05268334224820137,
        0.9620439410209656,
        -0.09818954765796661,
        2.475982189178467,
        1.383708119392395,
        -0.058808133006095886,
        -0.114657461643219,
        -0.7144097685813904,
        -0.015615483745932579,
        -0.04468325525522232,
        0.06154973804950714,
        0.012569686397910118,
        0.11271706223487854,
        0.056544311344623566,
        0.044511791318655014,
        -0.09393879026174545,
        0.10661927610635757,
        -0.10540729761123657,
        -0.05761191248893738,
        -0.003403050359338522,
        0.10710538178682327,
        0.09866480529308319,
        0.1301591843366623,
        0.15867744386196136,
        1.0376096963882446,
        -0.024110667407512665,
        -0.020119357854127884,
        1.7057511806488037,
        -0.03210680931806564,
        0.058769069612026215,
        0.47119733691215515,
        0.22099536657333374,
        0.044995393604040146,
        0.997261643409729,
        -0.1272297501564026,
        1.9705760478973389,
        2.8413138389587402,
        0.09426236897706985,
        -0.045738257467746735,
        0.36909958720207214,
        -0.5722195506095886,
        0.08318117260932922,
        -0.034853678196668625,
        -0.5941476225852966,
        -0.03833702206611633,
        0.28595247864723206,
        0.896106481552124,
        0.013742677867412567,
        -0.02230352722108364,
        -0.01388611365109682,
        -0.14915935695171356,
        0.38431644439697266,
        -0.909295380115509,
        0.1350327581167221,
        -0.006992204114794731,
        -0.3447016179561615,
        0.15363651514053345,
        -0.06581384688615799,
        -0.09313983470201492,
        1.8779033422470093,
        -0.010336420498788357,
        -0.8772653341293335,
        -1.6279888153076172,
        0.6832122206687927,
        -0.07910702377557755,
        0.43944352865219116,
        0.0274162869900465,
        -0.28446686267852783,
        2.957599639892578,
        -0.33029988408088684,
        0.027358070015907288,
        0.18601977825164795,
        -0.020168403163552284,
        -0.05316534638404846,
        -0.14181357622146606,
        0.10775230079889297,
        -0.03804866597056389,
        0.18003268539905548,
        -0.01777057908475399,
        0.012022609822452068,
        0.04456029087305069,
        0.11057117581367493,
        -0.20606832206249237,
        -0.0327422209084034,
        -0.05546841397881508,
        0.02138860709965229,
        0.21812261641025543,
        0.026277633383870125,
        0.6307053565979004,
        -0.005393412429839373,
        0.0006808212492614985,
        0.8764935731887817,
        -0.08441358059644699,
        -0.21643754839897156,
        -0.3464358150959015,
        -0.1262952834367752,
        -0.0240617748349905,
        0.20500805974006653,
        0.05140764266252518,
        0.19538268446922302,
        1.013424038887024,
        -0.055299632251262665,
        0.06254521012306213,
        0.40784597396850586,
        -0.7140021324157715,
        -0.08782190084457397,
        -0.05233369767665863,
        0.10019821673631668,
        0.03142305836081505,
        0.12742243707180023,
        0.07797063142061234,
        0.16689972579479218,
        -0.08461220562458038,
        0.21713462471961975,
        0.05686154216527939,
        0.41061556339263916,
        0.37710267305374146,
        0.08132550865411758,
        0.12059469521045685,
        -0.3691960573196411,
        -0.24537740647792816,
        -0.12934860587120056,
        -0.05316871404647827,
        -0.6068201065063477,
        -0.03885843604803085,
        0.4192851483821869,
        0.647272527217865,
        -0.14078131318092346,
        0.024656804278492928,
        0.08176683634519577,
        0.04210008308291435,
        0.472595751285553,
        -0.6296966671943665,
        0.0646112784743309,
        0.10354475677013397,
        0.1366896629333496,
        0.04079735279083252,
        0.10557454824447632,
        0.046219274401664734,
        0.17868643999099731,
        -0.06315477937459946,
        -0.032230768352746964,
        -0.16849321126937866,
        0.1164269670844078,
        -0.08130577951669693,
        -0.027868226170539856,
        -0.019302241504192352,
        -0.02601509541273117,
        0.28102776408195496,
        0.040319573134183884,
        0.010037165135145187,
        -0.0028433736879378557,
        -0.036884184926748276,
        -0.08148320764303207,
        0.016169976443052292,
        -0.008278989233076572,
        0.06710585206747055,
        0.5632523894309998,
        1.5469410419464111,
        -0.35436537861824036,
        -0.0798182263970375,
        0.6909356117248535,
        -0.08007704466581345,
        1.8181114196777344,
        -0.06793216615915298,
        0.1065337136387825,
        -0.10542884469032288,
        -0.10610061138868332,
        0.2859198749065399,
        -0.08112388849258423,
        -0.07663731276988983,
        -0.04223774001002312,
        -0.06757935881614685,
        0.49776190519332886,
        1.0742636919021606,
        -0.08416716009378433,
        -0.012116391211748123,
        0.5663824677467346,
        -0.008092448115348816,
        1.819631814956665,
        0.4059286117553711,
        0.12857685983181,
        -0.05791206657886505,
        -0.10344064235687256,
        0.40151524543762207,
        -0.02462177351117134,
        -0.03440432623028755,
        -0.5212104916572571,
        -0.0227770134806633,
        0.3126515746116638,
        0.7766605019569397,
        -0.21812917292118073,
        -0.1544705033302307,
        0.06734010577201843,
        0.01814620941877365,
        0.9121284484863281,
        -0.16379019618034363,
        0.024859072640538216,
        0.1107136458158493,
        0.2998729646205902,
        -2.2380435466766357,
        -0.033897899091243744,
        0.03321819379925728,
        -0.022406522184610367,
        -0.009330358356237411,
        0.698470950126648,
        1.445300817489624,
        0.3808675706386566,
        -0.013634752482175827,
        0.23014844954013824,
        0.09346349537372589,
        0.8926196694374084,
        -1.0637450218200684,
        0.09437426179647446,
        0.08793826401233673,
        -1.7434061765670776,
        -2.130805015563965,
        0.03277786448597908,
        -0.1031375303864479,
        0.4391138553619385,
        -0.04168679192662239,
        0.26501476764678955,
        0.6484326124191284,
        0.49235475063323975,
        -0.0103520592674613,
        0.3037116229534149,
        -0.04002973437309265,
        0.9207732081413269,
        0.06949196755886078,
        -0.037875909358263016,
        0.03484075143933296,
        -1.5440340042114258,
        -0.6376953125,
        0.15814603865146637,
        -0.14245052635669708,
        -1.2188040018081665,
        0.04783898964524269,
        0.46715599298477173,
        0.9463605880737305,
        -0.15870097279548645,
        -0.09527076780796051,
        0.005627193488180637,
        -0.010063143447041512,
        0.7263239622116089,
        -0.9908492565155029,
        0.17804363369941711,
        0.08650380373001099,
        0.18046054244041443,
        -0.3959577679634094,
        -0.046863969415426254,
        -0.04572923853993416,
        0.1382780224084854,
        -0.08656816184520721,
        0.5110516548156738,
        1.1435890197753906,
        -0.010069847106933594,
        -0.12241619825363159,
        0.897986888885498,
        0.010600872337818146,
        2.206223964691162,
        1.126089334487915,
        0.04937680810689926,
        -0.09808074682950974,
        -0.026528876274824142,
        0.9364644289016724,
        -0.07311708480119705,
        -0.10673700273036957,
        1.0851272344589233,
        -0.05391522869467735,
        -0.4798430800437927,
        -0.7239016890525818,
        0.1153763011097908,
        0.05472759157419205,
        0.23641571402549744,
        -0.07729458063840866,
        -0.10496866703033447,
        1.3732095956802368,
        -0.22984887659549713,
        0.038040973246097565,
        0.37743672728538513,
        0.35252490639686584,
        0.011645101942121983,
        -0.02253018133342266,
        0.033846501260995865,
        0.13411229848861694,
        0.7142142653465271,
        1.6554285287857056,
        0.07511716336011887,
        0.09934516996145248,
        0.8734596967697144,
        0.034457337111234665,
        2.4485085010528564,
        0.9261688590049744,
        -0.15589390695095062,
        -0.07810777425765991,
        0.1391468346118927,
        0.0020942343398928642,
        0.07794315367937088,
        0.08846068382263184,
        0.008495204150676727,
        0.14868128299713135,
        0.10448608547449112,
        0.06465788185596466,
        -0.10663328319787979,
        0.04057386890053749,
        -0.17239688336849213,
        0.03245240077376366,
        0.055262673646211624,
        -0.05548606067895889,
        0.11175351589918137,
        -0.15781711041927338,
        0.043896764516830444,
        0.02703312784433365,
        -0.13465897738933563,
        -0.09914953261613846,
        -0.11106816679239273,
        -0.16549277305603027,
        -0.1480586975812912,
        0.03297917917370796,
        0.06426125764846802,
        -0.044443149119615555,
        -0.10117558389902115,
        0.13038134574890137,
        0.1827199012041092,
        0.02283332869410515,
        -0.1040077731013298,
        -0.09009142220020294,
        -0.03755487501621246,
        0.05170755088329315,
        -0.045297086238861084,
        0.04038722813129425,
        0.2854035198688507,
        -0.13447009027004242,
        0.5817049145698547,
        1.4435803890228271,
        0.07026836276054382,
        0.14092595875263214,
        0.897161066532135,
        0.05665580928325653,
        2.0762879848480225,
        0.9355496764183044,
        0.004888291470706463,
        -0.06027451902627945,
        0.03344997018575668,
        0.35515740513801575,
        -0.012513908557593822,
        0.0012284672120586038,
        -1.5452154874801636,
        0.09248984605073929,
        0.9410737752914429,
        1.7896008491516113,
        -0.3764583468437195,
        -0.045630473643541336,
        0.4907800555229187,
        -0.008203194476664066,
        1.9856699705123901,
        -0.07553916424512863,
        0.14557138085365295,
        0.011666920967400074,
        0.8545405268669128,
        0.592890202999115,
        -0.15797282755374908,
        -0.025910932570695877,
        0.08329148590564728,
        -0.04258736968040466,
        0.39650338888168335,
        0.8679328560829163,
        -0.20559900999069214,
        -0.001283082994632423,
        0.8461180925369263,
        -0.051506686955690384,
        1.8710598945617676,
        1.049989104270935,
        -0.034604672342538834,
        0.004794541280716658,
        0.6901252865791321,
        -0.22834904491901398,
        -0.08470988273620605,
        0.0700383186340332,
        -0.5147255063056946,
        -0.0004604000714607537,
        0.24258655309677124,
        0.558967113494873,
        -0.12347489595413208,
        -0.10814087092876434,
        -0.003356733126565814,
        -0.04490559920668602,
        0.1838996261358261,
        -0.8758989572525024,
        0.28850850462913513,
        -0.011746993288397789,
        -0.04569233953952789,
        -0.23079341650009155,
        -0.045790210366249084,
        -0.06110408902168274,
        -0.23874254524707794,
        -0.09167331457138062,
        0.2629545032978058,
        0.2438836693763733,
        0.053216878324747086,
        0.02669772505760193,
        0.05819873511791229,
        0.04215874522924423,
        0.20857873558998108,
        -0.18746022880077362,
        0.13474419713020325,
        0.011130285449326038,
        -0.08202805370092392,
        0.0181198101490736,
        0.11250573396682739,
        0.005612976849079132,
        0.01321685966104269,
        0.05029606819152832,
        0.08258748799562454,
        -0.0680500939488411,
        -0.05505988746881485,
        -0.03676312789320946,
        0.14207446575164795,
        -0.003155189100652933,
        0.07511984556913376,
        0.03790038824081421,
        -0.052520669996738434,
        0.14431485533714294,
        0.2162623107433319,
        -0.04141397401690483,
        -0.010716519318521023,
        -0.18826064467430115,
        -1.9080983400344849,
        -0.02360403537750244,
        0.5461488366127014,
        1.2194613218307495,
        -0.31075605750083923,
        0.10991955548524857,
        0.12675972282886505,
        -0.051345109939575195,
        0.6788110136985779,
        -1.4532357454299927,
        0.3631332218647003,
        -0.1877286285161972,
        0.9427560567855835,
        0.8165446519851685,
        -0.11583442986011505,
        0.0724710151553154,
        0.38417214155197144,
        0.037799425423145294,
        -0.4124033451080322,
        -0.49102655053138733,
        -0.05786122381687164,
        0.03201555833220482,
        0.28862786293029785,
        -0.10001131892204285,
        0.2885322868824005,
        1.235154390335083,
        0.1848689764738083,
        -0.006647393573075533,
        0.8169264793395996,
        -0.049045685678720474,
        0.010971982032060623,
        0.04356267675757408,
        0.49063926935195923,
        0.09400325268507004,
        0.44511306285858154,
        0.9474853277206421,
        0.11004079133272171,
        0.025506600737571716,
        0.5741188526153564,
        -0.03653000295162201,
        1.884089469909668,
        1.1697014570236206,
        -0.04241057112812996,
        -0.044701043516397476,
        -0.011440582573413849,
        2.095027446746826,
        -0.021562524139881134,
        0.03476244583725929,
        -0.2956360876560211,
        -0.02679557353258133,
        -0.7241377830505371,
        -1.457832932472229,
        -0.10402332246303558,
        -0.039139386266469955,
        0.26309505105018616,
        -0.05173606052994728,
        -0.4370688796043396,
        2.332777976989746,
        -0.2905028462409973,
        -0.012641651555895805,
        2.4810638427734375,
        0.4904973804950714,
        0.01965389959514141,
        -0.025990011170506477,
        1.0563976764678955,
        -0.0957714095711708,
        -0.21283595263957977,
        -0.0869012102484703,
        0.31146353483200073,
        -0.1073569729924202,
        0.4072941541671753,
        0.26978158950805664,
        0.7776006460189819,
        1.606898307800293,
        -0.11852312088012695,
        0.056462764739990234,
        0.04077679291367531
      ],
      "weightsShape": [
        32,
        16
      ],
      "bias": [
        -0.2785782516002655,
        0,
        0.0003921575262211263,
        -0.009095229208469391,
        -0.04182378575205803,
        0.1776813417673111,
        0.4002239406108856,
        0.01069396547973156,
        0.01398385874927044,
        0.23400381207466125,
        -0.019866423681378365,
        0.7040737271308899,
        0.3259773552417755,
        0.0942903608083725,
        -0.0002240739413537085,
        0.2189396619796753
      ],
      "biasShape": [
        1,
        16
      ],
      "activation": "relu"
    },
    {
      "weights": [
        3.601330041885376,
        0.16173504292964935,
        0.05351821705698967,
        3.5731215476989746,
        0.05062686279416084,
        -1.3302483558654785,
        -2.4230282306671143,
        1.035078763961792,
        -0.12462735176086426,
        0.4813096821308136,
        -0.05517659708857536,
        -0.5937227606773376,
        4.084426403045654,
        -0.4783586263656616,
        0.0848461464047432,
        3.408642292022705
      ],
      "weightsShape": [
        16,
        1
      ],
      "bias": [
        -0.20966844260692596
      ],
      "biasShape": [
        1,
        1
      ],
      "activation": "sigmoid"
    }
  ],
  "learningRate": 0.001,
  "l2Lambda": 0.0001
}