{
  "__kind": "NeuralNet",
  "version": 1,
  "layers": [
    {
      "weights": [
        0.12633416056632996,
        0.0778069943189621,
        -0.15536829829216003,
        0.06747650355100632,
        -0.258608341217041,
        0.2696412205696106,
        0.06141785532236099,
        0.25633591413497925,
        -0.4005168080329895,
        0.06946076452732086,
        0.643927812576294,
        0.3944762647151947,
        -0.011015820316970348,
        -0.36429619789123535,
        -0.017047910019755363,
        -0.19144026935100555,
        -0.2917957901954651,
        0.2840111553668976,
        -0.43201944231987,
        -0.09108772873878479,
        -0.30234846472740173,
        -0.31222936511039734,
        -0.021987661719322205,
        0.30047252774238586,
        -0.3959561288356781,
        0.2610238790512085,
        0.09357502311468124,
        -0.2053299993276596,
        -0.08131486177444458,
        0.7414782047271729,
        0.3841441571712494,
        -0.003714947961270809,
        -0.1137358546257019,
        -0.07573184370994568,
        0.5417900085449219,
        -0.24780505895614624,
        0.03159373253583908,
        0.3402695953845978,
        0.04251674562692642,
        0.6298617720603943,
        -0.04051940143108368,
        -0.4017210602760315,
        -0.5661804676055908,
        -0.45397821068763733,
        -0.47419166564941406,
        -0.04619898274540901,
        0.2249031960964203,
        0.3691631555557251,
        -0.5860497951507568,
        0.24669575691223145,
        1.26058828830719,
        -0.21400059759616852,
        0.5332466959953308,
        0.3640328645706177,
        0.2524235248565674,
        0.12422092258930206,
        -0.06288687139749527,
        0.15164463222026825,
        0.679730236530304,
        0.2008165419101715,
        -0.00229489803314209,
        -0.7726678252220154,
        0.7355016469955444,
        -0.12427642196416855,
        -0.45734289288520813,
        0.6495627164840698,
        -0.37336355447769165,
        -0.6158366203308105,
        -0.5206852555274963,
        -0.20680713653564453,
        0.4116577208042145,
        -0.20388148725032806,
        0.4588322341442108,
        -0.051123958081007004,
        -0.34468287229537964,
        0.16542702913284302,
        0.09693502634763718,
        0.08488190919160843,
        0.7085374593734741,
        0.05450499430298805,
        0.1512603461742401,
        -0.9524174332618713,
        -0.47370240092277527,
        -0.511054515838623,
        0.07047586143016815,
        -0.3445679247379303,
        -0.4139561355113983,
        0.4684232473373413,
        -0.5201753377914429,
        0.1802806407213211,
        -0.4473406970500946,
        0.3606116473674774,
        0.33840540051460266,
        -0.2932243347167969,
        -0.1464681476354599,
        -0.502440333366394,
        -0.08209806680679321,
        -0.8053520917892456,
        -0.12794020771980286,
        -0.06074616312980652,
        0.3508967161178589,
        0.5632360577583313,
        0.07856202870607376,
        0.10168728977441788,
        0.15487094223499298,
        0.31496065855026245,
        0.08886788785457611,
        0.0016792606329545379,
        -0.24123777449131012,
        -0.5866317749023438,
        -0.16048415005207062,
        -0.1035333052277565,
        -0.07929578423500061,
        0.12555569410324097,
        -0.22629009187221527,
        -0.06437090039253235,
        0.061731621623039246,
        0.29984861612319946,
        0.04823095723986626,
        -0.171668142080307,
        -0.23132553696632385,
        -0.5233530402183533,
        -0.029137445613741875,
        0.057899121195077896,
        0.06625823676586151,
        -0.4133874177932739,
        -0.0818939283490181,
        -0.50670325756073,
        0.03485577926039696,
        0.10938182473182678,
        -0.2972032427787781,
        -0.03553689643740654,
        1.0055395364761353,
        -0.11256377398967743,
        0.3445505201816559,
        0.23512206971645355,
        0.28352779150009155,
        -0.27979224920272827,
        -0.30125692486763,
        -0.4952627420425415,
        -0.3305785655975342,
        0.2301219254732132,
        -0.6063991785049438,
        -0.1564587503671646,
        -0.17727221548557281,
        0.16110311448574066,
        -0.42909103631973267,
        0.1975221484899521,
        -0.06533444672822952,
        0.36981716752052307,
        0.6797127723693848,
        -0.03159258887171745,
        -0.3596045970916748,
        0.28300225734710693,
        0.4902336001396179,
        -0.09340637177228928,
        -0.27191224694252014,
        -0.07339312881231308,
        0.06294453144073486,
        0.5202451944351196,
        -0.5805901885032654,
        -0.4336368441581726,
        -0.2584744989871979,
        0.1589624434709549,
        0.32091429829597473,
        -0.6382211446762085,
        -0.5127902030944824,
        0.03425678238272667,
        0.2691152095794678,
        0.34494641423225403,
        -0.235373392701149,
        -0.38329899311065674,
        -0.12677334249019623,
        -0.19006220996379852,
        -0.18247371912002563,
        0.02970360778272152,
        -0.29996025562286377,
        0.03755892068147659,
        -0.22127047181129456,
        -0.08897069841623306,
        -0.09510637819766998,
        0.1562730073928833,
        0.15278564393520355,
        -0.1667749285697937,
        0.05272733420133591,
        -0.022442732006311417,
        -0.15629543364048004,
        -0.46520066261291504,
        -0.5051323771476746,
        0.12167013436555862,
        0.027451781556010246,
        -0.40373966097831726,
        0.08401858806610107,
        -0.20804612338542938,
        -0.22772690653800964,
        -0.4525499939918518,
        0.1993490308523178,
        -0.2480708360671997,
        0.4048742353916168,
        -0.1646256148815155,
        -0.32498428225517273,
        0.6598343253135681,
        -0.22221031785011292,
        0.27533799409866333,
        -0.7686175107955933,
        0.21259160339832306,
        -0.5294033288955688,
        -0.17513395845890045,
        -0.7115635275840759,
        -0.6805088520050049,
        0.3442690372467041,
        -0.025682780891656876,
        -0.44623783230781555,
        -0.3517361879348755,
        0.48821938037872314,
        0.15128517150878906,
        0.2090490460395813,
        0.043540045619010925,
        -0.29853713512420654,
        0.14181309938430786,
        -0.7293907403945923,
        -0.13403983414173126,
        0.2813686728477478,
        0.13692843914031982,
        -0.8018760681152344,
        -0.2882191240787506,
        0.44691893458366394,
        0.5583652853965759,
        -0.027372362092137337,
        -0.21669191122055054,
        0.45100876688957214,
        -0.14204609394073486,
        0.3875192701816559,
        -0.6147823929786682,
        0.012885871343314648,
        0.020473187789320946,
        0.2908703684806824,
        0.3694378733634949,
        -0.30448850989341736,
        0.44615650177001953,
        0.4156913757324219,
        -0.08978975564241409,
        -0.21616989374160767,
        0.02359604649245739,
        0.22105026245117188,
        0.19656004011631012,
        -0.5205810070037842,
        0.32645824551582336,
        -0.40187713503837585,
        -0.036599766463041306,
        0.2714868485927582,
        0.1936364620923996,
        0.02556920051574707,
        -0.42635637521743774,
        -0.18882721662521362,
        -0.1282557249069214,
        -0.5480454564094543,
        0.6923131942749023,
        0.9096378087997437,
        0.19267643988132477,
        0.03557216003537178,
        -0.3956405520439148,
        0.5494743585586548,
        0.05248725786805153,
        0.1843637228012085,
        -0.48436543345451355,
        -0.7118034362792969,
        0.27122122049331665,
        -0.2068621665239334,
        -0.0010110032744705677,
        -0.8007290959358215,
        -0.16095009446144104,
        -0.22381578385829926,
        0.11146557331085205,
        -0.8661348819732666,
        -0.1536642462015152,
        -0.2880480885505676,
        -0.30972641706466675,
        0.4087611436843872,
        -0.2500653862953186,
        -0.5218858122825623,
        -0.12093666195869446,
        0.1308729648590088,
        -0.514632523059845,
        0.044280972331762314,
        -0.31316903233528137,
        0.5967008471488953,
        0.19921794533729553,
        -0.13349372148513794,
        -0.12914824485778809,
        0.002428327687084675,
        0.02711714617908001,
        -0.1683179885149002,
        -0.013951300643384457,
        0.329877108335495,
        -0.08109668642282486,
        -0.6845353841781616,
        0.18252123892307281,
        0.16373664140701294,
        0.04991670325398445,
        -0.5145408511161804,
        0.273336797952652,
        0.027570582926273346,
        0.17623111605644226,
        0.23437239229679108,
        0.7081717848777771,
        0.23194806277751923,
        0.3813658058643341,
        1.0199568271636963,
        -0.18141844868659973,
        -0.37913668155670166,
        -0.2494840770959854,
        0.4158094525337219,
        0.2938968539237976,
        0.13356389105319977,
        0.1324799358844757,
        -0.1371309608221054,
        -0.12097707390785217,
        0.39508482813835144,
        0.2138596922159195,
        -0.3010188639163971,
        0.4926433265209198,
        -0.260457843542099,
        0.26871582865715027,
        -0.3335760831832886,
        -0.13711337745189667,
        -0.13298118114471436,
        -0.15094441175460815,
        0.25635623931884766,
        0.2634485960006714,
        0.3206144869327545,
        0.7492855787277222,
        -0.5248593091964722,
        0.7947975397109985,
        -0.9975131154060364,
        -0.11313177645206451,
        0.33014360070228577,
        0.2598388195037842,
        -0.33298248052597046,
        0.3217814564704895,
        -0.10512908548116684,
        -0.08068083226680756,
        0.04025481268763542,
        0.23779070377349854,
        -0.2666156589984894,
        0.29842036962509155,
        -0.4048028290271759,
        -0.39473944902420044,
        -0.36264410614967346,
        -0.5530073642730713,
        0.02386782318353653,
        0.1556444764137268,
        0.8383647203445435,
        0.34070247411727905,
        0.07641831785440445,
        0.290775865316391,
        -0.358610600233078,
        0.4686313271522522,
        0.10018354654312134,
        -0.06925251334905624,
        0.2734181582927704,
        -0.2799602150917053,
        -0.15050318837165833,
        0.13315634429454803,
        -0.27977123856544495,
        0.07647362351417542,
        -0.4497753381729126,
        -0.4508258104324341,
        0.14054569602012634,
        -0.28541335463523865,
        0.05709496885538101,
        0.3452434539794922,
        -0.08980747312307358,
        -0.32396769523620605,
        0.26110395789146423,
        -0.31573325395584106,
        -0.44626384973526,
        -0.341857373714447,
        -0.5207935571670532,
        0.5975059866905212,
        -0.8712342381477356,
        0.11368461698293686,
        -0.24600636959075928,
        0.04658162593841553,
        -0.09151609241962433,
        -0.18670450150966644,
        0.31049102544784546,
        -0.021647825837135315,
        0.1454380750656128,
        0.2977520525455475,
        0.2024359554052353,
        -0.06628149002790451,
        -0.729641318321228,
        -0.24437807500362396,
        0.5034719705581665,
        -0.5307270884513855,
        0.1483549028635025,
        -0.2936939001083374,
        0.06247672811150551,
        0.23855823278427124,
        -0.3077254891395569,
        0.33229339122772217,
        -0.41126805543899536,
        -0.33334553241729736,
        0.12621815502643585,
        -0.6128602623939514,
        0.06500030308961868,
        -0.41564661264419556,
        0.5944033265113831,
        0.32106199860572815,
        -0.28546738624572754,
        -0.1708657145500183,
        -0.2327752262353897,
        -0.02963702566921711,
        -0.03622610121965408,
        -0.14944511651992798,
        -0.07053504139184952,
        0.011350813321769238,
        0.01828138343989849,
        -0.47482967376708984,
        0.3073069751262665,
        -0.3140188455581665,
        -0.09471869468688965,
        0.12243663519620895,
        0.08004535734653473,
        0.15553705394268036,
        -0.24709473550319672,
        0.5098962783813477,
        -0.05988038331270218,
        -0.14249105751514435,
        -0.2079993486404419,
        0.2351609170436859,
        -0.5259947180747986,
        -0.6928650736808777,
        -0.1915695071220398,
        -0.0231257863342762,
        -0.6626085042953491,
        -0.13066384196281433,
        0.09449011832475662,
        -0.39673879742622375,
        -0.1353350281715393,
        0.07792568951845169,
        0.4604777693748474,
        0.42043977975845337,
        0.45631542801856995,
        0.09151441603899002,
        0.4031498432159424,
        -0.20423156023025513,
        -0.674228847026825,
        -0.7803073525428772,
        -0.3175782859325409,
        0.2911800742149353,
        -0.02129414677619934,
        0.21643026173114777,
        0.08405883610248566,
        -0.015381070785224438,
        -0.6290454864501953,
        -0.11843287944793701,
        0.2756761610507965,
        0.20491376519203186,
        -0.006905028596520424,
        -0.1680835485458374,
        -0.2657347619533539,
        -0.18433037400245667,
        -0.5049797296524048,
        -0.03735536336898804,
        -0.0036174426786601543,
        -0.0035122346598654985,
        -0.4684107005596161,
        0.532201886177063,
        -0.1607207953929901,
        0.07112377136945724,
        -0.22772541642189026,
        -0.11363391578197479,
        0.21260225772857666,
        0.45347219705581665,
        0.2702553868293762,
        0.24003750085830688,
        -0.6040229201316833,
        -0.20121081173419952,
        -0.44606146216392517,
        0.6798896193504333,
        -0.23074756562709808,
        0.8751821517944336,
        -0.230155348777771,
        -0.3166133463382721,
        -0.10133672505617142,
        -0.6208656430244446,
        -0.013185949996113777,
        -0.2834227383136749,
        -0.10251083970069885,
        0.20661117136478424,
        0.1783389300107956,
        -0.15477660298347473,
        -0.11271867901086807,
        -0.016984403133392334,
        -0.15489403903484344,
        -0.35461199283599854,
        0.469876229763031,
        -0.20760034024715424,
        -0.44570961594581604,
        0.3017238676548004,
        0.34931933879852295,
        -0.12785372138023376,
        -0.10152113437652588,
        0.3577728569507599,
        -0.28791096806526184,
        0.5118103623390198,
        -0.361715167760849,
        0.09889304637908936,
        -0.27538153529167175,
        0.3467632234096527,
        -0.5642267465591431,
        0.5624403953552246,
        -0.08568301051855087,
        -0.7354100346565247,
        -0.4044431447982788,
        0.1655859351158142,
        0.4194619059562683,
        -0.42798760533332825,
        -0.019782662391662598,
        -0.28545939922332764,
        -0.42990535497665405,
        0.5287343263626099,
        0.4634721577167511,
        -0.4091663956642151,
        -0.26716238260269165,
        0.4903384745121002,
        -0.4147808849811554,
        -0.5808449387550354,
        -0.516762912273407,
        -0.3152358829975128,
        0.05467572063207626,
        0.11713487654924393,
        0.48224085569381714,
        -0.5278578996658325,
        0.3019881844520569,
        -0.21411246061325073,
        -0.3993137776851654,
        -0.25535136461257935,
        -0.3877647817134857,
        -0.026801113039255142,
        -0.37420329451560974,
        0.1465729922056198,
        0.08533433079719543,
        0.5945574045181274,
        -0.06805628538131714,
        0.19388410449028015,
        -0.02372179739177227,
        -0.351058691740036,
        0.3548677861690521,
        0.8012492060661316,
        0.18433184921741486,
        -0.10871630907058716,
        -0.1276572048664093,
        0.25123855471611023,
        -0.21103088557720184,
        -0.05481976270675659,
        0.01093953475356102,
        -0.06970254331827164,
        0.36295950412750244,
        -0.17438986897468567,
        0.20705679059028625,
        -0.3583771586418152,
        0.02237832546234131,
        -0.02253197878599167,
        -0.18417568504810333,
        0.05211655795574188,
        -0.3685704171657562,
        0.15061017870903015,
        0.33512431383132935,
        -0.1933603137731552,
        -0.049387961626052856,
        -0.15189877152442932,
        -0.7043803334236145,
        -0.6244603395462036,
        -0.2486153095960617,
        -0.09781062602996826,
        0.27358612418174744,
        0.5315033793449402,
        0.2103143036365509,
        0.1587492674589157,
        -0.13318435847759247,
        0.03441745787858963,
        0.30307143926620483,
        0.5884600877761841,
        -0.0733293816447258,
        -0.3409884572029114,
        0.19076530635356903,
        -0.07167869806289673,
        -0.5671512484550476,
        -0.24056057631969452,
        -0.04714742675423622,
        -0.19733022153377533,
        -0.030848858878016472,
        0.058287955820560455,
        0.04036584869027138,
        -0.05372766777873039,
        0.06723293662071228,
        0.10172450542449951,
        0.2319416105747223,
        0.3458118140697479,
        0.6160591840744019,
        0.39829501509666443,
        -0.05094031244516373,
        -0.28139445185661316,
        -0.1519036442041397,
        -0.5817996859550476,
        -0.07865851372480392,
        0.3674178719520569,
        -0.17343133687973022,
        0.21176867187023163,
        -0.05256844684481621,
        0.4808148741722107,
        0.6321036219596863,
        0.128053218126297,
        -0.2970125377178192,
        -0.27528202533721924,
        -0.4562610685825348,
        0.5568872690200806,
        0.015703408047556877,
        0.006652125623077154,
        0.6762032508850098,
        -0.5338375568389893,
        0.07850880175828934,
        -0.0201016403734684,
        0.04740261286497116,
        -0.3761599361896515,
        0.21876147389411926,
        -0.4089593291282654,
        -0.07854098826646805,
        0.10701142996549606,
        -0.2284267246723175,
        -0.3294973075389862,
        -0.41024476289749146,
        -0.01351182535290718,
        0.006264709401875734,
        0.011118188500404358,
        0.26646488904953003,
        -0.22755399346351624,
        0.20277099311351776,
        0.23153293132781982,
        -0.25368091464042664,
        0.7401341199874878,
        -0.23188035190105438,
        0.3075532913208008,
        -0.31123706698417664,
        0.01725124381482601,
        0.25604578852653503,
        0.12308156490325928,
        -0.06603629142045975,
        -0.040484875440597534,
        -0.33815133571624756,
        0.5704982280731201,
        -0.017508458346128464,
        -0.47529834508895874,
        0.6214265823364258,
        -0.6146535277366638,
        -0.10611377656459808,
        -0.22918075323104858,
        -0.32325705885887146,
        -0.35990652441978455,
        0.3353603482246399,
        0.05019737780094147,
        0.01985180750489235,
        0.28826215863227844,
        -0.27060970664024353,
        -0.38902515172958374,
        0.6816117167472839,
        -0.176589697599411,
        0.22387944161891937,
        0.25234124064445496,
        0.2735694646835327,
        0.25062134861946106,
        -0.018378157168626785,
        -0.33397960662841797,
        -0.004534903448075056,
        0.41271406412124634,
        0.34645435214042664,
        0.10776001960039139,
        0.1466328501701355,
        -0.2215060442686081,
        -0.21589763462543488,
        0.10943319648504257,
        -0.41407540440559387,
        -0.389232337474823,
        0.08180180191993713,
        -0.026619547978043556,
        0.020381396636366844,
        -0.1994662880897522,
        0.12245012074708939,
        -0.09401588141918182,
        -0.16126704216003418,
        0.17103980481624603,
        -0.0712488666176796,
        -0.20274223387241364,
        -0.13498026132583618,
        -0.2853474020957947,
        -0.028461311012506485,
        0.33300480246543884,
        0.6334585547447205,
        0.645190954208374,
        -0.09053511917591095,
        0.20983465015888214,
        -0.3277519643306732,
        0.14785492420196533,
        0.07622425258159637,
        0.6137785911560059,
        -0.4348406195640564,
        0.6950821876525879,
        0.5088083744049072,
        0.16504493355751038,
        0.36283573508262634,
        -0.171098992228508,
        -0.0978456437587738,
        0.07427877187728882,
        0.10666872560977936,
        0.5688016414642334,
        -0.4357862174510956,
        -0.14454951882362366,
        0.40354636311531067,
        0.31257185339927673,
        -0.3962290585041046,
        0.501553475856781,
        -0.2942667007446289,
        0.5710155963897705,
        -0.4848240911960602,
        0.01587209850549698,
        0.373704731464386,
        -0.12646247446537018,
        -0.5260514616966248,
        -0.5616074800491333,
        0.05009288713335991,
        0.2845536470413208,
        0.5533203482627869,
        -0.5268945693969727,
        -0.3490520119667053,
        -0.13761407136917114,
        0.04624047502875328,
        0.18953534960746765,
        0.13837769627571106,
        0.06672989577054977,
        0.293037086725235,
        0.0644933357834816,
        -0.34060412645339966,
        0.3583873510360718,
        -0.05230722203850746,
        0.42724305391311646,
        0.3075694441795349,
        0.08880870044231415,
        -0.2634650468826294,
        0.1663665920495987,
        0.0016404042253270745,
        0.32311537861824036,
        0.013825635425746441,
        -0.20909371972084045,
        0.0014525841688737273,
        -0.6887227296829224,
        -0.662677526473999,
        0.09467599540948868,
        0.38740742206573486,
        -0.2182069569826126,
        -0.311344712972641,
        -0.504072904586792,
        0.42028841376304626,
        -0.23890474438667297,
        0.12140274047851562,
        0.6102073192596436,
        0.4137079119682312,
        0.132668137550354,
        0.17796964943408966,
        -0.12993177771568298,
        -0.8812454342842102,
        0.39923036098480225,
        0.1670181155204773,
        0.1713373064994812,
        -0.30794137716293335,
        0.4252259135246277,
        0.0855824425816536,
        0.0024604289792478085,
        0.23001281917095184,
        0.5280752778053284,
        0.13443072140216827,
        0.1705467700958252,
        -0.2521621286869049,
        0.001908587757498026,
        0.06649158895015717,
        -0.00933827180415392,
        -0.09695452451705933,
        0.15125150978565216,
        -0.27362895011901855,
        0.5587510466575623,
        -0.23394736647605896,
        -0.4329569637775421,
        -0.1608019322156906,
        0.14638108015060425,
        -0.22719188034534454,
        0.33994582295417786,
        0.3609102964401245,
        -0.19711071252822876,
        0.22551289200782776,
        0.33379483222961426,
        0.2822452485561371,
        -0.19483934342861176,
        -0.11084244400262833,
        0.06824814528226852,
        0.04465917497873306,
        -0.5173208117485046,
        -0.06449161469936371,
        -0.19363489747047424,
        -0.4532260298728943,
        0.06521651148796082,
        -0.41077473759651184,
        0.5386373400688171,
        -0.30245503783226013,
        0.059666067361831665,
        -0.25194716453552246,
        -0.02769663743674755,
        0.08823905140161514,
        -0.24703696370124817,
        0.3076747953891754,
        -0.6165445446968079,
        -0.34973692893981934,
        -0.029943576082587242,
        -0.23589815199375153,
        0.21847090125083923,
        -0.23809534311294556,
        0.3745978772640228,
        -0.010556932538747787,
        0.12519234418869019,
        0.15286076068878174,
        -0.19660334289073944,
        -0.20313426852226257,
        0.14187122881412506,
        -0.2679201364517212,
        -0.10588368773460388,
        0.3314031958580017,
        -0.25766754150390625,
        0.29726168513298035,
        0.1354849487543106,
        -0.00946560688316822,
        -0.03750883415341377,
        0.0693286657333374,
        -0.29138416051864624,
        -0.47460994124412537,
        -0.5457298159599304,
        -0.0563594214618206,
        0.3541828393936157,
        -0.06409478932619095,
        0.392631471157074,
        0.28220024704933167,
        0.48587480187416077,
        -0.28229033946990967,
        0.36293959617614746,
        0.4617919325828552,
        0.08844900876283646,
        -0.03951876237988472,
        0.131073996424675,
        -0.03137853741645813,
        0.37341049313545227,
        0.047546613961458206,
        0.00621480168774724,
        0.17330694198608398,
        -0.017913030460476875,
        0.27231037616729736,
        0.16215109825134277,
        0.00974844116717577,
        -0.12759824097156525,
        -0.19153305888175964,
        -0.5983485579490662,
        -0.5431573390960693,
        0.13399545848369598,
        -0.06960660964250565,
        0.3485390841960907,
        0.27520647644996643,
        0.885438084602356,
        -0.1888602375984192,
        0.4326837360858917,
        0.07589714974164963,
        0.1974465399980545,
        -0.02488088421523571,
        -0.13585738837718964,
        -0.2871978282928467,
        0.6945041418075562,
        0.3353387117385864,
        0.000272265519015491,
        -0.04669041186571121,
        0.7252748012542725,
        -0.14274580776691437,
        -0.2694568336009979,
        0.2221096307039261,
        0.12554316222667694,
        0.6009920835494995,
        -0.4259289503097534,
        -0.31273794174194336,
        0.8426933288574219,
        -0.19235184788703918,
        0.37257447838783264,
        -0.5376136898994446,
        0.4663524031639099,
        -0.3886239528656006,
        0.21780814230442047,
        -0.3332248032093048,
        0.0712418258190155,
        -0.057607945054769516,
        -0.1263439655303955,
        -0.07682473957538605,
        -0.34454023838043213,
        0.3545118570327759,
        0.037185948342084885,
        0.18909001350402832,
        -0.3835991621017456,
        0.1678551584482193,
        -0.505426287651062,
        -0.11633621156215668,
        0.3938850164413452,
        0.05696719512343407,
        0.7642093896865845,
        0.08189583569765091,
        0.32842686772346497,
        -0.19530895352363586,
        -0.2536371052265167,
        0.19551154971122742,
        -0.6239157319068909,
        0.27104005217552185,
        0.3671998977661133,
        0.1264226734638214,
        0.05561066418886185,
        -0.05132266879081726,
        0.11699774861335754,
        0.036772292107343674,
        -0.3808690011501312,
        -0.09531945735216141,
        0.05261630564928055,
        0.6555314064025879,
        0.055281855165958405,
        0.7105618715286255,
        0.08216806501150131,
        -0.5844050645828247,
        0.11288946866989136,
        -0.27031633257865906,
        -0.5486809611320496,
        0.1344127058982849,
        -0.5003167986869812,
        -0.14598479866981506,
        0.8124720454216003,
        -0.28964725136756897,
        -0.24238257110118866,
        -0.644303023815155,
        -0.3935569226741791,
        -0.4393070638179779,
        -0.12993872165679932,
        0.24169881641864777,
        -0.9013674855232239,
        -0.301964670419693,
        0.058922987431287766,
        0.1261589676141739,
        0.09214785695075989,
        0.09778306633234024,
        0.05647490173578262,
        0.8298330903053284,
        0.04442640393972397,
        -0.5163077116012573,
        -0.1531040072441101,
        0.05489717051386833,
        0.14501823484897614,
        0.6035325527191162,
        -0.7658343315124512,
        0.053642962127923965,
        0.25352945923805237,
        -0.12611699104309082,
        -0.5187743902206421,
        -0.07079309970140457,
        0.2758118212223053,
        0.04255479946732521,
        0.9452277421951294,
        -0.11782289296388626,
        0.33013367652893066,
        -0.23658737540245056,
        0.11022523790597916,
        0.024371011182665825,
        0.02345486916601658,
        0.025615040212869644,
        -0.9822614789009094,
        -0.015058047138154507,
        0.16439729928970337,
        0.07223445177078247,
        0.3005582392215729,
        -0.05075816437602043,
        -0.19346439838409424,
        -0.0008738801116123796,
        -0.29909905791282654,
        0.6040448546409607,
        -0.36263447999954224,
        -0.5418199300765991,
        0.16599513590335846,
        -0.2167387157678604,
        0.02381342463195324,
        0.4795105457305908,
        0.31099066138267517,
        0.02482254058122635,
        -0.04201886057853699,
        0.32439568638801575,
        -0.23007546365261078,
        0.23366808891296387,
        0.4292930066585541,
        -0.44173377752304077,
        0.19525451958179474,
        -0.5049569010734558,
        0.44036340713500977,
        0.5112207531929016,
        0.3528785705566406,
        -0.5598153471946716,
        -0.21267665922641754,
        -0.3918010890483856,
        0.3296479880809784,
        -0.09435553848743439,
        0.11055654287338257,
        0.24909724295139313,
        -0.20236386358737946,
        0.3216840326786041,
        -0.25206461548805237,
        -0.44550925493240356,
        0.3544074594974518,
        -0.3963496685028076,
        0.40750184655189514,
        -0.11018840968608856,
        0.5301780700683594,
        -0.22288651764392853,
        -0.33881524205207825,
        0.3704758286476135,
        -0.1461770087480545,
        0.6747459769248962,
        -0.26583626866340637,
        -0.5245254635810852,
        -0.6918043494224548,
        -0.3068563640117645,
        -0.10544358193874359,
        -0.10232332348823547,
        0.39154231548309326,
        -0.03564607352018356,
        0.14698843657970428,
        0.5902824997901917,
        0.4687911570072174,
        0.20247812569141388,
        0.3850304186344147,
        0.6413817405700684,
        -0.2860642671585083,
        -0.2229667752981186,
        0.13572052121162415,
        0.5175629258155823,
        -0.2691628038883209,
        0.2600928843021393,
        -0.03720877319574356,
        -0.06358377635478973,
        0.5275868773460388,
        -0.8887571096420288,
        0.48328351974487305,
        0.014913645572960377,
        0.3263148367404938,
        -0.08309140056371689,
        -0.10411205142736435,
        0.0006563887582160532,
        0.24118873476982117,
        0.05178944021463394,
        -0.18891669809818268,
        0.08133568614721298,
        0.017373472452163696,
        0.10207007825374603,
        -0.07553046196699142,
        -0.22688177227973938,
        -0.008686855435371399,
        0.1331917941570282,
        0.09436537325382233,
        0.03766382485628128,
        -0.1310141682624817,
        0.07199497520923615,
        0.02821621485054493,
        -0.10687469691038132,
        -0.015103768557310104,
        0.3242310881614685,
        0.0791865810751915,
        0.10785097628831863,
        -0.47676408290863037,
        0.4232293367385864,
        -0.18449841439723969,
        -0.009600389748811722,
        0.12565144896507263
      ],
      "weightsShape": [
        17,
        64
      ],
      "bias": [
        0,
        0.023185649886727333,
        -0.0009194362792186439,
        0.0321301594376564,
        -0.0003409158962313086,
        0.0016436426667496562,
        -0.009258483536541462,
        -0.0065073841251432896,
        0.013464425690472126,
        0.05161331593990326,
        -0.0061073144897818565,
        0.008035862818360329,
        0.11431603878736496,
        0.008620286360383034,
        0,
        -0.016664624214172363,
        0.014478507451713085,
        0.03499295562505722,
        0,
        0.025468802079558372,
        0,
        -0.003974403254687786,
        0.0667499229311943,
        0.06688770651817322,
        0.06652282178401947,
        -0.04569756239652634,
        0.046176712960004807,
        0.0010028124088421464,
        0.08428218960762024,
        0.02927621640264988,
        0.0036762685049325228,
        0.02301202155649662,
        -0.007130774203687906,
        -0.005203430075198412,
        -0.019679328426718712,
        0.03941871225833893,
        0.012520581483840942,
        0.10889237374067307,
        0.02125089056789875,
        -0.008005098439753056,
        -0.007608024403452873,
        0.006995776668190956,
        0,
        0.061342764645814896,
        -0.0018253722228109837,
        0.025384163483977318,
        0.006625324487686157,
        0.03184021636843681,
        0.06003912538290024,
        0.04943571612238884,
        0.019983841106295586,
        0.013763943687081337,
        0.0078043751418590546,
        0,
        0,
        0.059838276356458664,
        -0.04925331100821495,
        -0.007665312383323908,
        -0.020890068262815475,
        0.06113314628601074,
        0.05106483772397041,
        -0.000788167817518115,
        -0.008434399962425232,
        0.042040400207042694
      ],
      "biasShape": [
        1,
        64
      ],
      "activation": "relu"
    },
    {
      "weights": [
        0.05635683983564377,
        0.0867559015750885,
        -0.1016518846154213,
        0.04403439164161682,
        0.007143995258957148,
        -0.04037623479962349,
        -0.008326632902026176,
        0.30542826652526855,
        -0.25802814960479736,
        0.26023074984550476,
        -0.11223049461841583,
        -0.18269450962543488,
        0.09212801605463028,
        0.15368004143238068,
        0.12271866947412491,
        0.11055327206850052,
        0.015897801145911217,
        0.306919664144516,
        0.19763405621051788,
        0.12542982399463654,
        0.06983774900436401,
        -0.14110061526298523,
        0.11492276936769485,
        -0.18895845115184784,
        0.099372997879982,
        0.32512474060058594,
        -0.11050581187009811,
        -0.14708782732486725,
        0.09463661909103394,
        -0.021635795012116432,
        0.19876644015312195,
        0.07776874303817749,
        0.04696327820420265,
        -0.1194380596280098,
        0.2649729549884796,
        0.4584788680076599,
        0.28899121284484863,
        -0.1823669821023941,
        -0.1954442262649536,
        0.1351947784423828,
        0.05280597135424614,
        0.03184321150183678,
        -0.3877001106739044,
        0.06071990728378296,
        -0.11166195571422577,
        0.01674569770693779,
        -0.180026575922966,
        0.2813877761363983,
        0.012824988923966885,
        0.1589394062757492,
        0.0003231550508644432,
        -0.24369408190250397,
        0.17302045226097107,
        0.14485381543636322,
        -0.172721728682518,
        -0.05902877822518349,
        -0.17885896563529968,
        -0.017975270748138428,
        0.014054553583264351,
        -0.232914999127388,
        -0.08178970217704773,
        0.28495723009109497,
        0.0014621000736951828,
        -0.07249927520751953,
        0.004326860420405865,
        -0.07480897754430771,
        0.08251026272773743,
        0.05463061481714249,
        -0.0030246705282479525,
        -0.24755029380321503,
        -0.030199049040675163,
        0.017219863831996918,
        -0.06594590097665787,
        -0.2422143667936325,
        0.33222293853759766,
        -0.239975705742836,
        0.11023427546024323,
        -0.03252452611923218,
        -0.14918991923332214,
        0.026211226359009743,
        -0.14511170983314514,
        -0.10492163896560669,
        -0.2783629298210144,
        -0.04313482344150543,
        0.1977321058511734,
        -0.2989010214805603,
        0.14308513700962067,
        0.15236447751522064,
        0.05024253949522972,
        -0.5040170550346375,
        -0.13664987683296204,
        -0.08875623345375061,
        0.236996129155159,
        -0.19427692890167236,
        0.1239609345793724,
        -0.039169665426015854,
        0.3719709515571594,
        0.24781014025211334,
        0.20272009074687958,
        0.0965869277715683,
        -0.03635866940021515,
        -0.04121672734618187,
        0.21111111342906952,
        -0.09793698787689209,
        -0.00020690525707323104,
        0.0359078049659729,
        -0.07561399787664413,
        0.05826536938548088,
        -0.09695650637149811,
        0.04603816196322441,
        0.06694301962852478,
        -0.35131338238716125,
        0.00202046032063663,
        0.11358268558979034,
        -0.16861680150032043,
        0.2516642212867737,
        0.21338212490081787,
        -0.2628471255302429,
        0.0747467577457428,
        0.21855302155017853,
        0.010163829661905766,
        0.05628195405006409,
        -0.20494714379310608,
        -0.02226027473807335,
        -0.18959753215312958,
        0.03920692577958107,
        0.07257609814405441,
        0.26488274335861206,
        0.1177833080291748,
        0.14602352678775787,
        0.13926063477993011,
        -0.08858596533536911,
        -0.27342087030410767,
        -0.07943392544984818,
        -0.0385064072906971,
        -0.16040195524692535,
        0.02851426787674427,
        0.13210757076740265,
        -0.10539167374372482,
        0.040172040462493896,
        0.057662297040224075,
        0.0068582515232264996,
        0.2592524588108063,
        -0.14679023623466492,
        0.17490628361701965,
        0.1189376711845398,
        0.4221189618110657,
        0.08290119469165802,
        -0.038951627910137177,
        -0.10360866039991379,
        -0.2915343940258026,
        -0.1120101809501648,
        -0.05152787268161774,
        -0.09886010736227036,
        0.35453376173973083,
        0.16302788257598877,
        0.08148517459630966,
        -0.11283576488494873,
        0.1533505767583847,
        0.02506042830646038,
        -0.02137001045048237,
        -0.3857114613056183,
        0.15965761244297028,
        -0.19196517765522003,
        -0.30782848596572876,
        0.0984172448515892,
        0.15275926887989044,
        -0.037635594606399536,
        0.26584506034851074,
        0.2652304768562317,
        0.1807551234960556,
        -0.2317453920841217,
        0.016196589916944504,
        -0.22975726425647736,
        -0.09435496479272842,
        0.002169634448364377,
        0.03671262040734291,
        0.4436146318912506,
        -0.13024196028709412,
        0.023468054831027985,
        -0.5074795484542847,
        -0.44317907094955444,
        0.029033096507191658,
        -0.30338606238365173,
        0.15132753551006317,
        0.004364604130387306,
        -0.05598745122551918,
        0.08336932957172394,
        -0.004397955257445574,
        0.07271744310855865,
        0.3117906153202057,
        -0.13720904290676117,
        -0.12514404952526093,
        -0.01722036488354206,
        -0.23258782923221588,
        0.1432572901248932,
        0.2118709236383438,
        -0.046945493668317795,
        -0.12717205286026,
        0.08021683245897293,
        0.20455841720104218,
        0.024273386225104332,
        -0.042166389524936676,
        0.4256356954574585,
        0.07439649105072021,
        0.46259352564811707,
        0.1361587643623352,
        0.13601642847061157,
        0.12192299962043762,
        -0.16672822833061218,
        0.039461299777030945,
        -0.022542370483279228,
        -0.043258681893348694,
        0.18963244557380676,
        -0.08907008171081543,
        -0.06158623471856117,
        0.11059380322694778,
        0.154180109500885,
        0.1889188438653946,
        -0.19745860993862152,
        0.08003223687410355,
        0.08748817443847656,
        -0.11907868832349777,
        -0.07766009122133255,
        -0.27324390411376953,
        0.13618193566799164,
        -0.02198607474565506,
        0.21193453669548035,
        0.1583065539598465,
        -0.19754287600517273,
        -0.012183728627860546,
        -0.05894085392355919,
        -0.09658663719892502,
        -0.057486917823553085,
        0.04080830514431,
        -0.03776386007666588,
        0.09151387214660645,
        0.26861122250556946,
        0.12966026365756989,
        0.308815598487854,
        -0.15002389252185822,
        0.2021886110305786,
        -0.32854071259498596,
        0.14306724071502686,
        0.29984867572784424,
        -0.17962221801280975,
        0.0773865357041359,
        -0.15728652477264404,
        0.11460372060537338,
        0.12467683851718903,
        0.056302260607481,
        -0.12127291411161423,
        -0.0038748029619455338,
        0.12754203379154205,
        -0.11714034527540207,
        -0.2145967334508896,
        0.055030856281518936,
        -0.010466624051332474,
        -0.2468213140964508,
        0.17471997439861298,
        0.35159626603126526,
        0.22845657169818878,
        -0.08694814145565033,
        0.050373464822769165,
        -0.028676217421889305,
        -0.04416290670633316,
        0.20242641866207123,
        -0.011806529015302658,
        -0.16331203281879425,
        0.05429529771208763,
        0.0363682322204113,
        -0.29305151104927063,
        0.1860531121492386,
        0.34968891739845276,
        -0.11548040062189102,
        -0.05608239024877548,
        0.024184131994843483,
        0.11938046663999557,
        0.030237765982747078,
        -0.28331276774406433,
        0.14821088314056396,
        -0.10792987793684006,
        -0.011312378570437431,
        0.2123613953590393,
        0.14368803799152374,
        0.11155056953430176,
        -0.08590710908174515,
        0.2021271139383316,
        0.16702178120613098,
        -0.45556536316871643,
        0.06597648561000824,
        -0.18166019022464752,
        0.09271229058504105,
        0.07717619836330414,
        0.03919919952750206,
        0.2098729908466339,
        0.03250545263290405,
        0.3623196482658386,
        -0.05505932494997978,
        -0.0645458921790123,
        0.02188372053205967,
        0.011958039365708828,
        0.19924934208393097,
        -0.057575345039367676,
        -0.10950550436973572,
        -0.2640632390975952,
        -0.29939356446266174,
        0.5497339367866516,
        -0.05264055356383324,
        0.028230370953679085,
        -0.02711525559425354,
        0.1529722958803177,
        0.02048776112496853,
        -0.21232758462429047,
        -0.12652382254600525,
        0.07521156966686249,
        -0.07040686160326004,
        -0.13645926117897034,
        0.3960922062397003,
        -0.03950265794992447,
        -0.38535428047180176,
        0.031029442325234413,
        -0.11496911197900772,
        0.1408143788576126,
        -0.07094784826040268,
        -0.1268976330757141,
        0.031407780945301056,
        0.3671662509441376,
        -0.0011788371484726667,
        -0.013787024654448032,
        -0.17896223068237305,
        -0.10389922559261322,
        0.02995419315993786,
        -0.04962175711989403,
        -0.11448591947555542,
        -0.0909038856625557,
        0.26359823346138,
        0.00973427388817072,
        0.057070326060056686,
        0.057803306728601456,
        0.2710501253604889,
        -0.0687824934720993,
        0.09565221518278122,
        0.06323560327291489,
        0.001780994120053947,
        0.3640880882740021,
        -0.11443787068128586,
        -0.061101220548152924,
        -0.15138013660907745,
        0.025860600173473358,
        -0.03374764323234558,
        0.10381036251783371,
        0.05672121420502663,
        -0.18587835133075714,
        0.2808818221092224,
        0.07349413633346558,
        -0.2816926836967468,
        -0.3677200376987457,
        0.16095268726348877,
        -0.27836742997169495,
        0.11485031992197037,
        -0.24130818247795105,
        -0.2067117691040039,
        -0.1412513703107834,
        0.23269541561603546,
        -0.24479606747627258,
        -0.0047611333429813385,
        -0.12860018014907837,
        0.07191561907529831,
        -0.036700595170259476,
        0.006901671644300222,
        -0.1380745768547058,
        -0.14264407753944397,
        -0.3724077343940735,
        0.3647488057613373,
        0.2040804624557495,
        0.04220760986208916,
        -0.3049793839454651,
        0.25448542833328247,
        -0.07790589332580566,
        0.12193138897418976,
        0.19998286664485931,
        0.1707514524459839,
        -0.054031580686569214,
        0.11285416781902313,
        -0.014202035032212734,
        0.34101879596710205,
        0.022293871268630028,
        0.003707683412358165,
        -0.04614938795566559,
        -0.13189004361629486,
        0.21896900236606598,
        0.34689465165138245,
        0.03939663618803024,
        -0.0015288337599486113,
        0.09619738161563873,
        0.2708004415035248,
        -0.17113740742206573,
        -0.18920619785785675,
        0.09298595041036606,
        0.00727849779650569,
        -0.21211425960063934,
        -0.12673716247081757,
        -0.32557594776153564,
        -0.026535596698522568,
        0.023000886663794518,
        0.05238242819905281,
        -0.023810457438230515,
        0.00911895465105772,
        0.05328971520066261,
        0.039271943271160126,
        0.029678719118237495,
        0.13553261756896973,
        -0.11438947916030884,
        0.1520409882068634,
        -0.008062368258833885,
        -0.028299471363425255,
        0.2649741470813751,
        0.23495672643184662,
        -0.179101824760437,
        -0.1686936914920807,
        0.0642281174659729,
        0.10490830987691879,
        0.03653963655233383,
        0.11167845129966736,
        0.21558256447315216,
        -0.00481652095913887,
        -0.005966847762465477,
        0.1471383422613144,
        -0.08949350565671921,
        0.34777599573135376,
        0.28445523977279663,
        -0.18321889638900757,
        -0.07054036855697632,
        0.07779481261968613,
        0.26712778210639954,
        0.023414574563503265,
        -0.02167324908077717,
        0.08652318269014359,
        0.1230820044875145,
        0.12860172986984253,
        0.06423477083444595,
        0.001243195729330182,
        0.26530346274375916,
        -0.02455723285675049,
        -0.061125148087739944,
        0.06235458329319954,
        0.17946314811706543,
        0.04930119216442108,
        -0.034101393073797226,
        -0.053020086139440536,
        -0.09518325328826904,
        0.0836489126086235,
        -0.35706183314323425,
        0.22395475208759308,
        0.14481380581855774,
        0.035318829119205475,
        0.21052369475364685,
        -0.0589822456240654,
        -0.1829909086227417,
        -0.12512731552124023,
        0.32514888048171997,
        0.15234123170375824,
        -0.029773209244012833,
        0.14255091547966003,
        -0.09455496072769165,
        -0.006799483206123114,
        0.11385494470596313,
        0.05138958990573883,
        -0.2737329602241516,
        0.05314672365784645,
        0.3181658387184143,
        -0.05177374556660652,
        -0.03846650570631027,
        0.32878628373146057,
        0.14201806485652924,
        0.10203782469034195,
        -0.062256909906864166,
        -0.054213088005781174,
        -0.17014160752296448,
        -0.1621457189321518,
        -0.12335443496704102,
        -0.1900099217891693,
        0.23816125094890594,
        0.0016888733953237534,
        0.20944659411907196,
        -0.16510121524333954,
        -0.15781261026859283,
        0.08485004305839539,
        -0.28066152334213257,
        -0.2429673671722412,
        -0.07551741600036621,
        0.2246280312538147,
        -0.16026541590690613,
        0.02396565116941929,
        0.05001721903681755,
        -0.07875337451696396,
        -0.17632701992988586,
        -0.0631970763206482,
        -0.23301579058170319,
        0.017215320840477943,
        0.09425535053014755,
        0.17308956384658813,
        -0.03385867923498154,
        0.1284441351890564,
        0.17314493656158447,
        0.3272268772125244,
        -0.3041772246360779,
        0.17826233804225922,
        0.14943553507328033,
        0.14311450719833374,
        -0.32424312829971313,
        -0.025468774139881134,
        0.12322811037302017,
        0.07719283550977707,
        0.3573882579803467,
        -0.24610717594623566,
        -0.044732313603162766,
        -0.048413101583719254,
        0.27917686104774475,
        -0.15696074068546295,
        0.17341482639312744,
        -0.09447019547224045,
        -0.07023577392101288,
        0.26308444142341614,
        -0.21571233868598938,
        0.04257959499955177,
        -0.2064789980649948,
        -0.047387827187776566,
        0.028680097311735153,
        -0.24635085463523865,
        -0.1375715285539627,
        -0.1641080677509308,
        0.1866023987531662,
        0.05054081976413727,
        -0.28995373845100403,
        -0.055673543363809586,
        0.08620140701532364,
        -0.3032638132572174,
        -0.11492542177438736,
        0.12683366239070892,
        -0.24616475403308868,
        0.31329187750816345,
        0.07923167198896408,
        0.0880662128329277,
        -0.323382705450058,
        -0.01381911151111126,
        0.11096423864364624,
        0.08561098575592041,
        -0.09537524729967117,
        0.114816814661026,
        -0.20627936720848083,
        0.07302714884281158,
        -0.14654697477817535,
        0.30046507716178894,
        0.20853367447853088,
        0.1416161060333252,
        0.2333107888698578,
        -0.05241858959197998,
        0.1771318018436432,
        0.08547883480787277,
        0.17274299263954163,
        0.21255013346672058,
        0.3378344774246216,
        0.030855873599648476,
        0.3982536494731903,
        0.14097601175308228,
        0.1944229155778885,
        -0.06974577158689499,
        -0.17660482227802277,
        -0.08246440440416336,
        0.40309301018714905,
        -0.10665549337863922,
        0.058217838406562805,
        0.25938066840171814,
        0.026059847325086594,
        0.16592927277088165,
        0.028245940804481506,
        -0.011479279026389122,
        0.2623911201953888,
        -0.1656135767698288,
        -0.03525727242231369,
        0.36544856429100037,
        -0.3031279146671295,
        -0.2864540219306946,
        -0.12808208167552948,
        0.2667878568172455,
        0.05073738098144531,
        0.12772098183631897,
        -0.17527098953723907,
        -0.18795375525951385,
        0.19844113290309906,
        0.03356866538524628,
        0.2120274305343628,
        -0.10618364065885544,
        0.29207509756088257,
        -0.11557180434465408,
        0.198727086186409,
        0.1074768528342247,
        -0.41097939014434814,
        0.08566056936979294,
        0.003018394811078906,
        -0.13929052650928497,
        -0.02376832254230976,
        0.37961146235466003,
        -0.04956543445587158,
        0.24174408614635468,
        -0.010264893993735313,
        0.2531628906726837,
        0.3361394703388214,
        -0.20030692219734192,
        0.09901715815067291,
        0.010757224634289742,
        0.22038041055202484,
        0.11347270011901855,
        -0.20616090297698975,
        -0.20615924894809723,
        0.3180742561817169,
        0.12349092960357666,
        0.06502365320920944,
        0.07234349101781845,
        0.2732202410697937,
        0.01775939203798771,
        0.3794100284576416,
        -0.3675317168235779,
        0.07363403588533401,
        -0.1627798229455948,
        0.023262767121195793,
        -0.012929745949804783,
        0.26565155386924744,
        -0.21883520483970642,
        -0.2194848656654358,
        -0.04094519838690758,
        -0.027058223262429237,
        0.09842974692583084,
        0.17563962936401367,
        -0.018416453152894974,
        -0.20733822882175446,
        -0.004053969401866198,
        -0.29990801215171814,
        0.12031002342700958,
        0.1962754875421524,
        0.005034476052969694,
        -0.11633069068193436,
        -0.21640098094940186,
        -0.2861012816429138,
        -0.16956858336925507,
        0.4130438566207886,
        -0.10843517631292343,
        0.002494991524145007,
        -0.08211473375558853,
        -0.1995442807674408,
        -0.26545703411102295,
        -0.26337307691574097,
        0.029482224956154823,
        -0.07678084820508957,
        0.11448440700769424,
        -0.22072231769561768,
        0.0783141553401947,
        -0.13502401113510132,
        0.3036227226257324,
        0.10679814219474792,
        -0.027445325627923012,
        -0.06134195253252983,
        0.23740841448307037,
        -0.022669563069939613,
        0.21900682151317596,
        -0.3043704032897949,
        -0.14059892296791077,
        -0.15360291302204132,
        -0.0884225144982338,
        -0.3453786075115204,
        0.051418010145425797,
        -0.29424962401390076,
        -0.11631415784358978,
        0.0021336020436137915,
        -0.2920338213443756,
        0.217675119638443,
        0.07979485392570496,
        0.02245631255209446,
        -0.11269143223762512,
        -0.36688628792762756,
        0.04751335084438324,
        -0.0810990259051323,
        0.1979943960905075,
        0.0467989519238472,
        0.2706088721752167,
        0.13910235464572906,
        -0.041119419038295746,
        0.11267790198326111,
        0.032739777117967606,
        0.0570073127746582,
        0.01843470335006714,
        0.31432628631591797,
        -0.18908973038196564,
        -0.04825495928525925,
        0.0043577332980930805,
        -0.08542189002037048,
        0.04477573186159134,
        -0.08857272565364838,
        0.040133215487003326,
        0.13621944189071655,
        0.1574641466140747,
        -0.2770906090736389,
        0.008434083312749863,
        -0.022417033091187477,
        -0.13689829409122467,
        0.030763724818825722,
        0.2951125502586365,
        0.2412234991788864,
        0.10422538965940475,
        -0.08844418823719025,
        -0.028174305334687233,
        0.04089415818452835,
        -0.011314747855067253,
        0.10593122243881226,
        -0.2577698528766632,
        -0.022078849375247955,
        0.4698296785354614,
        0.011519155465066433,
        0.057448241859674454,
        -0.2583790421485901,
        -0.0766906663775444,
        0.21250596642494202,
        -0.10704483091831207,
        0.36188262701034546,
        -0.036649830639362335,
        -0.13893954455852509,
        -0.10386613756418228,
        0.15463575720787048,
        0.048343345522880554,
        0.01727132499217987,
        0.30642327666282654,
        -0.1155947670340538,
        0.07647867500782013,
        -0.33492928743362427,
        0.02614584192633629,
        0.1998698115348816,
        0.3343740999698639,
        0.44809195399284363,
        0.10926459729671478,
        0.036079585552215576,
        -0.14492730796337128,
        -0.25244393944740295,
        -0.05131801962852478,
        -0.26305362582206726,
        0.07526910305023193,
        -0.20226305723190308,
        0.04563277214765549,
        0.18538670241832733,
        -0.15294575691223145,
        -0.08237501233816147,
        -0.40122032165527344,
        -0.2084987759590149,
        0.06682649254798889,
        -0.13452382385730743,
        -0.1833980828523636,
        0.1622931957244873,
        0.1729477047920227,
        -0.03527143597602844,
        0.0075253830291330814,
        -0.22229690849781036,
        0.10287100076675415,
        0.191840261220932,
        0.14428946375846863,
        -0.22148478031158447,
        0.287540465593338,
        -0.08994413912296295,
        -0.018001403659582138,
        0.13788117468357086,
        0.28685447573661804,
        -0.2182808220386505,
        0.36513522267341614,
        -0.12909984588623047,
        0.11883489042520523,
        0.21568749845027924,
        0.061117023229599,
        0.3889774680137634,
        0.087257519364357,
        0.01863255351781845,
        0.14273570477962494,
        0.2308366596698761,
        0.2514652609825134,
        -0.20804953575134277,
        0.2476990520954132,
        0.11048229038715363,
        0.0008120490238070488,
        -0.15359684824943542,
        -0.3713791072368622,
        0.19211487472057343,
        -0.20115363597869873,
        0.04261249676346779,
        0.2250542789697647,
        -0.05471409484744072,
        0.25117114186286926,
        -0.21892808377742767,
        -0.40200889110565186,
        -0.27604928612709045,
        0.08216547220945358,
        -0.38977882266044617,
        0.04338182136416435,
        0.10467823594808578,
        -0.34611886739730835,
        0.0380886048078537,
        0.012988392263650894,
        0.11334178596735,
        0.11731518805027008,
        -0.2946600914001465,
        -0.1657571643590927,
        -0.07894813269376755,
        0.17538855969905853,
        -0.09719056636095047,
        -0.3134477734565735,
        -0.003836757270619273,
        0.020908359438180923,
        0.12531229853630066,
        0.21324902772903442,
        0.04609774425625801,
        0.028447195887565613,
        -0.08475418388843536,
        0.08067953586578369,
        -0.001846144674345851,
        0.2663385272026062,
        0.49994876980781555,
        0.4360540211200714,
        -0.22390948235988617,
        0.0048478953540325165,
        0.1562298685312271,
        0.2524687647819519,
        -0.35545313358306885,
        0.11879651248455048,
        -0.05670000612735748,
        0.295186311006546,
        -0.14888641238212585,
        0.1465042680501938,
        0.09750290215015411,
        -0.11024053394794464,
        -0.23048135638237,
        0.14385521411895752,
        -0.11912884563207626,
        0.11648142337799072,
        0.10877732187509537,
        0.006264878902584314,
        -0.04255102574825287,
        0.14208431541919708,
        -0.277371346950531,
        0.10487623512744904,
        0.3566494584083557,
        0.19402354955673218,
        0.07591898739337921,
        0.06037960201501846,
        0.04551148787140846,
        0.09189384430646896,
        -0.2635878622531891,
        0.24586263298988342,
        0.031313635408878326,
        0.1962112933397293,
        0.12667685747146606,
        -0.017363673076033592,
        0.023638436570763588,
        0.0275949127972126,
        -0.12987302243709564,
        -0.23207880556583405,
        -0.08777705579996109,
        -0.036817412823438644,
        0.004284439142793417,
        -0.034646037966012955,
        0.17140080034732819,
        0.23941712081432343,
        -0.10282876342535019,
        -0.18797917664051056,
        0.0969991460442543,
        0.10059433430433273,
        -0.11923056840896606,
        -0.26800063252449036,
        0.1659160852432251,
        0.1346941590309143,
        -0.14524661004543304,
        -0.038276080042123795,
        -0.04266464337706566,
        0.1235429123044014,
        0.01402280107140541,
        0.18937137722969055,
        0.13606271147727966,
        -0.38992100954055786,
        -0.07144838571548462,
        0.25269046425819397,
        -0.069600410759449,
        0.21661266684532166,
        -0.25990891456604004,
        -0.028468485921621323,
        0.1442064344882965,
        -0.3324317932128906,
        0.07003230601549149,
        -0.15669867396354675,
        0.03068728558719158,
        -0.04256879538297653,
        -0.32083645462989807,
        0.32914507389068604,
        0.12716487050056458,
        0.14089711010456085,
        0.09014815092086792,
        -0.05991467833518982,
        -0.21633127331733704,
        -0.08237715810537338,
        -0.07043047994375229,
        0.03845559060573578,
        -0.46885091066360474,
        0.21513064205646515,
        -0.2732814848423004,
        -0.15727093815803528,
        0.13246358931064606,
        0.1724785417318344,
        0.012614809907972813,
        0.024560164660215378,
        -0.19312000274658203,
        -0.010357714258134365,
        0.25116395950317383,
        -0.30035877227783203,
        0.050808534026145935,
        -0.17827492952346802,
        -0.14400722086429596,
        0.18563412129878998,
        -0.0559811145067215,
        0.29642564058303833,
        -0.24519941210746765,
        0.2575421631336212,
        0.1700601428747177,
        0.39454203844070435,
        0.03475763276219368,
        0.28840598464012146,
        -0.03061690367758274,
        -0.33925434947013855,
        -0.12015265971422195,
        -0.14205783605575562,
        0.2297564148902893,
        0.2980562448501587,
        0.037188127636909485,
        -0.02800314500927925,
        -0.20829886198043823,
        0.060103390365839005,
        -0.10562627762556076,
        -0.4508001506328583,
        0.09787192940711975,
        0.329155832529068,
        -0.04090414196252823,
        0.11118154972791672,
        0.01815144717693329,
        -0.353911817073822,
        -0.12510128319263458,
        0.0019638757221400738,
        -0.14901791512966156,
        0.027002111077308655,
        -0.03487072512507439,
        -0.5103594064712524,
        -0.05180736631155014,
        0.03945585712790489,
        -0.09926686435937881,
        -0.22856299579143524,
        -0.12482112646102905,
        0.2358793467283249,
        -0.17887598276138306,
        0.03271488845348358,
        -0.13450689613819122,
        -0.1236928403377533,
        -0.1805143803358078,
        0.10246725380420685,
        0.06935188919305801,
        0.012621697038412094,
        -0.05736827850341797,
        0.034556470811367035,
        -0.2576793432235718,
        -0.21305298805236816,
        0.3300468623638153,
        0.3476561903953552,
        0.4066583514213562,
        -0.0031757939141243696,
        -0.04022257775068283,
        -0.21329376101493835,
        0.041905101388692856,
        0.1125727966427803,
        -0.04972096532583237,
        0.2276780605316162,
        -0.004949671681970358,
        -0.08074118196964264,
        0.061916619539260864,
        0.040765535086393356,
        0.06921204924583435,
        -0.1788378357887268,
        -0.21207337081432343,
        -0.13536952435970306,
        0.08890371769666672,
        -0.3832401633262634,
        0.1768508106470108,
        -0.12341252714395523,
        -0.08635356277227402,
        0.08953972160816193,
        -0.03614788502454758,
        0.18485358357429504,
        0.2578184902667999,
        0.09498905390501022,
        -0.18262429535388947,
        0.07302860170602798,
        0.1948746293783188,
        -0.2072480022907257,
        0.4331783652305603,
        0.2585720717906952,
        0.24527500569820404,
        -0.4083300232887268,
        0.11977186799049377,
        -0.12333226948976517,
        0.13915400207042694,
        -0.2773933410644531,
        0.12573041021823883,
        -0.20192787051200867,
        0.2577296793460846,
        -0.12907826900482178,
        -0.1959044486284256,
        -0.0806983932852745,
        0.06822342425584793,
        0.07700479030609131,
        -0.20176292955875397,
        0.11903871595859528,
        -0.03904740884900093,
        0.0427933968603611,
        0.3624078035354614,
        -0.010812180116772652,
        -0.13942822813987732,
        0.0866195410490036,
        -0.07418257743120193,
        -0.1375000923871994,
        -0.06046377494931221,
        -0.3373449742794037,
        -0.0909949317574501,
        -0.2213938683271408,
        -0.028750643134117126,
        0.055015403777360916,
        0.09486537426710129,
        0.020003536716103554,
        0.40518689155578613,
        -0.13358072936534882,
        0.06856457144021988,
        0.06043991819024086,
        0.13607482612133026,
        -0.18086647987365723,
        -0.21922653913497925,
        -0.005405144765973091,
        0.05452706292271614,
        -0.15945470333099365,
        -0.05419271066784859,
        -0.09223905950784683,
        -0.0941707119345665,
        -0.031523969024419785,
        0.01052478514611721,
        0.050988417118787766,
        -0.0410010926425457,
        -0.0433315746486187,
        -0.009336903691291809,
        -0.03241872787475586,
        0.10841414332389832,
        0.05649181082844734,
        -0.10058681666851044,
        0.17030712962150574,
        -0.2058713436126709,
        0.21769219636917114,
        -0.0019934794399887323,
        0.22775644063949585,
        -0.29440176486968994,
        -0.2646664083003998,
        0.01327776163816452,
        -0.03966744616627693,
        0.11786732077598572,
        -0.015882842242717743,
        0.19558991491794586,
        0.022749952971935272,
        0.2232699990272522,
        -0.016304247081279755,
        0.0992821753025055,
        0.05717337876558304,
        0.10578887164592743,
        -0.3112628161907196,
        0.12466122210025787,
        -0.06270280480384827,
        -0.058135025203228,
        0.04350677877664566,
        -0.2545132637023926,
        -0.04678841307759285,
        -0.33863821625709534,
        -0.11751899123191833,
        0.18672490119934082,
        -0.026017403230071068,
        -0.0944436714053154,
        -0.23818984627723694,
        0.11198998987674713,
        -0.043492186814546585,
        -0.17712633311748505,
        -0.23821568489074707,
        0.10215906798839569,
        0.149104505777359,
        0.24474003911018372,
        0.05145151540637016,
        -0.13540871441364288,
        -0.0809599831700325,
        0.0732966735959053,
        0.006827072240412235,
        0.17481860518455505,
        -0.07711613923311234,
        -0.1957547962665558,
        0.010131802409887314,
        -0.14235146343708038,
        0.016904057934880257,
        0.34630441665649414,
        -0.2101348638534546,
        -0.02369382418692112,
        -0.12841372191905975,
        -0.24044348299503326,
        -0.09890192747116089,
        -0.4113776385784149,
        -0.10856354236602783,
        -0.2276051938533783,
        0.18614248931407928,
        0.092300184071064,
        -0.31947770714759827,
        -0.00646028621122241,
        0.24435241520404816,
        -0.03072858229279518,
        -0.27442166209220886,
        -0.012047437019646168,
        -0.06223784014582634,
        0.38177207112312317,
        0.15579253435134888,
        -0.25891339778900146,
        -0.07504339516162872,
        0.25029298663139343,
        -0.1130397841334343,
        -0.261155366897583,
        0.04217460751533508,
        0.09612219780683517,
        0.13683480024337769,
        0.004923122934997082,
        -0.3976553678512573,
        -0.07880649715662003,
        -0.17907381057739258,
        0.05836937949061394,
        -0.07739565521478653,
        -0.12945888936519623,
        0.25998401641845703,
        -0.0192972831428051,
        -0.08903288841247559,
        0.1601419895887375,
        -0.09726458042860031,
        -0.18099600076675415,
        0.09893036633729935,
        0.004476741421967745,
        0.27369144558906555,
        0.05393872410058975,
        -0.2534652054309845,
        0.013420050963759422,
        0.19770187139511108,
        -0.0019020544132217765,
        -0.05818675458431244,
        0.13378962874412537,
        -0.2668432295322418,
        -0.08424854278564453,
        -0.011276853270828724,
        0.024325057864189148,
        0.02974272519350052,
        0.3281257152557373,
        0.11799708753824234,
        0.032157279551029205,
        -0.06335581839084625,
        0.21018610894680023,
        -0.10256513953208923,
        0.03094559721648693,
        0.0845569595694542,
        -0.19303597509860992,
        0.07956765592098236,
        0.25386226177215576,
        0.027327094227075577,
        -0.3015051782131195,
        -0.05330437421798706,
        0.32930365204811096,
        -0.02527407929301262,
        -0.013259471394121647,
        -0.22840753197669983,
        0.045377396047115326,
        0.3791176378726959,
        0.04701424390077591,
        0.09289389848709106,
        -0.2102324217557907,
        -0.165806382894516,
        0.16408449411392212,
        -0.11611175537109375,
        -0.3581587076187134,
        0.10377592593431473,
        -0.14998403191566467,
        0.06564521044492722,
        -0.17888060212135315,
        0.09256327897310257,
        -0.0002578976273071021,
        0.04318467527627945,
        0.17116564512252808,
        0.03683378919959068,
        -0.09845750778913498,
        -0.026393098756670952,
        0.05291735753417015,
        -0.16581197082996368,
        -0.013701127842068672,
        -0.23329828679561615,
        -0.12907294929027557,
        -0.15332578122615814,
        -0.12153154611587524,
        0.17920280992984772,
        -0.15918564796447754,
        -0.1124826967716217,
        0.1458200067281723,
        0.015248752199113369,
        0.0176799725741148,
        0.166561558842659,
        -0.1722513884305954,
        0.1620100736618042,
        0.05080709606409073,
        -0.13582590222358704,
        0.1323404312133789,
        -0.1406075656414032,
        0.2176639884710312,
        -0.09686098247766495,
        0.13054727017879486,
        -0.011113334447145462,
        -0.14041996002197266,
        0.1392001062631607,
        -0.07267680019140244,
        -0.06796786934137344,
        0.1622922569513321,
        -0.14122749865055084,
        -0.030594728887081146,
        -0.11335496604442596,
        0.14028486609458923,
        -0.16437017917633057,
        -0.38476383686065674,
        0.006071197334676981,
        0.014240561053156853,
        -0.1462971419095993,
        -0.21696877479553223,
        -0.12039915472269058,
        0.20027616620063782,
        -0.25754278898239136,
        0.4893907606601715,
        -0.23700740933418274,
        0.14747731387615204,
        -0.0045394571498036385,
        -0.1212935671210289,
        0.1038651093840599,
        0.12294509261846542,
        0.03183984011411667,
        -0.15493328869342804,
        -0.028453821316361427,
        -0.0738915205001831,
        0.06716391444206238,
        0.09982623159885406,
        0.06676848232746124,
        0.12125524133443832,
        0.12445218861103058,
        0.055609330534935,
        0.05208899825811386,
        -0.045211270451545715,
        -0.02432110905647278,
        0.15885409712791443,
        0.05245604366064072,
        0.22948825359344482,
        0.06647475063800812,
        0.031311504542827606,
        0.05296030640602112,
        -0.13274788856506348,
        -0.12182121723890305,
        0.013571962714195251,
        -0.43084415793418884,
        0.003148551331833005,
        -0.046708788722753525,
        0.006092909723520279,
        -0.09239569306373596,
        -0.13287906348705292,
        -0.24881643056869507,
        0.354644238948822,
        -0.002087870379909873,
        0.16514816880226135,
        -0.01986512914299965,
        -0.011907918378710747,
        -0.12485482543706894,
        0.0882859155535698,
        -0.19258327782154083,
        0.0944167971611023,
        -0.028324183076620102,
        0.06907375156879425,
        0.05334494262933731,
        0.029768209904432297,
        0.11491409689188004,
        0.38535386323928833,
        0.25416916608810425,
        0.3646749258041382,
        0.061067868024110794,
        -0.0840793177485466,
        -0.1440829634666443,
        -0.20378458499908447,
        -0.051443617790937424,
        -0.10505115985870361,
        -0.013544902205467224,
        -0.27065667510032654,
        0.16294243931770325,
        -0.26908090710639954,
        0.11775799095630646,
        0.25600117444992065,
        0.027164367958903313,
        -0.0619424469769001,
        0.0922088623046875,
        0.03319253399968147,
        0.1136365681886673,
        -0.05735597759485245,
        -0.16822339594364166,
        -0.2586674392223358,
        0.3482661247253418,
        -0.07011257112026215,
        -0.019278569146990776,
        -0.27414536476135254,
        -0.02406652644276619,
        0.21433579921722412,
        0.10756329447031021,
        0.12855951488018036,
        -0.19768181443214417,
        0.038691505789756775,
        -0.2182813286781311,
        -0.06438565254211426,
        0.14307034015655518,
        -0.13109207153320312,
        -0.4217384159564972,
        0.15255388617515564,
        0.004982860758900642,
        -0.061155349016189575,
        0.14506961405277252,
        0.16216808557510376,
        0.032097283750772476,
        -0.2319297343492508,
        -0.07864227145910263,
        -0.031239040195941925,
        -0.18911096453666687,
        -0.12889505922794342,
        -0.41038593649864197,
        -0.052970074117183685,
        0.2875070571899414,
        0.04637574031949043,
        0.13563543558120728,
        0.011503922753036022,
        0.289839506149292,
        -0.09154197573661804,
        0.055886346846818924,
        -0.2401268631219864,
        0.3901752531528473,
        -0.2228691279888153,
        -0.12476219981908798,
        -0.3172365725040436,
        0.0181779433041811,
        -0.020362108945846558,
        -0.10538148134946823,
        -0.1131523847579956,
        0.1751415729522705,
        0.23108252882957458,
        0.11778374016284943,
        0.19844406843185425,
        -0.22485920786857605,
        -0.3528372645378113,
        -0.13265496492385864,
        0.14860276877880096,
        0.11923349648714066,
        0.14052611589431763,
        -0.1177632287144661,
        -0.06745979189872742,
        0.3293115198612213,
        -0.08408014476299286,
        0.37619727849960327,
        0.18870998919010162,
        0.28499239683151245,
        -0.03702716529369354,
        0.1414480209350586,
        0.007938172668218613,
        -0.009987971745431423,
        -0.02481086365878582,
        0.12565112113952637,
        0.2412133812904358,
        -0.13433867692947388,
        0.04988355562090874,
        -0.16866923868656158,
        0.009018432348966599,
        0.04531474411487579,
        0.13073047995567322,
        0.18932092189788818,
        -0.07215333729982376,
        -0.15216106176376343,
        -0.4394373595714569,
        0.10577446222305298,
        -0.131686270236969,
        0.048882801085710526,
        0.044150810688734055,
        0.18281333148479462,
        0.1141294538974762,
        0.5489168763160706,
        0.21885843575000763,
        0.048968102782964706,
        0.04886455088853836,
        0.13331067562103271,
        -0.11280138045549393,
        0.1303955316543579,
        0.02174987643957138,
        -0.10959098488092422,
        0.10882765799760818,
        -0.13834813237190247,
        0.23869669437408447,
        -0.2460407018661499,
        -0.22196915745735168,
        0.03166208043694496,
        0.08308357745409012,
        -0.14669588208198547,
        -0.015928547829389572,
        0.0017574966186657548,
        0.11699410527944565,
        0.059890326112508774,
        0.033399082720279694,
        0.16861042380332947,
        0.08917126804590225,
        0.06252973526716232,
        0.03050844557583332,
        0.021472714841365814,
        0.1323297917842865,
        -0.04288288578391075,
        -0.028145791962742805,
        -0.08567724376916885,
        0.13802354037761688,
        -0.06999179720878601,
        -0.23762668669223785,
        0.05527264252305031,
        -0.17859624326229095,
        0.26941660046577454,
        -0.006818275898694992,
        -0.09479069709777832,
        -0.17748604714870453,
        -0.09788218140602112,
        -0.005638966336846352,
        0.08680329471826553,
        -0.26208171248435974,
        0.18734432756900787,
        0.15166792273521423,
        -0.0968506708741188,
        0.06695112586021423,
        0.1448688805103302,
        0.21889489889144897,
        -0.03815131634473801,
        -0.12495677918195724,
        -0.016146736219525337,
        0.2482490986585617,
        0.09506440907716751,
        0.4286467134952545,
        -0.09508393704891205,
        -0.2864866256713867,
        0.02571917697787285,
        -0.2569923996925354,
        0.05183437466621399,
        -0.10576099157333374,
        0.19132094085216522,
        -0.0015038397395983338,
        -0.0009986534714698792,
        -0.29575711488723755,
        -0.13226497173309326,
        0.04959223046898842,
        0.19857387244701385,
        0.08211294561624527,
        0.4491468071937561,
        -0.1104065328836441,
        -0.13643744587898254,
        -0.06397569179534912,
        0.08991259336471558,
        0.16632910072803497,
        0.07094673067331314,
        0.16289620101451874,
        0.04858982935547829,
        0.1049167588353157,
        0.21369746327400208,
        0.03675932437181473,
        -0.11537472903728485,
        0.006495663896203041,
        -0.12804673612117767,
        0.013798330910503864,
        0.0251447856426239,
        0.1789456009864807,
        -0.04845702275633812,
        0.22755350172519684,
        0.11972664296627045,
        0.2267495095729828,
        0.11112988740205765,
        0.34585750102996826,
        0.19673877954483032,
        0.05134174972772598,
        0.07983163744211197,
        -0.1485380381345749,
        0.04696927219629288,
        -0.20042844116687775,
        0.13252751529216766,
        -0.040328219532966614,
        -0.15536941587924957,
        -0.3467501401901245,
        0.2051754742860794,
        0.3267594277858734,
        0.07371468096971512,
        0.1345776915550232,
        -0.25578969717025757,
        -0.5462105870246887,
        -0.10350299626588821,
        0.006000814493745565,
        0.15948520600795746,
        0.021009668707847595,
        -0.09988603740930557,
        -0.048213232308626175,
        0.050075266510248184,
        -0.3087671399116516,
        -0.32429274916648865,
        -0.36721301078796387,
        0.06658468395471573,
        0.10289003700017929,
        0.32920143008232117,
        0.13849426805973053,
        0.17597851157188416,
        -0.04631667584180832,
        -0.04317082464694977,
        0.011357027105987072,
        -0.0005380341899581254,
        -0.15994857251644135,
        -0.24386945366859436,
        -0.005657923873513937,
        -0.32444021105766296,
        -0.038149721920490265,
        -0.25124332308769226,
        -0.042302295565605164,
        0.07666777819395065,
        0.20317751169204712,
        0.02233274281024933,
        0.14916455745697021,
        -0.06742297857999802,
        0.32468801736831665,
        0.2040824443101883,
        0.10071049630641937,
        0.02194727212190628,
        -0.02257353626191616,
        0.06506647914648056,
        0.08150607347488403,
        -0.06155627965927124,
        -0.09790336340665817,
        -0.06283564865589142,
        0.22086699306964874,
        0.07514160126447678,
        -0.00771092576906085,
        -0.24413838982582092,
        0.20444683730602264,
        -0.21700604259967804,
        0.01117010973393917,
        -0.2176610231399536,
        -0.15924212336540222,
        0.20453058183193207,
        0.038057759404182434,
        -0.18578284978866577,
        -0.11913079768419266,
        -0.10099542140960693,
        -0.00752594880759716,
        0.2507988214492798,
        -0.24419140815734863,
        -0.15283282101154327,
        0.30578288435935974,
        0.11565672606229782,
        0.1193096935749054,
        0.049857575446367264,
        -0.060033150017261505,
        -0.09692195802927017,
        0.13318563997745514,
        -0.07767745852470398,
        0.29239001870155334,
        0.026968929916620255,
        -0.07929420471191406,
        0.06543979793787003,
        0.30474039912223816,
        0.16540774703025818,
        0.03373933583498001,
        0.04164214804768562,
        -0.06759056448936462,
        -0.027127284556627274,
        -0.18620261549949646,
        -0.05415373295545578,
        0.0278996080160141,
        0.21879559755325317,
        0.03528551012277603,
        0.062161169946193695,
        0.023563165217638016,
        0.19645261764526367,
        -0.015577271580696106,
        -0.1381896734237671,
        0.021689830347895622,
        0.13456684350967407,
        -0.19162017107009888,
        0.08803928643465042,
        -0.05406470224261284,
        0.08201297372579575,
        0.15785883367061615,
        0.14840048551559448,
        -0.23374015092849731,
        -0.46596917510032654,
        0.2522139549255371,
        -0.1451902985572815,
        0.14521095156669617,
        -0.16659361124038696,
        0.00658170273527503,
        -0.10348569601774216,
        0.02891809120774269,
        0.22607561945915222,
        -0.04412436857819557,
        -0.13520759344100952,
        0.07830764353275299,
        -0.11537954211235046,
        -0.22258156538009644,
        -0.13599665462970734,
        -0.24125339090824127,
        0.26045331358909607,
        -0.09024918079376221,
        -0.6881502270698547,
        0.032105643302202225,
        -0.15040218830108643,
        0.2369774580001831,
        0.18557217717170715,
        0.16648700833320618,
        0.2937857508659363,
        0.024379946291446686,
        -0.0005040136747993529,
        0.34865081310272217,
        0.13343554735183716,
        0.0009798527462407947,
        0.03265688940882683,
        0.0018496331758797169,
        -0.2577146291732788,
        0.13941225409507751,
        -0.09461577236652374,
        0.2339145392179489,
        -0.08581110835075378,
        0.03672286123037338,
        0.03337002173066139,
        -0.10197616368532181,
        0.10146652162075043,
        -0.13049954175949097,
        0.021516403183341026,
        -0.037598107010126114,
        -0.04193408414721489,
        -0.18953260779380798,
        0.04831341654062271,
        0.2962585389614105,
        0.01052694208920002,
        -0.02068638801574707,
        0.23642928898334503,
        -0.05167214944958687,
        0.0745697021484375,
        0.3056434094905853,
        -0.07656825333833694,
        -0.13938120007514954,
        0.03485770896077156,
        0.004864971619099379,
        -0.025713274255394936,
        0.11311373859643936,
        0.01846182718873024,
        -0.08406555652618408,
        0.2174471616744995,
        -0.3257642686367035,
        0.11978394538164139,
        -0.4157900810241699,
        -0.24573151767253876,
        -0.11699683219194412,
        -0.17493459582328796,
        -0.1011611744761467,
        -0.17489266395568848,
        0.21539217233657837,
        -0.02662956900894642,
        0.15972304344177246,
        -0.0379938930273056,
        0.12346266210079193,
        0.26881641149520874,
        -0.0501711443066597,
        0.11912757158279419,
        0.27125805616378784,
        0.08338561654090881,
        0.15618965029716492,
        0.12157892435789108,
        -0.22851908206939697,
        0.03476543352007866,
        -0.0643794983625412,
        -0.05203249305486679,
        0.03925685957074165,
        0.1495436131954193,
        0.09615188091993332,
        0.2116100788116455,
        -0.4121860861778259,
        -0.27934446930885315,
        0.3410779535770416,
        -0.03900444880127907,
        -0.13548175990581512,
        -0.10468123853206635,
        -0.0009349116589874029,
        -0.16831621527671814,
        -0.08647136390209198,
        -0.032123908400535583,
        -0.15874581038951874,
        -0.22016386687755585,
        -0.05022784695029259,
        0.11135178804397583,
        -0.08975642174482346,
        0.17146974802017212,
        0.014140035025775433,
        0.16857129335403442,
        0.19248157739639282,
        0.0032082025427371264,
        0.032207295298576355,
        0.5037367939949036,
        0.19337114691734314,
        -0.08994542807340622,
        -0.16105158627033234,
        0.003133295336738229,
        -0.28099772334098816,
        0.48085692524909973,
        0.3971182703971863,
        -0.10813673585653305,
        0.2041216492652893,
        -0.04400835186243057,
        0.16623511910438538,
        -0.10328590869903564,
        -0.003656580811366439,
        0.03191982954740524,
        0.16903828084468842,
        0.09091577678918839,
        0.00013362390745896846,
        0.08861374109983444,
        0.0731821283698082,
        -0.24758945405483246,
        -0.06731165200471878,
        0.0786604955792427,
        0.004020110238343477,
        0.22929666936397552,
        0.3364192843437195,
        0.08732312172651291,
        0.19071362912654877,
        -0.0428750105202198,
        0.28339213132858276,
        0.07826095819473267,
        -0.28335726261138916,
        -0.1491626352071762,
        0.0500204861164093,
        -0.236546128988266,
        -0.23999060690402985,
        0.06633462011814117,
        0.3238467574119568,
        -0.317926287651062,
        0.19477854669094086,
        -0.08980269730091095,
        -0.06170809641480446,
        -0.02490745112299919,
        0.1578105390071869,
        0.19374144077301025,
        -0.224593847990036,
        -0.05711813271045685,
        0.23594073951244354,
        -0.1435205042362213,
        0.2840566039085388,
        0.18400636315345764,
        0.0606781430542469,
        -0.1183704361319542,
        -0.16886094212532043,
        -0.032653313130140305,
        -0.05513022094964981,
        -0.15301258862018585,
        0.05456037074327469,
        0.17295517027378082,
        0.4487899839878082,
        0.042378202080726624,
        -0.1410590261220932,
        -0.2587868869304657,
        0.1853276938199997,
        0.06700997054576874,
        0.1658853143453598,
        -0.4125156104564667,
        -0.1733909696340561,
        0.05669856816530228,
        -0.2917044162750244,
        -0.08357211947441101,
        -0.17693695425987244,
        -0.44044145941734314,
        -0.10814213752746582,
        -0.13315807282924652,
        0.14536385238170624,
        0.1348377913236618,
        0.10359791666269302,
        -0.2609111964702606,
        -0.09275181591510773,
        0.14111407101154327,
        -0.14811141788959503,
        -0.05143759772181511,
        0.1772642880678177,
        0.20934289693832397,
        -0.1976781189441681,
        0.009135433472692966,
        0.04681466519832611,
        -0.2420712262392044,
        0.017384478822350502,
        -0.0025857610162347555,
        -0.11026822030544281,
        0.11960939317941666,
        -0.08548703789710999,
        -0.11114883422851562,
        -0.06230545789003372,
        -0.016664404422044754,
        -0.05716850236058235,
        -0.21795925498008728,
        0.13366037607192993,
        -0.09303027391433716,
        -0.14379262924194336,
        -0.07233859598636627,
        0.06491194665431976,
        -0.019083302468061447,
        -0.07466603070497513,
        0.018535416573286057,
        -0.0025032893754541874,
        -0.12967407703399658,
        -0.02393176220357418,
        -0.11314345896244049,
        0.3951936960220337,
        -0.20318281650543213,
        0.16411569714546204,
        0.087052121758461,
        -0.017199020832777023,
        -0.10361368954181671,
        0.02266157977283001,
        -0.008594198152422905,
        -0.005804073065519333,
        -0.19172990322113037,
        0.03456367924809456,
        0.0692722424864769,
        0.17883218824863434,
        -0.020328551530838013,
        0.10511533170938492,
        -0.2889503240585327,
        0.07226888835430145,
        -0.13064350187778473,
        0.04006926715373993,
        -0.08601078391075134,
        0.27606743574142456,
        -0.06499707698822021,
        -0.1033855676651001,
        -0.13740016520023346,
        -0.3174348473548889,
        -0.20155654847621918,
        -0.08599627017974854,
        0.018070479854941368,
        0.21474052965641022,
        0.3219202160835266,
        0.11321034282445908,
        0.16888479888439178,
        -0.007807315792888403,
        0.006306423339992762,
        0.376575767993927,
        0.12070172280073166,
        -0.0009302120306529105,
        0.36133038997650146,
        -0.1465526670217514,
        0.055246297270059586,
        -0.3170202970504761,
        0.09247352927923203,
        0.2071712166070938,
        0.3105752468109131,
        0.09406859427690506,
        0.18711039423942566,
        0.3873855471611023,
        0.06927023828029633,
        -0.00782545655965805,
        -0.11221330612897873,
        0.07363060116767883,
        -0.33727648854255676,
        0.11280609667301178,
        -0.07361553609371185,
        0.23796650767326355,
        -0.06469746679067612,
        -0.04972710460424423,
        0.20689156651496887,
        -0.12626546621322632,
        -0.02202468179166317,
        -0.37880557775497437,
        0.2640213370323181,
        0.13726909458637238,
        0.2215156853199005,
        -0.6041955351829529,
        -0.15015903115272522,
        -0.3773633539676666,
        -0.052860625088214874,
        -0.34961894154548645,
        -0.13311812281608582,
        -0.11338300257921219,
        -0.30628377199172974,
        0.1681666225194931,
        0.023506782948970795,
        -0.3973906636238098,
        -0.17694534361362457,
        -0.3149021565914154,
        0.030619129538536072,
        0.00044969175360165536,
        0.30527982115745544,
        -0.070406474173069,
        -0.043569643050432205,
        0.035981953144073486,
        0.2398657202720642,
        0.19285905361175537,
        0.038980450481176376,
        0.13553030788898468,
        0.03138905391097069,
        0.05393810197710991,
        0.1702326536178589,
        0.16416342556476593,
        -0.1164526715874672,
        0.11623930931091309,
        0.1515904664993286,
        -0.03530242294073105,
        0.06989597529172897,
        0.24461030960083008,
        0.08487777411937714,
        0.15342964231967926,
        -0.1685200184583664,
        -0.16818298399448395,
        -0.03762315213680267,
        0.05715514346957207,
        0.2556518614292145,
        0.021788932383060455,
        -0.11072821170091629,
        -0.12470719963312149,
        -0.06752490252256393,
        0.019491804763674736,
        0.07660337537527084,
        0.2691700756549835,
        -0.02153904363512993,
        -0.09317478537559509,
        -0.14377924799919128,
        0.034401070326566696,
        -0.17634351551532745,
        0.06193825975060463,
        -0.19168074429035187,
        0.2265893518924713,
        0.0738145187497139,
        0.16771996021270752,
        0.1570253223180771,
        0.09123773127794266,
        0.0029719483572989702,
        -0.006641392130404711,
        0.16178281605243683,
        0.09524351358413696,
        -0.02228635549545288,
        -0.11661972850561142,
        -0.07040280103683472,
        -0.09785915911197662,
        -0.09402740001678467,
        0.11147844791412354,
        -0.13399852812290192,
        0.08319646120071411,
        -0.1850539892911911,
        -0.020734751597046852,
        0.0000061903579080535565,
        0.28268155455589294,
        -0.09860328584909439,
        -0.19483231008052826,
        0.05672718957066536,
        -0.00391541188582778,
        0.13481520116329193,
        -0.25834015011787415,
        0.15363185107707977,
        0.0036259591579437256,
        0.014044309966266155,
        -0.06727630645036697,
        0.08192235231399536,
        -0.3594917058944702,
        0.08252941071987152,
        -0.026861082762479782,
        -0.04008736088871956,
        -0.23630809783935547,
        -0.16833896934986115,
        -0.2798928916454315,
        0.032765112817287445,
        0.18134284019470215,
        -0.04249529168009758,
        0.07273242622613907,
        0.10401461273431778,
        -0.05913565680384636,
        -0.15901407599449158,
        0.07053923606872559,
        -0.1472971886396408,
        -0.11417216062545776,
        -0.0484657920897007,
        -0.05445389077067375,
        -0.3997535705566406,
        -0.030303314328193665,
        0.23828057944774628,
        0.15324199199676514,
        0.12461060285568237,
        -0.10062425583600998,
        -0.3349795639514923,
        -0.26375722885131836,
        -0.10309182107448578,
        0.13265705108642578,
        -0.09647464752197266,
        0.1971931755542755,
        -0.24019025266170502,
        0.21859490871429443,
        0.07578281313180923,
        -0.4831007122993469,
        0.23405583202838898,
        -0.20607204735279083,
        -0.046438854187726974,
        -0.05463535711169243,
        -0.13532136380672455,
        -0.05224538594484329,
        -0.08181171864271164,
        -0.14707207679748535,
        0.18160611391067505,
        0.35100308060646057,
        -0.058755915611982346,
        0.01928270235657692,
        0.014260318130254745,
        0.04122765734791756,
        -0.0260612890124321,
        -0.16601483523845673,
        -0.13510267436504364,
        -0.3239485025405884,
        -0.38654625415802,
        0.19721408188343048,
        0.03293188661336899,
        0.19149085879325867,
        0.048736102879047394,
        0.12433640658855438,
        -0.1365659385919571,
        -0.0021389976609498262,
        0.4269241988658905,
        0.42346540093421936,
        0.3931770324707031,
        -0.006835822481662035
      ],
      "weightsShape": [
        64,
        32
      ],
      "bias": [
        0.032206207513809204,
        0,
        0.08567152917385101,
        0.012117816135287285,
        0.036363713443279266,
        -0.006411478854715824,
        0.02060946263372898,
        0.0037688256707042456,
        0.026184260845184326,
        -0.028979524970054626,
        -0.002079196972772479,
        0.020687654614448547,
        -0.004632769618183374,
        -0.0010512203443795443,
        0.03574889525771141,
        -0.00002429886990285013,
        -0.0010868264362215996,
        0.04314153641462326,
        -0.013877971097826958,
        0.012584025040268898,
        0,
        -0.014525805599987507,
        -0.03733422979712486,
        0,
        0.014825381338596344,
        -0.0020726420916616917,
        -0.0014652734389528632,
        0.0027043663430958986,
        0.006615768652409315,
        0.009624196216464043,
        -0.003751010401174426,
        0.017257919535040855
      ],
      "biasShape": [
        1,
        32
      ],
      "activation": "relu"
    },
    {
      "weights": [
        -0.43704625964164734,
        -0.2249920666217804,
        -0.8895261883735657,
        -0.2405025064945221,
        0.35132652521133423,
        0.6757427453994751,
        -0.19415301084518433,
        -0.07116386294364929,
        -0.14704042673110962,
        0.7889409065246582,
        -0.09315913170576096,
        0.5183542370796204,
        0.3852245807647705,
        0.3793037533760071,
        0.46869003772735596,
        -0.027096286416053772,
        -0.024472065269947052,
        -0.46086329221725464,
        0.14662137627601624,
        0.6118230819702148,
        -0.07483814656734467,
        0.6730855107307434,
        0.45919159054756165,
        0.06957115978002548,
        0.27647918462753296,
        -0.0650823712348938,
        -0.015392804518342018,
        0.36979472637176514,
        -0.8236952424049377,
        -0.13751783967018127,
        -0.031449224799871445,
        -0.31202080845832825
      ],
      "weightsShape": [
        32,
        1
      ],
      "bias": [
        -0.13864001631736755
      ],
      "biasShape": [
        1,
        1
      ],
      "activation": "sigmoid"
    }
  ],
  "learningRate": 0.0003,
  "l2Lambda": 0.00001
}