{
  "__kind": "NeuralNet",
  "version": 1,
  "layers": [
    {
      "weights": [
        0.2186901569366455,
        0.09676608443260193,
        -0.5777056217193604,
        -0.16047687828540802,
        0.9009554982185364,
        1.0824577808380127,
        -0.08924110978841782,
        -0.15240736305713654,
        -0.2899434268474579,
        -0.05746611952781677,
        -0.25375425815582275,
        -0.4457893967628479,
        0.5166004300117493,
        0.33673951029777527,
        0.319212943315506,
        -0.1880081743001938,
        0.010346992872655392,
        -0.49734848737716675,
        0.3803161680698395,
        0.18073219060897827,
        0.28918150067329407,
        -0.1448991894721985,
        -0.21108314394950867,
        -0.580187201499939,
        0.5938936471939087,
        0.23139145970344543,
        -0.3545469045639038,
        0.5169106721878052,
        0.33525946736335754,
        0.15927284955978394,
        0.37472856044769287,
        -0.5151861906051636,
        -0.1831257939338684,
        -0.0008319244370795786,
        -0.3214520215988159,
        0.0819256454706192,
        0.00843337457627058,
        0.3180699348449707,
        -0.7322384715080261,
        0.6969555616378784,
        0.46025940775871277,
        0.7589088678359985,
        -0.44906508922576904,
        -0.5096532702445984,
        0.43367674946784973,
        0.13447637856006622,
        -0.18655383586883545,
        0.09405969828367233,
        -0.035530827939510345,
        0.02566351182758808,
        0.5191568732261658,
        0.2021966427564621,
        -0.21196439862251282,
        0.3204260766506195,
        -0.20198684930801392,
        0.16996358335018158,
        0.5747969150543213,
        0.12121009826660156,
        -0.2755690813064575,
        0.17911019921302795,
        0.09924516826868057,
        -0.23671025037765503,
        0.44133806228637695,
        -0.7568760514259338,
        -0.24738650023937225,
        0.03835174813866615,
        0.061482422053813934,
        -0.2963221073150635,
        0.04638419672846794,
        0.17017106711864471,
        -0.1995670646429062,
        0.40376394987106323,
        -0.11075800657272339,
        0.08744139224290848,
        -0.06267064809799194,
        0.25370919704437256,
        -0.3681690990924835,
        0.30698850750923157,
        -0.1425967961549759,
        -0.12164576351642609,
        0.0834193304181099,
        0.18651029467582703,
        -0.37034210562705994,
        0.12890572845935822,
        -0.05069328099489212,
        0.032742567360401154,
        -0.045084454119205475,
        0.058678533881902695,
        -0.0431412011384964,
        -0.13169248402118683,
        0.09743884205818176,
        -0.3963775038719177,
        0.038698699325323105,
        -0.4778328835964203,
        0.2738695442676544,
        -0.047022588551044464,
        -0.033294253051280975,
        0.06511062383651733,
        0.39641252160072327,
        0.14561302959918976,
        0.017676427960395813,
        -0.17698277533054352,
        0.18897849321365356,
        -0.17556776106357574,
        -0.4340120851993561,
        1.0168741941452026,
        -0.38611724972724915,
        -0.028091516345739365,
        -0.7025308609008789,
        -0.08400185406208038,
        -0.16431690752506256,
        0.2529740631580353,
        -0.2931615114212036,
        0.05708061531186104,
        -0.08586201071739197,
        -0.026220757514238358,
        0.3565131425857544,
        0.07834777235984802,
        -0.40273645520210266,
        0.4562726318836212,
        -0.2954805791378021,
        -0.03698697313666344,
        0.44493672251701355,
        -0.2184564769268036,
        -0.09042888134717941,
        -0.11536813527345657,
        -0.4240782856941223,
        -0.045109909027814865,
        0.12501250207424164,
        0.346064954996109,
        0.28376442193984985,
        0.5720681548118591,
        0.14058317244052887,
        -0.09300090372562408,
        -0.3292829692363739,
        0.026485610753297806,
        -0.07481119781732559,
        0.1649128794670105,
        -0.3039936125278473,
        0.6985771059989929,
        0.1448182463645935,
        -0.18394725024700165,
        -0.41951605677604675,
        0.20986516773700714,
        0.27091968059539795,
        -0.353249728679657,
        -0.008725435473024845,
        -0.6263747811317444,
        -0.2982061803340912,
        -0.08275091648101807,
        -0.7432658672332764,
        0.6722794771194458,
        -0.3386399447917938,
        -0.14042767882347107,
        -0.14878366887569427,
        -0.19526197016239166,
        -0.003341549774631858,
        -0.4643387496471405,
        -0.46504607796669006,
        -0.13215424120426178,
        -0.07622642815113068,
        -0.44754689931869507,
        0.04654444754123688,
        -0.4707639813423157,
        -0.20538276433944702,
        -0.6746214628219604,
        -0.24785755574703217,
        0.04824518784880638,
        0.5160239338874817,
        -0.10928367078304291,
        -0.4888790547847748,
        -0.44045183062553406,
        0.11038272082805634,
        -0.08482859283685684,
        -0.45864084362983704,
        -0.18786977231502533,
        -0.3771113455295563,
        -0.41331928968429565,
        0.12281304597854614,
        0.8551070690155029,
        0.4232020080089569,
        0.2876766622066498,
        -0.1509440690279007,
        0.03327702730894089,
        0.400246798992157,
        0.2040228396654129,
        -0.1213688850402832,
        0.7112888693809509,
        0.561668336391449,
        -0.08825158327817917,
        0.27931904792785645,
        0.18709194660186768,
        -0.5361102223396301,
        -0.404063880443573,
        0.18971402943134308,
        -0.08611081540584564,
        0.21122771501541138,
        -0.0717761293053627,
        0.32499945163726807,
        1.0717581510543823,
        0.4840746223926544,
        -0.16091065108776093,
        0.15593187510967255,
        0.24001659452915192,
        0.1023530513048172,
        0.38289618492126465,
        -0.1841791868209839,
        0.38012248277664185,
        -0.010910534299910069,
        -0.15298330783843994,
        -0.46483296155929565,
        0.1132502630352974,
        0.3601987957954407,
        0.004601270891726017,
        0.19799916446208954,
        0.11729807406663895,
        0.09767372161149979,
        0.00278881355188787,
        -0.31961145997047424,
        0.17853803932666779,
        -0.32349058985710144,
        -0.15950678288936615,
        0.5239543318748474,
        0.3241811692714691,
        -0.428977906703949,
        -0.08822132647037506,
        -0.28641477227211,
        0.30444276332855225,
        0.06969442963600159,
        0.2632547616958618,
        0.24592192471027374,
        0.43119287490844727,
        0.756715714931488,
        -0.2749307155609131,
        0.3376178741455078,
        0.3234628140926361,
        -0.5983532071113586,
        -0.5544871687889099,
        0.4657178819179535,
        -0.18639802932739258,
        0.05148680508136749,
        0.504616916179657,
        0.4006318151950836,
        -0.677943229675293,
        0.4905950427055359,
        -0.11021888256072998,
        0.7149115800857544,
        0.05623594671487808,
        0.5395391583442688,
        -0.18655334413051605,
        -0.3104526400566101,
        0.6371088624000549,
        -0.5719664096832275,
        0.18620702624320984,
        -0.28223180770874023,
        -0.6437605619430542,
        0.5419697761535645,
        -0.00784123782068491,
        0.17248772084712982,
        -0.5936002135276794,
        0.1778610199689865,
        -0.05532505363225937,
        -0.515977680683136,
        0.16250678896903992,
        -0.0691123679280281,
        -0.05376482382416725,
        -0.1571080982685089,
        -0.22314970195293427,
        0.1337806135416031,
        0.16221021115779877,
        -0.337137371301651,
        0.2894735336303711,
        0.43041402101516724,
        -0.25493091344833374,
        -0.479879230260849,
        -0.22282136976718903,
        0.2734220325946808,
        -0.5025825500488281,
        -0.1399257481098175,
        -0.6222364902496338,
        0.014102802611887455,
        -0.12537600100040436,
        0.49289265275001526,
        -0.22655698657035828,
        -0.4453478157520294,
        0.15861569344997406,
        0.3884996175765991,
        0.2578567862510681,
        0.3303545117378235,
        -0.622428297996521,
        -0.25114917755126953,
        -0.44136297702789307,
        0.28146103024482727,
        -0.38462039828300476,
        0.40121403336524963,
        0.24853946268558502,
        0.3420182466506958,
        -0.7687691450119019,
        0.0367116741836071,
        0.6563661098480225,
        0.5206053256988525,
        0.12975484132766724,
        -0.20112255215644836,
        0.056723784655332565,
        -0.18059144914150238,
        0.2886981666088104,
        -0.019710766151547432,
        0.2536894679069519,
        0.15608061850070953,
        0.3415159285068512,
        0.11297515779733658,
        0.3981104791164398,
        0.016676414757966995,
        0.021486105397343636,
        0.3690667450428009,
        -0.0673249140381813,
        -0.517127275466919,
        0.40410134196281433,
        0.2593364417552948,
        0.38381192088127136,
        -0.12161314487457275,
        -0.2717973589897156,
        -0.17353186011314392,
        -0.2492912858724594,
        0.06313761323690414,
        -0.24284757673740387,
        -0.19786591827869415,
        0.28220078349113464,
        -0.16822978854179382,
        -0.05459221825003624,
        -0.19306448101997375,
        -0.37571921944618225,
        -0.27596515417099,
        -0.06458748131990433,
        0.07057701051235199,
        -0.06418189406394958,
        0.11210643500089645,
        0.0317424014210701,
        0.5406862497329712,
        -0.5028445720672607,
        0.5208368301391602,
        -0.4277173578739166,
        -0.003302650758996606,
        -0.586444079875946,
        0.0895557627081871,
        -0.2514117956161499,
        0.9934247136116028,
        0.36604416370391846,
        -0.2303670346736908,
        0.010888408869504929,
        0.9351324439048767,
        0.5215376019477844,
        -0.20880888402462006,
        -0.15914832055568695,
        0.5435335040092468,
        -0.07145413011312485,
        -0.2537594437599182,
        0.7836092710494995,
        -0.22573506832122803,
        -0.3157122731208801,
        -0.1783876270055771,
        -0.12209702283143997,
        -0.4641544222831726,
        0.25899261236190796,
        -0.3701693117618561,
        -0.1344054639339447,
        -0.3013928234577179,
        0.30129778385162354,
        -0.13145188987255096,
        0.3280874788761139,
        -0.12245897948741913,
        -0.16180184483528137,
        0.15419737994670868,
        -0.24004533886909485,
        -0.0810060203075409,
        -0.29608720541000366,
        -0.1667516976594925,
        0.10064052045345306,
        -0.10952235758304596,
        -0.19101059436798096,
        0.5195152163505554,
        0.16015303134918213,
        0.12433918565511703,
        -0.419851154088974,
        0.42421025037765503,
        -0.536533534526825,
        -0.6701218485832214,
        0.7538676261901855,
        -0.623820424079895,
        -0.34492775797843933,
        0.5902228355407715,
        -0.041120126843452454,
        0.695698082447052,
        0.6820311546325684,
        0.5455203652381897,
        -0.40144792199134827,
        -0.015102788805961609,
        0.15691973268985748,
        0.24285203218460083,
        0.6497622132301331,
        0.6021995544433594,
        0.4671284556388855,
        0.19137929379940033,
        0.7161906957626343,
        -0.005148482974618673,
        0.12639808654785156,
        -0.27506232261657715,
        0.1251419335603714,
        0.08230199664831161,
        0.10873732715845108,
        0.34217628836631775,
        -0.1288921982049942,
        -0.4090927243232727,
        -0.4254714250564575,
        0.43297258019447327,
        0.6550887227058411,
        0.09862017631530762,
        -0.47431936860084534,
        0.41527384519577026,
        -0.5793362259864807,
        -0.718906581401825,
        -0.41103842854499817,
        0.9190579056739807,
        0.1660929173231125,
        0.07911918312311172,
        -0.2159745991230011,
        -0.14531244337558746,
        0.09715879708528519,
        0.1682811677455902,
        0.15680857002735138,
        0.3138350546360016,
        -0.29007506370544434,
        -0.2769027650356293,
        -0.7259603142738342,
        0.03722525015473366,
        0.48947054147720337,
        -0.16586081683635712,
        0.3067310154438019,
        -0.6383506655693054,
        0.3938097357749939,
        -0.3265930116176605,
        0.484325110912323,
        0.20622912049293518,
        0.6154494881629944,
        -0.2020946741104126,
        -0.3043760061264038,
        0.20394720137119293,
        -0.25989198684692383,
        0.8521276116371155,
        -0.18271423876285553,
        -0.8772037625312805,
        -0.321924090385437,
        -0.32287928462028503,
        -0.16777187585830688,
        0.003040591487661004,
        -0.27849480509757996,
        -0.22471360862255096,
        0.1381998509168625,
        -0.6364284157752991,
        -0.1091248169541359,
        0.4025837779045105,
        -0.2512323558330536,
        0.12895618379116058,
        0.4240119457244873,
        0.23411333560943604,
        0.06769293546676636,
        -0.1921890676021576,
        0.031202979385852814,
        -0.12475460022687912,
        0.07107887417078018,
        -0.37488386034965515,
        0.24158966541290283,
        -0.2758394479751587,
        -0.21525679528713226,
        -0.10797074437141418,
        0.28794118762016296,
        0.6112308502197266,
        -0.18356086313724518,
        0.4790160655975342,
        0.6216767430305481,
        -0.31056225299835205,
        -0.12255480140447617,
        0.20171445608139038,
        -0.010668606497347355,
        -0.11923244595527649,
        -0.31549885869026184,
        -0.31146854162216187,
        0.3206595778465271,
        -0.06270784884691238,
        0.3828042149543762,
        -0.2599833905696869,
        0.38487887382507324,
        -0.15232118964195251,
        0.2224336415529251,
        -0.4108209013938904,
        0.723937451839447,
        -0.17190465331077576,
        0.1127849817276001,
        -0.5685217976570129,
        0.3170498013496399,
        -0.30820420384407043,
        0.06037166714668274,
        -0.3384426534175873,
        -0.8179391622543335,
        -0.5153283476829529,
        -0.17327888309955597,
        -0.28385743498802185,
        0.3662136197090149,
        0.569491982460022,
        0.11303474009037018,
        -0.6506417393684387,
        -0.003820405574515462,
        0.15137958526611328,
        -0.21013912558555603,
        -0.29611608386039734,
        0.035912271589040756,
        -0.24618397653102875,
        0.6769294142723083,
        -0.10255231708288193,
        0.8107851147651672,
        -0.3190358877182007,
        0.050623394548892975,
        0.6238996982574463,
        -0.21072883903980255,
        -0.45952311158180237,
        -0.021123064681887627,
        -0.26927676796913147,
        0.3046634793281555,
        -0.17364107072353363,
        0.12401679158210754,
        -0.23838473856449127,
        0.16611212491989136,
        0.12468136101961136,
        0.0523664653301239,
        -0.31217336654663086,
        0.10494378954172134,
        0.0817430168390274,
        1.0105164051055908,
        -0.08117853850126266,
        -0.3043750822544098,
        -0.01124089676886797,
        0.5071606040000916,
        -0.15421028435230255,
        0.20550964772701263,
        -0.453274130821228,
        0.10105206072330475,
        0.8654770851135254,
        -0.2501111626625061,
        0.3761174976825714,
        -0.01695679873228073,
        -0.053797848522663116,
        -0.2863836884498596,
        -0.5607514977455139,
        0.21481235325336456,
        -0.22582930326461792,
        0.15057162940502167,
        -0.11453887820243835,
        -0.2834307551383972,
        0.3045726418495178,
        0.14302219450473785,
        -0.0930720791220665,
        0.486911416053772,
        -0.3300824761390686,
        0.15715274214744568,
        0.27353784441947937,
        -0.24852648377418518,
        -0.20066498219966888,
        -0.29740989208221436,
        0.019057154655456543,
        -0.3612636923789978,
        1.0083816051483154,
        0.2455342710018158,
        -0.08868107944726944,
        -0.006842486560344696,
        -0.6458244323730469,
        0.17592865228652954,
        -0.1828942745923996,
        0.8069605231285095,
        0.12986332178115845,
        -0.3301044702529907,
        -0.29705896973609924,
        0.43482089042663574,
        0.5782018303871155,
        0.25182268023490906,
        -0.07047087699174881,
        -0.23190243542194366,
        -0.05989282950758934,
        -0.11465072631835938,
        -0.051984772086143494,
        0.475511759519577,
        -0.49309781193733215,
        -0.04553388059139252,
        -0.2843513488769531,
        0.03521384298801422,
        -0.27320021390914917,
        -0.4851393699645996,
        -0.3117985129356384,
        -0.13628703355789185,
        -0.11831483989953995,
        0.2197708934545517,
        0.1495465338230133,
        -0.05356375128030777,
        -0.20088724792003632,
        -0.6202852725982666,
        -0.15690799057483673,
        -0.34263747930526733,
        0.18889392912387848,
        0.12413332611322403,
        -0.13487771153450012,
        -0.04422338679432869,
        0.766420841217041,
        0.040468502789735794,
        -0.16663910448551178,
        -0.4522589147090912,
        -0.8599780201911926,
        -0.310865193605423,
        0.5231428742408752,
        0.18906834721565247,
        -0.25928282737731934,
        -0.2412053793668747,
        -0.11487723141908646,
        0.2647913694381714,
        -0.2857615649700165,
        0.14485476911067963,
        0.10066836327314377,
        0.3969738483428955,
        0.18986742198467255,
        0.6269025802612305,
        -0.5479004383087158,
        -0.6601969003677368,
        0.06521099805831909,
        0.08888557553291321,
        -0.42301586270332336,
        -0.2768423855304718,
        -0.16293643414974213,
        -0.5326667428016663,
        -0.11171187460422516,
        0.16797463595867157,
        -0.22207196056842804,
        0.22048398852348328,
        0.35065677762031555,
        0.8380027413368225,
        0.4640352725982666,
        -0.630223274230957,
        0.37242865562438965,
        -0.25891542434692383,
        -0.8339882493019104,
        0.08111310005187988,
        -0.8168483376502991,
        0.02666311338543892,
        -0.38643258810043335,
        -0.14000189304351807,
        -0.43309828639030457,
        -0.07141553610563278,
        0.24636130034923553,
        0.5058261752128601,
        0.3497084975242615,
        -0.12163673341274261,
        -0.5855380296707153,
        -0.6049030423164368,
        -0.006258837878704071,
        0.5023705363273621,
        -0.3564690351486206,
        0.2638043761253357,
        -0.3180623948574066,
        0.0321127250790596,
        -0.7305729985237122,
        0.22927765548229218,
        -0.08134506642818451,
        -0.1370597630739212,
        -0.05773698166012764,
        0.019014060497283936,
        -0.7486206889152527,
        0.03807908296585083,
        0.1783398687839508,
        -0.021425968036055565,
        0.40223413705825806,
        0.2449779361486435,
        -0.11602360755205154,
        0.20797911286354065,
        -0.21929936110973358,
        0.4078714847564697,
        -0.23055316507816315,
        1.0072824954986572,
        0.18824155628681183,
        0.22914159297943115,
        -0.11324448883533478,
        0.757560133934021,
        -0.09902988374233246,
        0.14043284952640533,
        -0.6335391998291016,
        0.04219833016395569,
        0.1926031857728958,
        0.05350944772362709,
        -0.15564559400081635,
        -0.17566651105880737,
        -0.06513835489749908,
        0.20681966841220856,
        -0.35471224784851074,
        -0.24861159920692444,
        -0.1669357866048813,
        -0.7040432095527649,
        -0.16761115193367004,
        -0.6594635844230652,
        0.7425589561462402,
        0.5135220885276794,
        0.5650004148483276,
        0.8071044087409973,
        0.1454685628414154,
        0.5248588919639587,
        0.819345235824585,
        -0.12306264787912369,
        0.6647338271141052,
        0.0674084797501564,
        -0.47965508699417114,
        0.018490757793188095,
        0.3791396915912628,
        0.2725551128387451,
        0.3005000054836273,
        -0.26141998171806335,
        -0.5411269068717957,
        0.2348611056804657,
        -0.04340551793575287,
        -0.05708150938153267,
        -0.12455781549215317,
        -0.375664085149765,
        -0.49940404295921326,
        -0.2905430793762207,
        -0.1200692281126976,
        0.20318706333637238,
        -0.034074313938617706,
        0.33185824751853943,
        0.1722223460674286,
        -0.6763999462127686,
        -0.5034830570220947,
        -0.0032973436173051596,
        -0.43825796246528625,
        0.402698278427124,
        -0.3813541531562805,
        -0.16138170659542084,
        -0.08282838016748428,
        0.7814449071884155,
        0.03700323402881622,
        -0.3006651997566223,
        -0.37091460824012756,
        -0.6821282505989075,
        -0.06297756731510162,
        -0.04860834777355194,
        0.11295047402381897,
        -0.13925901055335999,
        0.1894298642873764,
        0.41116443276405334,
        -0.3669123351573944,
        -0.19136154651641846,
        -0.4956504702568054,
        -0.26854169368743896,
        0.329562246799469,
        -0.2378080189228058,
        0.18099287152290344,
        -0.15986467897891998,
        -0.43031415343284607,
        0.5701726675033569,
        0.2665739357471466,
        -0.38397711515426636,
        -0.65056973695755,
        0.08552239835262299,
        0.3464668095111847,
        0.18825870752334595,
        0.1839464157819748,
        -0.41207632422447205,
        0.5083670020103455,
        0.7667686343193054,
        -0.18834787607192993,
        0.21890363097190857,
        -0.4005868434906006,
        -0.5552406311035156,
        -0.4864973723888397,
        -0.19950135052204132,
        0.5573721528053284,
        0.08386962860822678,
        -0.9241839051246643,
        -0.20191161334514618,
        0.6364799737930298,
        0.4896252155303955,
        0.6899744868278503,
        -0.028401199728250504,
        -0.04182881861925125,
        -0.06906469166278839,
        -0.1506837010383606,
        -0.5012422800064087,
        -0.037680331617593765,
        -0.004603782203048468,
        0.04956134408712387,
        0.6332910656929016,
        0.2853805124759674,
        0.012250665575265884,
        -0.08425275981426239,
        0.34950482845306396,
        0.3706102669239044,
        0.6172885298728943,
        -0.01187626551836729,
        -0.06061400845646858,
        0.31212785840034485,
        -0.7928456664085388,
        -0.7381716966629028,
        0.08643139153718948,
        -0.03156443312764168,
        0.3805733323097229,
        -0.100399911403656,
        0.07595940679311752,
        0.20841632783412933,
        0.4232446253299713,
        0.08531027287244797,
        -0.559788167476654,
        -0.3396754562854767,
        0.9127222299575806,
        0.4649544358253479,
        -0.5600699186325073,
        -0.05951928347349167,
        0.19997960329055786,
        0.1643776148557663,
        0.8286032676696777,
        -0.5256529450416565,
        -0.19454467296600342,
        -0.43269839882850647,
        0.15136174857616425,
        -0.3706306219100952,
        0.2948959469795227,
        0.09677333384752274,
        0.1348462700843811,
        0.2477743774652481,
        -0.15456686913967133,
        0.3226979374885559,
        -0.04388279467821121,
        -0.4094415009021759,
        -0.6671087741851807,
        -0.9269824624061584,
        -0.25162798166275024,
        0.19286327064037323,
        0.13667400181293488,
        0.23213772475719452,
        -0.07777664810419083,
        -0.19750380516052246,
        0.8253530859947205,
        0.3854368031024933,
        -0.15582728385925293,
        -0.5313717126846313,
        0.767586350440979,
        0.6256622076034546,
        0.4760381281375885,
        -0.07894536852836609,
        0.27434390783309937,
        -0.3840267062187195,
        0.1793007105588913,
        0.33525994420051575,
        -0.3018401265144348,
        0.3590047359466553,
        -0.14586760103702545,
        -0.8609148263931274,
        0.18050514161586761,
        -0.014527388848364353,
        -0.6193677186965942,
        0.7024688124656677,
        0.1226300597190857,
        0.42095947265625,
        0.2808067500591278,
        0.022849520668387413,
        0.4587958753108978,
        -0.3900427222251892,
        0.40309903025627136,
        0.5609554052352905,
        0.05419790372252464,
        -0.3670460879802704,
        -0.00669739069417119,
        -0.42636287212371826,
        0.30308520793914795,
        -0.1749378740787506,
        0.49782949686050415,
        0.6697883009910583,
        -0.3103243410587311,
        0.21189428865909576,
        -0.23840183019638062,
        -0.09441541135311127,
        -0.15434882044792175,
        -0.1892053782939911,
        -0.3398098647594452,
        -0.14628714323043823,
        -0.4295617341995239,
        0.20447255671024323,
        -0.3636995255947113,
        0.22118966281414032,
        -0.44427984952926636,
        -0.1802678406238556,
        -0.22328060865402222,
        -0.2330019772052765,
        0.8391010761260986,
        0.14197677373886108,
        0.10681650042533875,
        -0.4197659492492676,
        -0.11755263060331345,
        1.1499814987182617,
        -0.3840368986129761,
        0.9977932572364807,
        -0.19478392601013184,
        0.009021041914820671,
        0.008552431128919125,
        0.29745379090309143,
        0.053007572889328,
        -0.2557605504989624,
        -0.4264621138572693,
        0.10212050378322601,
        -0.48139286041259766,
        -0.7386924028396606,
        0.33355414867401123,
        0.0680299773812294,
        0.8811004757881165,
        0.5139607191085815,
        0.2003665268421173,
        -0.3309350311756134,
        -0.4326697587966919,
        0.03343627601861954,
        -0.010088477283716202,
        -0.06856445223093033,
        -0.23950567841529846,
        -0.015163389034569263,
        -0.3339305818080902,
        -0.1329841911792755,
        0.30076852440834045,
        0.43340274691581726,
        -0.10796484351158142,
        0.0563848540186882,
        0.6644944548606873,
        -0.1600261777639389,
        -0.31725895404815674,
        0.13224290311336517,
        -0.42402383685112,
        0.48429903388023376,
        0.11254531890153885,
        0.34136709570884705,
        -0.37736156582832336,
        0.23626308143138885,
        0.16812653839588165,
        0.027262007817626,
        0.05955483019351959,
        -0.19649319350719452,
        0.5623384118080139,
        -0.4834243357181549,
        -0.3625250458717346,
        -0.5895697474479675,
        -0.4198964238166809,
        0.6826975345611572,
        -0.1845705658197403,
        0.4230791926383972,
        -0.29185834527015686,
        -0.3065565526485443,
        0.3741275668144226,
        0.021367590874433517,
        -0.15896663069725037,
        -0.21390680968761444,
        -0.24028973281383514,
        0.16037516295909882,
        -0.3602612316608429,
        0.057430118322372437,
        0.6978880763053894,
        -0.14405035972595215,
        -0.1656375378370285,
        -0.1929304599761963,
        -0.3117606043815613,
        0.45806825160980225,
        0.09619820863008499,
        0.6739346385002136,
        0.27808889746665955,
        -0.2952757179737091,
        0.9653251767158508,
        0.25298407673835754,
        0.18761484324932098,
        -0.011389011517167091,
        -0.21061477065086365,
        -0.21938742697238922,
        0.2468710094690323,
        -0.087224580347538,
        0.11301887035369873,
        -0.4798280894756317,
        -0.4930514991283417,
        -0.07367962598800659,
        0.1028764545917511,
        -0.15180939435958862,
        -0.6564558744430542,
        -0.4600784182548523,
        0.20649968087673187,
        -0.6190798282623291,
        -0.14084593951702118,
        0.07437252998352051,
        0.046797797083854675,
        -0.17459696531295776,
        -0.3100719451904297,
        0.38027891516685486,
        -0.007473407778888941,
        0.3949323296546936,
        -0.056062325835227966,
        0.3295106887817383,
        -0.24204121530056,
        0.556926429271698,
        -0.5481807589530945,
        0.8938409686088562,
        -0.48612773418426514,
        -0.2189582884311676,
        0.2188117951154709,
        -0.420271098613739,
        -0.3314633071422577,
        -0.15383388102054596,
        -0.02254187874495983,
        0.26277515292167664,
        -0.03239477798342705,
        -0.3374531865119934,
        -0.2707132399082184,
        0.6364316940307617,
        -0.0802154392004013,
        -0.2159433215856552,
        -0.5417651534080505,
        0.2604738175868988,
        -0.4162275791168213,
        -0.2783469259738922,
        -0.284277081489563,
        -0.15023569762706757,
        0.24473142623901367,
        -0.17747703194618225,
        -0.009013881906867027,
        -0.22728219628334045,
        -0.07851986587047577,
        -0.2723233103752136,
        0.6078987717628479,
        0.30768266320228577,
        0.5390145182609558,
        0.11539335548877716,
        0.02769801765680313,
        -0.11945277452468872,
        0.20402298867702484,
        0.6713561415672302,
        0.3004549443721771,
        0.1292952448129654,
        -0.08545372635126114,
        0.028212163597345352,
        -0.33469754457473755,
        -0.2744600176811218,
        -0.20676656067371368,
        -0.5795348286628723,
        -0.22449159622192383,
        1.070267677307129,
        0.34320303797721863,
        -0.6521486043930054,
        -0.28328049182891846,
        -0.18494710326194763,
        0.04078087583184242,
        -0.011055312119424343,
        -0.20208345353603363,
        0.05432473495602608,
        0.4691866636276245,
        -0.02827666513621807,
        0.7421796321868896,
        0.17218121886253357,
        0.19543173909187317,
        0.10411954671144485,
        0.36420437693595886,
        0.06482863426208496,
        0.35350263118743896,
        -0.12437997758388519,
        0.2599855065345764,
        0.20074333250522614,
        -0.2356228530406952,
        0.7570311427116394,
        -0.13033756613731384,
        0.10105373710393906,
        -0.08498425036668777,
        0.4262116253376007,
        -0.11784718930721283,
        0.019845500588417053,
        0.4775555431842804,
        -0.4270777106285095,
        0.02528793178498745,
        -0.0034937558230012655,
        0.6315337419509888,
        0.12853457033634186,
        0.4400804340839386,
        0.686658501625061,
        0.3670898973941803,
        -0.507634162902832,
        0.15847164392471313
      ],
      "weightsShape": [
        17,
        64
      ],
      "bias": [
        -0.033237967640161514,
        0.010652713477611542,
        0.021129151806235313,
        -0.0029216075781732798,
        0.14113372564315796,
        0.23277457058429718,
        0.05867655202746391,
        -0.1808622181415558,
        -0.15979468822479248,
        0.02465776540338993,
        -0.01183041650801897,
        0.03941033408045769,
        -0.005400768481194973,
        -0.09729797393083572,
        0.06537152826786041,
        -0.2507763206958771,
        0.013748143799602985,
        0.03741469234228134,
        0.002561482833698392,
        0.0664740651845932,
        0.12265946716070175,
        0.013547221198678017,
        0,
        0.01358597632497549,
        -0.0563984178006649,
        0.006351024378091097,
        0.010758871212601662,
        -0.010630421340465546,
        -0.08034174889326096,
        -0.0056170811876654625,
        0.08099851757287979,
        0.052393749356269836,
        0.0009124924545176327,
        0.02001957967877388,
        0.13106998801231384,
        -0.004902814980596304,
        0.003790671471506357,
        -0.022509276866912842,
        0.11206410825252533,
        -0.0931980237364769,
        -0.07300855964422226,
        0.07462954521179199,
        0.04736841470003128,
        0.07900751382112503,
        0.09156318753957748,
        0.0017269657691940665,
        -0.087972491979599,
        0.31691059470176697,
        0,
        0.15279528498649597,
        0.0015554266283288598,
        -0.12429144978523254,
        -0.0641668513417244,
        -0.11015073955059052,
        -0.018426449969410896,
        -0.00016010132094379514,
        0.0709611028432846,
        -0.07791585475206375,
        0.008307830430567265,
        0.016485566273331642,
        -0.019268397241830826,
        -0.08508237451314926,
        -0.04255316033959389,
        -0.018410487100481987
      ],
      "biasShape": [
        1,
        64
      ],
      "activation": "relu"
    },
    {
      "weights": [
        0.05069757625460625,
        -0.49712154269218445,
        -0.15112829208374023,
        -0.37765243649482727,
        0.23860186338424683,
        -0.10277403146028519,
        0.1480775773525238,
        0.13119210302829742,
        -0.16985397040843964,
        0.43535327911376953,
        0.04099664092063904,
        0.198634073138237,
        -0.06887288391590118,
        -0.24807794392108917,
        0.03692898526787758,
        -0.18900060653686523,
        -0.1369321048259735,
        -0.08631566911935806,
        0.19595997035503387,
        0.0993197038769722,
        0.19385729730129242,
        0.09569521993398666,
        0.24731221795082092,
        -0.015168270096182823,
        0.08405616134405136,
        -0.3699027895927429,
        0.32074904441833496,
        -0.007100003771483898,
        -0.19954149425029755,
        -0.16492363810539246,
        0.03231843560934067,
        -0.023671068251132965,
        0.3173709809780121,
        -0.19578112661838531,
        0.07190874963998795,
        -0.31216999888420105,
        0.005373658612370491,
        0.1662740260362625,
        0.40055105090141296,
        0.36016085743904114,
        0.11064451187849045,
        0.20475971698760986,
        0.49660933017730713,
        0.13723142445087433,
        -0.09198983013629913,
        0.4209757447242737,
        0.08670739084482193,
        0.09863092750310898,
        -0.24332036077976227,
        -0.0770035907626152,
        -0.07584540545940399,
        0.1461690217256546,
        -0.024283811450004578,
        -0.21769435703754425,
        -0.10569828003644943,
        -0.08626695722341537,
        -0.20874996483325958,
        0.16554467380046844,
        0.2606872320175171,
        -0.06854147464036942,
        0.02690834552049637,
        -0.08222860097885132,
        -0.36160147190093994,
        0.07707524299621582,
        0.1471700221300125,
        0.18608729541301727,
        0.18752716481685638,
        -0.07427030056715012,
        -0.39796456694602966,
        -0.17959803342819214,
        -0.22057384252548218,
        -0.12757091224193573,
        -0.11799803376197815,
        -0.3528655469417572,
        -0.1580200046300888,
        0.061570581048727036,
        0.03885851427912712,
        -0.015570437535643578,
        0.4302125871181488,
        -0.10123306512832642,
        -0.09117741137742996,
        0.08831783384084702,
        0.4076533019542694,
        -0.08355770260095596,
        -0.09742456674575806,
        0.0834541842341423,
        0.10553869605064392,
        -0.0900941863656044,
        0.19847311079502106,
        -0.011017119511961937,
        -0.0298696830868721,
        -0.027852585539221764,
        0.3472844660282135,
        -0.14947523176670074,
        0.01725650206208229,
        0.13879577815532684,
        0.3409416079521179,
        -0.09758532792329788,
        0.1985679268836975,
        -0.20522922277450562,
        0.0545625165104866,
        -0.06761608272790909,
        0.3703283667564392,
        0.4227761924266815,
        -0.5761696696281433,
        -0.3482414484024048,
        0.40150773525238037,
        -0.0835505872964859,
        0.1147565022110939,
        0.0005472358898259699,
        0.37450742721557617,
        -0.13267385959625244,
        -0.29143303632736206,
        -0.1575087457895279,
        0.24739310145378113,
        0.4117787480354309,
        0.38938722014427185,
        -0.003966092597693205,
        -0.06559167802333832,
        0.0023352899588644505,
        0.2619176208972931,
        0.22083161771297455,
        0.0752018615603447,
        -0.4143372178077698,
        -0.1335751712322235,
        -0.011928359977900982,
        -0.20893420279026031,
        -0.07619752734899521,
        -0.1448548138141632,
        0.05317622423171997,
        0.0895802304148674,
        0.277780681848526,
        0.15991953015327454,
        -0.036388907581567764,
        -0.4920777678489685,
        -0.3932524621486664,
        0.43133774399757385,
        0.40225809812545776,
        -0.18411687016487122,
        0.1938963532447815,
        0.29013416171073914,
        0.5208607912063599,
        -0.29373523592948914,
        0.02380669116973877,
        -0.06739073246717453,
        -0.011072052642703056,
        -0.010676559060811996,
        -0.29648903012275696,
        -0.3945808708667755,
        0.1093229353427887,
        0.13439719378948212,
        0.3280591070652008,
        -0.21724441647529602,
        0.13014690577983856,
        0.29261502623558044,
        -0.2926805913448334,
        -0.4498625695705414,
        0.23287084698677063,
        -0.2721780240535736,
        0.3320726156234741,
        -0.3013251721858978,
        -0.22384509444236755,
        -0.4124845266342163,
        -0.022562677040696144,
        -0.24494612216949463,
        -0.18969306349754333,
        -0.2999330163002014,
        -0.06170786917209625,
        -0.1600593626499176,
        0.06544751673936844,
        -0.05270477756857872,
        -0.13500891625881195,
        -0.16441980004310608,
        0.30775919556617737,
        0.22457194328308105,
        0.1968134045600891,
        -0.08765538781881332,
        -0.12041448056697845,
        -0.08614368736743927,
        -0.010639164596796036,
        -0.046439774334430695,
        -0.23109005391597748,
        0.01801629550755024,
        0.15238000452518463,
        0.1632118672132492,
        -0.10277577489614487,
        0.06835382431745529,
        0.02356858178973198,
        0.17046526074409485,
        0.12103692442178726,
        0.45790064334869385,
        -0.07675027847290039,
        0.3762252926826477,
        -0.41552385687828064,
        -0.07831067591905594,
        -0.2447258085012436,
        -0.12843070924282074,
        -0.1533031463623047,
        0.1701160967350006,
        -0.0758558064699173,
        -0.36644378304481506,
        -0.06288019567728043,
        -0.0011969666229560971,
        -0.06080635264515877,
        0.17965199053287506,
        0.4643287658691406,
        0.36014324426651,
        0.03190163895487785,
        -0.32465818524360657,
        -0.2185320407152176,
        -0.2988243103027344,
        0.09417129307985306,
        0.1521071344614029,
        0.36944565176963806,
        -0.43136832118034363,
        -0.015091842040419579,
        -0.10942922532558441,
        0.3285820186138153,
        0.15735909342765808,
        -0.2450503706932068,
        0.15755803883075714,
        0.07507773488759995,
        -0.10245620459318161,
        0.08448819816112518,
        0.2487536072731018,
        -0.03288797661662102,
        -0.1662866771221161,
        0.03572747856378555,
        -0.046405352652072906,
        0.3359706699848175,
        0.03361605480313301,
        0.34216588735580444,
        -0.0755746141076088,
        -0.20407938957214355,
        0.028352830559015274,
        -0.25945669412612915,
        -0.06713496148586273,
        0.20480439066886902,
        0.2615559697151184,
        0.06578543782234192,
        0.2841929495334625,
        0.11428127437829971,
        -0.3920026421546936,
        0.16841833293437958,
        0.19463063776493073,
        -0.15296611189842224,
        -0.29044395685195923,
        0.06564564257860184,
        -0.2413170486688614,
        0.10650712996721268,
        -0.1032240018248558,
        0.055204037576913834,
        -0.20179788768291473,
        -0.06810097396373749,
        0.00896370504051447,
        -0.07150372862815857,
        0.9019024968147278,
        0.09099728614091873,
        0.20763838291168213,
        -0.12188795208930969,
        -0.14144366979599,
        -0.019714001566171646,
        0.4337310791015625,
        0.702502965927124,
        -0.5226244330406189,
        -0.2726499140262604,
        0.21962694823741913,
        -0.10473684221506119,
        -0.033834125846624374,
        -0.09927735477685928,
        -0.05491575226187706,
        -0.07110395282506943,
        -0.13057085871696472,
        -0.21596398949623108,
        -0.04001680016517639,
        0.17469172179698944,
        0.5478110313415527,
        0.4593275189399719,
        -0.03900890424847603,
        -0.20389090478420258,
        -0.024754786863923073,
        0.38301485776901245,
        -0.18874335289001465,
        -0.2669554054737091,
        0.2851593792438507,
        -0.154036745429039,
        -0.6553327441215515,
        0.30832743644714355,
        -0.07058556377887726,
        0.16259057819843292,
        0.16591417789459229,
        -0.06257367134094238,
        -0.13121730089187622,
        0.024414949119091034,
        -0.04661289229989052,
        -0.25333189964294434,
        -0.22014950215816498,
        -0.306121826171875,
        -0.3502182066440582,
        -0.0285437423735857,
        0.0402195006608963,
        0.06898745149374008,
        0.006712349597364664,
        0.22868257761001587,
        0.26946333050727844,
        0.04827263578772545,
        -0.10168168693780899,
        -0.3068309426307678,
        -0.3657856583595276,
        0.1985640674829483,
        0.14075887203216553,
        0.06862202286720276,
        0.2036682665348053,
        -0.13615043461322784,
        0.3036268353462219,
        -0.12886378169059753,
        -0.36133208870887756,
        -0.004736275412142277,
        -0.10589919984340668,
        -0.09893648326396942,
        0.3421587646007538,
        -0.17197880148887634,
        -0.36007869243621826,
        0.2358161360025406,
        0.2715315818786621,
        -0.19429324567317963,
        0.4207350015640259,
        0.2830985486507416,
        -0.4137462079524994,
        -0.41499781608581543,
        0.22086413204669952,
        0.13822366297245026,
        -0.10636502504348755,
        0.14099441468715668,
        0.2940883934497833,
        0.14156723022460938,
        -0.20478340983390808,
        0.3157453238964081,
        -0.04059223085641861,
        0.3644825220108032,
        0.21791952848434448,
        -0.14859731495380402,
        -0.293111115694046,
        0.321704238653183,
        0.2711978256702423,
        0.20348088443279266,
        -0.11213508248329163,
        0.19572532176971436,
        -0.24819572269916534,
        -0.03310375660657883,
        -0.2056766152381897,
        0.09466225653886795,
        -0.24661408364772797,
        0.14768098294734955,
        -0.15032561123371124,
        -0.19408147037029266,
        0.05740628018975258,
        0.10692591220140457,
        0.1242760717868805,
        0.31008702516555786,
        -0.22616398334503174,
        0.2418370097875595,
        -0.0037131693679839373,
        0.08433035016059875,
        -0.21936146914958954,
        0.013974674977362156,
        0.011186410672962666,
        0.04781943932175636,
        -0.08897850662469864,
        0.18598562479019165,
        0.22201888263225555,
        -0.09816373139619827,
        0.01661715656518936,
        0.19183167815208435,
        0.12923359870910645,
        0.41537225246429443,
        0.0173586905002594,
        -0.09613925218582153,
        0.16145765781402588,
        -0.03782865032553673,
        0.25963258743286133,
        0.06255831569433212,
        0.04757464677095413,
        -0.0647660419344902,
        -0.2017185240983963,
        -0.013370842672884464,
        -0.02452734299004078,
        -0.17861773073673248,
        -0.11134258657693863,
        -0.0029016737826168537,
        -0.3441424071788788,
        -0.12262652814388275,
        0.06083444133400917,
        -0.07595508545637131,
        -0.11071974784135818,
        0.2634546160697937,
        -0.0587906576693058,
        -0.2311561554670334,
        0.237993061542511,
        -0.26487135887145996,
        -0.3055698275566101,
        -0.10800640285015106,
        0.036039069294929504,
        0.06987463682889938,
        0.13632065057754517,
        0.3325144350528717,
        0.41389453411102295,
        -0.018353255465626717,
        0.2152559906244278,
        0.06998423486948013,
        0.20585380494594574,
        -0.18634706735610962,
        -0.06651554256677628,
        0.2153700590133667,
        -0.08735915273427963,
        0.38366273045539856,
        0.36075159907341003,
        -0.050232600420713425,
        -0.1223614513874054,
        -0.34821996092796326,
        -0.17547360062599182,
        -0.14364972710609436,
        0.10485658049583435,
        0.22247663140296936,
        -0.05962551385164261,
        0.393932968378067,
        0.31033676862716675,
        -0.1919538974761963,
        -0.17078366875648499,
        -0.2720448970794678,
        0.236470565199852,
        -0.25452739000320435,
        0.14134110510349274,
        0.07601965963840485,
        0.01744851842522621,
        0.4843553900718689,
        0.12355196475982666,
        -0.0175030454993248,
        0.020710177719593048,
        -0.09462276846170425,
        -0.023849209770560265,
        0.3490094542503357,
        0.11018981039524078,
        -0.2081492841243744,
        0.0886431336402893,
        0.0043887849897146225,
        0.0045704711228609085,
        0.09767191112041473,
        0.08613991737365723,
        0.02727658487856388,
        -0.25633150339126587,
        0.15935859084129333,
        0.09127870202064514,
        -0.15726396441459656,
        0.15710406005382538,
        0.3249872326850891,
        0.2356134057044983,
        0.10356495529413223,
        -0.09974505007266998,
        0.17506647109985352,
        -0.20468921959400177,
        0.2052997648715973,
        -0.1256556659936905,
        0.08142387121915817,
        0.32751473784446716,
        -0.10927505791187286,
        -0.03028974123299122,
        -0.007943395525217056,
        0.3888222575187683,
        0.23881016671657562,
        -0.2616676986217499,
        0.07145636528730392,
        -0.060535065829753876,
        -0.15016300976276398,
        0.08834244310855865,
        -0.2343411147594452,
        -0.26868459582328796,
        0.011701392009854317,
        -0.27615857124328613,
        -0.008793761022388935,
        0.4211171269416809,
        -0.0016294927336275578,
        -0.22878877818584442,
        -0.07465122640132904,
        -0.3107793629169464,
        -0.21582604944705963,
        0.27827322483062744,
        0.11072399467229843,
        0.14977732300758362,
        -0.1695610135793686,
        0.27610236406326294,
        -0.17119833827018738,
        0.08348830044269562,
        -0.531780481338501,
        0.29097700119018555,
        0.09504096210002899,
        -0.2877810001373291,
        -0.11006934940814972,
        -0.08002165704965591,
        0.25863614678382874,
        0.2552952170372009,
        -0.11197490990161896,
        0.13412250578403473,
        -0.05473323166370392,
        0.06266513466835022,
        -0.0829184278845787,
        -0.3685533106327057,
        0.07641470432281494,
        -0.17036446928977966,
        -0.22457833588123322,
        0.09383247047662735,
        -0.024561168625950813,
        -0.006217242684215307,
        0.20582149922847748,
        -0.009100423194468021,
        -0.2856628894805908,
        0.3250700533390045,
        0.18476608395576477,
        -0.28988125920295715,
        -0.4039817750453949,
        0.3151327967643738,
        -0.13454416394233704,
        -0.12879206240177155,
        -0.0045913164503872395,
        0.15839388966560364,
        0.07795359194278717,
        -0.39643293619155884,
        0.016266239807009697,
        -0.17727059125900269,
        0.050679221749305725,
        0.050594259053468704,
        -0.7772218585014343,
        0.06625202298164368,
        -0.4333702027797699,
        0.23379649221897125,
        -0.1552310585975647,
        0.11154697090387344,
        -0.08208850771188736,
        0.06350221484899521,
        0.05338585376739502,
        -0.11598169058561325,
        -0.14738216996192932,
        -0.05754940211772919,
        -0.22327151894569397,
        -0.09867560118436813,
        0.14398184418678284,
        0.1931523233652115,
        -0.15427736937999725,
        -0.2574858069419861,
        -0.031750790774822235,
        0.3295768201351166,
        -0.1759188324213028,
        -0.27485498785972595,
        0.26379692554473877,
        -0.30220818519592285,
        0.23304757475852966,
        0.0978040099143982,
        0.11163456737995148,
        -0.11767230927944183,
        -0.0446573831140995,
        -0.15921418368816376,
        0.14016172289848328,
        0.06278675049543381,
        0.062030110508203506,
        0.10999871045351028,
        -0.10522697120904922,
        0.0979677066206932,
        0.008995207957923412,
        0.09125971794128418,
        -0.03990556299686432,
        -0.06343294680118561,
        0.12932609021663666,
        -0.07172108441591263,
        0.09511489421129227,
        0.39043128490448,
        -0.16650786995887756,
        -0.22695745527744293,
        0.05800531059503555,
        0.07672332227230072,
        -0.14032690227031708,
        0.0742097795009613,
        0.038616396486759186,
        0.256506085395813,
        -0.1019163429737091,
        -0.3884683847427368,
        -0.2245880514383316,
        0.019932039082050323,
        -0.10773114114999771,
        0.04304523766040802,
        -0.039157118648290634,
        -0.026726124808192253,
        0.24273590743541718,
        0.13729391992092133,
        -0.014891615137457848,
        -0.22776784002780914,
        0.1220625713467598,
        0.18510238826274872,
        0.1428540050983429,
        0.04404250532388687,
        0.12686339020729065,
        0.1551993489265442,
        0.11731435358524323,
        -0.08835037052631378,
        -0.011896388605237007,
        -0.027508271858096123,
        0.2443852424621582,
        0.16050691902637482,
        0.032938677817583084,
        0.45819661021232605,
        -0.14084789156913757,
        0.18886303901672363,
        0.053219687193632126,
        0.13373221457004547,
        -0.12874817848205566,
        0.2827033996582031,
        0.12815974652767181,
        -0.5549164414405823,
        -0.0471242256462574,
        0.0696379616856575,
        -0.25650063157081604,
        -0.1468096524477005,
        -0.05613761767745018,
        0.2990250885486603,
        0.08739866316318512,
        -0.1139196828007698,
        0.08817495405673981,
        -0.1874701976776123,
        0.19399011135101318,
        0.3194720447063446,
        0.39667806029319763,
        -0.2620777487754822,
        0.08536325395107269,
        -0.03638118505477905,
        -0.06999529898166656,
        -0.08933689445257187,
        0.03194493427872658,
        0.03732674568891525,
        0.09896886348724365,
        -0.2782314121723175,
        -0.14275139570236206,
        0.14252057671546936,
        0.16770300269126892,
        0.08947061747312546,
        0.06662183254957199,
        -0.07362647354602814,
        0.06942114979028702,
        -0.07610027492046356,
        0.4312392473220825,
        0.18279573321342468,
        0.20423488318920135,
        0.03853858262300491,
        -0.009662083350121975,
        -0.17994427680969238,
        0.446946382522583,
        0.13798575103282928,
        0.2593145966529846,
        0.03998120129108429,
        -0.24176867306232452,
        0.0723923072218895,
        0.14572498202323914,
        -0.2460867315530777,
        0.33283737301826477,
        0.06644544005393982,
        -0.018980083987116814,
        0.07877898961305618,
        0.4721611440181732,
        -0.04821937903761864,
        0.3082098960876465,
        0.30133917927742004,
        0.15215030312538147,
        0.20060713589191437,
        -0.20932014286518097,
        0.035796891897916794,
        -0.20911629498004913,
        0.38089579343795776,
        0.05674366280436516,
        0.16593842208385468,
        0.0167098268866539,
        0.19073952734470367,
        -0.13067543506622314,
        0.07954826205968857,
        -0.20231865346431732,
        -0.11703875660896301,
        0.09292872250080109,
        -0.10064080357551575,
        0.14303839206695557,
        -0.23825807869434357,
        -0.01945452392101288,
        -0.006931421346962452,
        -0.020624611526727676,
        0.3830365538597107,
        0.2789469361305237,
        0.10201410204172134,
        -0.1918020397424698,
        0.35987332463264465,
        0.32981956005096436,
        -0.19040706753730774,
        -0.000008483109013468493,
        0.2665192484855652,
        -0.23504312336444855,
        -0.08066794276237488,
        0.1396714448928833,
        0.12761926651000977,
        -0.0753718689084053,
        -0.13545732200145721,
        -0.2548767030239105,
        0.07672670483589172,
        0.3294532299041748,
        -0.024360738694667816,
        -0.06252465397119522,
        0.12881769239902496,
        -0.31940406560897827,
        0.07986368983983994,
        0.29479748010635376,
        0.15623719990253448,
        -0.019181588664650917,
        0.16621033847332,
        -0.10503597557544708,
        -0.09572258591651917,
        0.021532922983169556,
        -0.4796128273010254,
        -0.022825317457318306,
        -0.01605987176299095,
        0.025719135999679565,
        -0.11020500957965851,
        0.07253527641296387,
        -0.1050250306725502,
        0.0646672397851944,
        -0.04599061235785484,
        0.029554307460784912,
        -0.24332492053508759,
        -0.0479193776845932,
        -0.18560568988323212,
        -0.37215253710746765,
        -0.03633444756269455,
        -0.13276003301143646,
        -0.011893278919160366,
        0.1735093593597412,
        0.1009940356016159,
        0.0035251593217253685,
        0.029238397255539894,
        -0.18811054527759552,
        -0.16209909319877625,
        -0.0347004234790802,
        -0.05177915096282959,
        -0.06109705567359924,
        -0.2439454048871994,
        0.20107874274253845,
        0.029946880415081978,
        0.06486573815345764,
        0.030794143676757812,
        0.01425884384661913,
        0.06369862705469131,
        0.07460913807153702,
        0.2161169797182083,
        0.19691796600818634,
        0.041423339396715164,
        -0.0366368293762207,
        0.08335413038730621,
        -0.05754173547029495,
        0.3035632073879242,
        -0.1465991735458374,
        -0.025795739144086838,
        0.29242709279060364,
        0.1499742567539215,
        0.01343417726457119,
        0.041487500071525574,
        -0.03941050544381142,
        0.24112465977668762,
        0.13770143687725067,
        -0.024490218609571457,
        -0.3025788366794586,
        0.3112999200820923,
        0.03191851079463959,
        0.02669915184378624,
        0.38105395436286926,
        -0.19589543342590332,
        -0.08478426933288574,
        0.055745188146829605,
        0.3633579909801483,
        0.13636109232902527,
        -0.2284085750579834,
        0.031082481145858765,
        -0.23888403177261353,
        -0.05100889131426811,
        0.041742052882909775,
        0.08922926336526871,
        0.048446644097566605,
        -0.08044002205133438,
        0.10894077271223068,
        0.009018723852932453,
        -0.10537735372781754,
        0.1592475324869156,
        -0.036079246550798416,
        -0.007631899788975716,
        -0.15092094242572784,
        0.15031670033931732,
        -0.0016289937775582075,
        -0.1108156219124794,
        0.12158595025539398,
        -0.07570299506187439,
        -0.3955914080142975,
        0.1139097586274147,
        -0.0034266647417098284,
        -0.1463262289762497,
        0.11199186742305756,
        0.07110676914453506,
        0.26053300499916077,
        -0.07583506405353546,
        0.16592498123645782,
        -0.14477622509002686,
        -0.01190075185149908,
        -0.27129822969436646,
        0.1308276504278183,
        0.24043996632099152,
        0.0999613106250763,
        -0.18313756585121155,
        -0.2509247064590454,
        0.25481554865837097,
        0.4205026626586914,
        0.037723664194345474,
        0.37526774406433105,
        0.12203557789325714,
        0.13380569219589233,
        -0.08222909271717072,
        -0.10375100374221802,
        0.023518288508057594,
        -0.34510037302970886,
        -0.017541909590363503,
        -0.24668459594249725,
        0.06226889416575432,
        0.04503709450364113,
        0.38990119099617004,
        -0.32865962386131287,
        -0.050203561782836914,
        -0.5625923275947571,
        -0.028371557593345642,
        0.061591923236846924,
        0.2131543606519699,
        0.14533405005931854,
        -0.2162284255027771,
        0.031476087868213654,
        0.15561246871948242,
        -0.14865858852863312,
        0.139923095703125,
        0.24916967749595642,
        0.05299954488873482,
        -0.06175829842686653,
        -0.10538622736930847,
        0.18334217369556427,
        -0.008124937303364277,
        0.02381858043372631,
        -0.1083090528845787,
        -0.08845581859350204,
        0.10500027984380722,
        -0.037513043731451035,
        0.25934362411499023,
        0.17589889466762543,
        -0.3336322605609894,
        0.11610882729291916,
        0.04790070652961731,
        0.04166363179683685,
        -0.2123454213142395,
        0.07456723600625992,
        0.06286682933568954,
        -0.0876760482788086,
        0.029582291841506958,
        0.08771258592605591,
        -0.26114463806152344,
        -0.09023500978946686,
        -0.10722127556800842,
        -0.4692550003528595,
        0.1658632606267929,
        0.5909774899482727,
        0.34278184175491333,
        -0.3349345624446869,
        -0.10361046344041824,
        -0.08540360629558563,
        -0.016252219676971436,
        0.04750216007232666,
        0.10619531571865082,
        0.07432746142148972,
        -0.18930035829544067,
        -0.04185562580823898,
        0.16288773715496063,
        -0.08291491121053696,
        -0.12703756988048553,
        0.11567810922861099,
        0.04932785406708717,
        -0.2603435516357422,
        -0.4024604856967926,
        -0.0227300226688385,
        -0.25039026141166687,
        -0.022685451433062553,
        0.00034591738949529827,
        0.15486986935138702,
        -0.03511467203497887,
        -0.24762237071990967,
        0.12416531145572662,
        -0.19073104858398438,
        -0.0951290875673294,
        0.04620252177119255,
        0.19259414076805115,
        0.009023027494549751,
        -0.18164902925491333,
        0.06142769008874893,
        -0.09909503906965256,
        0.015036235563457012,
        -0.062069762498140335,
        -0.04149780049920082,
        -0.2573515474796295,
        0.25073352456092834,
        0.0800134614109993,
        -0.09342461079359055,
        0.28201594948768616,
        0.14795389771461487,
        0.3951263129711151,
        0.18714195489883423,
        0.07833728194236755,
        -0.1705259382724762,
        0.09819701313972473,
        0.007524226326495409,
        0.10089096426963806,
        -0.05395609885454178,
        -0.1487477421760559,
        0.18046998977661133,
        -0.010343305766582489,
        0.16414359211921692,
        0.03002912923693657,
        -0.026870304718613625,
        0.1230006143450737,
        -0.10097579658031464,
        0.1013898253440857,
        -0.025570740923285484,
        -0.043836209923028946,
        0.3226226568222046,
        0.1102793738245964,
        0.07194697856903076,
        -0.2230130434036255,
        0.2594550549983978,
        0.025041665881872177,
        0.07468194514513016,
        -0.12312212586402893,
        -0.04727583006024361,
        -0.15183906257152557,
        0.06361164152622223,
        0.020489491522312164,
        0.3288295269012451,
        0.3078453838825226,
        -0.1897258460521698,
        0.035839468240737915,
        -0.03660866245627403,
        -0.06714508682489395,
        -0.29418036341667175,
        0.16402964293956757,
        0.08781810104846954,
        -0.1113010123372078,
        0.2547145485877991,
        -0.32288604974746704,
        0.23328202962875366,
        -0.01265474408864975,
        0.17938974499702454,
        0.11256615072488785,
        0.3685104250907898,
        0.03160858154296875,
        0.17090874910354614,
        -0.06412655860185623,
        0.037383370101451874,
        0.3806277811527252,
        0.32246729731559753,
        0.1376001536846161,
        0.2472245842218399,
        -0.08130668848752975,
        0.08045456558465958,
        -0.33584022521972656,
        -0.1653124839067459,
        -0.1810179054737091,
        0.054513413459062576,
        0.198076069355011,
        -0.39775148034095764,
        0.058252085000276566,
        0.2973559498786926,
        -0.09442085772752762,
        -0.1808587908744812,
        0.29344063997268677,
        -0.2716293931007385,
        -0.020655877888202667,
        0.08787958323955536,
        -0.11611631512641907,
        0.18324269354343414,
        -0.06831301748752594,
        0.40107664465904236,
        -0.04430042579770088,
        -0.005195364821702242,
        0.2970348596572876,
        0.22750309109687805,
        0.13688676059246063,
        -0.006766060832887888,
        0.10252464562654495,
        -0.18120832741260529,
        -0.13194304704666138,
        -0.2038317322731018,
        -0.031177692115306854,
        -0.04429636523127556,
        -0.13705085217952728,
        -0.0016769026406109333,
        0.2710708975791931,
        -0.06458941102027893,
        0.017862241715192795,
        -0.06055133044719696,
        0.033039871603250504,
        -0.03749745711684227,
        -0.05435378476977348,
        -0.039843056350946426,
        -0.04410669207572937,
        -0.20048092305660248,
        0.12523895502090454,
        0.15524816513061523,
        0.21114501357078552,
        0.19024482369422913,
        -0.0823744609951973,
        0.20499439537525177,
        0.01993059366941452,
        -0.20109118521213531,
        0.1687508523464203,
        -0.015700291842222214,
        0.16551461815834045,
        -0.10478655993938446,
        -0.010420273058116436,
        0.20582298934459686,
        -0.008655794896185398,
        -0.13042287528514862,
        -0.068472720682621,
        0.002193126128986478,
        -0.04256431758403778,
        -0.21394845843315125,
        -0.06762941926717758,
        -0.10513807833194733,
        -0.01233991514891386,
        -0.198883518576622,
        -0.13021555542945862,
        -0.12333650887012482,
        -0.12150786817073822,
        0.07382794469594955,
        -0.24857527017593384,
        -0.163221076130867,
        -0.005392465274780989,
        -0.132844477891922,
        0.08908507227897644,
        -0.09683697670698166,
        -0.02096116915345192,
        -0.1011495292186737,
        -0.09071851521730423,
        -0.14693698287010193,
        -0.03243677690625191,
        -0.01974274404346943,
        0.13344061374664307,
        -0.3036993741989136,
        0.007888305000960827,
        -0.12617406249046326,
        -0.20044030249118805,
        0.051723919808864594,
        -0.0056629544124007225,
        0.13361573219299316,
        0.19391794502735138,
        -0.1608583629131317,
        -0.06103683263063431,
        0.15905877947807312,
        -0.1252460777759552,
        -0.060805920511484146,
        -0.030609888955950737,
        -0.13519880175590515,
        -0.19958145916461945,
        -0.23075184226036072,
        -0.16402992606163025,
        -0.296924889087677,
        0.005435321945697069,
        -0.2476363331079483,
        0.03533080592751503,
        -0.08524547517299652,
        0.032536666840314865,
        0.24825535714626312,
        0.08292042464017868,
        -0.02322138100862503,
        0.08775012195110321,
        -0.03854740038514137,
        -0.2970823645591736,
        -0.01201578602194786,
        -0.10415316373109818,
        -0.2970687747001648,
        0.08350241184234619,
        0.03668959066271782,
        -0.291410356760025,
        0.12959839403629303,
        0.057336434721946716,
        0.013354714959859848,
        0.09539192169904709,
        0.034451913088560104,
        -0.27775800228118896,
        0.01634606346487999,
        -0.06571623682975769,
        0.12081917375326157,
        0.023610206320881844,
        -0.2046157568693161,
        -0.1394951194524765,
        -0.1336820274591446,
        -0.06720437109470367,
        0.16560012102127075,
        0.013543438166379929,
        -0.039230115711688995,
        -0.009172486141324043,
        -0.1029229611158371,
        0.5029919147491455,
        -0.21237583458423615,
        0.2567022740840912,
        -0.0002083265717374161,
        -0.0888519436120987,
        -0.22149984538555145,
        0.11054465919733047,
        -0.24616171419620514,
        0.1163584291934967,
        -0.3273560106754303,
        0.01517008151859045,
        -0.26045963168144226,
        0.14080530405044556,
        -0.23957698047161102,
        -0.012254050001502037,
        0.28612038493156433,
        0.1074274331331253,
        -0.3532883822917938,
        0.09332352131605148,
        -0.0435819998383522,
        -0.21111780405044556,
        -0.19398517906665802,
        0.18631167709827423,
        -0.09119388461112976,
        0.19827799499034882,
        0.10708688199520111,
        -0.14776848256587982,
        -0.21813321113586426,
        0.4548293650150299,
        -0.1800207495689392,
        -0.1295076459646225,
        -0.2944909334182739,
        -0.10585520416498184,
        0.2574644386768341,
        -0.24717208743095398,
        0.12854239344596863,
        -0.3423099219799042,
        -0.14769433438777924,
        -0.3789197504520416,
        -0.1827864795923233,
        0.1872001588344574,
        0.18538230657577515,
        0.3291356861591339,
        -0.1481665074825287,
        0.23949474096298218,
        -0.055933210998773575,
        0.0597136914730072,
        0.2331714928150177,
        0.03864013031125069,
        -0.133793443441391,
        0.3889692425727844,
        0.11925991624593735,
        0.47301554679870605,
        -0.10777787864208221,
        -0.05126025527715683,
        -0.02452784962952137,
        -0.023360418155789375,
        -0.0935044139623642,
        -0.0751844123005867,
        -0.04470378905534744,
        0.05745555832982063,
        -0.027259118854999542,
        0.08166445046663284,
        -0.22415459156036377,
        0.14330534636974335,
        -0.11344809830188751,
        -0.2601425051689148,
        -0.2905145287513733,
        -0.02504347264766693,
        0.056738294661045074,
        -0.12988266348838806,
        -0.09383729100227356,
        -0.11379534751176834,
        0.05518455058336258,
        -0.09968918561935425,
        0.044656626880168915,
        -0.2198282778263092,
        0.12853564321994781,
        0.1839192509651184,
        0.4262043237686157,
        -0.03592519462108612,
        0.03255949541926384,
        -0.0335000641644001,
        0.20029594004154205,
        -0.0797770768404007,
        0.35303980112075806,
        -0.19500793516635895,
        -0.04763578251004219,
        -0.0998728796839714,
        0.06191595643758774,
        -0.019449302926659584,
        0.5010995268821716,
        -0.16724294424057007,
        0.12299507856369019,
        -0.14993156492710114,
        -0.31528177857398987,
        -0.2577483057975769,
        -0.06900155544281006,
        -0.0649830549955368,
        -0.10043073445558548,
        -0.07761804014444351,
        -0.16963280737400055,
        -0.15661577880382538,
        0.2485264241695404,
        0.6264966726303101,
        0.1509084552526474,
        0.24862314760684967,
        -0.392912894487381,
        -0.08530116081237793,
        0.05645587295293808,
        0.12848787009716034,
        -0.09693960100412369,
        -0.07289888709783554,
        -0.2081001251935959,
        0.18751642107963562,
        -0.0819493904709816,
        -0.29511791467666626,
        -0.5832440853118896,
        -0.22472313046455383,
        -0.04935755208134651,
        0.14669768512248993,
        -0.10071273148059845,
        0.050275687128305435,
        0.17654716968536377,
        0.42936575412750244,
        0.1895601451396942,
        -0.02122018113732338,
        -0.05190776661038399,
        0.057352833449840546,
        0.19039586186408997,
        -0.17463548481464386,
        0.051634930074214935,
        -0.13688533008098602,
        -0.20139236748218536,
        -0.42850854992866516,
        0.24308720231056213,
        -0.2933894395828247,
        0.20170177519321442,
        -0.5647556185722351,
        -0.06990107893943787,
        -0.046110786497592926,
        -0.11892813444137573,
        -0.2791987955570221,
        -0.22459566593170166,
        0.12419627606868744,
        0.02976684831082821,
        -0.014686141163110733,
        -0.13094286620616913,
        -0.05473583936691284,
        -0.21571463346481323,
        -0.03901854529976845,
        0.27359259128570557,
        0.041237860918045044,
        0.018397638574242592,
        0.1542748659849167,
        0.055042415857315063,
        0.08994203805923462,
        -0.34188732504844666,
        0.2176881730556488,
        -0.1589963734149933,
        0.1680171936750412,
        -0.26018714904785156,
        -0.23577111959457397,
        0.043965812772512436,
        0.1071631908416748,
        0.023219652473926544,
        0.18014682829380035,
        0.037871550768613815,
        0.27255499362945557,
        -0.11294502019882202,
        -0.23010510206222534,
        0.14016108214855194,
        -0.24672788381576538,
        0.09744008630514145,
        0.46190041303634644,
        -0.2711191475391388,
        0.006532241124659777,
        0.06587860733270645,
        0.08023514598608017,
        0.1496347039937973,
        0.027688587084412575,
        -0.13375690579414368,
        0.2565743923187256,
        -0.25647279620170593,
        0.2633044421672821,
        -0.18242889642715454,
        -0.15135617554187775,
        0.19237269461154938,
        0.09757664799690247,
        -0.1043335348367691,
        0.059652846306562424,
        0.08501649647951126,
        0.19572129845619202,
        0.2036544531583786,
        0.0042432923801243305,
        -0.2746288478374481,
        -0.08483093231916428,
        -0.06120319664478302,
        0.2452559918165207,
        0.06768785417079926,
        -0.33011293411254883,
        -0.08402153849601746,
        0.1137520968914032,
        -0.09171868860721588,
        0.22923485934734344,
        0.019529489800333977,
        0.02668420784175396,
        0.14670372009277344,
        0.302908331155777,
        0.14697472751140594,
        0.10614968836307526,
        0.17837212979793549,
        0.24393783509731293,
        0.0677756816148758,
        -0.040487781167030334,
        -0.038298215717077255,
        0.00127257383428514,
        0.2970631420612335,
        0.0660933405160904,
        -0.11865554749965668,
        0.08896753937005997,
        0.17135941982269287,
        0.08668501675128937,
        -0.25622984766960144,
        -0.04655003920197487,
        -0.24360640347003937,
        -0.09299344569444656,
        0.007439859677106142,
        -0.21570000052452087,
        0.045243922621011734,
        -0.12582872807979584,
        0.17165280878543854,
        -0.3770137429237366,
        -0.10640691965818405,
        0.29013338685035706,
        -0.017318544909358025,
        0.006511195562779903,
        -0.2188619077205658,
        -0.2226935625076294,
        0.19217848777770996,
        -0.27968934178352356,
        -0.17693006992340088,
        0.4497065246105194,
        -0.025623956695199013,
        0.0876629427075386,
        -0.18527449667453766,
        -0.1744423508644104,
        -0.044608768075704575,
        0.16275332868099213,
        -0.1740158647298813,
        0.2626219391822815,
        -0.08227597177028656,
        0.07359880208969116,
        0.06362549960613251,
        0.17205224931240082,
        0.21570201218128204,
        0.029808051884174347,
        0.26639679074287415,
        -0.3685351312160492,
        -0.018325388431549072,
        -0.09155571460723877,
        -0.33562320470809937,
        0.020312199369072914,
        0.037451617419719696,
        0.22809258103370667,
        0.34089717268943787,
        0.2097020298242569,
        0.4261394739151001,
        0.1555749922990799,
        0.04546644911170006,
        -0.2686639428138733,
        -0.150249645113945,
        0.6987088918685913,
        -0.006472223438322544,
        -0.0829782634973526,
        -0.13061678409576416,
        -0.05842237174510956,
        0.019386839121580124,
        -0.3264325261116028,
        0.11847565323114395,
        0.005060558672994375,
        0.37092387676239014,
        0.15573526918888092,
        -0.29619911313056946,
        -0.2765713930130005,
        -0.20831722021102905,
        -0.10425961762666702,
        0.16836059093475342,
        -0.2965145707130432,
        -0.27030429244041443,
        0.05793935805559158,
        0.10544443130493164,
        -0.03254099562764168,
        0.192899689078331,
        0.311581552028656,
        0.15861399471759796,
        -0.2524207532405853,
        -0.1782754510641098,
        -0.08434205502271652,
        -0.014307627454400063,
        -0.04299691691994667,
        0.02860497683286667,
        -0.06929435580968857,
        -0.01579967513680458,
        0.18557262420654297,
        -0.17092961072921753,
        -0.01622527465224266,
        0.06228656694293022,
        -0.34981629252433777,
        0.14138200879096985,
        -0.15930840373039246,
        -0.22151261568069458,
        0.13313265144824982,
        0.19913922250270844,
        -0.21004067361354828,
        -0.16901102662086487,
        -0.09408082067966461,
        -0.16982123255729675,
        0.13625812530517578,
        0.10802064836025238,
        -0.2973865270614624,
        -0.0912013053894043,
        0.039262156933546066,
        -0.0336967334151268,
        0.11363989859819412,
        0.12982983887195587,
        -0.03297725319862366,
        0.2661288380622864,
        0.015854036435484886,
        0.041845180094242096,
        -0.051140300929546356,
        0.035973988473415375,
        0.0806078314781189,
        -0.11225676536560059,
        -0.17738868296146393,
        -0.13990969955921173,
        -0.14928185939788818,
        0.029164578765630722,
        0.0023333372082561255,
        -0.5160796046257019,
        -0.17831213772296906,
        0.005917724687606096,
        -0.21577568352222443,
        0.179199680685997,
        -0.2282574474811554,
        0.07935086637735367,
        0.034274324774742126,
        0.19890561699867249,
        -0.1372949481010437,
        0.13553589582443237,
        0.005594936665147543,
        0.06403902173042297,
        0.13462801277637482,
        -0.0022078785113990307,
        -0.030178871005773544,
        -0.10038916766643524,
        0.30529457330703735,
        -0.17411038279533386,
        -0.15550687909126282,
        0.02527957409620285,
        0.3829350769519806,
        -0.13162335753440857,
        0.013243485242128372,
        -0.003020316595211625,
        0.021532034501433372,
        0.29092714190483093,
        0.06270674616098404,
        0.3219819962978363,
        -0.3377425968647003,
        -0.08524803072214127,
        0.36833781003952026,
        -0.13381266593933105,
        -0.37733903527259827,
        -0.09604296088218689,
        0.25054195523262024,
        0.12692034244537354,
        -0.002082208404317498,
        0.23974037170410156,
        -0.0033362044487148523,
        0.11380285024642944,
        0.1484299749135971,
        0.12503963708877563,
        0.1633688509464264,
        0.06103171035647392,
        0.04532213509082794,
        -0.19504956901073456,
        -0.27998268604278564,
        -0.22690966725349426,
        0.3927443027496338,
        0.006874317303299904,
        -0.12264599651098251,
        -0.11117254197597504,
        -0.388598769903183,
        -0.09719749540090561,
        0.1502423882484436,
        0.25546377897262573,
        0.13997159898281097,
        -0.1285732090473175,
        -0.1702641397714615,
        -0.04596333205699921,
        0.17549869418144226,
        0.3047199547290802,
        -0.1589161902666092,
        0.21068306267261505,
        -0.15378634631633759,
        0.11922856420278549,
        -0.03410901501774788,
        -0.0710875540971756,
        -0.005473117344081402,
        0.025442592799663544,
        0.0666617676615715,
        -0.43964576721191406,
        -0.1576344519853592,
        -0.10477004200220108,
        -0.28147053718566895,
        -0.21082906424999237,
        0.09961462765932083,
        0.02938605658710003,
        0.12948985397815704,
        -0.010894227772951126,
        -0.21696509420871735,
        0.1467922031879425,
        0.1717960685491562,
        0.1770526021718979,
        0.34941360354423523,
        0.17698927223682404,
        0.35329174995422363,
        0.12926749885082245,
        0.06392752379179001,
        0.23573587834835052,
        0.35875722765922546,
        0.1778055727481842,
        0.13076433539390564,
        -0.12989473342895508,
        0.14411835372447968,
        0.30152279138565063,
        0.27342286705970764,
        -0.06740173697471619,
        0.08861090242862701,
        -0.13692694902420044,
        -0.18942634761333466,
        0.10089939087629318,
        -0.19439686834812164,
        -0.10393842309713364,
        -0.005368420854210854,
        0.02642631344497204,
        -0.25642359256744385,
        0.07823304086923599,
        -0.10335773229598999,
        -0.5248756408691406,
        0.3234279155731201,
        0.16407592594623566,
        0.003779840189963579,
        -0.11641345173120499,
        -0.08292534947395325,
        -0.1600518673658371,
        -0.4381852447986603,
        -0.2025982290506363,
        -0.24729035794734955,
        0.26392924785614014,
        0.20204675197601318,
        -0.241287961602211,
        -0.4112589359283447,
        -0.15083514153957367,
        0.31940338015556335,
        -0.019901040941476822,
        -0.14020764827728271,
        0.041697997599840164,
        -0.16437163949012756,
        0.5730029344558716,
        -0.17176151275634766,
        -0.06538964062929153,
        0.20679914951324463,
        -0.07495614886283875,
        0.0628436729311943,
        0.160369411110878,
        -0.33435335755348206,
        0.06241171061992645,
        -0.0010368520161136985,
        -0.0351405143737793,
        -0.45064517855644226,
        0.13769452273845673,
        0.12535277009010315,
        -0.03735273331403732,
        -0.08580242097377777,
        0.42855677008628845,
        0.3755871653556824,
        -0.2518891990184784,
        0.04288490489125252,
        -0.07947272062301636,
        -0.0548708438873291,
        0.23550836741924286,
        -0.17016933858394623,
        -0.13270363211631775,
        -0.08454885333776474,
        -0.12588676810264587,
        -0.32694748044013977,
        -0.24663013219833374,
        0.17479601502418518,
        0.3645295798778534,
        -0.09297946095466614,
        -0.25297558307647705,
        0.1874060183763504,
        -0.019356871023774147,
        0.20727524161338806,
        -0.12194113433361053,
        0.021094880998134613,
        -0.00241109705530107,
        0.042178090661764145,
        -0.17900285124778748,
        0.17601731419563293,
        -0.05284047871828079,
        0.06413257122039795,
        0.15929372608661652,
        0.1323988437652588,
        -0.17407995462417603,
        0.1440141499042511,
        0.09328058362007141,
        0.1224026307463646,
        -0.0337567962706089,
        0.2946571409702301,
        -0.14084941148757935,
        -0.11981789767742157,
        -0.430439293384552,
        -0.20418421924114227,
        0.41575130820274353,
        0.08710071444511414,
        -0.12326253205537796,
        -0.21592868864536285,
        -0.26302221417427063,
        0.024290654808282852,
        -0.05229068920016289,
        -0.2604731321334839,
        -0.16232843697071075,
        0.3864052891731262,
        -0.04301031678915024,
        0.034283597022295,
        0.24079342186450958,
        -0.17124685645103455,
        -0.04448767378926277,
        -0.04216139763593674,
        0.28443455696105957,
        -0.011576508171856403,
        0.16804949939250946,
        -0.010570172220468521,
        -0.13070529699325562,
        0.1907215565443039,
        0.11118403822183609,
        0.15090233087539673,
        0.05106435343623161,
        -0.42263931035995483,
        -0.29243767261505127,
        0.26593995094299316,
        0.07806533575057983,
        -0.008886851370334625,
        0.1106569692492485,
        0.2212616503238678,
        -0.0015858255792409182,
        0.19008111953735352,
        -0.020373988896608353,
        -0.11354129016399384,
        -0.20969831943511963,
        -0.03366385027766228,
        -0.007287635933607817,
        0.1582362949848175,
        -0.3223378360271454,
        0.3492881953716278,
        0.09591753035783768,
        -0.02493375539779663,
        -0.13859644532203674,
        0.47581741213798523,
        0.26473724842071533,
        0.17927968502044678,
        -0.10889033228158951,
        0.04860154539346695,
        0.020991681143641472,
        -0.11756522208452225,
        -0.11636395007371902,
        -0.14084531366825104,
        0.06890043616294861,
        0.3501865267753601,
        -0.24474604427814484,
        0.1909862607717514,
        0.13618873059749603,
        0.09012044221162796,
        0.24613268673419952,
        0.02890138141810894,
        -0.0543694868683815,
        -0.15229615569114685,
        0.007565975189208984,
        0.10700702667236328,
        -0.1794268637895584,
        -0.26910313963890076,
        -0.454202264547348,
        0.1834765523672104,
        0.07618474960327148,
        -0.014913891442120075,
        -0.315541535615921,
        -0.2495715320110321,
        0.05504699423909187,
        0.11124254763126373,
        -0.21833008527755737,
        -0.18779857456684113,
        0.03441130742430687,
        0.09965894371271133,
        0.2009350210428238,
        0.362639456987381,
        -0.11875522136688232,
        0.0025423006154596806,
        -0.3810413181781769,
        -0.04093114286661148,
        -0.15637792646884918,
        -0.3248959481716156,
        -0.2854670286178589,
        -0.26248374581336975,
        0.1361057460308075,
        0.3328106105327606,
        -0.005018017254769802,
        -0.16252106428146362,
        -0.27789542078971863,
        -0.10956596583127975,
        0.06320012360811234,
        0.21789155900478363,
        0.29165324568748474,
        0.022554004564881325,
        0.08509000390768051,
        0.09546031057834625,
        0.07806803286075592,
        0.2891791760921478,
        -0.21533514559268951,
        0.07958094775676727,
        0.24258288741111755,
        0.010431692004203796,
        -0.004938571713864803,
        -0.20299379527568817,
        0.2919616997241974,
        -0.08846896886825562,
        -0.2311890423297882,
        0.2068139910697937,
        0.23643431067466736,
        -0.20277802646160126,
        0.06126284971833229,
        0.02441532537341118,
        0.013546721078455448,
        0.15548333525657654,
        -0.05433977022767067,
        0.17424605786800385,
        0.20272761583328247,
        0.021509185433387756,
        0.12127381563186646,
        0.05374692752957344,
        -0.2870941162109375,
        -0.20613113045692444,
        0.15878845751285553,
        -0.04569530859589577,
        0.047654345631599426,
        0.30747783184051514,
        -0.05729429051280022,
        0.24404530227184296,
        -0.35122522711753845,
        0.26608172059059143,
        0.13971906900405884,
        0.17364825308322906,
        0.021933026611804962,
        -0.07604603469371796,
        0.043059300631284714,
        0.26878851652145386,
        0.17640967667102814,
        0.14022469520568848,
        -0.005988189950585365,
        -0.20969964563846588,
        0.015386280603706837,
        -0.6036636233329773,
        0.15181587636470795,
        0.40838152170181274,
        0.3165774643421173,
        -0.13774673640727997,
        0.08661658316850662,
        -0.46433690190315247,
        0.03621378540992737,
        0.22605380415916443,
        0.2379799485206604,
        -0.3156589865684509,
        0.07181701064109802,
        0.057267338037490845,
        -0.389058917760849,
        0.1688382476568222,
        0.006771659012883902,
        0.06872222572565079,
        0.038435351103544235,
        -0.029636109247803688,
        0.018523534759879112,
        0.0835721492767334,
        0.04548013582825661,
        0.12964308261871338,
        -0.0009974958375096321,
        0.05520286038517952,
        0.03669199347496033,
        0.0014671043027192354,
        0.12792658805847168,
        -0.3233514726161957,
        0.19001702964305878,
        0.27886801958084106,
        0.07336185872554779,
        -0.011669119819998741,
        0.15801836550235748,
        0.07287401705980301,
        0.03694283217191696,
        -0.10331755876541138,
        0.0029549242462962866,
        0.18357665836811066,
        0.17302200198173523,
        -0.03662169352173805,
        0.08116238564252853,
        0.11106222122907639,
        -0.12902550399303436,
        -0.18180371820926666,
        -0.060832809656858444,
        0.3128560483455658,
        0.04208947345614433,
        -0.13848349452018738,
        0.16794586181640625,
        0.48594340682029724,
        0.30069980025291443,
        -0.04118091240525246,
        -0.3477855324745178,
        0.14663830399513245,
        0.007694309111684561,
        -0.046713873744010925,
        -0.10610031336545944,
        0.10271746665239334,
        0.5348809361457825,
        -0.2531721293926239,
        0.13437792658805847,
        -0.12267892062664032,
        -0.05881696939468384,
        -0.18767930567264557,
        -0.059370528906583786,
        0.01804491877555847,
        -0.07902881503105164,
        -0.10669544339179993,
        -0.23226647078990936,
        -0.5072163939476013,
        -0.025590574368834496,
        0.06366120278835297,
        -0.2728753685951233,
        0.11186237633228302,
        -0.07319653779268265,
        0.03193414956331253,
        -0.07475786656141281,
        0.06579487770795822,
        0.180222287774086,
        -0.2127763032913208,
        -0.010581918992102146,
        0.1498999297618866,
        -0.14524446427822113,
        0.21539418399333954,
        -0.05932781845331192,
        0.1205035075545311,
        0.10628911852836609,
        0.08747044950723648,
        0.19701167941093445,
        0.023857317864894867,
        0.01044114027172327,
        0.057829421013593674,
        -0.1205243170261383,
        -0.09034408628940582,
        0.1880788505077362,
        -0.1995142251253128,
        -0.33783242106437683,
        0.11030011624097824,
        0.19333507120609283,
        -0.0013159964000806212,
        -0.23159345984458923,
        -0.43021154403686523,
        0.21234682202339172,
        -0.05861925706267357,
        0.07606670260429382,
        -0.161359041929245,
        0.08627434074878693,
        0.08177334070205688,
        -0.13036029040813446,
        0.1379384845495224,
        -0.25156283378601074,
        0.008869660086929798,
        -0.12547852098941803,
        -0.06780237704515457,
        -0.04700009897351265,
        0.035082973539829254,
        -0.2925319969654083,
        0.31560859084129333,
        -0.17929448187351227,
        -0.0014919056557118893,
        0.1306115984916687,
        0.2213069498538971,
        0.007909867912530899,
        0.14891338348388672,
        -0.03375682979822159,
        0.15210632979869843,
        0.03977297246456146,
        -0.04530809819698334,
        -0.24402391910552979,
        -0.318387508392334,
        0.1338289976119995,
        -0.2488420158624649,
        -0.0437304750084877,
        0.06614391505718231,
        0.14188173413276672,
        0.3742130398750305,
        -0.34295037388801575,
        0.004173525609076023,
        0.026256104931235313,
        -0.16577273607254028,
        0.04314644634723663,
        0.16828273236751556,
        0.37590017914772034,
        -0.36735978722572327,
        -0.13545545935630798,
        0.07066750526428223,
        -0.11843371391296387,
        0.06284534186124802,
        -0.5000517964363098,
        0.37131229043006897,
        0.08274901658296585,
        0.16679178178310394,
        0.054796189069747925,
        0.11470241099596024,
        0.38282012939453125,
        0.2666526138782501,
        0.26315996050834656,
        -0.3353461027145386,
        0.11890407651662827,
        0.14115023612976074,
        -0.1387324333190918,
        -0.026438657194375992,
        0.15449607372283936,
        -0.14741003513336182,
        0.020707931369543076,
        -0.4168858826160431,
        0.12132703512907028,
        -0.16199998557567596,
        -0.09380979835987091,
        0.166841059923172,
        -0.060531921684741974,
        -0.002656820695847273,
        -0.23343199491500854,
        0.031551543623209,
        0.2753942012786865,
        -0.3942255973815918,
        -0.0780123919248581,
        0.10217417031526566,
        -0.20610792934894562,
        -0.23325298726558685,
        0.1598309874534607,
        -0.16006571054458618,
        0.003468321869149804,
        -0.007949206046760082,
        -0.10626225918531418,
        0.08923939615488052,
        0.14346788823604584,
        0.2291184663772583,
        -0.03933855518698692,
        0.029690897092223167,
        -0.1783483922481537,
        0.03595991060137749,
        0.02024904265999794,
        -0.14208319783210754,
        0.1217864379286766,
        -0.31619083881378174,
        0.10835905373096466,
        -0.08346562832593918,
        -0.012770251370966434,
        0.252555787563324,
        0.146681547164917,
        -0.1349586397409439,
        -0.06698182970285416,
        -0.09580294787883759,
        -0.027521029114723206,
        0.2613276243209839,
        -0.21614621579647064,
        -0.20092053711414337,
        0.47633570432662964,
        -0.24754023551940918,
        -0.13262824714183807,
        0.2764812111854553,
        -0.32699456810951233,
        -0.19961898028850555,
        -0.10808072984218597,
        0.027060149237513542,
        -0.04134766757488251,
        -0.20799855887889862,
        0.03756635636091232,
        -0.05087462067604065,
        -0.16757334768772125,
        0.02415546216070652,
        -0.022349843755364418,
        0.3510616421699524,
        -0.029168738052248955,
        -0.16172385215759277,
        -0.04650326445698738,
        -0.20556220412254333,
        0.13068771362304688,
        -0.04852348938584328,
        -0.13729777932167053,
        0.0017061243997886777,
        -0.15035100281238556,
        0.08504825830459595,
        0.3459203541278839,
        -0.16883522272109985,
        -0.021041663363575935,
        0.10668307542800903,
        0.08023730665445328,
        -0.09401192516088486,
        0.29669222235679626,
        0.0741712898015976,
        -0.3059602379798889,
        -0.09996480494737625,
        0.04565441980957985,
        0.3457949161529541,
        -0.13386040925979614,
        0.13455891609191895,
        -0.02166752703487873,
        -0.16184191405773163,
        0.20127049088478088,
        -0.12604762613773346,
        -0.2396659255027771,
        0.0651581659913063,
        -0.013242805376648903,
        0.05333877354860306,
        0.05496720224618912,
        -0.18886898458003998,
        0.16449129581451416,
        -0.11222090572118759,
        0.005778181832283735,
        -0.1659763604402542,
        -0.061477191746234894
      ],
      "weightsShape": [
        64,
        32
      ],
      "bias": [
        0.054620448499917984,
        -0.15908247232437134,
        -0.05679871141910553,
        -0.035134389996528625,
        -0.0003787710447795689,
        -0.004974103532731533,
        0.013704206794500351,
        0.032648175954818726,
        -0.057938337326049805,
        0.18965214490890503,
        -0.024679819121956825,
        0.01600596122443676,
        -0.0002691831032279879,
        0.1266980916261673,
        0.17425274848937988,
        -0.0020102192647755146,
        -0.011205922812223434,
        -0.004708593245595694,
        -0.011700408533215523,
        0.06268519908189774,
        0.010467343963682652,
        0.022994928061962128,
        -0.025835001841187477,
        -0.003972663078457117,
        0.012173179537057877,
        0.007364294957369566,
        0.08790433406829834,
        -0.05766894668340683,
        0,
        -0.11224439740180969,
        0.03164881095290184,
        0.005932298488914967
      ],
      "biasShape": [
        1,
        32
      ],
      "activation": "relu"
    },
    {
      "weights": [
        0.26327401399612427,
        -1.2577980756759644,
        -0.3242342174053192,
        -0.708549976348877,
        0.0017932059708982706,
        0.007987930439412594,
        0.27284857630729675,
        0.8141890168190002,
        -1.0893679857254028,
        -0.10309337824583054,
        -0.018038278445601463,
        -0.18434250354766846,
        -0.257488876581192,
        -0.99033123254776,
        1.1692402362823486,
        0.07013900578022003,
        -0.333235502243042,
        -0.41030648350715637,
        -0.2995292544364929,
        0.7149227857589722,
        0.2496299147605896,
        0.42055776715278625,
        -0.6868709325790405,
        -0.1838003247976303,
        0.9239098429679871,
        0.8324680328369141,
        -0.29698482155799866,
        -0.4301162660121918,
        -0.0008498773677274585,
        0.4230477511882782,
        -0.6703290939331055,
        0.18805818259716034
      ],
      "weightsShape": [
        32,
        1
      ],
      "bias": [
        -0.3093990087509155
      ],
      "biasShape": [
        1,
        1
      ],
      "activation": "sigmoid"
    }
  ],
  "learningRate": 0.00007,
  "l2Lambda": 0.00001
}