{
  "__kind": "NeuralNet",
  "version": 1,
  "layers": [
    {
      "weights": [
        -0.058733031153678894,
        0.4662189483642578,
        0.004043347202241421,
        -0.6384778618812561,
        0.1942937672138214,
        -0.10789128392934799,
        0.0475500151515007,
        -0.007550840266048908,
        0.8610145449638367,
        0.4990483820438385,
        -0.10009241104125977,
        -0.2944828271865845,
        0.017846252769231796,
        -0.23691092431545258,
        0.40494146943092346,
        0.11830821633338928,
        0.03649156913161278,
        0.44759634137153625,
        0.16007846593856812,
        0.35296350717544556,
        0.4921008050441742,
        -0.34581151604652405,
        0.18646667897701263,
        0.6150588393211365,
        -0.3855070173740387,
        0.08603183925151825,
        -0.31819531321525574,
        0.20849426090717316,
        -0.24680010974407196,
        -0.3478403687477112,
        0.11736291646957397,
        -0.33186230063438416,
        -0.27579978108406067,
        0.6080033779144287,
        -0.10758578032255173,
        -0.09927409887313843,
        -0.43188202381134033,
        0.4973141551017761,
        -0.07751809805631638,
        -0.2096419781446457,
        0.10110040754079819,
        -0.129804328083992,
        0.09005870670080185,
        0.30132874846458435,
        -0.17588163912296295,
        -0.5336491465568542,
        -0.3311592638492584,
        0.26349616050720215,
        0.1387326717376709,
        0.2968774735927582,
        0.3508901000022888,
        -0.4019608795642853,
        0.43555206060409546,
        0.39857837557792664,
        -0.0516083762049675,
        -0.21358591318130493,
        -0.2575294077396393,
        0.2177894413471222,
        0.02289521135389805,
        -0.14858534932136536,
        -0.3708236515522003,
        0.20456501841545105,
        -0.30503007769584656,
        -0.118933767080307,
        -0.47042006254196167,
        -0.440136194229126,
        -0.22731316089630127,
        0.44245216250419617,
        0.053037915378808975,
        0.5459915995597839,
        -0.05783291161060333,
        0.3381631672382355,
        -0.12595465779304504,
        0.4334356486797333,
        -0.3573920726776123,
        -0.30757537484169006,
        0.18180370330810547,
        -0.5794637799263,
        0.008086211048066616,
        -0.06013808399438858,
        -0.4154715836048126,
        -0.17421726882457733,
        -0.7139371037483215,
        -0.9428029656410217,
        -0.3484393358230591,
        -0.3847760260105133,
        0.005605724640190601,
        0.1526707410812378,
        0.38779953122138977,
        -0.11321385204792023,
        -0.004330749157816172,
        -0.24233503639698029,
        0.05354107916355133,
        0.44504544138908386,
        -0.3693796396255493,
        0.16671885550022125,
        -0.17487464845180511,
        0.35437533259391785,
        0.03583354502916336,
        -0.09998637437820435,
        0.021406542509794235,
        -0.10273829102516174,
        -0.20640896260738373,
        -0.5120562314987183,
        -0.2455798089504242,
        -0.3182809352874756,
        0.060550205409526825,
        0.16899485886096954,
        1.143117070198059,
        0.10484220087528229,
        0.051814813166856766,
        0.06577066332101822,
        0.41284629702568054,
        0.4114753305912018,
        -0.7803540229797363,
        0.09205982089042664,
        0.39855659008026123,
        0.16860777139663696,
        -0.1433141529560089,
        -0.04329386726021767,
        -0.42243102192878723,
        -0.5623365640640259,
        -0.08290223032236099,
        -0.5396696925163269,
        -0.040195807814598083,
        0.005814326461404562,
        -0.2459108829498291,
        0.8013982772827148,
        -0.5322743654251099,
        -0.05622383579611778,
        0.24626187980175018,
        -0.4518662691116333,
        0.0962972640991211,
        -0.031230950728058815,
        -0.5570997595787048,
        0.2381666600704193,
        -0.15174835920333862,
        0.5552465915679932,
        0.7842845320701599,
        0.5185864567756653,
        -0.31148821115493774,
        0.23157788813114166,
        0.001721746870316565,
        0.2972323000431061,
        -0.33512160181999207,
        0.1500616818666458,
        -0.23370137810707092,
        0.2423364371061325,
        0.17337527871131897,
        0.02103310450911522,
        -0.08321019262075424,
        0.2965557873249054,
        0.2999289631843567,
        -0.15733139216899872,
        -0.5575792789459229,
        0.11537840217351913,
        -0.6904639601707458,
        -0.13171355426311493,
        -0.12637892365455627,
        -0.038384828716516495,
        0.2976785898208618,
        -0.2938244938850403,
        -0.3008038401603699,
        0.049226123839616776,
        -0.2474130243062973,
        0.04780087247490883,
        0.2795136868953705,
        0.14900290966033936,
        -0.2039552479982376,
        -0.3127606213092804,
        0.0015882204752415419,
        -0.12167821824550629,
        0.3447219431400299,
        0.2294703722000122,
        -0.12184572219848633,
        0.029848415404558182,
        -0.3483751714229584,
        0.13056352734565735,
        -0.13934792578220367,
        -0.7630690336227417,
        -0.4373106062412262,
        0.09838902205228806,
        0.31014204025268555,
        0.12671419978141785,
        0.3440207540988922,
        0.34443551301956177,
        0.6969032883644104,
        0.5653440952301025,
        0.21646641194820404,
        -0.2983284890651703,
        -0.6581078767776489,
        -0.15972769260406494,
        0.02241824008524418,
        0.25815439224243164,
        0.17675432562828064,
        -0.3506706655025482,
        -0.14069883525371552,
        0.053396567702293396,
        0.2344522476196289,
        0.09972919523715973,
        0.24400630593299866,
        -0.295921266078949,
        -0.19440507888793945,
        -0.37750011682510376,
        -0.46106305718421936,
        -0.46342042088508606,
        -0.06537051498889923,
        -0.15156865119934082,
        0.17098164558410645,
        0.4416637718677521,
        -0.5426015853881836,
        0.02975601702928543,
        0.19548539817333221,
        0.23012204468250275,
        -0.28265121579170227,
        -0.3465592861175537,
        -0.32444798946380615,
        0.0501956082880497,
        -0.18913745880126953,
        0.2333897054195404,
        0.21724601089954376,
        0.24264095723628998,
        -0.025394393131136894,
        -0.2309434711933136,
        0.5534218549728394,
        -0.10515227913856506,
        -0.18379253149032593,
        -0.1913028210401535,
        -0.09479966014623642,
        -0.01682296209037304,
        -0.020154684782028198,
        -0.6135743856430054,
        -0.15447738766670227,
        0.22889801859855652,
        0.2279943972826004,
        0.056555863469839096,
        -0.6236875653266907,
        0.3126058876514435,
        -0.6657360792160034,
        -0.2431492656469345,
        -0.08101373165845871,
        -0.3790241777896881,
        -0.2578716278076172,
        0.12925098836421967,
        0.22593384981155396,
        0.09637605398893356,
        0.042296670377254486,
        0.12680159509181976,
        0.17909006774425507,
        0.279291033744812,
        -0.35872364044189453,
        0.12233155220746994,
        0.6438480019569397,
        0.10868830233812332,
        -0.06261283159255981,
        0.9714875817298889,
        -0.2029576450586319,
        0.16389036178588867,
        0.00733652850612998,
        -0.6261512041091919,
        0.6990774273872375,
        0.30213266611099243,
        -0.26377740502357483,
        0.315210223197937,
        -0.3233855366706848,
        -0.13583995401859283,
        -0.17516884207725525,
        -0.3021281361579895,
        0.27556708455085754,
        -0.18840493261814117,
        -0.006481201853603125,
        -0.23948374390602112,
        0.1981971263885498,
        0.27678459882736206,
        -0.7748691439628601,
        0.18759052455425262,
        -0.4859231114387512,
        0.044866837561130524,
        0.22641970217227936,
        0.41401609778404236,
        0.3074321448802948,
        0.2590552866458893,
        0.10509120672941208,
        -0.6124782562255859,
        0.5478140711784363,
        0.2656264901161194,
        0.13397696614265442,
        -0.38198259472846985,
        0.6969612240791321,
        0.0030297853518277407,
        -0.2437453716993332,
        -0.054391372948884964,
        -0.14443284273147583,
        0.4025019407272339,
        -0.3230932354927063,
        -0.3727601170539856,
        0.30085963010787964,
        0.1065298393368721,
        -0.3854464292526245,
        0.21143534779548645,
        -0.207474946975708,
        0.33930766582489014,
        0.7918829917907715,
        -0.5974640846252441,
        0.49811026453971863,
        0.6730645298957825,
        -0.14219561219215393,
        0.27908411622047424,
        -0.4495716392993927,
        -0.37921592593193054,
        0.109816774725914,
        -0.22846946120262146,
        -0.458307683467865,
        -0.04229355230927467,
        -0.3866245746612549,
        0.09693038463592529,
        -0.8411476612091064,
        0.12105504423379898,
        0.9002297520637512,
        0.3611069917678833,
        -0.04220086336135864,
        0.16115939617156982,
        0.037500590085983276,
        0.3272239565849304,
        0.319996178150177,
        0.8065619468688965,
        0.1502947211265564,
        -0.3664240837097168,
        -0.10761579871177673,
        0.17923445999622345,
        -0.4677318036556244,
        -0.02558015286922455,
        -0.2105437070131302,
        -0.559977650642395,
        0.07039684802293777,
        0.6284891366958618,
        -0.8486366271972656,
        0.11946776509284973,
        0.12194284051656723,
        -0.3141980767250061,
        -0.16902709007263184,
        0.3074400722980499,
        -0.17122240364551544,
        0.32793691754341125,
        -0.4776118993759155,
        -0.4106438457965851,
        0.661393940448761,
        -0.24423427879810333,
        0.46243053674697876,
        -0.10195522755384445,
        -0.11776537448167801,
        0.06442559510469437,
        0.08233416825532913,
        -0.25631770491600037,
        0.1400747150182724,
        -0.18995480239391327,
        0.18892906606197357,
        0.48956120014190674,
        -0.289450079202652,
        -0.2680394649505615,
        0.17052847146987915,
        -0.33216848969459534,
        -0.05536951124668121,
        -0.46258142590522766,
        0.014408177696168423,
        0.2898266017436981,
        0.4275464117527008,
        -0.14383991062641144,
        0.4070736765861511,
        0.17911173403263092,
        -0.729965090751648,
        -0.05044696480035782,
        0.06281183660030365,
        -0.357534795999527,
        -0.09635310620069504,
        -0.30135443806648254,
        -0.1752261370420456,
        0.1139194518327713,
        -0.10203637182712555,
        0.56553715467453,
        -0.27433302998542786,
        -0.47633641958236694,
        -0.28188973665237427,
        1.0120054483413696,
        -0.02411680482327938,
        0.2613607347011566,
        -0.016122063621878624,
        0.24272005259990692,
        0.10430046170949936,
        0.08632558584213257,
        -0.3250110149383545,
        -0.007413547020405531,
        -0.39031675457954407,
        -0.004329114221036434,
        0.2781975269317627,
        0.005572708789259195,
        -0.21061457693576813,
        0.6134700775146484,
        -0.32716071605682373,
        -0.41164135932922363,
        0.10944424569606781,
        -0.43945541977882385,
        0.6994426846504211,
        -0.03144311532378197,
        0.8595574498176575,
        -0.23090146481990814,
        0.17238686978816986,
        -0.045637283474206924,
        -0.09602323919534683,
        -0.08589363843202591,
        -0.11423331499099731,
        -0.11022299528121948,
        -0.03635096922516823,
        0.27636557817459106,
        0.3655097484588623,
        -0.42079249024391174,
        -0.23275478184223175,
        0.6475911140441895,
        -0.2826423943042755,
        -0.11147306859493256,
        0.4390679597854614,
        0.3236379027366638,
        -0.374991774559021,
        -0.021474385634064674,
        0.4638855457305908,
        0.34176966547966003,
        0.21086083352565765,
        0.33429718017578125,
        0.3278052806854248,
        0.16846922039985657,
        0.5642828345298767,
        0.5808645486831665,
        -0.06449121236801147,
        -0.09419526904821396,
        -0.5859808325767517,
        -0.4455653727054596,
        0.4863207936286926,
        -0.17958445847034454,
        0.3091891407966614,
        0.22176656126976013,
        -0.12894006073474884,
        0.1806083470582962,
        -0.26718804240226746,
        -0.058629803359508514,
        0.11153648793697357,
        0.6459759473800659,
        -0.10387443751096725,
        0.41441595554351807,
        0.23045538365840912,
        -0.25803646445274353,
        0.2588233947753906,
        -0.2805306017398834,
        -0.08279763162136078,
        -0.21158084273338318,
        -0.21196822822093964,
        0.15942063927650452,
        -0.41225624084472656,
        0.021728647872805595,
        0.25119489431381226,
        -0.1697961986064911,
        -0.03270462155342102,
        -0.49801281094551086,
        -0.5362004637718201,
        0.1468074470758438,
        -0.511503279209137,
        -0.8757609128952026,
        -0.0193670392036438,
        -0.4874987006187439,
        -0.025897759944200516,
        -0.09069707244634628,
        0.0976034626364708,
        -0.974284291267395,
        -0.9216278791427612,
        0.051988013088703156,
        0.21214398741722107,
        -0.029411451891064644,
        0.3800794184207916,
        -0.14506664872169495,
        -0.22349460422992706,
        -0.40322303771972656,
        -0.26836255192756653,
        0.1641019731760025,
        0.2861727476119995,
        -0.6095381379127502,
        0.4679603576660156,
        0.2888557016849518,
        -0.20652395486831665,
        -0.40390169620513916,
        0.20409885048866272,
        0.16802847385406494,
        0.27307793498039246,
        0.1491372287273407,
        0.13952764868736267,
        -0.10944301635026932,
        0.023979509249329567,
        0.3388492166996002,
        0.021947193890810013,
        0.5826204419136047,
        -0.09816285967826843,
        -0.4416179060935974,
        -0.21301209926605225,
        -0.4456411302089691,
        -0.40955543518066406,
        0.5397663116455078,
        0.41202571988105774,
        -0.4614158272743225,
        -0.6862474083900452,
        -0.31768661737442017,
        -0.10392188280820847,
        -0.04717494174838066,
        -0.2777235209941864,
        0.4436294436454773,
        -0.9974114894866943,
        0.01969997026026249,
        -0.47070813179016113,
        -0.3419114351272583,
        -0.41863277554512024,
        0.398658812046051,
        0.2940862774848938,
        -0.01722865179181099,
        -0.16592781245708466,
        0.0348382443189621,
        0.1376943290233612,
        0.36965131759643555,
        0.003299400210380554,
        -0.32225513458251953,
        0.05818634852766991,
        0.12558110058307648,
        -0.07364578545093536,
        0.29065001010894775,
        0.12601175904273987,
        -0.0738861933350563,
        -0.12233974784612656,
        0.13530968129634857,
        -0.07631424069404602,
        -0.2541313171386719,
        -0.13196693360805511,
        0.1954048126935959,
        0.15005210041999817,
        -0.22447006404399872,
        0.38004642724990845,
        -0.38097715377807617,
        -0.632879912853241,
        -0.5395685434341431,
        0.10979337245225906,
        0.04315636679530144,
        0.633653998374939,
        -0.22885648906230927,
        -0.5793967247009277,
        -0.12454003840684891,
        -0.47278791666030884,
        0.24078789353370667,
        -0.2477368265390396,
        -0.19854700565338135,
        0.026039956137537956,
        0.2335040420293808,
        0.487154483795166,
        0.19437916576862335,
        0.41841644048690796,
        0.09853396564722061,
        0.3778936266899109,
        -0.25716355443000793,
        -0.5113228559494019,
        -0.17413243651390076,
        0.6191762089729309,
        0.04992033913731575,
        0.7679516077041626,
        0.2962798774242401,
        0.2595966160297394,
        -0.16758036613464355,
        0.17895913124084473,
        -0.01086442545056343,
        0.09302441030740738,
        0.17701055109500885,
        0.10368899255990982,
        -0.21903687715530396,
        0.03173866495490074,
        0.1973634958267212,
        -0.5362433791160583,
        -0.58633953332901,
        -0.1689658761024475,
        -0.28551948070526123,
        -0.21146515011787415,
        0.5910536646842957,
        0.22338978946208954,
        0.5368819236755371,
        -0.03447486460208893,
        0.18713173270225525,
        0.17395800352096558,
        -0.01082366518676281,
        -0.04594484344124794,
        0.14285889267921448,
        -0.039237361401319504,
        0.9703938364982605,
        0.34805870056152344,
        0.43503275513648987,
        -0.4366511404514313,
        -0.09836903214454651,
        0.6333847045898438,
        -0.7490001916885376,
        -0.5291732549667358,
        -0.23413227498531342,
        0.5621498227119446,
        -0.1308746039867401,
        -0.37180981040000916,
        -0.043521519750356674,
        0.12629833817481995,
        0.03740208223462105,
        0.16031895577907562,
        0.04857621341943741,
        0.326375275850296,
        -0.3149869740009308,
        0.08334782719612122,
        -0.07379884272813797,
        0.33253055810928345,
        0.3904978334903717,
        0.04491245001554489,
        0.12449159473180771,
        0.38730305433273315,
        0.49275949597358704,
        -0.1503223180770874,
        -0.8172433972358704,
        0.16993674635887146,
        0.519288182258606,
        -0.18769587576389313,
        -0.08827818185091019,
        0.035368409007787704,
        -0.09030532091856003,
        -0.7988702654838562,
        -0.1442122906446457,
        0.14147405326366425,
        -0.5665656924247742,
        0.4591640532016754,
        -0.9043986797332764,
        0.35533198714256287,
        0.02170364372432232,
        0.20770639181137085,
        -0.19969071447849274,
        -0.5957862138748169,
        0.11185024678707123,
        -0.5317784547805786,
        -0.12299259752035141,
        -0.6633850932121277,
        0.15425139665603638,
        -0.059074293822050095,
        0.08357986062765121,
        -0.09162978082895279,
        -0.7107261419296265,
        0.14475388824939728,
        0.28988465666770935,
        -0.17186899483203888,
        0.06797987222671509,
        -0.4117390215396881,
        -0.43246904015541077,
        0.4848768711090088,
        0.6694397330284119,
        0.13365641236305237,
        0.1172168031334877,
        -1.5143424272537231,
        0.025505859404802322,
        0.20729191601276398,
        -0.3607874810695648,
        0.7188396453857422,
        -0.27379438281059265,
        0.3397805392742157,
        -0.6117448210716248,
        -0.2906971275806427,
        -0.3371727168560028,
        0.26302817463874817,
        -0.33853787183761597,
        0.35309383273124695,
        0.2739641070365906,
        0.20648133754730225,
        0.21184378862380981,
        0.4483566880226135,
        0.45788833498954773,
        -0.000680982309859246,
        -0.17563335597515106,
        -0.35206449031829834,
        0.5777574181556702,
        0.23816494643688202,
        -0.5084555149078369,
        0.7012569308280945,
        0.026809383183717728,
        0.10371977090835571,
        -0.3524104654788971,
        0.3444983959197998,
        0.004643725231289864,
        0.13196006417274475,
        -0.4919169843196869,
        -0.099003866314888,
        0.4528883993625641,
        -0.28195399045944214,
        0.7262086868286133,
        -0.008888470008969307,
        0.09297692775726318,
        -0.29651546478271484,
        -0.28480246663093567,
        0.04424108937382698,
        0.1209077537059784,
        0.031543463468551636,
        0.03210395574569702,
        -0.46808815002441406,
        0.20322059094905853,
        -0.44088977575302124,
        -0.3755984604358673,
        -0.010965364053845406,
        -0.07992888242006302,
        0.18987604975700378,
        -0.6868472695350647,
        0.03531983494758606,
        -0.08264663070440292,
        -0.23936039209365845,
        -0.029356203973293304,
        -0.5590764880180359,
        0.1378215253353119,
        0.08695545047521591,
        -0.12084483355283737,
        0.13028495013713837,
        0.5352680683135986,
        -0.503312349319458,
        0.2661966383457184,
        0.08514437824487686,
        -0.16807076334953308,
        -0.44698643684387207,
        -0.37957122921943665,
        0.20603670179843903,
        -0.32687878608703613,
        -0.07310027629137039,
        0.34775108098983765,
        -0.008648891001939774,
        0.4494635760784149,
        0.1352357119321823,
        0.38820886611938477,
        0.11689490079879761,
        0.5132085084915161,
        0.22801201045513153,
        0.02889285795390606,
        -0.04344796761870384,
        -0.5336743593215942,
        -0.3764173984527588,
        -0.806943953037262,
        0.08734864741563797,
        0.18814769387245178,
        0.374248206615448,
        0.4610610604286194,
        -0.5520802140235901,
        0.13292644917964935,
        0.0450630858540535,
        0.2162996083498001,
        0.4136419892311096,
        0.8592097163200378,
        0.2533794343471527,
        -0.2673780620098114,
        -0.042709097266197205,
        0.33238348364830017,
        -0.42368778586387634,
        0.6474841833114624,
        -0.13882975280284882,
        0.07332713156938553,
        -0.1504170000553131,
        -0.16634723544120789,
        -0.47615283727645874,
        -0.37140727043151855,
        -0.2648150622844696,
        -0.13568520545959473,
        -0.22643208503723145,
        -0.3046495318412781,
        0.4178225100040436,
        0.35779350996017456,
        0.22281229496002197,
        0.15612418949604034,
        0.359823614358902,
        -0.10420562326908112,
        0.02409783937036991,
        -0.36312630772590637,
        0.4708169102668762,
        0.027027059346437454,
        -0.1533644050359726,
        -0.37488168478012085,
        0.18613497912883759,
        -0.24706050753593445,
        -0.08965938538312912,
        0.036341942846775055,
        0.12093928456306458,
        0.6296555399894714,
        -0.17933516204357147,
        -0.3307119309902191,
        -0.19986669719219208,
        -0.19670116901397705,
        0.25807544589042664,
        0.632529616355896,
        -0.1719151735305786,
        0.5596599578857422,
        -0.03454434126615524,
        -0.22156542539596558,
        -0.49892953038215637,
        0.17948752641677856,
        0.36457404494285583,
        -0.027622375637292862,
        -0.18593032658100128,
        -0.11682884395122528,
        0.0948849469423294,
        -0.5319899320602417,
        0.013927529565989971,
        -0.26958397030830383,
        -0.30889061093330383,
        0.024997280910611153,
        0.3211227059364319,
        0.2020934820175171,
        0.3601061999797821,
        -0.5053645968437195,
        -0.2562226951122284,
        -0.009582817554473877,
        0.7177260518074036,
        -0.3406042754650116,
        0.7533347606658936,
        0.6485252380371094,
        0.7301506400108337,
        0.15397429466247559,
        -0.06680836528539658,
        0.22911401093006134,
        -0.6204838156700134,
        -0.05173075199127197,
        -0.19177915155887604,
        -0.2767287492752075,
        -0.4003896415233612,
        -0.5577501654624939,
        -0.2385660856962204,
        -0.0892990380525589,
        -0.14658191800117493,
        0.15178002417087555,
        -0.36649736762046814,
        0.4434731900691986,
        -0.35249653458595276,
        0.05616876855492592,
        -0.3148037791252136,
        0.08417610824108124,
        -0.4990059733390808,
        -0.14291588962078094,
        -0.45399540662765503,
        0.057328589260578156,
        0.10132429003715515,
        -0.5826681852340698,
        -0.045250434428453445,
        0.30679675936698914,
        0.17562708258628845,
        0.35619956254959106,
        -0.5520769357681274,
        -0.07172778248786926,
        0.5984723567962646,
        0.3584837317466736,
        -0.09039516001939774,
        -0.3569343388080597,
        -0.41065675020217896,
        0.4526888430118561,
        0.02828059531748295,
        0.32457035779953003,
        -0.2061285823583603,
        -0.6906725168228149,
        0.18276101350784302,
        0.28431951999664307,
        -0.24415090680122375,
        -0.190492182970047,
        -0.11802729219198227,
        0.22599060833454132,
        0.0369909331202507,
        -0.11110570281744003,
        -0.24106451869010925,
        -0.14616073668003082,
        -0.6899200081825256,
        0.29082655906677246,
        0.3317364752292633,
        -0.3493167757987976,
        0.024171367287635803,
        -0.6653825640678406,
        -0.23741532862186432,
        0.1962597370147705,
        0.11577770113945007,
        0.3087739050388336,
        -0.4715915322303772,
        -0.1859384924173355,
        -0.2449132353067398,
        0.16254229843616486,
        -0.2221662551164627,
        -0.07060085237026215,
        0.15799225866794586,
        0.13157418370246887,
        0.5351226329803467,
        -0.11737976968288422,
        -0.08386003971099854,
        0.3411862254142761,
        -0.3396722078323364,
        0.10181469470262527,
        -0.16379231214523315,
        -0.5560440421104431,
        0.19490164518356323,
        -0.29484620690345764,
        0.12859557569026947,
        -0.10030543804168701,
        0.07701604068279266,
        0.5789568424224854,
        -0.38183000683784485,
        -0.15644259750843048,
        0.01940986141562462,
        -0.4717685282230377,
        0.3666890263557434,
        0.5725783109664917,
        0.22797903418540955,
        -0.31368017196655273,
        -0.07052791863679886,
        -0.605135977268219,
        0.4617644250392914,
        -0.6308901906013489,
        -0.799777626991272,
        -0.17257192730903625,
        -0.46238258481025696,
        0.3893195688724518,
        -0.33755403757095337,
        0.04948386549949646,
        0.22286416590213776,
        -0.0011065274011343718,
        -0.8336724638938904,
        -0.15428830683231354,
        0.5055562257766724,
        0.06272237747907639,
        -0.3642214834690094,
        -0.5105794072151184,
        -0.11149032413959503,
        0.4819839298725128,
        -0.06333276629447937,
        -0.9309905171394348,
        0.058742690831422806,
        -0.13821659982204437,
        0.03815275430679321,
        0.03915724903345108,
        -0.14174272119998932,
        -0.03966181352734566,
        -0.010562362149357796,
        -0.06093776226043701,
        0.8839749097824097,
        0.49998611211776733,
        -0.3317270576953888,
        -0.14836624264717102,
        -0.016441145911812782,
        -0.12192835658788681,
        -0.47999754548072815,
        0.11046618968248367,
        -0.03001091443002224,
        -0.0912226215004921,
        -0.026027629151940346,
        -0.0726218894124031,
        -0.8070360422134399,
        0.3772091269493103,
        0.32238802313804626,
        -0.4061514139175415,
        0.11863020062446594,
        0.01811300963163376,
        -0.1024574562907219,
        -0.10701525956392288,
        -0.32084357738494873,
        -0.7800986766815186,
        -0.07595392316579819,
        -0.32017406821250916,
        -0.22188566625118256,
        0.1640743613243103,
        -0.23966379463672638,
        -0.04274142533540726,
        0.1332494020462036,
        -0.27011775970458984,
        0.043264009058475494,
        0.24956324696540833,
        -0.013651483692228794,
        -0.3329663872718811,
        0.7515566945075989,
        -0.01054079458117485,
        0.016692811623215675,
        0.5937722325325012,
        -0.486704558134079,
        -0.3294801414012909,
        -0.29179614782333374,
        -0.08066095411777496,
        -0.20891746878623962,
        0.4468120038509369,
        0.5407904386520386,
        0.11907339096069336,
        0.18955637514591217,
        -0.38008880615234375,
        -0.8067622184753418,
        -0.524931013584137,
        0.009918993338942528,
        -0.35054585337638855,
        -0.35802122950553894,
        -0.38988643884658813,
        -0.11348453164100647,
        0.3760095238685608,
        0.19749046862125397,
        0.011766749434173107,
        0.2781442701816559,
        0.2672702670097351,
        -0.28665292263031006,
        0.6605889201164246,
        -0.4979371726512909,
        0.41039204597473145,
        0.37734490633010864,
        0.21866603195667267,
        0.010152208618819714,
        -0.6940214037895203,
        0.14530785381793976,
        0.017755605280399323,
        0.43081673979759216,
        -0.354989618062973,
        0.02568555623292923,
        0.17993733286857605,
        0.1719312220811844,
        0.038113344460725784,
        0.11802621930837631,
        -0.18196967244148254,
        0.532211184501648,
        0.3727923035621643,
        0.06157199665904045,
        0.18732069432735443,
        0.08931061625480652,
        -0.19510118663311005,
        0.30342772603034973,
        -0.080631323158741,
        0.2281823605298996,
        0.2902127802371979,
        -0.16695086658000946,
        -0.3769114911556244,
        -0.09459977596998215,
        -0.06387244164943695,
        -0.09388747066259384,
        -0.07647641003131866,
        0.07763839513063431,
        0.4139114022254944,
        0.45785072445869446,
        -0.13448511064052582,
        0.3700266480445862,
        0.6367040276527405,
        0.31276506185531616,
        -0.3998136818408966,
        0.2994476854801178,
        0.1319902539253235,
        -0.09680283814668655,
        0.4729853868484497,
        -0.2853330373764038,
        -0.5465112924575806,
        0.2084392011165619,
        -0.20318463444709778,
        0.20791448652744293,
        -0.13866394758224487,
        0.05412603169679642,
        0.6386235952377319,
        0.3280753493309021,
        0.20454291999340057,
        0.4239186644554138,
        -0.3034643530845642,
        -0.012519685551524162,
        -0.15855737030506134,
        -0.491501122713089,
        -0.5236349701881409,
        0.0857960432767868,
        0.135288268327713,
        0.34579798579216003,
        -0.570216715335846,
        -0.41785314679145813,
        0.3384101390838623,
        -0.5003536939620972,
        0.7308487296104431,
        -0.2112121731042862,
        0.09027139842510223,
        -0.06624577939510345,
        0.5086179375648499,
        -0.35228291153907776,
        0.6924558877944946,
        -0.2644864320755005,
        0.36702093482017517,
        1.23077392578125,
        0.4244827628135681,
        0.04297730326652527,
        -0.02843833528459072,
        -0.8446843028068542,
        -0.3890385627746582,
        0.19929419457912445,
        -0.14638443291187286,
        0.08633150905370712,
        0.04275958240032196
      ],
      "weightsShape": [
        17,
        64
      ],
      "bias": [
        -0.015838049352169037,
        0.005157747771590948,
        0.004285868257284164,
        -0.05216285213828087,
        0.060044970363378525,
        0.04273287579417229,
        -0.014474260620772839,
        0.025502901524305344,
        -0.02373131737112999,
        -0.026662027463316917,
        -0.0019755586981773376,
        -0.0364927314221859,
        0.031192686408758163,
        0,
        0.0771050751209259,
        -0.0414760448038578,
        -0.02766968123614788,
        0.11628079414367676,
        0.008181593380868435,
        0.009917205199599266,
        -0.014849543571472168,
        -0.08856150507926941,
        -0.031153317540884018,
        0.12176511436700821,
        0.057575106620788574,
        -0.006491684354841709,
        0.03770024701952934,
        0.0001728949137032032,
        0.07381264865398407,
        0.0347641184926033,
        0.0034465163480490446,
        0,
        -0.04720691964030266,
        0.0398763045668602,
        0.07994628697633743,
        0,
        0.07490292936563492,
        -0.0770484209060669,
        -0.00973054114729166,
        0.08049894869327545,
        -0.02164127305150032,
        0.07530508935451508,
        -0.03936021775007248,
        -0.05146715044975281,
        0.07436362653970718,
        0.1849500685930252,
        0.10363540798425674,
        0.052785929292440414,
        -0.02235698327422142,
        0.11101093143224716,
        0,
        0.06188851594924927,
        -0.040416497737169266,
        0.04023578390479088,
        -0.04485948756337166,
        0.12987704575061798,
        -0.005971608683466911,
        -0.0000711367538315244,
        0.06595572829246521,
        0.014675760641694069,
        0.09454628080129623,
        0.03739418834447861,
        -0.005989159923046827,
        0.005562266800552607
      ],
      "biasShape": [
        1,
        64
      ],
      "activation": "relu"
    },
    {
      "weights": [
        0.07066940516233444,
        0.06828657537698746,
        -0.3111167550086975,
        0.3510240316390991,
        -0.15448571741580963,
        -0.1610695719718933,
        -0.022579526528716087,
        0.16435885429382324,
        0.00851944088935852,
        0.04359573870897293,
        -0.39819803833961487,
        -0.09498181194067001,
        -0.07532532513141632,
        -0.4310098886489868,
        0.15245233476161957,
        0.22166770696640015,
        0.23507830500602722,
        -0.1303033083677292,
        0.02452409639954567,
        -0.1332874894142151,
        0.2734659016132355,
        -0.20250481367111206,
        0.06597624719142914,
        0.2116243690252304,
        -0.022468779236078262,
        0.16486625373363495,
        -0.23977810144424438,
        -0.24575014412403107,
        0.07413037121295929,
        -0.24279385805130005,
        -0.07194404304027557,
        0.041012849658727646,
        -0.08662153035402298,
        0.017826320603489876,
        -0.020726317539811134,
        -0.11279679089784622,
        -0.03849218413233757,
        0.025401990860700607,
        -0.008232438936829567,
        0.024338461458683014,
        0.0867609903216362,
        0.09603962302207947,
        0.02212962694466114,
        0.007751583121716976,
        -0.19939692318439484,
        0.36851462721824646,
        -0.04691065475344658,
        -0.041313592344522476,
        -0.14751800894737244,
        -0.13474835455417633,
        -0.0016472367569804192,
        0.13299345970153809,
        0.16524094343185425,
        -0.04279442876577377,
        0.17013828456401825,
        0.14120198786258698,
        0.07672924548387527,
        0.15168876945972443,
        -0.32920825481414795,
        -0.046751588582992554,
        -0.219246968626976,
        -0.04511312022805214,
        -0.003434947691857815,
        0.10088273882865906,
        0.1888723522424698,
        0.08549367636442184,
        -0.13938280940055847,
        -0.1239427998661995,
        -0.006868044380098581,
        0.12012801319360733,
        0.23714670538902283,
        -0.09575200080871582,
        0.33067160844802856,
        -0.11368990689516068,
        0.25498080253601074,
        -0.10947586596012115,
        -0.08848549425601959,
        -0.12399198859930038,
        0.20887143909931183,
        0.12709270417690277,
        0.04311831668019295,
        0.3977477550506592,
        0.021407892927527428,
        0.09034068137407303,
        -0.030495483428239822,
        -0.0927005484700203,
        -0.041020285338163376,
        0.03545810654759407,
        -0.2044554203748703,
        -0.26740047335624695,
        0.04350363090634346,
        -0.1102382093667984,
        -0.055607881397008896,
        -0.07627769559621811,
        -0.3620679974555969,
        -0.06728912889957428,
        -0.019422482699155807,
        0.14409959316253662,
        -0.09125452488660812,
        0.0003836141258943826,
        0.41358721256256104,
        -0.0010129549773409963,
        0.2863630950450897,
        0.18025775253772736,
        0.08962743729352951,
        -0.052314016968011856,
        -0.19642935693264008,
        0.08882219344377518,
        0.19684720039367676,
        -0.12260594218969345,
        -0.11204434186220169,
        0.009069218300282955,
        0.26216453313827515,
        -0.05515780672430992,
        0.32634857296943665,
        0.20405413210391998,
        -0.3693632185459137,
        0.003884228877723217,
        -0.14906273782253265,
        -0.36315348744392395,
        -0.004184080753475428,
        0.25725144147872925,
        -0.2325969636440277,
        -0.06258845329284668,
        -0.03566606342792511,
        -0.16549919545650482,
        -0.23746377229690552,
        0.21058185398578644,
        -0.24307456612586975,
        0.13139499723911285,
        0.1743769645690918,
        0.18659429252147675,
        -0.24247689545154572,
        0.11513543128967285,
        0.1318577229976654,
        0.16890887916088104,
        -0.04424816742539406,
        0.16596882045269012,
        0.2515551745891571,
        -0.03844228759407997,
        -0.1953807771205902,
        0.2012147307395935,
        -0.11609712243080139,
        0.13627097010612488,
        0.16590631008148193,
        0.19502246379852295,
        0.089227594435215,
        0.014834731817245483,
        -0.2156093716621399,
        0.12554976344108582,
        0.44742903113365173,
        0.4138811230659485,
        0.04062190651893616,
        0.3920535743236542,
        0.3370029628276825,
        -0.4168863296508789,
        -0.11671846359968185,
        0.20071491599082947,
        -0.1318303644657135,
        -0.2701178789138794,
        0.08678384870290756,
        0.13490819931030273,
        0.2738446295261383,
        0.036021772772073746,
        -0.08597496896982193,
        -0.2086830586194992,
        0.1041221022605896,
        -0.1159963309764862,
        0.16936776041984558,
        0.0012042619055137038,
        0.1931895762681961,
        0.14759403467178345,
        0.05813715234398842,
        -0.031679704785346985,
        -0.10407841205596924,
        0.12598173320293427,
        0.06578297168016434,
        -0.11057007312774658,
        0.3476412296295166,
        0.17602020502090454,
        0.11145450174808502,
        -0.06303202360868454,
        -0.20721182227134705,
        0.042748432606458664,
        0.31864336133003235,
        0.05358647182583809,
        -0.5019019842147827,
        0.16794787347316742,
        0.007304046768695116,
        0.20086775720119476,
        -0.05382484197616577,
        0.28100547194480896,
        0.3545607328414917,
        0.06693120300769806,
        -0.1854027658700943,
        0.27943184971809387,
        0.1721215844154358,
        0.11565270274877548,
        0.16112488508224487,
        -0.583072304725647,
        -0.23577621579170227,
        0.11625006794929504,
        0.29996174573898315,
        -0.006951636169105768,
        -0.022440584376454353,
        0.05482790246605873,
        -0.05590388923883438,
        0.18213742971420288,
        0.1334667205810547,
        0.26426494121551514,
        -0.22164642810821533,
        -0.029487133026123047,
        0.11615712195634842,
        -0.06169509142637253,
        0.18586333096027374,
        0.034111473709344864,
        -0.14148078858852386,
        -0.12312918901443481,
        -0.12294358015060425,
        -0.045994170010089874,
        -0.18163572251796722,
        0.26058563590049744,
        -0.07464701682329178,
        -0.10018571466207504,
        -0.07447480410337448,
        -0.008877108804881573,
        -0.18129697442054749,
        0.1799464225769043,
        0.15023262798786163,
        0.0129610700532794,
        0.05936109647154808,
        -0.255266010761261,
        0.22996430099010468,
        -0.025717508047819138,
        0.04050787165760994,
        -0.05360502377152443,
        0.08886698633432388,
        -0.16436950862407684,
        -0.11429067701101303,
        -0.11334577947854996,
        -0.07501892745494843,
        0.04371194168925285,
        0.026343142613768578,
        0.023438163101673126,
        -0.28828924894332886,
        0.07769215852022171,
        0.16712112724781036,
        0.1750609278678894,
        -0.4669282138347626,
        -0.22886109352111816,
        0.05289816856384277,
        0.16210417449474335,
        0.025340745225548744,
        0.2687020003795624,
        -0.35888198018074036,
        0.03290300443768501,
        0.004888875875622034,
        -0.4623394012451172,
        0.009754315949976444,
        0.062425896525382996,
        0.08490593731403351,
        -0.31641507148742676,
        0.07973688840866089,
        0.045580361038446426,
        0.059339698404073715,
        -0.25015318393707275,
        -0.08505129814147949,
        0.09729575365781784,
        -0.24051256477832794,
        -0.38147005438804626,
        0.013831430114805698,
        0.24947433173656464,
        -0.40815427899360657,
        0.39983874559402466,
        -0.1884150356054306,
        0.12387323379516602,
        0.13958458602428436,
        -0.11163228750228882,
        -0.006950731854885817,
        -0.015312515199184418,
        0.31954094767570496,
        -0.06097472831606865,
        -0.2730064392089844,
        -0.035937435925006866,
        0.14840465784072876,
        -0.3361988067626953,
        -0.03516959771513939,
        -0.05071726068854332,
        -0.01927717588841915,
        -0.14135412871837616,
        0.22286395728588104,
        0.12054329365491867,
        0.009157652966678143,
        0.21229512989521027,
        0.16868802905082703,
        -0.08658139407634735,
        0.21778875589370728,
        -0.011175046674907207,
        -0.009455624036490917,
        0.03367380425333977,
        -0.21213459968566895,
        -0.1502360850572586,
        0.017941385507583618,
        -0.5582472085952759,
        0.015349018387496471,
        -0.12952756881713867,
        -0.23811975121498108,
        -0.2182316929101944,
        -0.0742349922657013,
        -0.12060441076755524,
        -0.022425265982747078,
        -0.003160025691613555,
        0.1487543135881424,
        0.26371824741363525,
        -0.13288189470767975,
        0.17322079837322235,
        -0.18431638181209564,
        0.19162830710411072,
        -0.3196764886379242,
        -0.18588446080684662,
        0.18563911318778992,
        -0.26172199845314026,
        -0.17442896962165833,
        0.03382822871208191,
        0.1350262463092804,
        0.00009947963553713635,
        0.11780212074518204,
        -0.4288848042488098,
        0.0736936628818512,
        0.22880132496356964,
        -0.2426982969045639,
        0.10408615320920944,
        -0.17112112045288086,
        -0.09951525926589966,
        0.07023628056049347,
        0.24918149411678314,
        0.22006762027740479,
        0.08260912448167801,
        0.2972703278064728,
        0.05332190543413162,
        0.046569887548685074,
        0.18527163565158844,
        -0.09315261244773865,
        0.1686992198228836,
        0.20640495419502258,
        0.21041227877140045,
        0.2603093087673187,
        0.14116904139518738,
        -0.1275109201669693,
        -0.42591506242752075,
        0.3453938663005829,
        -0.01873473823070526,
        0.21559187769889832,
        -0.04879279434680939,
        -0.19374024868011475,
        -0.2254878729581833,
        -0.1070578396320343,
        -0.17128613591194153,
        0.012425118125975132,
        0.2222721427679062,
        -0.04068922996520996,
        0.017394894734025,
        0.25348034501075745,
        0.15289363265037537,
        -0.18670210242271423,
        0.4217285215854645,
        -0.24023932218551636,
        -0.01731235533952713,
        0.4153520166873932,
        -0.06856205314397812,
        -0.28567245602607727,
        -0.03450837358832359,
        -0.13476581871509552,
        -0.4131115674972534,
        0.08085127919912338,
        -0.01632199063897133,
        -0.22084864974021912,
        0.07410739362239838,
        -0.056649111211299896,
        0.38909652829170227,
        0.10263507068157196,
        0.27597057819366455,
        -0.23485805094242096,
        0.10730992257595062,
        -0.07137036323547363,
        -0.07914380729198456,
        0.05723314732313156,
        0.019260235130786896,
        -0.18958137929439545,
        -0.13548579812049866,
        0.26429277658462524,
        0.10810951143503189,
        0.209549680352211,
        -0.2881724238395691,
        0.0703326016664505,
        -0.07267774641513824,
        -0.012051056139171124,
        -0.10665295273065567,
        -0.39891400933265686,
        -0.1027052253484726,
        -0.08797911554574966,
        0.06568058580160141,
        -0.04208432137966156,
        0.08388854563236237,
        -0.12479431927204132,
        -0.15464293956756592,
        -0.2096482515335083,
        0.3959685266017914,
        0.11180704832077026,
        0.12571251392364502,
        0.0317743681371212,
        0.007319774478673935,
        -0.14585503935813904,
        -0.11284588277339935,
        -0.0022987988777458668,
        0.007704817224293947,
        0.138000950217247,
        0.14791728556156158,
        -0.10014677047729492,
        0.0205167755484581,
        -0.1143399327993393,
        0.0441652312874794,
        0.05556011572480202,
        -0.3278813660144806,
        -0.04409288614988327,
        0.2255481481552124,
        -0.188030406832695,
        0.2181626409292221,
        0.21895167231559753,
        -0.251433789730072,
        -0.07924908399581909,
        0.12296812981367111,
        -0.05110645666718483,
        -0.07276784628629684,
        -0.18736658990383148,
        0.15875257551670074,
        -0.23929615318775177,
        0.15531447529792786,
        -0.11294171959161758,
        -0.2660002112388611,
        0.13430774211883545,
        0.2257213443517685,
        0.3490019142627716,
        -0.09594114869832993,
        0.013467258773744106,
        0.18356548249721527,
        0.01588011533021927,
        0.18421828746795654,
        -0.10586301982402802,
        0.5049659013748169,
        -0.1730804294347763,
        -0.12623727321624756,
        -0.12851034104824066,
        0.12777967751026154,
        0.1726502776145935,
        0.08750352263450623,
        0.19778619706630707,
        -0.03929675742983818,
        0.14493335783481598,
        0.25773128867149353,
        -0.3158789873123169,
        0.052821867167949677,
        -0.4382443428039551,
        -0.09378577768802643,
        0.13141068816184998,
        -0.10444235056638718,
        -0.1872365027666092,
        -0.27479130029678345,
        -0.0885191559791565,
        -0.16827434301376343,
        -0.05235714465379715,
        0.11601907014846802,
        0.060516174882650375,
        0.004721267148852348,
        0.38425201177597046,
        -0.06000498682260513,
        0.12303858250379562,
        0.14902472496032715,
        -0.0927092656493187,
        -0.04366069287061691,
        -0.2654559910297394,
        0.05863679572939873,
        0.11553317308425903,
        0.03962838277220726,
        0.2668532729148865,
        -0.04183221608400345,
        0.2639993727207184,
        0.10355424135923386,
        0.06167715787887573,
        -0.17393942177295685,
        -0.029979202896356583,
        0.044651664793491364,
        0.09863563627004623,
        -0.22594408690929413,
        -0.17302490770816803,
        -0.37169891595840454,
        0.2716432511806488,
        -0.4533354640007019,
        0.050919823348522186,
        -0.15346354246139526,
        -0.35348156094551086,
        -0.25281357765197754,
        -0.5578622221946716,
        -0.14902906119823456,
        -0.019355779513716698,
        -0.3099324107170105,
        -0.080733522772789,
        -0.2599746286869049,
        -0.0805828720331192,
        0.009847937151789665,
        0.16876962780952454,
        0.18128228187561035,
        -0.195399209856987,
        -0.1479160636663437,
        0.2632604241371155,
        0.4106086790561676,
        -0.027977973222732544,
        0.2134065330028534,
        -0.053289998322725296,
        -0.039869289845228195,
        -0.0247973445802927,
        -0.32207155227661133,
        -0.25852084159851074,
        0.21374525129795074,
        -0.13589085638523102,
        0.18668685853481293,
        0.10751927644014359,
        -0.007109291851520538,
        0.16913360357284546,
        0.029606381431221962,
        0.03312935307621956,
        -0.1681250035762787,
        -0.02652892842888832,
        -0.31847283244132996,
        0.04958467558026314,
        -0.017220715060830116,
        0.14473071694374084,
        -0.27335864305496216,
        0.2385912835597992,
        0.06158338859677315,
        -0.21734197437763214,
        -0.16723191738128662,
        0.16982540488243103,
        0.27664321660995483,
        -0.1206662580370903,
        -0.07742628455162048,
        -0.03907986730337143,
        0.3184262812137604,
        0.10087859630584717,
        -0.3322642147541046,
        0.07466296851634979,
        0.2993158996105194,
        0.07308770716190338,
        0.1549651324748993,
        -0.1600571870803833,
        0.3942016363143921,
        0.21914047002792358,
        -0.11400256305932999,
        0.12356515973806381,
        0.0030135337729007006,
        0.0340435728430748,
        0.0028704185970127583,
        0.23791836202144623,
        -0.0616791807115078,
        -0.1632155030965805,
        0.1309531182050705,
        0.1438581794500351,
        -0.010803421959280968,
        0.008678831160068512,
        0.038937389850616455,
        -0.01858648657798767,
        -0.13467201590538025,
        -0.09812776744365692,
        0.11270059645175934,
        0.08641126751899719,
        -0.016474876552820206,
        0.33617720007896423,
        -0.13108006119728088,
        0.02833741530776024,
        -0.20964835584163666,
        0.13087324798107147,
        0.1534302830696106,
        -0.15242429077625275,
        0.10095556080341339,
        0.23554210364818573,
        -0.04342871159315109,
        -0.3469769060611725,
        -0.04968073219060898,
        0.22126750648021698,
        0.2032041996717453,
        -0.18365435302257538,
        0.16648659110069275,
        0.0414726547896862,
        0.30625003576278687,
        -0.2104184776544571,
        -0.12038574367761612,
        -0.06006862223148346,
        -0.07635767012834549,
        0.14132767915725708,
        0.4658670723438263,
        -0.2783457338809967,
        -0.13163423538208008,
        0.18504391610622406,
        -0.08018188178539276,
        -0.05056887865066528,
        0.3489469289779663,
        0.02224832773208618,
        0.16330252587795258,
        -0.07195008546113968,
        -0.144100159406662,
        -0.007620055228471756,
        -0.24377256631851196,
        -0.08778650313615799,
        0.28231754899024963,
        -0.02269849181175232,
        0.08531389385461807,
        0.27289339900016785,
        -0.16178055107593536,
        0.3752672076225281,
        0.07122872024774551,
        0.15393155813217163,
        0.17826440930366516,
        0.018358999863266945,
        -0.18114197254180908,
        -0.02882290631532669,
        0.2970128059387207,
        0.0005912933265790343,
        0.33190155029296875,
        0.3569880425930023,
        0.14983825385570526,
        -0.35795336961746216,
        -0.08060193806886673,
        0.23522596061229706,
        -0.19035732746124268,
        0.08475617319345474,
        0.305156946182251,
        -0.05134422332048416,
        -0.043492916971445084,
        0.28502246737480164,
        0.0009793936042115092,
        0.4159742295742035,
        -0.23017722368240356,
        -0.11601589620113373,
        -0.058399952948093414,
        0.2653384506702423,
        0.06748539209365845,
        0.07082270085811615,
        -0.0920836552977562,
        0.06089266389608383,
        -0.07632705569267273,
        0.22703078389167786,
        -0.2846171259880066,
        0.2537837326526642,
        0.04412354156374931,
        -0.44661369919776917,
        -0.4424563944339752,
        -0.13759690523147583,
        0.31026849150657654,
        -0.08777905255556107,
        -0.15007418394088745,
        0.15416046977043152,
        -0.11859279870986938,
        -0.060255397111177444,
        0.17921125888824463,
        -0.20368577539920807,
        -0.047111596912145615,
        0.11263610422611237,
        -0.2806856036186218,
        0.1340133398771286,
        -0.19340667128562927,
        -0.1083829402923584,
        -0.3680979907512665,
        -0.313447505235672,
        0.11568064987659454,
        0.10259692370891571,
        -0.17064759135246277,
        -0.05805002152919769,
        -0.47460705041885376,
        0.13295118510723114,
        0.07871036976575851,
        0.0948677808046341,
        0.13689184188842773,
        -0.02863287180662155,
        -0.009503401815891266,
        -0.08448631316423416,
        -0.0388173870742321,
        -0.1111796498298645,
        -0.27683398127555847,
        -0.1327412724494934,
        -0.007902687415480614,
        0.0789918377995491,
        -0.034718286246061325,
        -0.14697560667991638,
        0.1259363293647766,
        -0.07006613910198212,
        -0.05197206139564514,
        -0.2597709596157074,
        -0.05871788039803505,
        0.1961321234703064,
        0.5397127866744995,
        0.1831570267677307,
        -0.060474950820207596,
        -0.13385853171348572,
        -0.1372508704662323,
        -0.08898752182722092,
        -0.14175894856452942,
        -0.11163609474897385,
        0.14084552228450775,
        -0.17036302387714386,
        -0.1775735318660736,
        0.060014281421899796,
        0.2339528352022171,
        0.1305285096168518,
        -0.4153501093387604,
        -0.07640165090560913,
        -0.12293019145727158,
        0.38974884152412415,
        -0.0863533765077591,
        -0.09438864141702652,
        -0.17289862036705017,
        -0.17410945892333984,
        -0.11840580403804779,
        0.21077685058116913,
        0.007837693206965923,
        -0.16202040016651154,
        0.1655351221561432,
        -0.2703212797641754,
        -0.0516379252076149,
        0.09513893723487854,
        -0.38350817561149597,
        0.0074279108084738255,
        0.07846928387880325,
        0.2599864602088928,
        -0.00868044514209032,
        0.030161678791046143,
        -0.12418299168348312,
        0.09501486271619797,
        0.12054518610239029,
        -0.1374954879283905,
        0.0018128057708963752,
        0.4702359437942505,
        0.1945565938949585,
        -0.3159070611000061,
        0.10945849865674973,
        0.21950779855251312,
        -0.21263408660888672,
        0.20384669303894043,
        0.22731326520442963,
        0.000515514228027314,
        0.11655277013778687,
        0.11955122649669647,
        -0.07528847455978394,
        -0.06653293967247009,
        0.26284775137901306,
        -0.10952528566122055,
        0.23941484093666077,
        0.2396223098039627,
        0.17649206519126892,
        0.16111335158348083,
        -0.16228193044662476,
        0.0037165097892284393,
        0.12553472816944122,
        0.12412218749523163,
        -0.25875791907310486,
        0.0007433185237459838,
        0.10704512149095535,
        0.014342094771564007,
        -0.2708658277988434,
        0.11439177393913269,
        -0.06325266510248184,
        0.03436819091439247,
        0.11493439972400665,
        0.0632467046380043,
        0.06393221020698547,
        -0.00887650903314352,
        0.2974884510040283,
        0.14293907582759857,
        0.37428537011146545,
        -0.008416704833507538,
        0.20701181888580322,
        0.03975631296634674,
        -0.21004784107208252,
        0.20809780061244965,
        0.15720400214195251,
        0.16163994371891022,
        -0.0016041293274611235,
        -0.009944071061909199,
        0.000012641269677260425,
        0.013825404457747936,
        -0.013293772004544735,
        0.020941635593771935,
        -0.033105868846178055,
        -0.40343937277793884,
        -0.29219114780426025,
        -0.22606079280376434,
        -0.24530766904354095,
        0.007603620644658804,
        -0.042676396667957306,
        -0.029542751610279083,
        0.1268470734357834,
        0.16187261044979095,
        -0.05476193502545357,
        0.15598498284816742,
        0.025807242840528488,
        0.1434018760919571,
        -0.12281554937362671,
        0.05309149995446205,
        0.0681508481502533,
        -0.20745664834976196,
        -0.09280990064144135,
        -0.025799553841352463,
        0.14918692409992218,
        0.010884195566177368,
        -0.06240318715572357,
        0.05259358137845993,
        0.2587169408798218,
        0.019706161692738533,
        0.19410033524036407,
        -0.016943952068686485,
        -0.000010013895007432438,
        0.17059527337551117,
        -0.07541895657777786,
        -0.046569228172302246,
        -0.008782503195106983,
        -0.11814302206039429,
        0.1566932201385498,
        -0.0623738132417202,
        -0.3910737633705139,
        -0.5008904337882996,
        0.043138738721609116,
        -0.15906740725040436,
        -0.15139925479888916,
        0.21525169909000397,
        0.17994657158851624,
        0.12308233231306076,
        -0.11684825271368027,
        -0.09840717166662216,
        0.10559495538473129,
        -0.0005561195430345833,
        -0.42035290598869324,
        -0.17527060210704803,
        -0.18558800220489502,
        -0.20879383385181427,
        0.013696050271391869,
        -0.12475932389497757,
        0.1866515576839447,
        0.27982598543167114,
        -0.0912969782948494,
        -0.008027320727705956,
        0.10420946031808853,
        -0.2621428668498993,
        0.09081156551837921,
        0.30055344104766846,
        0.23811538517475128,
        -0.25483793020248413,
        -0.01145199965685606,
        0.01087992638349533,
        0.1870063692331314,
        -0.1712697148323059,
        0.20412756502628326,
        0.05583777651190758,
        0.3099691867828369,
        -0.25145137310028076,
        0.10596047341823578,
        0.32263946533203125,
        0.06910195201635361,
        -0.055907681584358215,
        0.1176881417632103,
        0.200316920876503,
        -0.13542217016220093,
        0.24863135814666748,
        0.321315199136734,
        -0.04839697107672691,
        0.2667151391506195,
        0.14316539466381073,
        -0.2698083519935608,
        -0.06967806071043015,
        0.2952152192592621,
        -0.11424008756875992,
        -0.18522074818611145,
        -0.10274993628263474,
        0.33456704020500183,
        -0.0426475964486599,
        -0.01528624352067709,
        -0.05916600301861763,
        -0.1451605260372162,
        0.28538626432418823,
        -0.013890559785068035,
        0.21940843760967255,
        -0.013195137493312359,
        0.15117239952087402,
        -0.12241119146347046,
        0.08852889388799667,
        -0.2653750777244568,
        -0.044811926782131195,
        -0.46644139289855957,
        -0.177103653550148,
        -0.138259157538414,
        0.4893738031387329,
        -0.026661653071641922,
        0.1266019195318222,
        0.09239545464515686,
        0.14241865277290344,
        -0.11861827224493027,
        -0.0998564064502716,
        -0.04139553755521774,
        -0.14762352406978607,
        0.10356589406728745,
        -0.03500306233763695,
        0.06977392733097076,
        0.16107381880283356,
        0.0414593368768692,
        -0.6143305897712708,
        -0.019455915316939354,
        0.24491900205612183,
        -0.27811211347579956,
        -0.2666317820549011,
        0.019399451091885567,
        0.026338350027799606,
        -0.154336079955101,
        0.09459062665700912,
        0.11225882172584534,
        0.3504278361797333,
        -0.1871194690465927,
        0.12861697375774384,
        -0.26883766055107117,
        -0.1373160481452942,
        0.20603914558887482,
        0.16484923660755157,
        0.08701147139072418,
        0.02608972229063511,
        -0.08873476088047028,
        0.09082946926355362,
        -0.2838824987411499,
        0.008676452562212944,
        -0.12090376764535904,
        -0.16464054584503174,
        0.3235342502593994,
        -0.016279099509119987,
        0.05774291977286339,
        0.17027248442173004,
        -0.15622630715370178,
        0.0660882368683815,
        0.25497302412986755,
        0.13785211741924286,
        0.1923198252916336,
        0.017540806904435158,
        -0.19671493768692017,
        0.09065742045640945,
        0.2843150198459625,
        0.06816258281469345,
        0.09545344114303589,
        -0.07462447136640549,
        -0.17101332545280457,
        0.38344261050224304,
        0.10693611949682236,
        -0.18006454408168793,
        -0.07384956628084183,
        -0.02600082755088806,
        0.32299134135246277,
        -0.04722704365849495,
        -0.2654578387737274,
        0.2857421040534973,
        -0.34567034244537354,
        0.14538145065307617,
        -0.16369600594043732,
        0.014470390975475311,
        -0.11515302211046219,
        0.18598519265651703,
        -0.0009191101999022067,
        -0.0369584783911705,
        0.2525617778301239,
        -0.14074493944644928,
        -0.21589411795139313,
        -0.06376397609710693,
        0.08410180360078812,
        3.0886562285559194e-7,
        0.023457208648324013,
        -0.024735869839787483,
        0.38148826360702515,
        -0.3657231330871582,
        -0.0873495489358902,
        -0.07318460196256638,
        -0.025730075314641,
        0.2185787558555603,
        0.01697062887251377,
        -0.5553273558616638,
        -0.0834093764424324,
        0.009684828110039234,
        0.12756209075450897,
        0.19840852916240692,
        -0.0430356003344059,
        0.13384050130844116,
        -0.04640919342637062,
        -0.1008533462882042,
        -0.22086194157600403,
        -0.36093834042549133,
        0.1886601746082306,
        -0.14675405621528625,
        0.21918316185474396,
        0.23008176684379578,
        -0.20174764096736908,
        0.018954044207930565,
        0.20286719501018524,
        -0.11900448054075241,
        -0.06019942834973335,
        0.06938458979129791,
        -0.061386991292238235,
        -0.05888368934392929,
        -0.012117176316678524,
        0.03336716070771217,
        -0.037758372724056244,
        -0.22217248380184174,
        -0.10900988429784775,
        -0.0029681245796382427,
        0.02787724696099758,
        0.1820477545261383,
        -0.1666184961795807,
        -0.15444253385066986,
        0.12684889137744904,
        -0.01423810888081789,
        -0.18559759855270386,
        0.1124974861741066,
        0.19091132283210754,
        -0.31004413962364197,
        0.05185559764504433,
        -0.07151810824871063,
        -0.23116469383239746,
        0.15522031486034393,
        -0.060085974633693695,
        0.2559991180896759,
        -0.1569543331861496,
        -0.0750531554222107,
        -0.03143579512834549,
        -0.23311953246593475,
        0.222711980342865,
        0.10957021266222,
        -0.06826604902744293,
        -0.07711032778024673,
        0.09098173677921295,
        0.3917253315448761,
        -0.0260299164801836,
        0.08880161494016647,
        0.1095920205116272,
        -0.18584254384040833,
        -0.2542036771774292,
        0.004976191557943821,
        -0.03595748543739319,
        0.14332576096057892,
        0.05968739092350006,
        0.16401542723178864,
        0.031726717948913574,
        0.23635487258434296,
        -0.02189766615629196,
        0.27367547154426575,
        0.15405462682247162,
        -0.2877935469150543,
        -0.1287839710712433,
        -0.07140394300222397,
        0.33869656920433044,
        -0.3750635087490082,
        0.16097645461559296,
        0.052141688764095306,
        0.39147382974624634,
        0.25578126311302185,
        0.1257191300392151,
        0.10785280913114548,
        -0.0624636635184288,
        -0.19541601836681366,
        -0.20158210396766663,
        -0.05227506533265114,
        -0.07092002779245377,
        -0.2816711962223053,
        0.025004206225275993,
        -0.10786346346139908,
        -0.29770779609680176,
        0.41189926862716675,
        0.03374664857983589,
        0.0812997817993164,
        0.054636381566524506,
        -0.36546823382377625,
        -0.2168969064950943,
        -0.02293909527361393,
        0.23992156982421875,
        -0.08356927335262299,
        -0.004966681357473135,
        0.030116839334368706,
        -0.16111715137958527,
        -0.0944206714630127,
        -0.1328335702419281,
        0.14953865110874176,
        0.22212769091129303,
        0.2669889032840729,
        0.01588190719485283,
        -0.019377324730157852,
        0.19427141547203064,
        0.07622488588094711,
        0.06362662464380264,
        0.027869341894984245,
        -0.15179140865802765,
        -0.14403457939624786,
        0.11092220991849899,
        -0.06196577101945877,
        -0.2122596651315689,
        0.015458147041499615,
        -0.13301239907741547,
        0.024124277755618095,
        0.08391336351633072,
        -0.2829629182815552,
        -0.09289176017045975,
        -0.10439907759428024,
        -0.22769805788993835,
        -0.12006837129592896,
        0.06056946888566017,
        -0.06801135838031769,
        0.1439329981803894,
        0.359864741563797,
        -0.11177206039428711,
        -0.26454561948776245,
        0.11774672567844391,
        -0.16491232812404633,
        0.06089284271001816,
        -0.18990971148014069,
        0.19174493849277496,
        0.16307108104228973,
        0.37063127756118774,
        0.013874868862330914,
        0.07623150199651718,
        -0.05389602482318878,
        0.3948831856250763,
        -0.04268917068839073,
        -0.13074816763401031,
        -0.19786305725574493,
        -0.24733373522758484,
        0.20069751143455505,
        -0.24873383343219757,
        0.04952261224389076,
        0.23068714141845703,
        0.026293890550732613,
        0.08203064650297165,
        -0.399862676858902,
        -0.1885339468717575,
        0.1507398933172226,
        -0.09189923852682114,
        0.1625419408082962,
        -0.022107886150479317,
        0.004814506508409977,
        0.10097704827785492,
        0.2027258574962616,
        -0.08732321113348007,
        -0.08715807646512985,
        -0.08841194212436676,
        0.19434203207492828,
        0.1560424566268921,
        -0.255081444978714,
        -0.04400906339287758,
        -0.28639793395996094,
        0.2210804671049118,
        -0.05027816817164421,
        -0.18791715800762177,
        -0.3393464982509613,
        0.22912001609802246,
        -0.3006524443626404,
        -0.12620243430137634,
        0.11279087513685226,
        0.09181460738182068,
        0.014706471003592014,
        0.17720621824264526,
        0.03145256265997887,
        -0.09273986518383026,
        0.024441692978143692,
        0.03262681886553764,
        -0.1941375434398651,
        -0.0022876828443259,
        -0.09497427195310593,
        0.0836080014705658,
        -0.08685404807329178,
        0.1050940528512001,
        -0.013614978641271591,
        0.27229729294776917,
        0.028713103383779526,
        -0.004363993648439646,
        -0.2901238203048706,
        0.05146729201078415,
        -0.02848842740058899,
        0.29698362946510315,
        0.25016263127326965,
        -0.07363487035036087,
        0.23450727760791779,
        0.10961496829986572,
        0.06413530558347702,
        0.04260597378015518,
        0.26193082332611084,
        0.40325331687927246,
        0.020922508090734482,
        -0.16520217061042786,
        0.1776016503572464,
        0.07221896946430206,
        0.08279135823249817,
        -0.0484803207218647,
        0.019287357106804848,
        0.006600632332265377,
        -0.4278712570667267,
        0.1442389041185379,
        -0.10685837268829346,
        0.2615123391151428,
        -0.2506948411464691,
        0.017002854496240616,
        0.2347516268491745,
        0.21893908083438873,
        -0.009556623175740242,
        0.05321379005908966,
        -0.006655649282038212,
        0.05662538483738899,
        -0.005817159544676542,
        -0.12216652184724808,
        0.0782126933336258,
        0.05283378064632416,
        0.1108565405011177,
        0.13985157012939453,
        0.06324917823076248,
        0.07455295324325562,
        -0.13039083778858185,
        -0.1520422250032425,
        0.1116260513663292,
        -0.03543182834982872,
        -0.17383307218551636,
        -0.3723560571670532,
        0.12890267372131348,
        0.3562915623188019,
        -0.17892082035541534,
        0.2083592712879181,
        -0.055648233741521835,
        -0.09783293306827545,
        -0.00651434063911438,
        0.0389338880777359,
        0.13799329102039337,
        0.0233455877751112,
        -0.008939686231315136,
        -0.046006251126527786,
        0.12850846350193024,
        0.20449940860271454,
        -0.29195722937583923,
        0.20242565870285034,
        0.38558679819107056,
        -0.0030566172208637,
        0.042889419943094254,
        -0.1645241379737854,
        -0.096067875623703,
        -0.3095247149467468,
        -0.40057170391082764,
        0.21118991076946259,
        0.03446391597390175,
        0.05362899973988533,
        0.2926313281059265,
        -0.09335838258266449,
        0.21619705855846405,
        -0.06439981609582901,
        0.27299922704696655,
        0.16715028882026672,
        0.014233379624783993,
        -0.04027826339006424,
        0.2458919733762741,
        0.13718904554843903,
        0.08951669931411743,
        -0.0749756395816803,
        -0.3212389349937439,
        -0.007376196328550577,
        -0.11142420023679733,
        0.29772984981536865,
        0.04777799919247627,
        0.04194975271821022,
        -0.06879039853811264,
        -0.1449652463197708,
        -0.31251171231269836,
        0.23526570200920105,
        0.060581378638744354,
        -0.20380476117134094,
        -0.11958841979503632,
        0.07382356375455856,
        0.00092069007223472,
        0.0390939936041832,
        0.17661994695663452,
        0.08273496478796005,
        0.04689852520823479,
        -0.3869503140449524,
        -0.5549182891845703,
        0.14945454895496368,
        0.011628367006778717,
        -0.18470130860805511,
        -0.32819944620132446,
        -0.16965989768505096,
        -0.19921807944774628,
        -0.09095325320959091,
        0.08854774385690689,
        0.2701009213924408,
        -0.026698831468820572,
        -0.0441284254193306,
        -0.13365532457828522,
        -0.0976724773645401,
        -0.1282290816307068,
        -0.1668902486562729,
        -0.3153846859931946,
        0.38960710167884827,
        0.3998134434223175,
        -0.0732109472155571,
        -0.05830919370055199,
        -0.0005523464060388505,
        -0.04891232028603554,
        -0.09470633417367935,
        -0.02326425537467003,
        -0.05009816586971283,
        -0.03950101137161255,
        0.20987334847450256,
        0.0489157997071743,
        -0.25428536534309387,
        -0.21843062341213226,
        -0.29449495673179626,
        -0.15212580561637878,
        -0.19181789457798004,
        0.1770218461751938,
        -0.04047256335616112,
        0.016186123713850975,
        -0.41274139285087585,
        0.06530866026878357,
        0.020623592659831047,
        0.020678533241152763,
        -0.1406579464673996,
        -0.02047649957239628,
        -0.09166824072599411,
        -0.15324215590953827,
        -0.1485043466091156,
        0.034662023186683655,
        -0.01642926223576069,
        0.14282405376434326,
        -0.15024611353874207,
        -0.031219474971294403,
        0.3150240480899811,
        -0.01895190216600895,
        0.273438960313797,
        -0.09686319530010223,
        0.35765379667282104,
        0.08363668620586395,
        0.07838887721300125,
        -0.27441322803497314,
        -0.31667810678482056,
        -0.053373076021671295,
        -0.04073294997215271,
        0.00935289729386568,
        -0.1822725087404251,
        0.1295606940984726,
        0.007104970049113035,
        -0.3597413897514343,
        0.21682734787464142,
        0.09028010070323944,
        0.22757098078727722,
        0.0824078917503357,
        -0.29910075664520264,
        -0.09767446666955948,
        0.2933095693588257,
        -0.2756364941596985,
        0.22943878173828125,
        0.370341420173645,
        0.039919085800647736,
        0.1967119723558426,
        0.2426394820213318,
        0.08005423098802567,
        -0.12618473172187805,
        0.1135181412100792,
        0.23957660794258118,
        -0.4179035425186157,
        0.012916560284793377,
        0.2342432290315628,
        -0.21653790771961212,
        0.005078965798020363,
        0.17114469408988953,
        0.23914678394794464,
        0.02410099282860756,
        0.03639766573905945,
        -0.04320056736469269,
        0.11815126240253448,
        0.07480873912572861,
        0.09596646577119827,
        0.10849113017320633,
        0.119361512362957,
        -0.14066652953624725,
        0.13190056383609772,
        -0.22668875753879547,
        -0.08109451830387115,
        0.3292524814605713,
        0.16252097487449646,
        0.40380826592445374,
        0.10651560127735138,
        -0.0742187649011612,
        0.11244246363639832,
        0.1666889488697052,
        0.09017754346132278,
        -0.0407637357711792,
        0.013456427492201328,
        0.16380372643470764,
        0.12344827502965927,
        0.18949531018733978,
        0.5172823667526245,
        0.026848388835787773,
        -0.24743498861789703,
        -0.09785059839487076,
        -0.24450896680355072,
        -0.20645450055599213,
        0.21694444119930267,
        0.16893786191940308,
        -0.4808606505393982,
        0.2111729085445404,
        0.07818068563938141,
        -0.4142918884754181,
        -0.4652058482170105,
        0.26429662108421326,
        0.09474477171897888,
        0.04402226209640503,
        0.10314880311489105,
        -0.08411479741334915,
        -0.19989904761314392,
        0.03501824289560318,
        -0.08693796396255493,
        0.16100172698497772,
        0.161617711186409,
        -0.0730338990688324,
        0.14682503044605255,
        0.0773085430264473,
        0.08058370649814606,
        -0.28641802072525024,
        -0.2692941129207611,
        -0.11692730337381363,
        0.046867258846759796,
        -0.12802931666374207,
        0.0792853832244873,
        0.22095830738544464,
        -0.3090183734893799,
        -0.03272455930709839,
        -0.008652628399431705,
        0.1654319018125534,
        -0.0500938817858696,
        0.10005636513233185,
        0.13274388015270233,
        -0.3159058392047882,
        0.046355172991752625,
        0.06019918993115425,
        0.07625660300254822,
        -0.4039400517940521,
        -0.20990398526191711,
        0.13901647925376892,
        0.07112757861614227,
        -0.08262214809656143,
        -0.12227889895439148,
        0.3869757652282715,
        -0.060515083372592926,
        0.2730403244495392,
        0.158583864569664,
        -0.03743012994527817,
        0.018720364198088646,
        0.17905044555664062,
        0.11481885612010956,
        0.017433106899261475,
        0.1599431037902832,
        -0.23078447580337524,
        -0.13110776245594025,
        0.19180092215538025,
        0.3806282877922058,
        -0.19119340181350708,
        0.31624072790145874,
        -0.1375085711479187,
        -0.03505251184105873,
        0.08311384171247482,
        0.04993501678109169,
        0.01256502140313387,
        0.327214777469635,
        0.36466267704963684,
        -0.20226572453975677,
        -0.05215508118271828,
        0.20062343776226044,
        -0.03609311580657959,
        0.014196301810443401,
        -0.14208322763442993,
        -0.3891834020614624,
        0.14341436326503754,
        -0.1423681229352951,
        0.11558196693658829,
        0.24468226730823517,
        -0.09934390336275101,
        -0.3877725899219513,
        0.033305224031209946,
        0.19589553773403168,
        -0.12064919620752335,
        -0.15634062886238098,
        0.12642337381839752,
        -0.07089155912399292,
        0.09713078290224075,
        -0.3845657408237457,
        -0.2360626608133316,
        0.08650735020637512,
        -0.17175497114658356,
        -0.2045731395483017,
        0.039327509701251984,
        0.2842220962047577,
        -0.16497404873371124,
        -0.0781572237610817,
        -0.10789880156517029,
        -0.10293304175138474,
        0.34543144702911377,
        0.11791706830263138,
        -0.34694021940231323,
        0.03279952332377434,
        -0.04642701521515846,
        -0.10290351510047913,
        -0.2645374536514282,
        0.15456432104110718,
        -0.08385001122951508,
        0.3045651614665985,
        -0.04203697293996811,
        0.09376324713230133,
        -0.02790561318397522,
        -0.18716628849506378,
        -0.036869507282972336,
        0.48514458537101746,
        0.0888783261179924,
        -0.2070675641298294,
        0.18027786910533905,
        -0.044154439121484756,
        -0.03368714079260826,
        -0.1358959972858429,
        0.10123612731695175,
        0.030720874667167664,
        0.269025981426239,
        -0.006349234841763973,
        -0.3278941214084625,
        0.07183632999658585,
        0.02971293032169342,
        0.3912394344806671,
        -0.062249746173620224,
        0.24729366600513458,
        -0.06937548518180847,
        -0.08660917729139328,
        -0.08586285263299942,
        -0.049386344850063324,
        0.17529913783073425,
        0.20029892027378082,
        -0.15296964347362518,
        -0.045786645263433456,
        0.2853657007217407,
        -0.04258962348103523,
        -0.08876436203718185,
        -0.32129424810409546,
        0.30975329875946045,
        -0.10968635976314545,
        -0.07250816375017166,
        0.078826904296875,
        -0.21555714309215546,
        0.24789129197597504,
        0.05530685558915138,
        -0.06477192044258118,
        0.22215329110622406,
        -0.014251152984797955,
        -0.1771886795759201,
        -0.037506215274333954,
        -0.21978436410427094,
        0.37402844429016113,
        0.1562424600124359,
        -0.26022475957870483,
        0.30098477005958557,
        -0.0631072148680687,
        0.44015955924987793,
        0.08008884638547897,
        -0.24287016689777374,
        -0.07524518668651581,
        -0.2909480035305023,
        -0.03332701697945595,
        0.27150022983551025,
        -0.2792540192604065,
        -0.29592251777648926,
        -0.24485822021961212,
        -0.33331066370010376,
        0.22553525865077972,
        0.1288425326347351,
        -0.10769238322973251,
        -0.01735583320260048,
        -0.1282712072134018,
        0.12285054475069046,
        -0.16424785554409027,
        -0.08620335906744003,
        0.07334578037261963,
        0.043973516672849655,
        0.05164458230137825,
        -0.0579865500330925,
        0.3278639614582062,
        -0.15298202633857727,
        0.012414750643074512,
        -0.07660296559333801,
        -0.30414143204689026,
        0.5075581669807434,
        -0.18297278881072998,
        -0.46401292085647583,
        -0.10167019814252853,
        0.07016605138778687,
        0.15424883365631104,
        -0.009686259552836418,
        -0.035553328692913055,
        0.3093758821487427,
        0.004999441094696522,
        0.16053837537765503,
        -0.071143738925457,
        -0.23285488784313202,
        -0.31419527530670166,
        0.1043514534831047,
        -0.16234765946865082,
        -0.10070467740297318,
        0.1361430138349533,
        -0.11894217133522034,
        0.13315677642822266,
        -0.13710638880729675,
        0.1098434329032898,
        0.20182843506336212,
        0.19700351357460022,
        0.0016449764370918274,
        -0.02532006800174713,
        -0.11534333974123001,
        -0.2027052342891693,
        -0.05562031641602516,
        0.34074851870536804,
        0.2603946030139923,
        0.0699722170829773,
        -0.2221219390630722,
        -0.03604373335838318,
        -0.33439868688583374,
        0.36785149574279785,
        0.19988200068473816,
        0.2243150770664215,
        0.10291706025600433,
        -0.13142678141593933,
        0.29096782207489014,
        0.08717106282711029,
        -0.0987824872136116,
        0.15827934443950653,
        0.19674044847488403,
        -0.06943076848983765,
        0.003504305612295866,
        0.06425464898347855,
        -0.1412002295255661,
        0.043732743710279465,
        0.021660091355443,
        -0.1119065135717392,
        -0.2703644633293152,
        -0.32096898555755615,
        0.04377968981862068,
        -0.1009356752038002,
        -0.12404666095972061,
        -0.004972669295966625,
        -0.19686906039714813,
        0.2767844796180725,
        0.29271426796913147,
        -0.06787998974323273,
        -0.10872706025838852,
        -0.050462719053030014,
        0.28358858823776245,
        -0.28892791271209717,
        0.2749646008014679,
        0.06127019226551056,
        -0.03444883972406387,
        -0.28433823585510254,
        -0.27941635251045227,
        0.194136381149292,
        -0.1597711443901062,
        0.04234910011291504,
        -0.21223001182079315,
        -0.19578467309474945,
        0.22732079029083252,
        -0.1181599572300911,
        -0.10448519140481949,
        -0.03122743032872677,
        0.11007772386074066,
        -0.07071490585803986,
        -0.3997822701931,
        -0.20954079926013947,
        0.016454245895147324,
        -0.25599202513694763,
        0.0009619978372938931,
        -0.2167169600725174,
        0.28615424036979675,
        0.15325313806533813,
        0.054900873452425,
        0.12617062032222748,
        0.3343309164047241,
        -0.09975963830947876,
        -0.07197999209165573,
        0.34145694971084595,
        0.0911598950624466,
        -0.20643781125545502,
        0.2862056493759155,
        0.026492169126868248,
        0.4815315008163452,
        -0.31541895866394043,
        0.11395926028490067,
        -0.0017891231691464782,
        -0.3373414874076843,
        -0.17523379623889923,
        0.022262584418058395,
        0.10139576345682144,
        0.12578223645687103,
        -0.08124980330467224,
        -0.10052181035280228,
        -0.21346484124660492,
        0.17259171605110168,
        -0.22757241129875183,
        0.14046913385391235,
        0.2727310359477997,
        -0.2030472606420517,
        -0.14913374185562134,
        -0.011416463181376457,
        -0.24170836806297302,
        0.19822990894317627,
        -0.031596604734659195,
        0.018773574382066727,
        -0.7342060804367065,
        0.1846131980419159,
        0.06210985779762268,
        -0.18396472930908203,
        -0.02317151241004467,
        0.162876158952713,
        0.014308713376522064,
        0.029163064435124397,
        0.2606505751609802,
        0.12863054871559143,
        -0.24969129264354706,
        -0.1657610982656479,
        -0.21270592510700226,
        -0.21503813564777374,
        0.016181139275431633,
        -0.18782563507556915,
        -0.2411014437675476,
        -0.2147456854581833,
        0.1820022463798523,
        -0.2246883660554886,
        -0.3818797767162323,
        0.7055569887161255,
        0.2899230122566223,
        -0.05753004550933838,
        0.5969823598861694,
        -0.0563504584133625,
        -0.5982152819633484,
        0.032148171216249466,
        -0.38872528076171875,
        0.29155516624450684,
        -0.10489679872989655,
        0.12180202454328537,
        0.22524215281009674,
        0.30907440185546875,
        0.3858520984649658,
        -0.04689230024814606,
        -0.22436895966529846,
        0.3505755662918091,
        -0.14646631479263306,
        0.07152219116687775,
        0.02630692906677723,
        -0.06928131729364395,
        0.31249821186065674,
        0.06460639089345932,
        0.18584559857845306,
        -0.1489681750535965,
        -0.053150102496147156,
        -0.09588403254747391,
        -0.04496541991829872,
        -0.15153849124908447,
        0.03601639345288277,
        0.03570283204317093,
        0.0956554040312767,
        -0.28210872411727905,
        0.05285540223121643,
        0.10063043981790543,
        0.24417954683303833,
        -0.4788406491279602,
        0.1642661839723587,
        0.10347946733236313,
        -0.21620027720928192,
        -0.17271198332309723,
        0.011028632521629333,
        0.02350720390677452,
        0.2564632296562195,
        0.10527986288070679,
        0.2254636436700821,
        0.2602616846561432,
        0.19312679767608643,
        -0.4444589912891388,
        -0.41783156991004944,
        0.2268710434436798,
        -0.13323767483234406,
        -0.16558882594108582,
        0.3619682490825653,
        -0.16326764225959778,
        -0.08277539163827896,
        0.3238977789878845,
        -0.18455815315246582,
        0.04802437871694565,
        0.0868590697646141,
        0.06966637820005417,
        -0.17693988978862762,
        0.13454487919807434,
        -0.058388546109199524,
        0.02922964282333851,
        -0.5372341275215149,
        -0.14747540652751923,
        -0.29334667325019836,
        0.15778329968452454,
        -0.1059122234582901,
        -0.001059164758771658,
        -0.3005106449127197,
        0.010549305938184261,
        -0.17345719039440155,
        0.12443359196186066,
        0.15758182108402252,
        0.14254732429981232,
        -0.025960799306631088,
        -0.08402218669652939,
        0.11077433079481125,
        -0.07066898792982101,
        0.07111166417598724,
        0.1504060924053192,
        -0.18839845061302185,
        -0.06895347684621811,
        0.21635518968105316,
        0.1656099259853363,
        0.028910232707858086,
        -0.062040288001298904,
        -0.14607462286949158,
        -0.2319284975528717,
        0.0689624547958374,
        -0.037408601492643356,
        0.11498147994279861,
        0.06154661625623703,
        -0.06771624088287354,
        0.07004548609256744,
        0.20893259346485138,
        0.06136623024940491,
        -0.26823917031288147,
        -0.010874276049435139,
        -0.08380475640296936,
        0.0501684844493866,
        -0.1266910284757614,
        -0.07255945354700089,
        0.0017576306127011776,
        -0.019009191542863846,
        -0.24385976791381836,
        0.09083738178014755,
        -0.18162430822849274,
        -0.02115539461374283,
        0.18143193423748016,
        0.015218161977827549,
        0.1436740905046463,
        -0.07134462893009186,
        -0.05197611078619957,
        -0.3373313248157501,
        0.044112276285886765,
        0.18063518404960632,
        -0.008272435516119003,
        0.0446089468896389,
        -0.11865890026092529,
        0.016378626227378845,
        0.18087081611156464,
        0.32087087631225586,
        -0.05069851875305176,
        0.03973636403679848,
        -0.051865316927433014,
        -0.3203934133052826,
        -0.09073922783136368,
        -0.3198540210723877,
        -0.3846037983894348,
        0.46176087856292725,
        0.06999344378709793,
        0.06254657357931137,
        -0.34071415662765503,
        0.01611092872917652,
        -0.024146728217601776,
        0.028158709406852722,
        -0.04224880039691925,
        -0.24435392022132874,
        0.1086396872997284,
        0.06054805964231491,
        -0.0912662148475647,
        0.34162360429763794,
        0.0927376076579094,
        0.010050991550087929,
        0.11991167813539505,
        0.030754242092370987,
        0.10390406847000122,
        0.024058816954493523,
        0.06473299115896225,
        -0.1718360334634781,
        0.009524110704660416,
        -0.16200020909309387,
        -0.3523012399673462,
        0.1131288930773735,
        0.32800066471099854,
        -0.0007578590884804726,
        -0.07299798727035522,
        -0.043883148580789566,
        -0.05039443448185921,
        0.08226979523897171,
        -0.025321347638964653,
        0.3871939778327942,
        0.24935241043567657,
        -0.1939600259065628,
        0.00803783256560564,
        -0.17275495827198029,
        0.09311708807945251,
        0.03288521245121956,
        -0.09115640074014664,
        0.11001355201005936,
        -0.08542878925800323,
        0.004967744927853346,
        -0.12673623859882355,
        0.13671541213989258,
        0.22454765439033508,
        -0.02760377526283264,
        -0.03540533035993576,
        0.0016006681835278869,
        -0.11712785065174103,
        -0.2041696012020111,
        -0.23049291968345642,
        -0.12188532203435898,
        -0.16816209256649017,
        0.1875586211681366,
        0.24815891683101654,
        0.07565516233444214,
        -0.17535027861595154,
        -0.00311130378395319,
        -0.09388811886310577,
        0.2551348805427551,
        0.28152933716773987,
        -0.23325574398040771,
        0.2648938000202179,
        0.042331013828516006,
        -0.17298033833503723,
        0.10063230246305466,
        0.1044502854347229,
        0.007532632909715176,
        -0.16297708451747894,
        -0.09082236140966415,
        0.17010681331157684,
        0.22546307742595673,
        0.20511285960674286,
        -0.057757455855607986,
        -0.5071188807487488,
        0.22345589101314545,
        -0.06338959187269211,
        0.05193493142724037,
        0.07202297449111938,
        -0.02291051298379898,
        0.06715600192546844,
        -0.1784549355506897,
        -0.11857126653194427,
        0.06005314365029335,
        0.044193293899297714,
        0.05715789273381233,
        0.07013393193483353,
        -0.12473971396684647,
        0.19980598986148834,
        -0.09113416820764542,
        0.1530427187681198,
        0.13795988261699677,
        -0.10798422992229462,
        0.050990328192710876,
        0.04955722764134407,
        0.14744117856025696,
        0.07408753782510757,
        -0.10973955690860748,
        -0.10774405300617218,
        -0.19934499263763428,
        -0.18511611223220825,
        0.25889483094215393,
        0.2794053554534912,
        0.09400862455368042,
        -0.28644901514053345,
        0.2791183292865753,
        0.01156562753021717,
        0.2768957018852234,
        -0.01634019985795021,
        0.15029236674308777,
        0.20647887885570526,
        0.13737080991268158,
        0.13333316147327423,
        0.19283273816108704,
        -0.1098448634147644,
        -0.24738824367523193,
        0.008300445973873138,
        0.14485284686088562,
        0.07811393588781357,
        0.1618598848581314,
        -0.3103751540184021,
        0.5728439092636108,
        0.14264319837093353,
        -0.16625674068927765,
        0.2553005814552307,
        -0.17123892903327942,
        0.16448651254177094,
        0.2605816721916199,
        -0.25099116563796997,
        0.16342005133628845,
        -0.4203501343727112,
        -0.3029370605945587,
        0.18114490807056427,
        -0.07396241277456284,
        0.3260773718357086,
        -0.08644850552082062,
        0.24024280905723572,
        -0.13708935678005219,
        -0.14890985190868378,
        -0.237986221909523,
        -0.17423175275325775,
        0.12219979614019394,
        0.47554534673690796,
        0.044866785407066345,
        0.272768497467041,
        -0.018358271569013596,
        -0.08092349767684937,
        -0.052542105317115784,
        0.03621615841984749,
        -0.07440917193889618,
        -0.263019859790802,
        0.19763439893722534,
        -0.06796911358833313,
        0.14341047406196594,
        0.02019185572862625,
        0.13672290742397308,
        -0.13313870131969452,
        -0.06013628840446472,
        -0.12740519642829895,
        -0.16963236033916473,
        0.14968664944171906,
        0.13046368956565857,
        0.06516232341527939,
        0.05185946077108383,
        -0.030844418331980705,
        -0.08405647426843643,
        -0.2758081555366516,
        0.08336007595062256,
        -0.2429431974887848,
        -0.054750777781009674,
        0.26670220494270325,
        -0.15775944292545319,
        -0.19009628891944885,
        -0.08155205100774765
      ],
      "weightsShape": [
        64,
        32
      ],
      "bias": [
        -0.0024366145953536034,
        0.03952415660023689,
        0.019922541454434395,
        0.09678545594215393,
        -0.03303702175617218,
        0,
        -0.00039189044036902487,
        0.12367013096809387,
        0.0652337595820427,
        0.020406249910593033,
        0.026326745748519897,
        0.046322308480739594,
        0.000002002700057346374,
        -0.04680689796805382,
        -0.0009394324733875692,
        0.014648505486547947,
        0.029628343880176544,
        0.008434138260781765,
        0.06094575300812721,
        -0.0061097946017980576,
        -0.009252062067389488,
        0.0001985839189728722,
        0,
        -0.06364571303129196,
        -0.0031269285827875137,
        -0.017482614144682884,
        -0.008912256918847561,
        0.05945238843560219,
        0.005324103869497776,
        0.04800865054130554,
        0,
        0.04102318733930588
      ],
      "biasShape": [
        1,
        32
      ],
      "activation": "relu"
    },
    {
      "weights": [
        0.34325259923934937,
        1.0002185106277466,
        -0.5388928055763245,
        -0.6511132121086121,
        0.022413743659853935,
        -0.40819188952445984,
        -0.1516406536102295,
        -0.6722338199615479,
        -0.5055630207061768,
        0.1852601170539856,
        -0.2041325718164444,
        -0.4882148504257202,
        0.10459038615226746,
        1.0146148204803467,
        -0.42561545968055725,
        0.3463627099990845,
        1.0442767143249512,
        0.2856397330760956,
        -0.6706758141517639,
        -0.11646297574043274,
        0.30528101325035095,
        0.3770119845867157,
        0.3782297670841217,
        0.30140408873558044,
        -0.17809122800827026,
        0.6018053293228149,
        0.4870968163013458,
        -0.5506314635276794,
        -0.692430853843689,
        0.6949067711830139,
        0.07294308394193649,
        -0.28724709153175354
      ],
      "weightsShape": [
        32,
        1
      ],
      "bias": [
        -0.1727306842803955
      ],
      "biasShape": [
        1,
        1
      ],
      "activation": "sigmoid"
    }
  ],
  "learningRate": 0.00007,
  "l2Lambda": 0.00001
}