{
  "__kind": "NeuralNet",
  "version": 1,
  "layers": [
    {
      "weights": [
        0.3268892467021942,
        -0.22762474417686462,
        0.2521724998950958,
        0.3470976948738098,
        0.25653430819511414,
        0.019315941259264946,
        -0.0022056836169213057,
        -0.372709184885025,
        0.3542245924472809,
        0.05886460840702057,
        -0.359062522649765,
        0.01888824813067913,
        0.5881250500679016,
        0.26967430114746094,
        -0.7878713011741638,
        0.43203461170196533,
        0.510663628578186,
        -0.16419638693332672,
        -0.17180785536766052,
        -0.49463406205177307,
        0.03689746931195259,
        -0.2046515941619873,
        -0.6214878559112549,
        0.3293438255786896,
        -0.3361996114253998,
        -0.5591666102409363,
        -0.6506367921829224,
        0.12234750390052795,
        0.48753976821899414,
        0.015090822242200375,
        -0.37617605924606323,
        -0.20455302298069,
        0.24452342092990875,
        0.3087570369243622,
        0.6691706776618958,
        0.13947589695453644,
        -0.04710196331143379,
        -0.35349857807159424,
        -0.3193015158176422,
        0.4652715027332306,
        0.2220844179391861,
        -0.2871100604534149,
        0.5732094645500183,
        -0.36146044731140137,
        -0.027616452425718307,
        -0.2113880217075348,
        0.3144378960132599,
        0.00755224097520113,
        0.05397392064332962,
        -0.014165511354804039,
        -0.07257238030433655,
        -0.8576264977455139,
        -0.11125108599662781,
        -0.21138069033622742,
        -0.5792361497879028,
        0.6056254506111145,
        0.1872088760137558,
        -0.3500184416770935,
        -0.17945067584514618,
        0.07914544641971588,
        0.12554000318050385,
        0.2445410192012787,
        -0.13760121166706085,
        -0.10305823385715485,
        -0.1889968365430832,
        0.08389775454998016,
        0.21159318089485168,
        0.3236558139324188,
        0.14632031321525574,
        -0.3471596837043762,
        -0.337390273809433,
        -0.07932378351688385,
        -0.22999922931194305,
        0.07933323085308075,
        -0.40769973397254944,
        0.2744680941104889,
        -0.22256898880004883,
        0.03777458518743515,
        0.5716972947120667,
        -0.25794005393981934,
        -0.03407594561576843,
        0.20439036190509796,
        0.7421004176139832,
        0.2231079339981079,
        -0.10694018006324768,
        0.4452989101409912,
        -0.06402706354856491,
        0.27440181374549866,
        1.0046484470367432,
        0.1625550538301468,
        0.33315232396125793,
        0.014933467842638493,
        0.05398805812001228,
        0.26899731159210205,
        0.1485380083322525,
        -0.12949511408805847,
        0.17269624769687653,
        -0.09152841567993164,
        0.5240830183029175,
        0.07332709431648254,
        -0.7344084978103638,
        -0.693581759929657,
        -0.23413854837417603,
        -0.05241517350077629,
        -0.23553873598575592,
        0.19173088669776917,
        -0.18588583171367645,
        -0.2023877501487732,
        0.5006670951843262,
        0.39389917254447937,
        0.11016841232776642,
        -0.6509481072425842,
        -0.33030492067337036,
        0.19448716938495636,
        0.2710739076137543,
        0.02615486830472946,
        0.34295693039894104,
        -0.04805545136332512,
        -0.06378377228975296,
        -0.13821232318878174,
        0.11410482972860336,
        0.5332130193710327,
        -0.3386128842830658,
        -0.3707578182220459,
        -0.45317840576171875,
        -0.24625705182552338,
        0.9115208983421326,
        0.17965881526470184,
        0.13400799036026,
        0.38197609782218933,
        -0.5190038681030273,
        -0.5555644631385803,
        0.4352368116378784,
        -0.29881709814071655,
        -0.08491427451372147,
        0.37124690413475037,
        0.4280981123447418,
        0.2740662395954132,
        0.23851294815540314,
        -0.2684401571750641,
        -0.38908883929252625,
        -0.7151563167572021,
        -0.012788410298526287,
        -0.2465963214635849,
        0.24466390907764435,
        0.9473938941955566,
        0.05144519731402397,
        -0.2276218682527542,
        -0.7405976057052612,
        -0.33819472789764404,
        0.32363414764404297,
        0.43299373984336853,
        -0.6160691380500793,
        -0.3395591974258423,
        -0.3733659088611603,
        0.1284092217683792,
        -0.04027682915329933,
        0.12518128752708435,
        0.12562763690948486,
        -0.2590908408164978,
        -0.24039937555789948,
        0.07256904244422913,
        0.23038941621780396,
        0.11896461248397827,
        0.7232674360275269,
        0.2038276195526123,
        0.024987563490867615,
        -0.004007318522781134,
        -0.17948101460933685,
        0.3071816563606262,
        0.2993320822715759,
        0.17519959807395935,
        0.14120519161224365,
        0.09069866687059402,
        -0.15421007573604584,
        -0.3326178193092346,
        -0.10335744917392731,
        0.2700347304344177,
        0.43613362312316895,
        -0.780307412147522,
        0.14612585306167603,
        0.6198230385780334,
        0.1845739334821701,
        0.5641300082206726,
        0.09084263443946838,
        -0.04696917161345482,
        -0.23656922578811646,
        0.1489419937133789,
        0.21147221326828003,
        0.02859528362751007,
        -0.6809580326080322,
        -0.23743842542171478,
        0.3967778980731964,
        -0.5607561469078064,
        -0.22171354293823242,
        -0.07813078165054321,
        -0.6581990718841553,
        0.25280138850212097,
        0.23756776750087738,
        -0.08425401151180267,
        -0.615280032157898,
        -0.43973779678344727,
        0.3051416873931885,
        -0.26476117968559265,
        -0.4276265501976013,
        0.11306018382310867,
        -0.39774131774902344,
        0.4603762626647949,
        -0.47083374857902527,
        0.22600917518138885,
        -0.2307616025209427,
        -0.08621379733085632,
        -0.25758811831474304,
        -0.397771418094635,
        -0.24636147916316986,
        -0.35427871346473694,
        0.6894482374191284,
        0.12024503946304321,
        -0.059667546302080154,
        -0.35247084498405457,
        -0.25583121180534363,
        0.1346535086631775,
        0.36414456367492676,
        0.5128400325775146,
        -0.34294432401657104,
        -0.16207727789878845,
        -0.2161426842212677,
        0.5897310972213745,
        -0.32643622159957886,
        -0.29248663783073425,
        -0.017913052812218666,
        0.7213932871818542,
        -0.3487122058868408,
        -0.30191150307655334,
        -0.49200668931007385,
        0.1754528433084488,
        0.11083773523569107,
        -0.21111056208610535,
        0.30169379711151123,
        -0.657586395740509,
        0.1849042922258377,
        -0.5404747724533081,
        0.26601290702819824,
        -0.06569962948560715,
        -0.263141393661499,
        -0.4709480404853821,
        0.19091466069221497,
        0.41388869285583496,
        0.3007185757160187,
        -0.6506944298744202,
        0.6093955039978027,
        0.49162179231643677,
        0.22238881886005402,
        -0.18715275824069977,
        0.09393855929374695,
        0.07946537435054779,
        0.3122817277908325,
        -0.31366074085235596,
        -0.14342565834522247,
        -0.06547901779413223,
        0.15721583366394043,
        -0.2698696255683899,
        0.07914088666439056,
        0.06400840729475021,
        0.12546581029891968,
        -0.5572500228881836,
        0.312552809715271,
        0.0671280175447464,
        0.20894135534763336,
        0.4386032819747925,
        0.24392861127853394,
        -0.01077409740537405,
        0.2048197090625763,
        0.39554330706596375,
        -0.30130040645599365,
        0.007917833514511585,
        -0.7375146746635437,
        0.1617356240749359,
        0.35913917422294617,
        -0.11750857532024384,
        -0.38944223523139954,
        0.14854796230793,
        0.17069518566131592,
        0.6527614593505859,
        0.5072670578956604,
        -0.4317311644554138,
        -0.6510933041572571,
        -0.189702570438385,
        -0.391539990901947,
        -0.5272378325462341,
        0.21010258793830872,
        -0.08368240296840668,
        -0.02510671317577362,
        0.5965613126754761,
        -0.5748538970947266,
        0.33025825023651123,
        0.5668089389801025,
        -0.0614471361041069,
        0.608819842338562,
        0.23643364012241364,
        0.23730601370334625,
        0.03821950405836105,
        0.2752770185470581,
        -0.25407686829566956,
        -0.18311093747615814,
        -0.5109363794326782,
        0.08985958248376846,
        -0.3904326558113098,
        -0.349014550447464,
        -0.573492705821991,
        -0.15785017609596252,
        -0.26640182733535767,
        -0.3831511437892914,
        0.021693680435419083,
        -0.05120331048965454,
        -0.07535997778177261,
        0.07603465020656586,
        -0.41119447350502014,
        0.24756217002868652,
        -0.6693739891052246,
        -0.5738039612770081,
        -0.1254231035709381,
        -0.10760907828807831,
        -0.3637668192386627,
        0.4633886218070984,
        -0.14954334497451782,
        0.09127146750688553,
        -0.03156834840774536,
        0.03142460808157921,
        0.3745225667953491,
        -0.16493171453475952,
        0.30618470907211304,
        -0.14687016606330872,
        0.25619620084762573,
        -0.45366936922073364,
        -0.5104597806930542,
        0.08047356456518173,
        -0.035260334610939026,
        0.10107403993606567,
        -0.04716631397604942,
        -0.6351057291030884,
        0.2352907359600067,
        0.24945417046546936,
        -0.09060601145029068,
        0.3219982981681824,
        0.14078111946582794,
        -0.29102733731269836,
        0.0371224507689476,
        0.2778327763080597,
        -0.40598633885383606,
        -0.2811371386051178,
        0.5170893669128418,
        -0.14190904796123505,
        0.3470046818256378,
        -0.1106351688504219,
        0.05455911532044411,
        -0.2818160355091095,
        -0.22998866438865662,
        -0.2062532603740692,
        0.3079829216003418,
        -0.23867619037628174,
        -0.5450708270072937,
        0.18512707948684692,
        0.1776343584060669,
        0.6168021559715271,
        -0.07351710647344589,
        0.4361552894115448,
        0.24423488974571228,
        0.042057059705257416,
        0.017026720568537712,
        0.0652473196387291,
        0.785792350769043,
        -0.37657269835472107,
        0.13416145741939545,
        0.6571786403656006,
        0.26308512687683105,
        0.017616452649235725,
        -0.06562630087137222,
        -0.12942112982273102,
        -0.18652431666851044,
        0.6807066798210144,
        0.2152538299560547,
        -0.2448960244655609,
        -0.5473439693450928,
        0.37595248222351074,
        -0.044333186000585556,
        -0.3959522247314453,
        0.051281388849020004,
        0.002666133688762784,
        -0.4852669835090637,
        -0.36164796352386475,
        0.3683086931705475,
        -0.3292030096054077,
        0.5075523257255554,
        0.2028101086616516,
        0.3455902934074402,
        -0.19020932912826538,
        0.08877237141132355,
        -0.2416716367006302,
        -0.5857282876968384,
        -0.18434187769889832,
        0.11340038478374481,
        -0.17263568937778473,
        -0.10354498773813248,
        0.2230842411518097,
        -0.2993502616882324,
        -0.36011791229248047,
        -0.3930906057357788,
        -0.6745800971984863,
        -0.39696189761161804,
        0.23400269448757172,
        -0.4489685297012329,
        0.15518172085285187,
        -0.11967166513204575,
        -0.37123528122901917,
        0.6928409934043884,
        -0.3471311330795288,
        0.5151412487030029,
        0.07005152106285095,
        0.3579297959804535,
        -0.8570652008056641,
        -0.26747962832450867,
        1.006134271621704,
        -0.3642998933792114,
        0.03131750598549843,
        0.6113717555999756,
        -0.021669702604413033,
        -0.14812792837619781,
        0.015915142372250557,
        -0.24689221382141113,
        0.19996020197868347,
        0.44015786051750183,
        0.3261621296405792,
        -0.4233056604862213,
        -0.19484427571296692,
        -0.7161203026771545,
        0.30634069442749023,
        -0.6228856444358826,
        -0.19553296267986298,
        0.09429511427879333,
        -0.5786251425743103,
        -0.4197975695133209,
        0.07050956785678864,
        -0.1302136331796646,
        0.12497187405824661,
        0.1500260829925537,
        -0.32109591364860535,
        0.3170081675052643,
        0.05707290768623352,
        0.6185718178749084,
        0.10684604942798615,
        -0.5239784717559814,
        -0.06011464446783066,
        0.2703458070755005,
        0.8258994221687317,
        -0.46320295333862305,
        -0.44222337007522583,
        0.14095301926136017,
        0.22060906887054443,
        -0.27918678522109985,
        -0.3590908646583557,
        0.33553579449653625,
        0.3315364420413971,
        0.17276524007320404,
        0.3067159950733185,
        0.4300379753112793,
        -0.2446163296699524,
        0.31295955181121826,
        -0.5472291111946106,
        0.5809438824653625,
        -0.17579913139343262,
        -0.1728929579257965,
        0.07396885752677917,
        0.06549011915922165,
        -0.5754748582839966,
        0.27695342898368835,
        -0.010200186632573605,
        -0.03177839517593384,
        0.1763140857219696,
        0.2285090982913971,
        -0.04862450435757637,
        0.3319779634475708,
        0.22471077740192413,
        -0.11488760262727737,
        0.342713326215744,
        0.14388787746429443,
        -0.23795188963413239,
        -0.5345625281333923,
        0.01932775229215622,
        -0.2606133818626404,
        0.02288399450480938,
        0.4616343677043915,
        -0.4667302072048187,
        -0.3930160105228424,
        0.5231345295906067,
        -0.8737519383430481,
        -0.10656355321407318,
        -0.028648437932133675,
        -0.4675256907939911,
        -0.13886699080467224,
        -0.8227669596672058,
        -0.45317772030830383,
        0.26459962129592896,
        -0.24181410670280457,
        -0.2793162763118744,
        0.9643911123275757,
        0.42972198128700256,
        0.0028576257172971964,
        -0.06426556408405304,
        -0.7026185989379883,
        -0.34159162640571594,
        -0.22843997180461884,
        0.23192140460014343,
        0.021483957767486572,
        0.5862126350402832,
        0.6392234563827515,
        0.3347685635089874,
        -0.09306354820728302,
        0.22595250606536865,
        -0.24975337088108063,
        0.25225478410720825,
        -0.04276811331510544,
        -0.05846118927001953,
        0.3629458248615265,
        0.3878738284111023,
        0.17945565283298492,
        0.40129414200782776,
        -0.421807199716568,
        -0.5606107115745544,
        0.20451560616493225,
        -0.3202592134475708,
        0.0625612810254097,
        -0.4109310209751129,
        -0.2436613142490387,
        0.5720152854919434,
        -0.030688241124153137,
        -0.3701840937137604,
        -0.5284458994865417,
        -0.04126990586519241,
        0.5991296172142029,
        0.6226245164871216,
        0.4479883015155792,
        0.20604164898395538,
        0.1157592311501503
      ],
      "weightsShape": [
        17,
        32
      ],
      "bias": [
        -0.021261515095829964,
        0.014168710447847843,
        0.024889681488275528,
        0.03784073516726494,
        0.022558121010661125,
        -0.02287059649825096,
        -0.005181480664759874,
        0.061516933143138885,
        0.005374216940253973,
        0.0007733533857390285,
        0.02922970801591873,
        -0.01122142281383276,
        -0.006702853832393885,
        -0.00047254093806259334,
        0.058827873319387436,
        -0.006350258830934763,
        0.01681700348854065,
        -0.07594010978937149,
        0.008780146948993206,
        0.0066249920055270195,
        0,
        0.009912904351949692,
        0.03462952747941017,
        0.04588865861296654,
        -0.059440821409225464,
        -0.004611304495483637,
        -0.001219467376358807,
        -0.0061720083467662334,
        0.05898153781890869,
        0,
        0.01826753281056881,
        0.013507718220353127
      ],
      "biasShape": [
        1,
        32
      ],
      "activation": "relu"
    },
    {
      "weights": [
        -0.38222363591194153,
        0.47578638792037964,
        -0.2713891565799713,
        -0.17950314283370972,
        -0.5554323196411133,
        0.39673706889152527,
        -0.11500424891710281,
        0.021187864243984222,
        -0.12849077582359314,
        -0.8469192385673523,
        -0.11121983081102371,
        -0.48066362738609314,
        -0.09226851910352707,
        -0.1945556253194809,
        0.00313095492310822,
        -0.12746095657348633,
        0.07548818737268448,
        0.6098304390907288,
        0.06815585494041443,
        0.02574293129146099,
        0.04150504991412163,
        -0.47309255599975586,
        -0.09637060761451721,
        0.3886750042438507,
        0.022666942328214645,
        0.08039315044879913,
        0.1863662302494049,
        -0.27149707078933716,
        -0.3912518620491028,
        0.21066153049468994,
        -0.21866333484649658,
        -0.17280058562755585,
        -0.01252724975347519,
        -0.19448761641979218,
        -0.10470251739025116,
        -0.28431349992752075,
        0.697953462600708,
        -0.364091694355011,
        0.18383517861366272,
        0.19888219237327576,
        -0.183967724442482,
        0.4430232346057892,
        0.17253254354000092,
        -0.062444474548101425,
        0.11612430214881897,
        -0.014223538339138031,
        -0.36270132660865784,
        -0.09736240655183792,
        0.09834074974060059,
        -0.03588515520095825,
        0.30097830295562744,
        -0.23470693826675415,
        -0.3024114668369293,
        -0.09304141253232956,
        0.6458293795585632,
        -0.07249937206506729,
        -0.1482541710138321,
        0.41901496052742004,
        -0.36961832642555237,
        -0.06034119054675102,
        -0.01760515570640564,
        0.3408200144767761,
        0.017817281186580658,
        0.399226576089859,
        -0.0969330444931984,
        -0.09442068636417389,
        -0.25397706031799316,
        0.046239323914051056,
        -0.07659867405891418,
        0.013729026541113853,
        -0.4676336348056793,
        0.019279196858406067,
        -0.06562883406877518,
        0.024469807744026184,
        0.2323797643184662,
        0.07215566188097,
        -0.12082286924123764,
        -0.12517496943473816,
        0.10290169715881348,
        0.11787474900484085,
        0.20130141079425812,
        -0.08162108063697815,
        -0.09536518901586533,
        -0.09906313568353653,
        0.27022603154182434,
        -0.05337350070476532,
        0.21487335860729218,
        0.35120564699172974,
        0.012465507723391056,
        0.10432017594575882,
        -0.10786281526088715,
        0.07987523823976517,
        -0.015919163823127747,
        0.000783561437856406,
        0.0023161356803029776,
        -0.21257027983665466,
        0.01821869984269142,
        0.2972487807273865,
        0.3190029561519623,
        -0.15563905239105225,
        -0.5781840682029724,
        0.006062651053071022,
        -0.3888992369174957,
        -0.1963828206062317,
        0.3383096158504486,
        -0.1458801031112671,
        0.28348881006240845,
        -0.01876894384622574,
        -0.11724341660737991,
        -0.2131047546863556,
        -0.11808743327856064,
        -0.06177983433008194,
        0.2204575389623642,
        0.05967137590050697,
        -0.04682518169283867,
        0.25610050559043884,
        -0.10983584076166153,
        -0.19938871264457703,
        -0.19615806639194489,
        -0.1630242019891739,
        0.10308845341205597,
        0.27537018060684204,
        0.08034506440162659,
        0.5808364748954773,
        0.018374891951680183,
        -0.2733100354671478,
        -0.11004357039928436,
        -0.11788549274206161,
        0.198867529630661,
        -0.13573651015758514,
        -0.0631423145532608,
        0.16764552891254425,
        0.06698009371757507,
        0.21109262108802795,
        0.25987252593040466,
        -0.032101888209581375,
        0.16628895699977875,
        0.03476734459400177,
        -0.31512773036956787,
        -0.22494260966777802,
        0.20265725255012512,
        0.10614258050918579,
        0.32773321866989136,
        -0.0791696235537529,
        0.16505399346351624,
        -0.15496861934661865,
        -0.21173647046089172,
        0.37903279066085815,
        0.04926649108529091,
        -0.08597476780414581,
        0.006310564000159502,
        0.031429436057806015,
        -0.023414792492985725,
        -0.4440418481826782,
        -0.4102524220943451,
        -0.02368916943669319,
        0.18143723905086517,
        0.39069899916648865,
        -0.04500516876578331,
        -0.4038124680519104,
        -0.2042711079120636,
        0.2944258153438568,
        -0.1844850778579712,
        0.20255215466022491,
        0.26456889510154724,
        0.2607375681400299,
        0.15934063494205475,
        0.46374937891960144,
        -0.2327982485294342,
        0.058396972715854645,
        -0.1635061353445053,
        0.2914266288280487,
        -0.08719880133867264,
        0.008714628405869007,
        0.22334274649620056,
        -0.5310107469558716,
        0.2704066336154938,
        0.025768285617232323,
        -0.3139682412147522,
        -0.20688651502132416,
        -0.08445379883050919,
        0.04218178614974022,
        -0.3428490161895752,
        -0.20419283211231232,
        0.07757191359996796,
        -0.22268809378147125,
        -0.08425791561603546,
        0.1703607439994812,
        -0.12220156937837601,
        0.23433943092823029,
        0.2955241799354553,
        0.11449457705020905,
        -0.40933898091316223,
        0.32652339339256287,
        0.40820348262786865,
        -0.3065020740032196,
        -0.17925027012825012,
        -0.24894139170646667,
        -0.08720888942480087,
        0.18043921887874603,
        -0.0038634869270026684,
        0.1218896210193634,
        -0.20372791588306427,
        0.09919250756502151,
        -0.2229423224925995,
        -0.49953532218933105,
        0.4057637155056,
        -0.28704437613487244,
        0.076879121363163,
        0.3015132546424866,
        -0.1341371387243271,
        -0.09041813015937805,
        0.054406117647886276,
        0.1749473363161087,
        -0.3105310797691345,
        0.33578476309776306,
        -0.11096349358558655,
        0.03794040530920029,
        -0.046511728316545486,
        0.18247808516025543,
        0.01637319289147854,
        0.27335289120674133,
        -0.1755424439907074,
        -0.17682157456874847,
        -0.28426921367645264,
        -0.22517575323581696,
        0.06322597712278366,
        -0.053756117820739746,
        -0.6724209189414978,
        -0.05740706995129585,
        0.32522985339164734,
        0.3448370695114136,
        -0.1923506259918213,
        0.49712443351745605,
        -0.21933914721012115,
        -0.055754609405994415,
        -0.13196603953838348,
        0.002545656869187951,
        -0.39622408151626587,
        0.3569179177284241,
        -0.12669658660888672,
        -0.17389120161533356,
        -0.046367209404706955,
        0.24760819971561432,
        0.37057268619537354,
        -0.132618248462677,
        -0.09420722723007202,
        0.2883252799510956,
        0.022835610434412956,
        0.20262670516967773,
        0.11762281507253647,
        -0.30202335119247437,
        0.23282362520694733,
        0.5687047839164734,
        0.18567633628845215,
        0.025652915239334106,
        -0.2897060513496399,
        -0.06759539246559143,
        0.4342995584011078,
        0.45125892758369446,
        -0.05950428545475006,
        -0.14878763258457184,
        0.1098325178027153,
        0.11438728868961334,
        0.3363073170185089,
        -0.4755866229534149,
        -0.07012856006622314,
        0.1644812375307083,
        0.27166956663131714,
        0.21988195180892944,
        -0.35065022110939026,
        0.4052598178386688,
        -0.5048591494560242,
        0.2249894142150879,
        -0.13697399199008942,
        -0.21029247343540192,
        0.3566931188106537,
        0.4391725957393646,
        0.1300484836101532,
        0.3124982416629791,
        0.00627703545615077,
        -0.4051598012447357,
        -0.13074825704097748,
        -0.12294347584247589,
        0.13618429005146027,
        -0.304205983877182,
        -0.010377276688814163,
        0.1488347202539444,
        -0.23566892743110657,
        -0.11110872775316238,
        -0.051236312836408615,
        -0.17234645783901215,
        -0.09975917637348175,
        -0.23318970203399658,
        0.09360354393720627,
        0.05426330491900444,
        -0.006049113813787699,
        0.5718680620193481,
        -0.4681975841522217,
        -0.042357467114925385,
        -0.385254442691803,
        0.08124803006649017,
        -0.0006408414337784052,
        0.013732131570577621,
        0.2714422643184662,
        -0.18295972049236298,
        -0.2747887670993805,
        -0.007310040760785341,
        0.5490819215774536,
        0.02638736180961132,
        -0.0023033651523292065,
        -0.03362162783741951,
        0.24348393082618713,
        -0.05424622446298599,
        -0.10744395852088928,
        -0.057839129120111465,
        0.16352654993534088,
        0.2092742621898651,
        -0.44235366582870483,
        -0.13074509799480438,
        -0.22106654942035675,
        -0.006604921072721481,
        0.03705979511141777,
        -0.3466913402080536,
        0.048392459750175476,
        0.12550146877765656,
        -0.0297237578779459,
        0.10743311792612076,
        -0.24524091184139252,
        0.23441551625728607,
        -0.39697131514549255,
        0.26717492938041687,
        0.4700993001461029,
        0.4024616777896881,
        0.1035819724202156,
        -0.1322607547044754,
        -0.0208770539611578,
        -0.164525106549263,
        0.08779338747262955,
        -0.11230451613664627,
        -0.18765155971050262,
        0.2872124910354614,
        -0.4053240418434143,
        -0.4760376513004303,
        0.006613716948777437,
        -0.007408396806567907,
        0.23680831491947174,
        0.005608149338513613,
        0.01819220930337906,
        0.1017313152551651,
        -0.05586812272667885,
        -0.05733789876103401,
        0.631460964679718,
        0.8045744895935059,
        0.17538636922836304,
        0.514924168586731,
        0.08810803294181824,
        -0.12911415100097656,
        -0.12541170418262482,
        -0.06023382022976875,
        -0.04572336748242378,
        -0.22404366731643677,
        -0.2567685544490814,
        -0.3137820065021515,
        0.14550593495368958,
        0.3307626247406006,
        0.023248162120580673,
        -0.26875412464141846,
        0.041137002408504486,
        0.7200660109519958,
        0.08756081759929657,
        0.04193975403904915,
        0.09318414330482483,
        0.22208015620708466,
        0.03282201290130615,
        -0.39170724153518677,
        0.008951561525464058,
        0.07922499626874924,
        -0.06404843181371689,
        0.21956133842468262,
        -0.11140496283769608,
        0.15337762236595154,
        0.17849647998809814,
        0.021199658513069153,
        -0.04212002828717232,
        0.3785661458969116,
        0.1640615612268448,
        0.34228646755218506,
        0.37124618887901306,
        0.04051144793629646,
        -0.33310309052467346,
        -0.12187113612890244,
        -0.028222275897860527,
        0.05904105678200722,
        -0.3236006498336792,
        0.20850154757499695,
        0.012091345153748989,
        0.2759154438972473,
        0.5420007109642029,
        -0.10525190085172653,
        0.8685486316680908,
        -0.5085738301277161,
        -0.13211412727832794,
        -0.5515473484992981,
        0.3906615674495697,
        0.07415252178907394,
        -0.19644758105278015,
        -0.3457232713699341,
        0.1623934805393219,
        0.14255329966545105,
        0.005147510673850775,
        0.13006624579429626,
        0.09056488424539566,
        0.27423062920570374,
        0.20370925962924957,
        0.20049604773521423,
        -0.015458841808140278,
        -0.04970252513885498,
        -0.015423685312271118,
        0.08401377499103546,
        0.2040608674287796,
        -0.4386958181858063,
        0.09350679814815521,
        0.38120901584625244,
        0.013788617216050625,
        -0.03595517948269844,
        0.0708298459649086,
        -0.08723888546228409,
        0.04724026843905449,
        -0.34230393171310425,
        0.027308741584420204,
        0.10138668119907379,
        -0.41434353590011597,
        -0.22982196509838104,
        0.24820443987846375,
        0.11170999705791473,
        -0.04104893282055855,
        -0.017701776698231697,
        -0.3240949511528015,
        0.36764097213745117,
        0.09791842848062515,
        -0.09277768433094025,
        0.39507707953453064,
        -0.0730193704366684,
        0.025140440091490746,
        0.34601327776908875,
        0.4224124550819397,
        0.43190014362335205,
        0.25089243054389954,
        0.27140650153160095,
        -0.09491372853517532,
        0.5147222280502319,
        -0.450062096118927,
        -0.2033020555973053,
        0.13490155339241028,
        -0.4529276490211487,
        -0.10063483566045761,
        0.22022564709186554,
        -0.3573662340641022,
        -0.09443873912096024,
        0.01629159040749073,
        0.11034034192562103,
        0.28673726320266724,
        0.03909441456198692,
        -0.1884826421737671,
        -0.23589301109313965,
        0.0469798743724823,
        0.06861086934804916,
        -0.006128867156803608,
        -0.6728078126907349,
        -0.047143857926130295,
        -0.12427278608083725,
        0.34485912322998047,
        -0.2715775668621063,
        -0.2031489610671997,
        -0.09885282069444656,
        -0.23796600103378296,
        -0.20780964195728302,
        -0.20337961614131927,
        0.2923174798488617,
        0.19937971234321594,
        0.12575124204158783,
        0.41113993525505066,
        -0.4576689600944519,
        -0.5757455825805664,
        -0.0939287468791008,
        0.19609567523002625,
        -0.29254239797592163,
        -0.1476193219423294,
        0.07186383008956909,
        -0.5360461473464966,
        -0.3810175359249115,
        0.10641248524188995,
        -0.07000809162855148,
        0.12637339532375336,
        0.07879974693059921,
        -0.37083107233047485,
        0.05024749040603638,
        0.396593302488327,
        0.09407144784927368,
        0.3823947310447693,
        -0.18099234998226166,
        0.3424384295940399,
        -0.22173002362251282,
        -0.45083823800086975,
        -0.18086077272891998,
        0.2298002690076828,
        -0.11183086782693863,
        -0.54830402135849,
        0.3016241490840912,
        0.4122282862663269,
        0.08409033715724945
      ],
      "weightsShape": [
        32,
        16
      ],
      "bias": [
        0.027383731678128242,
        -0.0024950976949185133,
        0.002065871376544237,
        0.09515053033828735,
        -0.02938953787088394,
        -0.05088632553815842,
        0.014198998920619488,
        0.019463857635855675,
        -0.055131781846284866,
        0.010796623304486275,
        0,
        0.059965357184410095,
        -0.004354375414550304,
        0.0015523864421993494,
        0.020505614578723907,
        -0.0018692247103899717
      ],
      "biasShape": [
        1,
        16
      ],
      "activation": "relu"
    },
    {
      "weights": [
        0.24601735174655914,
        -0.15215808153152466,
        -0.032512106001377106,
        -0.8274707794189453,
        -0.34907034039497375,
        0.554036021232605,
        0.36566412448883057,
        0.64713454246521,
        0.4549005329608917,
        0.17520540952682495,
        -0.3090428113937378,
        -0.5872940421104431,
        0.29524296522140503,
        0.09439541399478912,
        -0.39826419949531555,
        0.1955575942993164
      ],
      "weightsShape": [
        16,
        1
      ],
      "bias": [
        -0.05195913836359978
      ],
      "biasShape": [
        1,
        1
      ],
      "activation": "sigmoid"
    }
  ],
  "learningRate": 0.001,
  "l2Lambda": 0.0001
}