{
  "__kind": "NeuralNet",
  "version": 1,
  "layers": [
    {
      "weights": [
        -0.589802086353302,
        0.17737990617752075,
        -0.13476713001728058,
        -0.21643997728824615,
        -0.1039545014500618,
        0.12820947170257568,
        -0.5382891297340393,
        0.7852803468704224,
        -0.4226054549217224,
        -0.11184055358171463,
        0.3419673442840576,
        -0.13007380068302155,
        -0.2871555685997009,
        0.29955294728279114,
        -0.07902947813272476,
        -0.6081057786941528,
        0.19050094485282898,
        -0.48448100686073303,
        -0.15665365755558014,
        -0.10480910539627075,
        0.2647448182106018,
        0.16461707651615143,
        -0.022386902943253517,
        0.13425977528095245,
        -0.3554835319519043,
        -0.5360081791877747,
        0.09895864129066467,
        0.14759664237499237,
        -0.8438646793365479,
        -0.12379324436187744,
        0.2730880677700043,
        0.6875709891319275,
        -0.44240450859069824,
        0.06236005574464798,
        0.32381370663642883,
        -0.24439691007137299,
        -0.026114361360669136,
        -0.11367368698120117,
        0.019122740253806114,
        0.04115765541791916,
        -0.15926611423492432,
        -0.6018628478050232,
        -0.6181374192237854,
        -0.18566381931304932,
        0.14370298385620117,
        0.9354615807533264,
        0.4842262864112854,
        -0.016165222972631454,
        -0.36584728956222534,
        0.6061872243881226,
        -0.029242031276226044,
        0.5572229623794556,
        -0.3136330544948578,
        -0.11834202706813812,
        0.06154000386595726,
        -0.3226555287837982,
        0.0708225667476654,
        0.6623995900154114,
        -0.43628087639808655,
        -0.5608063340187073,
        -0.22651563584804535,
        0.24075250327587128,
        0.0587276928126812,
        0.060277171432971954,
        -0.0014866539277136326,
        -0.3860219717025757,
        -0.6019359827041626,
        -0.027710143476724625,
        0.19756323099136353,
        0.8245152235031128,
        0.10144894570112228,
        0.12547148764133453,
        0.10928686708211899,
        0.12706910073757172,
        0.37061744928359985,
        -0.4668412506580353,
        -0.19403144717216492,
        0.5179048776626587,
        -0.19449405372142792,
        0.18294446170330048,
        -0.06956028938293457,
        0.4823295474052429,
        -0.38170069456100464,
        0.6894276142120361,
        0.07181736081838608,
        -0.051263920962810516,
        0.42688262462615967,
        -0.2647355794906616,
        -0.0332404226064682,
        0.2878258526325226,
        0.1135294958949089,
        0.2261946052312851,
        0.14201967418193817,
        0.33225902915000916,
        -0.08364123851060867,
        0.08591748774051666,
        -0.1477610170841217,
        -0.905254602432251,
        0.598558247089386,
        -0.1642865389585495,
        -0.14710713922977448,
        0.04144907370209694,
        0.07564535737037659,
        0.2641855776309967,
        -0.28734317421913147,
        0.44007083773612976,
        0.4693625867366791,
        -0.32539820671081543,
        -0.003693455597385764,
        -0.6890405416488647,
        0.04036060720682144,
        -0.35688236355781555,
        0.6534665822982788,
        -0.11534710973501205,
        -0.021191982552409172,
        0.5624167919158936,
        -1.0424509048461914,
        -0.3360981047153473,
        -0.2956032454967499,
        0.38055863976478577,
        0.09049032628536224,
        -0.10568442195653915,
        0.3850146532058716,
        -0.04295375943183899,
        -0.35189664363861084,
        -0.5808326601982117,
        0.09462056308984756,
        -0.10909099131822586,
        0.33569687604904175,
        -0.33715030550956726,
        -0.12170981615781784,
        0.1081215962767601,
        0.23101302981376648,
        0.15200597047805786,
        0.23179414868354797,
        -0.006119161378592253,
        -0.12283186614513397,
        0.06546718627214432,
        -0.8056679368019104,
        -0.166808620095253,
        0.26258721947669983,
        0.011478670872747898,
        0.7852756977081299,
        0.36915266513824463,
        0.20111514627933502,
        0.028561048209667206,
        0.17899930477142334,
        0.07496153563261032,
        0.04865192994475365,
        -0.1881195604801178,
        -0.46754732728004456,
        0.5001272559165955,
        -0.5554943084716797,
        0.6680361032485962,
        0.09988663345575333,
        -0.3364003598690033,
        0.47095829248428345,
        -0.37133336067199707,
        0.19496160745620728,
        0.1013932153582573,
        -0.14170947670936584,
        0.5881388783454895,
        0.3586801588535309,
        0.5717900395393372,
        -0.48362740874290466,
        0.2534031569957733,
        -0.022414466366171837,
        0.39240601658821106,
        0.12160144001245499,
        -0.045139048248529434,
        -0.3679792881011963,
        -0.3100960850715637,
        -0.13527213037014008,
        0.49240678548812866,
        0.06690201163291931,
        0.37908315658569336,
        -0.0702829658985138,
        -0.24023588001728058,
        0.21218371391296387,
        0.03702309727668762,
        -0.37137266993522644,
        0.43473562598228455,
        0.1390579640865326,
        0.19214732944965363,
        0.31645467877388,
        -0.0023363137152045965,
        0.26161646842956543,
        -0.618260383605957,
        -0.5102182626724243,
        0.129891037940979,
        -0.2903626561164856,
        0.44893360137939453,
        0.06442707777023315,
        0.6348006725311279,
        0.11392568796873093,
        -0.4713428318500519,
        -1.032049536705017,
        0.4176141619682312,
        -1.1077477931976318,
        -0.4332352876663208,
        0.7780786156654358,
        -0.03998271003365517,
        0.39659246802330017,
        -0.37760472297668457,
        0.49013617634773254,
        0.3757649064064026,
        0.2795398235321045,
        0.11943450570106506,
        0.2568999230861664,
        0.4325222671031952,
        0.43159395456314087,
        -0.09976647794246674,
        0.4930114448070526,
        0.023503707721829414,
        0.1068495512008667,
        0.13759101927280426,
        -0.07926195114850998,
        -0.03752448782324791,
        -0.35516586899757385,
        0.43104514479637146,
        -0.007804433815181255,
        0.13159872591495514,
        0.2707298994064331,
        -0.057795897126197815,
        -0.24382276833057404,
        0.1988585889339447,
        -0.056409355252981186,
        0.22580181062221527,
        0.20127801597118378,
        0.18517324328422546,
        0.6057027578353882,
        -0.20692890882492065,
        0.7742754817008972,
        -0.6216224431991577,
        0.3169856071472168,
        -0.4829871356487274,
        0.40621572732925415,
        -0.35985255241394043,
        0.5609304308891296,
        -0.1613023728132248,
        -0.4206269085407257,
        -0.029324866831302643,
        0.3578803241252899,
        0.6348544359207153,
        -0.7381802201271057,
        0.24822081625461578,
        -0.05752488225698471,
        -0.5492648482322693,
        -0.19200298190116882,
        -0.4165925979614258,
        -0.0012461321894079447,
        -0.27727755904197693,
        -0.09055822342634201,
        -0.28983113169670105,
        0.07862769812345505,
        -0.13936471939086914,
        -0.23766161501407623,
        0.23793606460094452,
        0.09006694704294205,
        0.2810122072696686,
        0.07018666714429855,
        0.19154606759548187,
        0.5562475323677063,
        0.12074004113674164,
        -0.3468053340911865,
        -0.1802569031715393,
        -0.21965891122817993,
        -0.5203670263290405,
        -0.28243061900138855,
        0.40428128838539124,
        -0.23963694274425507,
        -0.2585817873477936,
        -0.38368627429008484,
        0.0347895473241806,
        0.11185729503631592,
        0.06661195307970047,
        0.3152509033679962,
        -0.7343866229057312,
        0.06422480940818787,
        0.16276313364505768,
        0.593144953250885,
        -0.011195861734449863,
        0.3045186400413513,
        0.17005367577075958,
        0.24062736332416534,
        -0.18778520822525024,
        0.6015273332595825,
        0.3056013584136963,
        0.23978522419929504,
        -0.10901439189910889,
        -0.13173900544643402,
        -0.030676892027258873,
        0.1749865561723709,
        0.6666499376296997,
        0.6929526925086975,
        -0.024918965995311737,
        -0.006773895584046841,
        0.1010153740644455,
        0.3643520474433899,
        0.23068369925022125,
        -0.3722335994243622,
        -0.1040002778172493,
        -0.22132906317710876,
        0.09949854761362076,
        -0.1589868813753128,
        0.06882590055465698,
        0.19528280198574066,
        0.11584289371967316,
        0.08561702817678452,
        -0.44968247413635254,
        -0.0273825041949749,
        -0.21413080394268036,
        0.16755759716033936,
        -0.17045965790748596,
        0.3306071162223816,
        -0.18529070913791656,
        -0.3643423616886139,
        0.2837965190410614,
        -0.11685502529144287,
        0.26504820585250854,
        -0.5148598551750183,
        -0.32511329650878906,
        0.4900815486907959,
        0.38645246624946594,
        0.43471407890319824,
        0.4287494421005249,
        -0.4477255642414093,
        0.2594417929649353,
        -0.042502060532569885,
        -0.23219817876815796,
        0.6610310673713684,
        0.3619685769081116,
        0.09910805523395538,
        0.5729707479476929,
        -0.14727094769477844,
        -0.11066065728664398,
        0.026521334424614906,
        0.23725126683712006,
        0.5511927604675293,
        0.18763305246829987,
        -0.24492661654949188,
        -0.059564340859651566,
        -0.5000730156898499,
        -0.7746078372001648,
        0.5564838647842407,
        -0.24635586142539978,
        0.5514453053474426,
        0.15642842650413513,
        0.5390505194664001,
        -0.006545839831233025,
        0.16665992140769958,
        -0.16020728647708893,
        -0.7355219125747681,
        -0.22789782285690308,
        -0.35990896821022034,
        -0.4412294924259186,
        -0.36785435676574707,
        0.09054393321275711,
        -0.4534617066383362,
        -0.12619300186634064,
        -0.03758518397808075,
        0.1735668182373047,
        0.18528763949871063,
        -0.22900716960430145,
        -0.25044459104537964,
        0.043446436524391174,
        0.35264283418655396,
        -0.4863349497318268,
        0.3804098963737488,
        0.5386258959770203,
        0.038731977343559265,
        -0.01871725171804428,
        -0.011110896244645119,
        0.322885125875473,
        -0.07501672208309174,
        0.08865343034267426,
        0.21242454648017883,
        -0.467395544052124,
        -0.6231891512870789,
        -0.10243791341781616,
        0.4523162841796875,
        -0.8048680424690247,
        0.06268727779388428,
        0.06763596087694168,
        0.01328642014414072,
        0.13083896040916443,
        0.23036085069179535,
        0.17196926474571228,
        -0.4170607924461365,
        -0.28027111291885376,
        0.6117451190948486,
        0.16954305768013,
        -0.2561957836151123,
        0.38866156339645386,
        0.3919510245323181,
        -0.3817829191684723,
        0.003291109576821327,
        0.19646401703357697,
        -0.3400414288043976,
        0.1572771966457367,
        -0.23048393428325653,
        -0.039672717452049255,
        0.23219330608844757,
        -0.08885296434164047,
        -0.09319847077131271,
        -0.19884033501148224,
        -0.09829630702733994,
        -0.34935930371284485,
        0.06582777947187424,
        -0.9136449694633484,
        -0.5861026048660278,
        -0.09109854698181152,
        0.6476783156394958,
        -0.14069685339927673,
        -0.438346266746521,
        0.4578234553337097,
        0.3924376368522644,
        -0.15471695363521576,
        0.9685803055763245,
        -0.7226889133453369,
        -0.5291516184806824,
        -0.400162011384964,
        0.039000920951366425,
        0.7590852975845337,
        0.02033226191997528,
        -0.12588945031166077,
        -0.016538336873054504,
        -0.10000362992286682,
        -0.1854538470506668,
        0.09497784823179245,
        0.008104097098112106,
        0.2096504420042038,
        0.21814417839050293,
        0.10159943997859955,
        -0.1741252988576889,
        -0.1156868115067482,
        -0.0306062251329422,
        0.3718010187149048,
        -0.5417613983154297,
        0.09580225497484207,
        0.1664620339870453,
        -0.440688818693161,
        -0.25797390937805176,
        0.6744911670684814,
        0.5185317397117615,
        -0.1903831511735916,
        0.2941405773162842,
        -0.2357802391052246,
        -0.3194265365600586,
        -0.02635953016579151,
        0.20482389628887177,
        -0.1601322591304779,
        -0.2006063014268875,
        0.21169136464595795,
        0.26846185326576233,
        -0.3263019621372223,
        -0.2881331443786621,
        0.5398325324058533,
        -0.08948929607868195,
        0.45641791820526123,
        0.057907771319150925,
        -0.0331028513610363,
        -0.6238457560539246,
        -0.16875328123569489,
        0.23731181025505066,
        0.08330840617418289,
        0.06744658946990967,
        -0.40663665533065796,
        -0.08222546428442001,
        0.5357306599617004,
        0.10152401030063629,
        -0.10461518168449402,
        -0.019677219912409782,
        -0.3142428398132324,
        -0.17232592403888702,
        -0.28163930773735046,
        0.10822389274835587,
        0.26280397176742554,
        -0.26322680711746216,
        0.03581766039133072,
        -0.1857825219631195,
        -0.307518869638443,
        0.9148393869400024,
        0.29295775294303894,
        0.49876344203948975,
        -0.6014388203620911,
        0.08972951769828796,
        -0.3196691572666168,
        -0.01609678380191326,
        -0.019142014905810356,
        -0.07040902972221375,
        0.9405326247215271,
        0.20681555569171906,
        -0.025644928216934204,
        0.2600838840007782,
        -0.01186895277351141,
        -0.3727567791938782,
        -0.3057922422885895,
        0.24478836357593536,
        -0.3570299446582794,
        0.3307270109653473,
        0.043974168598651886,
        0.0998481959104538,
        0.34446626901626587,
        -0.29799938201904297,
        0.02206675335764885,
        0.1501026451587677,
        -0.08372566848993301,
        -0.07290145009756088,
        0.07394813001155853,
        0.5327398180961609,
        0.3403995633125305,
        -0.05610362067818642,
        0.08595655858516693,
        -0.4326823055744171,
        0.028437037020921707,
        -0.19849491119384766,
        0.017181439325213432,
        -0.04649818316102028,
        -0.2688925564289093,
        -0.25679221749305725,
        -0.21647679805755615,
        0.354666531085968,
        0.08109043538570404,
        -0.005082974210381508,
        -0.0015764677664265037,
        0.12843859195709229,
        -0.45898643136024475,
        0.6874210238456726,
        0.33976393938064575,
        -0.03693351149559021,
        -0.5037589073181152,
        -0.36918094754219055,
        -0.31939974427223206,
        -0.10014528781175613,
        -0.20813938975334167,
        -1.2163784503936768,
        -0.20745548605918884,
        0.4262338876724243,
        -0.23883873224258423,
        -0.29237446188926697,
        -0.11615180969238281,
        0.122916080057621,
        -0.46508246660232544,
        -0.4331696927547455,
        -0.3045101463794708,
        -0.1771540343761444,
        0.25271210074424744,
        -0.140689417719841,
        0.06226557493209839,
        -0.8570301532745361,
        -0.2921087145805359,
        -0.22577649354934692,
        -0.1715972125530243,
        0.20458513498306274,
        0.49753469228744507,
        -0.5900542736053467,
        -0.21472838521003723,
        -0.2458493709564209,
        -0.20321714878082275,
        -0.27010342478752136,
        -0.1203765720129013,
        0.358280211687088,
        -0.023295672610402107,
        0.18791687488555908,
        0.09916200488805771,
        0.5434509515762329,
        -0.22018544375896454,
        0.17456214129924774,
        -0.27414795756340027,
        0.780412495136261,
        1.0922576189041138,
        0.09604073315858841,
        0.45057132840156555,
        0.08284533768892288,
        -0.07787075638771057,
        -0.0895930603146553,
        -0.30582642555236816,
        -0.06452816724777222,
        0.04077870771288872,
        0.2829385995864868,
        0.36238405108451843,
        -0.25971153378486633,
        0.36507776379585266,
        0.1105063259601593,
        -0.11775883287191391,
        0.391541451215744,
        -0.6676041483879089,
        -0.46727290749549866,
        -0.4712398052215576,
        0.6097946166992188,
        -0.04675312712788582,
        -0.37865516543388367,
        -0.30468103289604187,
        -0.5989636778831482,
        -0.0836634412407875,
        -0.6337249875068665,
        -0.017238114029169083,
        0.2601764500141144,
        -0.3378981351852417,
        0.019080989062786102,
        0.13097187876701355,
        -0.54670250415802,
        -0.9729989767074585,
        0.06667609512805939,
        0.32545262575149536,
        -0.3446595370769501,
        0.27809131145477295,
        -0.3901589810848236,
        -0.1762862205505371,
        0.23690152168273926,
        -0.2328450232744217,
        -0.7268474698066711,
        0.022226419299840927,
        0.2734610140323639,
        0.07317551970481873,
        -0.49854645133018494,
        -0.1655202955007553,
        0.23485726118087769,
        0.14424878358840942,
        0.39845988154411316,
        0.8120174407958984,
        -0.3372876048088074,
        0.16582486033439636,
        -0.04771493002772331,
        -0.11060164868831635,
        -0.24853135645389557,
        0.04404972866177559,
        -0.3958339989185333,
        0.35917335748672485,
        -0.49018290638923645,
        -0.18019096553325653,
        0.39182496070861816,
        -0.2682678699493408,
        -0.2151738852262497,
        -0.6094052195549011,
        -0.48494863510131836,
        -0.1561741828918457,
        0.2173154205083847,
        0.4001476466655731,
        0.7487298250198364,
        0.24865256249904633,
        -0.9636768698692322,
        0.571325421333313,
        -0.2519586682319641,
        0.027066435664892197,
        0.29670023918151855,
        -0.2322532832622528,
        0.14736692607402802,
        0.045665740966796875,
        0.3072757124900818,
        0.4594191610813141,
        -0.22634205222129822,
        -0.10018232464790344,
        -0.11093255132436752,
        0.01577923633158207,
        -0.049236346036195755,
        -0.44311127066612244,
        -0.11135728657245636,
        -0.14729732275009155,
        -0.11031284183263779,
        -0.025063838809728622,
        -0.05216776579618454,
        0.448485404253006,
        -0.2883714735507965,
        -0.5465335249900818,
        -0.00003964935604017228,
        -0.3162904977798462,
        -0.3589000105857849,
        0.4824739396572113,
        0.17759498953819275,
        -0.8828958868980408,
        -0.49140599370002747,
        0.39448386430740356,
        -0.3426678776741028,
        0.1230725347995758,
        0.20555992424488068,
        -0.6483927369117737,
        -0.4862425923347473,
        0.18069428205490112,
        -0.36102038621902466,
        -0.24239161610603333,
        -0.46683067083358765,
        0.2860614061355591,
        -0.20416861772537231,
        0.16027840971946716,
        -0.1982586830854416,
        -0.2996697723865509,
        0.3868142366409302,
        -0.05346709117293358,
        -0.40646716952323914,
        -0.30413344502449036,
        0.4273594319820404,
        0.1611667424440384,
        0.4281981289386749,
        -0.18313556909561157,
        0.42773744463920593,
        0.48512154817581177,
        0.5127125978469849,
        0.39312148094177246,
        0.18895599246025085,
        -0.2617667019367218,
        0.11280747503042221,
        0.21286731958389282,
        0.12915010750293732,
        -0.17003248631954193,
        -0.2717856168746948,
        0.22880545258522034,
        -0.3180367052555084,
        -0.400423139333725,
        -0.004750017076730728,
        0.10272643715143204,
        -0.2851700186729431,
        0.33686214685440063,
        0.027000855654478073,
        -0.7070314884185791,
        0.7255170941352844,
        0.3193957209587097,
        0.08321310579776764,
        -0.14935386180877686,
        -0.28067466616630554,
        0.21763291954994202,
        0.28637537360191345,
        0.16103166341781616,
        0.11336041241884232,
        -0.5683626532554626,
        -0.3960980772972107,
        -0.26459670066833496,
        -0.10858619958162308,
        -0.0628322958946228,
        -0.18030114471912384,
        -0.18582361936569214,
        -0.39498642086982727,
        0.33104363083839417,
        0.2730166018009186,
        -0.3469471037387848,
        -0.2779456079006195,
        0.6172084212303162,
        0.05729163438081741,
        -0.15345604717731476,
        -0.3287586569786072,
        0.06069663166999817,
        0.07951291650533676,
        0.4304271340370178,
        -0.4824082553386688,
        -0.4466589391231537,
        -0.13711079955101013,
        0.41462305188179016,
        0.4815903604030609,
        0.10048957914113998,
        -0.7692382335662842,
        0.6263207197189331,
        0.2080734521150589,
        -0.04037250578403473,
        0.9140475392341614,
        0.34911972284317017,
        0.07956636697053909,
        -0.20186398923397064,
        -0.7678698897361755,
        0.03024502843618393,
        0.5206136107444763,
        -0.0835992768406868,
        -0.07057342678308487,
        -0.023234257474541664,
        0.6205743551254272,
        -0.42820706963539124,
        0.3215971887111664,
        0.5752692818641663,
        0.3339909017086029,
        -0.3776395618915558,
        0.3373180627822876,
        0.10312173515558243,
        0.5475907325744629,
        -0.4738377630710602,
        -0.1869347244501114,
        -0.1818811446428299,
        0.28508710861206055,
        -0.049260761588811874,
        -0.3670212924480438,
        -0.426311194896698,
        -0.3550499379634857,
        -0.33611661195755005,
        -0.17942483723163605,
        -0.02714773267507553,
        -0.24484986066818237,
        -0.1450357735157013,
        -0.1917559653520584,
        -0.10663331300020218,
        -0.00955380592495203,
        -0.20905150473117828,
        0.2990538477897644,
        0.030779145658016205,
        0.1450553983449936,
        -0.2057824581861496,
        0.03787580505013466,
        -0.3785133361816406,
        0.5885491967201233,
        0.1802731603384018,
        -0.0037647425197064877,
        0.5357741117477417,
        0.3115335702896118,
        -0.736034631729126,
        0.706630289554596,
        -0.4392818510532379,
        0.19299905002117157,
        -0.12141184508800507,
        -0.3479531705379486,
        -0.14561690390110016,
        -0.2814817428588867,
        0.1117744892835617,
        0.09582749754190445,
        -0.24954049289226532,
        0.3970637023448944,
        0.0812896117568016,
        -0.10427125543355942,
        -0.12254665791988373,
        -0.13187865912914276,
        -0.3970058560371399,
        -0.06048410013318062,
        -0.3324317932128906,
        -0.2924979627132416,
        -0.14742262661457062,
        0.49045807123184204,
        -0.4187515377998352,
        0.18641436100006104,
        -0.11684577912092209,
        -0.24535804986953735,
        0.27607712149620056,
        0.45337021350860596,
        -0.13477656245231628,
        -0.16258445382118225,
        0.16169852018356323,
        0.4994830787181854,
        0.06409958004951477,
        0.058000870048999786,
        -0.028769413009285927,
        0.11773725599050522,
        -0.07829158008098602,
        0.018667088821530342,
        -0.14672614634037018,
        0.29905450344085693,
        0.2629320025444031,
        0.010553586296737194,
        0.7519201040267944,
        -0.8721372485160828,
        -0.01999814249575138,
        -0.11380976438522339,
        0.08855319023132324,
        0.09544052183628082,
        0.6016764044761658,
        0.06416251510381699,
        -0.31122398376464844,
        0.7244005799293518,
        -0.0311269648373127,
        0.06865047663450241,
        -0.2782209813594818,
        -0.21316176652908325,
        0.05282869562506676,
        -0.10051099956035614,
        -0.031919077038764954,
        -0.2658761739730835,
        -0.0973229631781578,
        -0.2046969085931778,
        0.3547207713127136,
        -0.0766879990696907,
        0.4360826015472412,
        0.24595914781093597,
        1.0034563541412354,
        -0.05629780888557434,
        -0.03328102082014084,
        -0.09472957998514175,
        0.2082832157611847,
        -0.0951596200466156,
        -0.3913337290287018,
        -0.1762472689151764,
        0.04571869596838951,
        -0.2504996657371521,
        0.030279073864221573,
        -0.05030260607600212,
        -0.14444954693317413,
        -0.6730722188949585,
        -0.050529707223176956,
        0.6193772554397583,
        -0.35321930050849915,
        0.08824919164180756,
        0.11209829896688461,
        0.9099091291427612,
        0.3735773265361786,
        0.14256532490253448,
        0.44342532753944397,
        0.14253756403923035,
        -0.648929238319397,
        0.06408447027206421,
        -0.3994922935962677,
        0.012965231202542782,
        0.08060026913881302,
        0.16484896838665009,
        -0.16689126193523407,
        0.3197496831417084,
        -0.126503124833107,
        0.34651413559913635,
        -0.4178644120693207,
        0.021093735471367836,
        0.6274980306625366,
        0.20760869979858398,
        -0.5501274466514587,
        -0.7449628710746765,
        0.6353525519371033,
        0.2746311128139496,
        0.3039487898349762,
        -0.14326922595500946,
        -0.22765998542308807,
        0.10223470628261566,
        -0.07544329017400742,
        0.594438374042511,
        -0.17701415717601776,
        0.1174311712384224,
        0.42385590076446533,
        0.1583806574344635,
        0.33047306537628174,
        -0.4934711158275604,
        -0.4268949031829834,
        -0.15029451251029968,
        -0.23760400712490082,
        -0.0858517736196518,
        -0.2090298980474472,
        0.4768911898136139,
        0.32253360748291016,
        0.18448546528816223,
        -0.3178606927394867,
        -0.16086208820343018,
        -0.11231423169374466,
        0.5834038853645325,
        0.18686002492904663,
        0.5836156010627747,
        -0.5381303429603577,
        -0.43756213784217834,
        -0.04441804066300392,
        0.1347101479768753,
        -0.19339536130428314,
        0.004897987935692072,
        -0.055382322520017624,
        -0.5256797075271606,
        0.6961090564727783,
        0.33066511154174805,
        0.058677297085523605,
        0.22158153355121613,
        0.32239705324172974,
        -0.41884541511535645,
        0.10871469229459763,
        -0.5312023162841797,
        -0.4060847759246826,
        -0.6143660545349121,
        0.01661248505115509,
        -0.20717819035053253,
        0.18260657787322998,
        -0.4452003836631775,
        0.03157380595803261,
        0.182514026761055,
        0.27998337149620056,
        -0.09794708341360092,
        -0.16266989707946777,
        0.08344404399394989,
        0.10016055405139923,
        0.06041369214653969,
        -0.3264172673225403,
        -0.073389433324337,
        -0.20680402219295502,
        -0.18689829111099243,
        -0.31136080622673035,
        0.30202716588974,
        0.2799825668334961,
        -0.37553533911705017,
        0.3749660849571228,
        0.3859538435935974,
        0.29974690079689026,
        0.18116702139377594,
        -0.13854248821735382,
        0.816453218460083,
        0.7088495492935181,
        0.2180529683828354,
        -0.05767294019460678,
        0.3145614266395569,
        0.5676857829093933,
        0.558378279209137,
        0.1916857808828354,
        -0.4475502371788025,
        -0.4045100510120392,
        0.07152210921049118,
        0.08361472189426422,
        -0.24862250685691833,
        -0.2992890775203705,
        0.03313713148236275,
        0.237853541970253,
        0.39608484506607056,
        -0.49275755882263184,
        -0.6363431811332703,
        -0.31883704662323,
        0.09555407613515854,
        0.08459889143705368,
        -0.2390122413635254,
        0.19356444478034973,
        0.3040350675582886,
        0.701490581035614,
        0.5621339082717896,
        -0.23044267296791077,
        0.13576370477676392,
        0.3309018313884735,
        -0.396461546421051,
        -0.017821907997131348,
        -0.10576491802930832,
        -0.3048250079154968,
        0.33544889092445374,
        0.26516225934028625,
        -0.1687958538532257,
        -0.49930137395858765,
        -0.47769325971603394,
        0.26994600892066956,
        0.3230952322483063,
        0.27878108620643616,
        0.5367050766944885,
        -0.05345158278942108,
        -0.5778671503067017,
        0.12300504744052887,
        -0.08618246763944626,
        -0.06376955658197403,
        0.17819024622440338,
        -0.0358978770673275,
        -0.5436151027679443,
        0.18224146962165833,
        -0.007230626884847879,
        -0.2219550907611847,
        0.09566840529441833,
        -0.21743568778038025,
        -0.20822323858737946,
        -0.429929256439209,
        0.24486538767814636,
        0.5466979146003723,
        -0.004450127482414246,
        0.2284546196460724,
        0.2960662245750427,
        0.1553025245666504,
        -0.00258129695430398,
        0.2901290953159332,
        -0.47635534405708313,
        0.009843355044722557,
        -0.07306195050477982,
        -0.3215020000934601,
        0.06167490780353546,
        -0.4852638244628906,
        0.7477831840515137,
        0.3924926221370697,
        -0.07433895021677017,
        -0.2011949121952057,
        0.0783090814948082,
        -0.05856466293334961,
        -0.15596123039722443,
        -0.19880922138690948,
        -0.5917285680770874,
        -0.0027844193391501904,
        0.9761231541633606,
        0.9225141406059265,
        -0.6256264448165894,
        -0.7927109599113464,
        -0.1211928203701973,
        0.4608154892921448,
        0.5914065837860107,
        -0.46089479327201843,
        -0.27096521854400635,
        -0.4181281626224518,
        -0.18461354076862335,
        0.5405608415603638,
        0.5995431542396545,
        -0.31744465231895447,
        0.18893887102603912,
        -0.27142250537872314,
        -0.30871814489364624,
        -0.19565191864967346,
        0.4427741467952728,
        -0.27339598536491394,
        -0.20241574943065643,
        -0.35516470670700073,
        -0.20454545319080353,
        -0.32200103998184204,
        0.03792263939976692,
        -0.4166580140590668,
        0.00853549875319004,
        -0.43214014172554016
      ],
      "weightsShape": [
        17,
        64
      ],
      "bias": [
        -0.006998496130108833,
        0.043004799634218216,
        0.03824296593666077,
        0.18163377046585083,
        0.0658448338508606,
        0.012334007769823074,
        -0.00865807943046093,
        0.04698554426431656,
        0.06648154556751251,
        0.03009396232664585,
        0.021233832463622093,
        -0.02494281716644764,
        -0.07600466161966324,
        -0.019782595336437225,
        -0.02533802017569542,
        -0.003108570585027337,
        0.020782912150025368,
        -0.052746862173080444,
        -0.05484182760119438,
        -0.005477651953697205,
        0.03952450677752495,
        0,
        -0.010369101539254189,
        0.03336771950125694,
        0.051544852554798126,
        0.00010390413808636367,
        0.06961100548505783,
        0.0011017501819878817,
        0.0931510180234909,
        0.009915885515511036,
        0.021521467715501785,
        0.01903306506574154,
        0,
        -0.027564065530896187,
        -0.008660973981022835,
        -0.0025121462531387806,
        -0.03526335954666138,
        0.026711316779255867,
        0.09719286113977432,
        0.018353601917624474,
        -0.0015464118914678693,
        -0.07368487864732742,
        -0.011106740683317184,
        -0.022099396213889122,
        0.08306372910737991,
        0.05344323813915253,
        -0.06294026225805283,
        -0.03271451219916344,
        -0.020243221893906593,
        0.06142377480864525,
        -0.014745899476110935,
        0.0663713589310646,
        -0.026998508721590042,
        0.02342282235622406,
        -0.028026236221194267,
        0.009450922720134258,
        0.1663065403699875,
        -0.01905578374862671,
        0.031496018171310425,
        0.09711065143346786,
        -0.03987974673509598,
        0.0036198056768625975,
        -0.02597452886402607,
        -0.0011913017369806767
      ],
      "biasShape": [
        1,
        64
      ],
      "activation": "relu"
    },
    {
      "weights": [
        0.11563271284103394,
        0.1184232085943222,
        0.05701073631644249,
        -0.07878375053405762,
        -0.14901801943778992,
        -0.43128150701522827,
        0.3330652415752411,
        -0.01922263391315937,
        0.007988312281668186,
        -0.18720681965351105,
        0.10049567371606827,
        -0.009081028401851654,
        -0.31674882769584656,
        -0.2846190929412842,
        -0.011173585429787636,
        0.3337135910987854,
        -0.2036779522895813,
        0.15265996754169464,
        0.1386258602142334,
        -0.1147545799612999,
        -0.1428012251853943,
        0.0796339362859726,
        0.2415381520986557,
        -0.054751619696617126,
        -0.061937425285577774,
        0.17850381135940552,
        -0.1112494245171547,
        0.06000015139579773,
        -0.05017389729619026,
        -0.08473868668079376,
        0.03778884559869766,
        -0.08635414391756058,
        0.1648649275302887,
        0.12813249230384827,
        0.3538033366203308,
        0.0789405107498169,
        -0.006242805160582066,
        -0.27820107340812683,
        -0.09134554117918015,
        0.2672422528266907,
        0.1571880429983139,
        -0.03636492043733597,
        0.29545846581459045,
        -0.0359378382563591,
        -0.11654315143823624,
        0.07727579027414322,
        0.04796796292066574,
        0.04957795888185501,
        0.13201647996902466,
        0.22050727903842926,
        0.16833265125751495,
        -0.07475534826517105,
        0.38184061646461487,
        -0.06580909341573715,
        0.1869313269853592,
        -0.22916179895401,
        -0.07007289677858353,
        -0.04026056081056595,
        0.010592065751552582,
        0.1902664601802826,
        0.25517168641090393,
        0.0022607382852584124,
        0.12305302917957306,
        0.022014135494828224,
        0.11694428324699402,
        -0.22764918208122253,
        0.19856230914592743,
        0.022961625829339027,
        -0.024423273280262947,
        -0.020201921463012695,
        0.14291992783546448,
        0.005365443415939808,
        -0.23804646730422974,
        0.34754833579063416,
        -0.44160497188568115,
        -0.1641044318675995,
        0.2492571622133255,
        0.07841182500123978,
        -0.06355611234903336,
        0.01823236420750618,
        0.025232812389731407,
        -0.12631115317344666,
        0.003928511403501034,
        0.33279949426651,
        -0.19850395619869232,
        0.03783097863197327,
        -0.15919634699821472,
        -0.464110404253006,
        -0.012263610027730465,
        -0.15757021307945251,
        -0.15159055590629578,
        0.11659891903400421,
        -0.05468571186065674,
        -0.020566226914525032,
        -0.07414688169956207,
        0.09293012320995331,
        -0.2599944472312927,
        0.2721448242664337,
        0.1617424488067627,
        -0.05907171592116356,
        0.020531395450234413,
        0.15568023920059204,
        -0.22538135945796967,
        0.07506625354290009,
        0.002865323331207037,
        -0.023281501606106758,
        -0.11220092326402664,
        0.16399778425693512,
        0.10292984545230865,
        0.03368542715907097,
        -0.11064305901527405,
        0.026307014748454094,
        -0.23307839035987854,
        -0.14243976771831512,
        0.13914704322814941,
        -0.12439274042844772,
        -0.11176660656929016,
        -0.014607476070523262,
        -0.13478995859622955,
        0.3599797785282135,
        0.019497327506542206,
        0.1871192306280136,
        0.03576844185590744,
        0.030917368829250336,
        0.1625417321920395,
        -0.435230553150177,
        -0.14071960747241974,
        0.17027288675308228,
        0.061131320893764496,
        0.18179252743721008,
        0.0358448252081871,
        0.0535905621945858,
        0.46216893196105957,
        -0.22210301458835602,
        -0.14254699647426605,
        0.08390573412179947,
        -0.24250303208827972,
        0.1538417935371399,
        -0.028318976983428,
        -0.2733442187309265,
        0.022853275761008263,
        -0.44178593158721924,
        -0.3298321068286896,
        0.10115653276443481,
        0.19922681152820587,
        -0.0454573929309845,
        -0.2712521255016327,
        0.171526238322258,
        -0.2571756839752197,
        0.33350124955177307,
        -0.0329703688621521,
        -0.23171135783195496,
        0.15765395760536194,
        -0.05457906052470207,
        -0.13809223473072052,
        -0.05659935623407364,
        -0.16642139852046967,
        -0.26585903763771057,
        0.13633501529693604,
        0.1356901377439499,
        -0.13077500462532043,
        0.14786511659622192,
        0.09700003266334534,
        -0.13911232352256775,
        0.08894386142492294,
        -0.34312400221824646,
        -0.0950755625963211,
        -0.13997292518615723,
        0.25695928931236267,
        0.04310448840260506,
        0.052138395607471466,
        -0.293590784072876,
        -0.4106293320655823,
        0.14268390834331512,
        0.31159454584121704,
        0.4318413734436035,
        -0.3681736886501312,
        0.03586547449231148,
        0.2700275778770447,
        -0.09058621525764465,
        -0.2348461002111435,
        0.17109262943267822,
        -0.06263712048530579,
        0.003268446773290634,
        -0.09904775768518448,
        0.019976764917373657,
        -0.31110209226608276,
        -0.0738934651017189,
        -0.040517210960388184,
        -0.35637789964675903,
        0.14066611230373383,
        0.02048097364604473,
        -0.12609241902828217,
        -0.004922331776469946,
        -0.23184575140476227,
        0.17589996755123138,
        0.2717159390449524,
        0.1629159301519394,
        0.2829599976539612,
        0.20762579143047333,
        0.06410620361566544,
        0.11360233277082443,
        -0.303968220949173,
        -0.23818212747573853,
        -0.14139410853385925,
        0.0398247092962265,
        0.0024013265501707792,
        -0.002733413362875581,
        -0.09311769902706146,
        -0.33570346236228943,
        -0.12309137731790543,
        -0.03816220536828041,
        0.026462966576218605,
        -0.1774187535047531,
        0.0931229442358017,
        -0.061288122087717056,
        -0.23133429884910583,
        -0.04360762983560562,
        -0.007539744023233652,
        -0.07984325289726257,
        0.08117754757404327,
        -0.21199777722358704,
        0.3224577009677887,
        0.27110469341278076,
        -0.06925627589225769,
        0.2958645522594452,
        -0.10144124180078506,
        -0.1409604549407959,
        -0.22613129019737244,
        0.1579008251428604,
        -0.3380362093448639,
        0.14344313740730286,
        -0.30655384063720703,
        -0.1107645034790039,
        -0.16810989379882812,
        0.07236377149820328,
        -0.0669829249382019,
        0.17847536504268646,
        -0.05036959797143936,
        -0.03246656805276871,
        -0.1671413630247116,
        0.0359727144241333,
        -0.0009491767850704491,
        0.050763022154569626,
        -0.1615903675556183,
        0.39932966232299805,
        -0.22177910804748535,
        0.23088456690311432,
        -0.10744515061378479,
        -0.09022685140371323,
        -0.1869731843471527,
        0.1387166976928711,
        -0.1726812869310379,
        0.17273616790771484,
        0.09507213532924652,
        -0.16001193225383759,
        -0.12713977694511414,
        0.06751865893602371,
        0.18793870508670807,
        -0.00888996385037899,
        0.06060057133436203,
        -0.06503701210021973,
        0.25337326526641846,
        0.06926888972520828,
        0.17478640377521515,
        0.3005111813545227,
        -0.280155211687088,
        0.18341057002544403,
        0.06373076885938644,
        -0.08253059536218643,
        0.09811577945947647,
        -0.2558152377605438,
        0.08002329617738724,
        -0.20073135197162628,
        0.1864914894104004,
        -0.2595221698284149,
        0.04736905172467232,
        0.10856109857559204,
        0.14212718605995178,
        0.09314969927072525,
        0.08041603118181229,
        -0.248269185423851,
        0.1910499930381775,
        -0.24479952454566956,
        0.16846244037151337,
        -0.10563676804304123,
        -0.01704850047826767,
        0.02073677070438862,
        -0.2697542607784271,
        -0.20498694479465485,
        0.14525572955608368,
        -0.11608972400426865,
        -0.06552070379257202,
        0.18847255408763885,
        0.05718855932354927,
        0.02894888073205948,
        -0.27443382143974304,
        0.035434503108263016,
        -0.21980582177639008,
        -0.18034160137176514,
        0.13847726583480835,
        0.1881801038980484,
        -0.17420458793640137,
        -0.02705020271241665,
        -0.1980792135000229,
        0.22212010622024536,
        -0.13076598942279816,
        -0.019414842128753662,
        -0.20486196875572205,
        0.08338378369808197,
        -0.04605202004313469,
        0.21552565693855286,
        -0.12689435482025146,
        -0.11222296208143234,
        -0.0900280699133873,
        0.09545940160751343,
        0.07268596440553665,
        -0.003749885829165578,
        -0.3548789620399475,
        -0.12410949915647507,
        -0.17771463096141815,
        0.06963253021240234,
        0.019350910559296608,
        0.21485240757465363,
        -0.3931429088115692,
        0.0030391861218959093,
        -0.02986994758248329,
        -0.24099433422088623,
        -0.07450208812952042,
        0.14687590301036835,
        -0.05629170686006546,
        0.11559329926967621,
        -0.10276933759450912,
        0.41675564646720886,
        -0.32699501514434814,
        -0.28322726488113403,
        -0.017058558762073517,
        0.10901699215173721,
        -0.1144460067152977,
        -0.36350300908088684,
        0.18738847970962524,
        0.22413048148155212,
        0.21482053399085999,
        0.08134199678897858,
        0.11021235585212708,
        0.020638354122638702,
        0.14484339952468872,
        -0.01570906862616539,
        -0.1259077787399292,
        0.18879447877407074,
        -0.07461003214120865,
        0.014030307531356812,
        -0.13363999128341675,
        -0.15997456014156342,
        0.046755801886320114,
        0.022232286632061005,
        -0.05029343068599701,
        -0.14238949120044708,
        -0.03262028098106384,
        0.02979634329676628,
        0.22401902079582214,
        0.14098531007766724,
        0.1735202521085739,
        -0.21351294219493866,
        -0.24618162214756012,
        -0.022900162264704704,
        -0.11654403060674667,
        0.1973247230052948,
        0.021089324727654457,
        -0.09286457300186157,
        0.1384173333644867,
        0.26147639751434326,
        0.015864746645092964,
        -0.2070179432630539,
        -0.05542071908712387,
        -0.2410142719745636,
        -0.2392851859331131,
        -0.09029847383499146,
        0.04542301595211029,
        -0.2004784196615219,
        -0.11384355276823044,
        0.14569547772407532,
        0.04360413923859596,
        -0.08589155226945877,
        0.27137836813926697,
        -0.2361205667257309,
        -0.012248862534761429,
        0.20277486741542816,
        -0.06259369850158691,
        0.010256779380142689,
        -0.09123127907514572,
        0.042475610971450806,
        0.19428418576717377,
        0.24942447245121002,
        -0.022519882768392563,
        0.15849749743938446,
        -0.07767827808856964,
        -0.0033303068485111,
        0.1050494909286499,
        0.06573864817619324,
        0.10280228406190872,
        -0.27659639716148376,
        0.08210387825965881,
        0.25753676891326904,
        0.1015603169798851,
        -0.21849846839904785,
        -0.0024531446397304535,
        -0.09089595079421997,
        0.10424476116895676,
        0.04770883172750473,
        -0.021038813516497612,
        -0.1501374989748001,
        0.03320314735174179,
        -0.19964942336082458,
        0.10794223099946976,
        -0.057124149054288864,
        0.07677090167999268,
        -0.15413802862167358,
        -0.17161694169044495,
        0.18669651448726654,
        0.06406132876873016,
        -0.09991717338562012,
        -0.057710155844688416,
        0.0966101586818695,
        -0.1848156452178955,
        0.14764539897441864,
        -0.25127920508384705,
        -0.2388966679573059,
        -0.12730920314788818,
        -0.31339311599731445,
        -0.10555373877286911,
        0.054226044565439224,
        -0.010391310788691044,
        0.2184293568134308,
        0.2657436430454254,
        -0.2733749747276306,
        -0.04149717837572098,
        0.1897921860218048,
        0.05675005540251732,
        -0.001305331476032734,
        0.09861446917057037,
        -0.01499231532216072,
        0.517662525177002,
        0.043938133865594864,
        -0.026664800941944122,
        0.15378759801387787,
        0.08065921813249588,
        -0.10840170085430145,
        0.10887990146875381,
        0.04612194374203682,
        -0.31918683648109436,
        -0.13521328568458557,
        0.01747201383113861,
        -0.1822413206100464,
        -0.14942854642868042,
        0.020527346059679985,
        0.25809556245803833,
        0.03765694424510002,
        0.12101171910762787,
        -0.2948031723499298,
        -0.06654046475887299,
        -0.6653674840927124,
        -0.20417988300323486,
        -0.0163886696100235,
        -0.06968972086906433,
        -0.18783970177173615,
        -0.1449102759361267,
        -0.07531645148992538,
        -0.0877518579363823,
        -0.03929801285266876,
        -0.09665977954864502,
        -0.36294716596603394,
        -0.205063596367836,
        -0.16613353788852692,
        0.09514109045267105,
        -0.2926759719848633,
        0.20695078372955322,
        -0.10401079803705215,
        -0.36183562874794006,
        0.06769157201051712,
        -0.011578007601201534,
        0.1770172119140625,
        0.2803909182548523,
        -0.044882938265800476,
        0.016766782850027084,
        0.09753690659999847,
        -0.29874932765960693,
        -0.05746575817465782,
        -0.0057350085116922855,
        0.10970234125852585,
        0.18961279094219208,
        0.10980109125375748,
        -0.13929423689842224,
        -0.13892340660095215,
        0.09365113824605942,
        -0.18459726870059967,
        0.027343275025486946,
        -0.06628186255693436,
        0.27902743220329285,
        -0.3426315188407898,
        0.14324480295181274,
        0.13767893612384796,
        0.01957640051841736,
        -0.10688433796167374,
        0.05010358616709709,
        -0.34527042508125305,
        0.33897241950035095,
        0.17425532639026642,
        -0.004875656217336655,
        0.09229177981615067,
        0.22993499040603638,
        0.01518978737294674,
        0.25044921040534973,
        0.058661382645368576,
        0.10376066714525223,
        0.1905871033668518,
        0.0886707603931427,
        -0.10506580770015717,
        0.13357864320278168,
        0.14130526781082153,
        0.21661613881587982,
        0.2735201120376587,
        -0.18065227568149567,
        -0.16325078904628754,
        0.5206462740898132,
        -0.11622866243124008,
        0.16492076218128204,
        0.36511099338531494,
        -0.10372535139322281,
        0.18909481167793274,
        0.06882480531930923,
        -0.19848981499671936,
        0.3198465406894684,
        0.20829173922538757,
        -0.016047662124037743,
        0.37221184372901917,
        -0.4211694896221161,
        -0.07800865918397903,
        0.2719483971595764,
        0.08852631598711014,
        0.1117997094988823,
        0.04583653435111046,
        0.050187189131975174,
        0.04266614094376564,
        -0.3496178984642029,
        -0.15712903439998627,
        0.008491748943924904,
        0.20594339072704315,
        0.03393498808145523,
        -0.12639670073986053,
        0.2287522256374359,
        -0.041189562529325485,
        0.16442455351352692,
        0.06916099041700363,
        -0.2143542468547821,
        0.2062576860189438,
        0.0036756459157913923,
        0.09189319610595703,
        -0.30328118801116943,
        0.17233534157276154,
        -0.05023350194096565,
        0.08795782923698425,
        0.029798561707139015,
        0.016700873151421547,
        0.017820395529270172,
        -0.0537438802421093,
        -0.015519504435360432,
        0.12447000294923782,
        -0.1976112276315689,
        -0.05497762933373451,
        -0.03933108597993851,
        0.15151895582675934,
        -0.005002222023904324,
        0.16833913326263428,
        -0.38821378350257874,
        0.09964164346456528,
        0.04106762632727623,
        -0.1163715273141861,
        -0.039645008742809296,
        0.05968796834349632,
        -0.31466102600097656,
        -0.06609539687633514,
        0.04333734139800072,
        -0.13664546608924866,
        0.2198779433965683,
        0.2533416748046875,
        -0.12742027640342712,
        -0.31731143593788147,
        0.09412316232919693,
        -0.0017310812836512923,
        0.02747473679482937,
        -0.078708715736866,
        0.08053431659936905,
        0.05783980339765549,
        -0.052371785044670105,
        0.12541894614696503,
        0.1544213443994522,
        -0.2462376058101654,
        0.0668087899684906,
        -0.14312432706356049,
        0.00003972592458012514,
        -0.2744602859020233,
        0.39446306228637695,
        -0.005584892816841602,
        -0.11932067573070526,
        -0.004330923780798912,
        -0.2993430197238922,
        -0.06201814115047455,
        -0.10709446668624878,
        -0.11669953167438507,
        0.23132391273975372,
        0.04594995453953743,
        0.24142606556415558,
        -0.47177067399024963,
        0.14299941062927246,
        -0.33468449115753174,
        -0.07263481616973877,
        0.31616902351379395,
        0.184833362698555,
        0.17932748794555664,
        -0.15578599274158478,
        -0.13009227812290192,
        0.04562196508049965,
        0.06048858165740967,
        -0.14331769943237305,
        -0.1928781419992447,
        -0.023045239970088005,
        0.07858065515756607,
        0.06178542599081993,
        0.4460362493991852,
        0.14116060733795166,
        -0.14902596175670624,
        0.028213849291205406,
        0.06564821302890778,
        0.04563898965716362,
        0.11848863214254379,
        -0.2599163353443146,
        -0.10292654484510422,
        0.1102108433842659,
        0.08389236032962799,
        -0.03815123811364174,
        0.1779308021068573,
        -0.1031189039349556,
        0.28451111912727356,
        0.21582059562206268,
        0.23091214895248413,
        0.0035715752746909857,
        0.21478696167469025,
        -0.13275153934955597,
        0.24686545133590698,
        0.08069761097431183,
        -0.28900662064552307,
        -0.018531136214733124,
        -0.20757423341274261,
        0.19081152975559235,
        0.16059516370296478,
        0.0862840935587883,
        -0.469225138425827,
        0.011274079792201519,
        -0.2598060667514801,
        -0.19124679267406464,
        -0.411275178194046,
        0.3398395776748657,
        -0.26714783906936646,
        0.015495195984840393,
        0.0017982824938371778,
        -0.1464914083480835,
        0.014581192284822464,
        0.18466249108314514,
        -0.02044002152979374,
        0.03947479650378227,
        0.07746273279190063,
        0.0073467399924993515,
        -0.2816521227359772,
        0.09463660418987274,
        -0.12165863066911697,
        0.19579185545444489,
        0.1794445961713791,
        -0.045460354536771774,
        -0.12408465892076492,
        0.15077349543571472,
        -0.14289985597133636,
        0.0022076338063925505,
        0.06846844404935837,
        -0.0517621673643589,
        -0.02467285841703415,
        0.21385452151298523,
        0.008463787846267223,
        -0.2738150954246521,
        -0.2825738489627838,
        -0.07459159940481186,
        0.2520892024040222,
        0.028897438198328018,
        -0.13855427503585815,
        -0.18307256698608398,
        0.01665443927049637,
        -0.26502832770347595,
        0.08586987107992172,
        0.42896008491516113,
        0.03627284988760948,
        0.5321311354637146,
        -0.30483970046043396,
        -0.14705222845077515,
        0.19935597479343414,
        0.03105413354933262,
        0.0784013494849205,
        -0.15249469876289368,
        -0.003876211354508996,
        0.22861450910568237,
        -0.09897834062576294,
        0.08348695933818817,
        0.1346968114376068,
        -0.1259121298789978,
        -0.03861037641763687,
        0.07429242134094238,
        0.11139529943466187,
        -0.026560159400105476,
        0.04012926667928696,
        -0.031195061281323433,
        0.1426529884338379,
        0.2053157389163971,
        -0.12258022278547287,
        0.3083731532096863,
        -0.279769629240036,
        0.11729275435209274,
        0.03587919846177101,
        -0.07338336110115051,
        0.021568268537521362,
        0.08948734402656555,
        -0.2046501487493515,
        -0.07730048894882202,
        0.03643783926963806,
        -0.011468405835330486,
        0.015597527846693993,
        -0.14225846529006958,
        0.2730152904987335,
        -0.2022319883108139,
        0.09117259085178375,
        -0.07731284946203232,
        0.07267023622989655,
        0.1675063520669937,
        -0.02005809359252453,
        -0.028410598635673523,
        -0.27591168880462646,
        0.11311814934015274,
        -0.055832672864198685,
        0.39744287729263306,
        -0.1635138988494873,
        0.20233793556690216,
        0.2527478337287903,
        0.03819285333156586,
        0.007417417597025633,
        0.3502040207386017,
        -0.1220618262887001,
        -0.13446983695030212,
        -0.07653508335351944,
        0.32129716873168945,
        0.1516086757183075,
        0.18798410892486572,
        0.18435879051685333,
        0.06665818393230438,
        0.2746347486972809,
        -0.12122026830911636,
        0.19592662155628204,
        -0.14148961007595062,
        0.25575384497642517,
        0.17751866579055786,
        0.12744414806365967,
        0.1332860141992569,
        -0.11347409337759018,
        0.05717303603887558,
        0.2514449656009674,
        0.14737147092819214,
        -0.023984810337424278,
        -0.24641212821006775,
        -0.2969905138015747,
        -0.04218978062272072,
        0.08662468940019608,
        0.4120292365550995,
        0.2108239084482193,
        0.05091095715761185,
        -0.37693434953689575,
        -0.22923564910888672,
        -0.011635825037956238,
        -0.16779865324497223,
        -0.33081260323524475,
        0.0009802361018955708,
        -0.15539409220218658,
        -0.0911022424697876,
        0.14022482931613922,
        -0.051014963537454605,
        -0.20804598927497864,
        -0.12551043927669525,
        0.11882155388593674,
        0.2898530066013336,
        0.09254402667284012,
        0.023767704144120216,
        0.06548919528722763,
        0.03479849547147751,
        0.16804727911949158,
        -0.078574039041996,
        -0.10201302170753479,
        -0.347418874502182,
        0.15209847688674927,
        0.16116540133953094,
        0.17871353030204773,
        0.020001303404569626,
        -0.12819048762321472,
        -0.13574610650539398,
        -0.06873397529125214,
        0.18400537967681885,
        0.054820772260427475,
        -0.1891327053308487,
        -0.16635540127754211,
        0.17352378368377686,
        -0.11719609797000885,
        -0.11551351100206375,
        0.26279157400131226,
        0.3637353181838989,
        -0.043236516416072845,
        -0.04012027382850647,
        -0.0905500128865242,
        0.20455323159694672,
        0.0005596457049250603,
        -0.043819084763526917,
        -0.3279063403606415,
        -0.021355796605348587,
        -0.026110736653208733,
        -0.08075333386659622,
        0.35546785593032837,
        -0.23206409811973572,
        -0.05559224262833595,
        0.20013147592544556,
        -0.4914661645889282,
        -0.05569375678896904,
        -0.2996092140674591,
        -0.31895193457603455,
        -0.10947491228580475,
        -0.2579115033149719,
        -0.0018523787148296833,
        0.11337590217590332,
        0.37067869305610657,
        0.07024044543504715,
        0.1664644330739975,
        -0.1266215294599533,
        -0.1903090924024582,
        -0.12435828149318695,
        0.20474322140216827,
        -0.17649169266223907,
        -0.08468016237020493,
        0.018526259809732437,
        0.2350696623325348,
        0.1480378955602646,
        0.11314085125923157,
        -0.22825674712657928,
        -0.293219655752182,
        -0.0518929697573185,
        0.007018920499831438,
        0.7864353656768799,
        -0.05907527729868889,
        -0.009198849089443684,
        -0.2609460949897766,
        -0.1901456117630005,
        0.36468490958213806,
        -0.15745408833026886,
        -0.3862781822681427,
        -0.27309495210647583,
        -0.16667456924915314,
        0.30550333857536316,
        -0.12889869511127472,
        0.0019066183594986796,
        0.04114958643913269,
        -0.19313141703605652,
        -0.10388906300067902,
        -0.1971006542444229,
        0.2037329226732254,
        0.20919527113437653,
        -0.05769471451640129,
        0.014169398695230484,
        -0.007304349448531866,
        0.36595460772514343,
        -0.14226269721984863,
        0.3805117905139923,
        0.029100731015205383,
        0.09249689429998398,
        -0.055798258632421494,
        -0.1660865843296051,
        0.05221634358167648,
        0.11808636784553528,
        0.11438731849193573,
        0.022615009918808937,
        0.13149267435073853,
        0.20904135704040527,
        0.29249364137649536,
        -0.028563054278492928,
        0.025393588468432426,
        -0.10493829846382141,
        0.19574669003486633,
        0.2716582715511322,
        0.007382973097264767,
        0.16515980660915375,
        -0.19539274275302887,
        -0.04370272904634476,
        0.04601559787988663,
        0.05986829847097397,
        -0.14309552311897278,
        -0.22764843702316284,
        0.021894801408052444,
        0.15381571650505066,
        -0.034549735486507416,
        0.17372454702854156,
        0.03455781564116478,
        -0.15302075445652008,
        0.21926023066043854,
        -0.16028086841106415,
        0.07209722697734833,
        -0.07877217233181,
        -0.1479087769985199,
        0.2749965190887451,
        -0.33787423372268677,
        0.09242906421422958,
        -0.34585073590278625,
        -0.46703922748565674,
        0.06231636181473732,
        0.04144228994846344,
        -0.03724117949604988,
        -0.17229913175106049,
        0.11289742588996887,
        -0.14480747282505035,
        0.17798301577568054,
        0.05686323717236519,
        -0.14042189717292786,
        -0.03751363232731819,
        0.033320073038339615,
        0.04426636919379234,
        -0.02445884235203266,
        -0.06089199706912041,
        -0.19443176686763763,
        -0.4741063416004181,
        0.02994299866259098,
        0.376095175743103,
        -0.1298598200082779,
        0.19717004895210266,
        -0.25167331099510193,
        -0.10243555903434753,
        0.25313106179237366,
        0.2972773313522339,
        -0.009650983847677708,
        -0.2170141339302063,
        -0.05455491319298744,
        0.2711004614830017,
        0.03794462978839874,
        0.057722728699445724,
        -0.3023785948753357,
        -0.04607492312788963,
        0.3179192841053009,
        -0.06716017425060272,
        0.0019647323060780764,
        -0.07896790653467178,
        0.16859444975852966,
        -0.14169470965862274,
        0.14769884943962097,
        -0.44881656765937805,
        -0.2578672170639038,
        -0.048010461032390594,
        0.1473233848810196,
        0.11961232870817184,
        -0.09832511842250824,
        -0.3231489658355713,
        -0.15311865508556366,
        0.03115152008831501,
        0.10212840139865875,
        -0.0697617456316948,
        0.2585674524307251,
        -0.12273181229829788,
        0.04548630490899086,
        -0.21024291217327118,
        0.06632079184055328,
        0.26243314146995544,
        0.16322097182273865,
        -0.1950531154870987,
        0.21307122707366943,
        -0.19554442167282104,
        -0.03951924666762352,
        0.056029435247182846,
        -0.5625783801078796,
        0.05521121993660927,
        -0.08500348776578903,
        0.09531338512897491,
        0.21185974776744843,
        -0.2505596876144409,
        -0.23408280313014984,
        0.04674471914768219,
        -0.43055352568626404,
        -0.005626199766993523,
        -0.051367297768592834,
        -0.10937563329935074,
        0.21276673674583435,
        0.1630961298942566,
        -0.01816398650407791,
        -0.4027327597141266,
        0.32766813039779663,
        -0.0318022146821022,
        0.0500376857817173,
        0.29819968342781067,
        -0.5421878695487976,
        0.2590689957141876,
        -0.030725035816431046,
        -0.10669028013944626,
        0.007602121215313673,
        0.20118188858032227,
        -0.32123038172721863,
        0.20492736995220184,
        -0.235245943069458,
        0.14777915179729462,
        -0.2403029501438141,
        -0.17906315624713898,
        -0.1454232633113861,
        -0.19945187866687775,
        -0.26538288593292236,
        0.1450011134147644,
        -0.32153794169425964,
        -0.053050003945827484,
        0.3156583607196808,
        -0.29376906156539917,
        0.0758158341050148,
        -0.22693635523319244,
        -0.08790255337953568,
        0.008012733422219753,
        0.04937047138810158,
        0.03957580775022507,
        -0.14785504341125488,
        -0.04118853062391281,
        -0.05087883397936821,
        -0.08283756673336029,
        0.32547640800476074,
        0.16493456065654755,
        0.39104846119880676,
        -0.12103980779647827,
        -0.11220579594373703,
        0.3183242678642273,
        0.09736219793558121,
        0.32163122296333313,
        0.20466193556785583,
        0.06770665943622589,
        0.1308329701423645,
        -0.016383130103349686,
        0.03852728009223938,
        -0.010008641518652439,
        0.08165056258440018,
        -0.01575862616300583,
        -0.04467310756444931,
        -0.02995697781443596,
        -0.25800177454948425,
        -0.03486316278576851,
        -0.494717001914978,
        -0.20494166016578674,
        -0.13045962154865265,
        -0.0664813369512558,
        0.08096672594547272,
        -0.04263579472899437,
        0.0074799032881855965,
        0.009591465815901756,
        -0.2639971971511841,
        0.28202688694000244,
        -0.05990182235836983,
        0.06562291085720062,
        0.11778821051120758,
        -0.2530444860458374,
        0.07488592714071274,
        -0.0026534029748290777,
        0.05060873180627823,
        -0.2696817219257355,
        -0.6005386114120483,
        -0.05118513107299805,
        -0.16462521255016327,
        0.12911668419837952,
        0.07227694243192673,
        -0.04269137606024742,
        -0.24838513135910034,
        0.26345542073249817,
        0.09739454835653305,
        -0.142054945230484,
        0.1578778624534607,
        -0.10011297464370728,
        -0.34864193201065063,
        -0.009934638626873493,
        0.16910791397094727,
        0.09223106503486633,
        -0.0041871522553265095,
        -0.07894472032785416,
        -0.16360218822956085,
        -0.05418356508016586,
        -0.28343138098716736,
        -0.27729207277297974,
        0.0938623696565628,
        -0.2859802544116974,
        0.24035778641700745,
        -0.1734766811132431,
        -0.027071954682469368,
        -0.09080009162425995,
        -0.10809731483459473,
        0.02319449931383133,
        -0.05506663769483566,
        0.11219782382249832,
        -0.10364425927400589,
        0.13069675862789154,
        0.120461106300354,
        0.171656534075737,
        -0.05599960312247276,
        0.018016008660197258,
        0.04026162251830101,
        -0.045183759182691574,
        0.1802903115749359,
        -0.1571735143661499,
        -0.28244268894195557,
        0.049037251621484756,
        0.38464006781578064,
        0.16001717746257782,
        0.18501536548137665,
        -0.14987586438655853,
        0.17787304520606995,
        -0.014138066209852695,
        0.09492557495832443,
        0.00897473469376564,
        -0.02227182872593403,
        -0.03620084002614021,
        -0.1764202117919922,
        -0.1006002202630043,
        0.11324117332696915,
        -0.08261451870203018,
        -0.35182636976242065,
        0.22756335139274597,
        -0.21814396977424622,
        -0.2522871196269989,
        0.10005220025777817,
        -0.2832561731338501,
        -0.18919095396995544,
        -0.10783602297306061,
        0.38151246309280396,
        0.0979054644703865,
        -0.0068956525065004826,
        -0.07627581059932709,
        0.1801331341266632,
        0.19133205711841583,
        -0.1273825615644455,
        0.1237671971321106,
        -0.12363989651203156,
        -0.23836809396743774,
        0.017766211181879044,
        0.20114648342132568,
        -0.09434451162815094,
        -0.07836149632930756,
        0.0034011031966656446,
        -0.06030898541212082,
        -0.16940702497959137,
        -0.11058337986469269,
        0.03131389617919922,
        -0.28039082884788513,
        -0.08289700746536255,
        0.21074311435222626,
        0.17204734683036804,
        -0.16714493930339813,
        0.17660894989967346,
        0.4228634536266327,
        0.011420274153351784,
        -0.11908784508705139,
        -0.002132727298885584,
        -0.09578733891248703,
        -0.1163797453045845,
        0.022059563547372818,
        0.04209897294640541,
        -0.1440160572528839,
        0.050807058811187744,
        0.0706607773900032,
        0.05795282498002052,
        -0.0748632550239563,
        0.09729933738708496,
        -0.1548641473054886,
        -0.025518454611301422,
        0.17644836008548737,
        -0.23931574821472168,
        0.24594128131866455,
        -0.2980096638202667,
        0.16462600231170654,
        -0.2994849681854248,
        -0.43502214550971985,
        0.09510301053524017,
        -0.251334011554718,
        0.09414143115282059,
        0.011371158994734287,
        -0.055957864969968796,
        0.0033820101525634527,
        0.14679770171642303,
        -0.1632823497056961,
        0.26952943205833435,
        0.1400570422410965,
        0.09525300562381744,
        -0.2172919362783432,
        -0.28709134459495544,
        -0.2432236224412918,
        0.091464102268219,
        0.049578674137592316,
        -0.1649671494960785,
        0.09743478894233704,
        -0.007133351638913155,
        -0.02871040813624859,
        -0.41264480352401733,
        0.011248917318880558,
        0.10673601180315018,
        -0.062262360006570816,
        -0.14623978734016418,
        -0.13208070397377014,
        -0.2722967267036438,
        -0.0016332432860508561,
        0.35944733023643494,
        0.20869097113609314,
        0.03615165501832962,
        0.37232470512390137,
        -0.08478077501058578,
        -0.25120601058006287,
        -0.24302493035793304,
        0.12334869801998138,
        0.10838930308818817,
        0.29859215021133423,
        0.44458818435668945,
        -0.08645074814558029,
        0.07989328354597092,
        -0.29516831040382385,
        -0.1927771270275116,
        0.013563992455601692,
        0.13801488280296326,
        -0.3451451361179352,
        -0.0828169658780098,
        0.07729002833366394,
        0.11542090773582458,
        0.2416912019252777,
        0.020357677713036537,
        0.10845113545656204,
        -0.5132184624671936,
        -0.42067474126815796,
        0.09350596368312836,
        0.11236020922660828,
        -0.024438025429844856,
        0.044784050434827805,
        -0.3432729244232178,
        -0.17317937314510345,
        0.44932448863983154,
        -0.27672556042671204,
        -0.08491311222314835,
        0.17437566816806793,
        -0.0742906779050827,
        0.07915136218070984,
        -0.19969719648361206,
        0.04258933290839195,
        -0.023871155455708504,
        0.00365312397480011,
        0.16727183759212494,
        0.11801651120185852,
        -0.059632547199726105,
        -0.03371180221438408,
        0.04833624139428139,
        -0.16829895973205566,
        -0.15271401405334473,
        -0.1933535784482956,
        0.25882020592689514,
        0.043555572628974915,
        0.2423921823501587,
        -0.20120906829833984,
        0.1749946027994156,
        0.1363317221403122,
        0.09282825142145157,
        0.037894174456596375,
        -0.11653336137533188,
        -0.16136333346366882,
        -0.08943898975849152,
        -0.14169210195541382,
        0.35281193256378174,
        -0.22394892573356628,
        -0.030642902478575706,
        0.07697267830371857,
        0.46608832478523254,
        0.08196070045232773,
        0.08739759773015976,
        -0.02124565839767456,
        0.14908987283706665,
        0.18468637764453888,
        0.1863803118467331,
        -0.05910579115152359,
        -0.0690627247095108,
        -0.3209711015224457,
        0.2072611153125763,
        -0.07665242999792099,
        -0.30052801966667175,
        0.16278943419456482,
        0.2589898407459259,
        -0.15965205430984497,
        -0.12558527290821075,
        -0.20661965012550354,
        -0.13655343651771545,
        -0.09118261188268661,
        -0.05990314111113548,
        0.06691018491983414,
        -0.07130567729473114,
        -0.2660534083843231,
        -0.0804058387875557,
        -0.12993182241916656,
        0.3693051338195801,
        0.14537231624126434,
        0.10028374195098877,
        -0.03975582867860794,
        0.05518830940127373,
        -0.17620927095413208,
        -0.10846718400716782,
        0.08877956867218018,
        -0.24884344637393951,
        0.19433961808681488,
        0.10467952489852905,
        0.0030250842683017254,
        -0.20923368632793427,
        -0.15745680034160614,
        -0.1885058432817459,
        -0.09992556273937225,
        -0.07426643371582031,
        -0.1421540230512619,
        0.04531470686197281,
        -0.13859516382217407,
        0.01213393546640873,
        -0.3820514380931854,
        0.28448039293289185,
        -0.4717051386833191,
        0.1687440276145935,
        -0.2326630800962448,
        0.03397882357239723,
        0.06368030607700348,
        -0.09743164479732513,
        -0.2801310420036316,
        -0.18711496889591217,
        -0.030112313106656075,
        0.10083163529634476,
        -0.011014474555850029,
        0.16749711334705353,
        -0.00821955781430006,
        -0.2152530401945114,
        0.2653293013572693,
        0.03738714009523392,
        0.07205916196107864,
        0.20350271463394165,
        -0.0407203733921051,
        0.03432834520936012,
        -0.1268635094165802,
        -0.2258928418159485,
        0.10470328480005264,
        0.14403080940246582,
        0.18596087396144867,
        0.1763959676027298,
        -0.08416888117790222,
        0.10091689229011536,
        0.05229117348790169,
        -0.00902234110981226,
        0.06695476174354553,
        -0.10477831214666367,
        0.14594155550003052,
        -0.011210489086806774,
        0.15828637778759003,
        0.082827627658844,
        -0.028371503576636314,
        0.008490004576742649,
        0.17414577305316925,
        -0.22055988013744354,
        0.10724049806594849,
        0.08546826243400574,
        -0.04992463439702988,
        -0.1221436858177185,
        -0.11651677638292313,
        0.13377274572849274,
        -0.07055892795324326,
        0.13706371188163757,
        -0.13887056708335876,
        0.31116464734077454,
        -0.21192912757396698,
        -0.2441331297159195,
        0.17620505392551422,
        -0.4098060429096222,
        -0.06352612376213074,
        -0.3477645814418793,
        0.10748443752527237,
        -0.23116087913513184,
        -0.05036327615380287,
        0.038641635328531265,
        0.3994970917701721,
        0.35321715474128723,
        0.20163314044475555,
        0.07267388701438904,
        0.02825169824063778,
        -0.36455243825912476,
        -0.20197156071662903,
        -0.1964733600616455,
        0.08849035948514938,
        0.1580873727798462,
        0.07408053427934647,
        0.32301029562950134,
        -0.30536434054374695,
        0.11907780170440674,
        -0.11829971522092819,
        0.05124250054359436,
        0.32561683654785156,
        0.22918519377708435,
        -0.010289525613188744,
        -0.01919097639620304,
        -0.08689569681882858,
        0.0839814767241478,
        0.17250818014144897,
        -0.02871854417026043,
        -0.09207401424646378,
        0.04484543949365616,
        0.16552238166332245,
        0.29856541752815247,
        0.10971731692552567,
        -0.12567642331123352,
        0.014470844529569149,
        -0.08692967146635056,
        0.003826855681836605,
        0.1833338886499405,
        -0.13990192115306854,
        0.07803285121917725,
        0.11919481307268143,
        -0.045038942247629166,
        0.11184100061655045,
        0.18164576590061188,
        0.13013285398483276,
        0.05433358624577522,
        -0.25775954127311707,
        -0.07299694418907166,
        -0.014082523994147778,
        -0.019320260733366013,
        -0.18575158715248108,
        -0.45938727259635925,
        0.3341394364833832,
        0.018660318106412888,
        -0.3589889705181122,
        -0.20776183903217316,
        -0.06764888018369675,
        0.12123651802539825,
        -0.0071256416849792,
        -0.26646173000335693,
        0.2732405364513397,
        0.08452633023262024,
        -0.013867015019059181,
        0.07997974008321762,
        0.04959133267402649,
        -0.07098022103309631,
        0.30869224667549133,
        -0.07024113833904266,
        -0.02700699493288994,
        0.09005435556173325,
        -0.05215201526880264,
        0.32727208733558655,
        -0.15499252080917358,
        -0.17970572412014008,
        -0.3818027377128601,
        0.0850401222705841,
        0.3017396032810211,
        0.1708371788263321,
        0.04465648904442787,
        -0.11885297298431396,
        -0.19280527532100677,
        -0.047447580844163895,
        -0.15298227965831757,
        -0.04141930863261223,
        -0.15846963226795197,
        -0.13391892611980438,
        0.01954284869134426,
        -0.1935025006532669,
        0.052473049610853195,
        0.27686890959739685,
        -0.18998192250728607,
        -0.03343226760625839,
        0.39991819858551025,
        0.05379660055041313,
        -0.22192975878715515,
        0.2776777446269989,
        0.24721316993236542,
        0.12146881222724915,
        0.1093713641166687,
        -0.07131306827068329,
        -0.13392430543899536,
        0.44936421513557434,
        0.14912405610084534,
        -0.06793850660324097,
        0.28389015793800354,
        -0.2880631983280182,
        0.43577638268470764,
        0.0457453615963459,
        0.09118391573429108,
        -0.07261078804731369,
        -0.3451152741909027,
        -0.05737406015396118,
        0.26923075318336487,
        -0.29646340012550354,
        0.40053632855415344,
        -0.18779759109020233,
        -0.1450931578874588,
        0.146356999874115,
        0.13711264729499817,
        -0.24247680604457855,
        -0.08828388899564743,
        0.21639229357242584,
        0.3065081834793091,
        0.09636271744966507,
        0.08455273509025574,
        -0.21164757013320923,
        0.2127668857574463,
        0.23136137425899506,
        0.30137112736701965,
        0.20428623259067535,
        0.012880006805062294,
        -0.44866546988487244,
        0.024805180728435516,
        0.2593090832233429,
        0.03356508910655975,
        -0.6738043427467346,
        0.03976400941610336,
        -0.13026465475559235,
        0.1884733885526657,
        -0.31658899784088135,
        -0.10495268553495407,
        -0.3808368444442749,
        -0.17520394921302795,
        0.3385697901248932,
        0.22214992344379425,
        -0.05260181427001953,
        0.2886072099208832,
        -0.35774222016334534,
        0.15384966135025024,
        -0.0801742821931839,
        0.09449101984500885,
        -0.05158026143908501,
        0.27547702193260193,
        -0.023289578035473824,
        0.15057237446308136,
        -0.3233621418476105,
        -0.35822540521621704,
        0.2199588567018509,
        -0.0904882475733757,
        -0.23232883214950562,
        -0.1253882646560669,
        0.04940469190478325,
        -0.06326227635145187,
        -0.0016700474079698324,
        0.08911968767642975,
        -0.3926560580730438,
        0.18092575669288635,
        -0.04598550871014595,
        0.4537746012210846,
        -0.09711156040430069,
        0.1518944650888443,
        0.017496895045042038,
        -0.08473213762044907,
        -0.3060325086116791,
        0.058170221745967865,
        -0.20473864674568176,
        0.20815753936767578,
        -0.35205066204071045,
        -0.09526327252388,
        0.14572018384933472,
        0.15337087213993073,
        -0.09704644978046417,
        -0.05943741649389267,
        0.06071236729621887,
        -0.12669053673744202,
        -0.012801037169992924,
        0.05085372552275658,
        -0.03757689520716667,
        0.01745222695171833,
        0.1153390035033226,
        -0.08576423674821854,
        0.04078557342290878,
        0.22526772320270538,
        -0.19431905448436737,
        0.37766361236572266,
        0.41307634115219116,
        -0.39603716135025024,
        0.23503169417381287,
        -0.02605138160288334,
        0.015190103091299534,
        -0.4930918514728546,
        -0.07683095335960388,
        -0.08604104071855545,
        0.1930554062128067,
        0.119334876537323,
        -0.07665958255529404,
        -0.14606010913848877,
        -0.007352150045335293,
        0.031734514981508255,
        0.016067884862422943,
        -0.02033778466284275,
        -0.07481540739536285,
        0.11467957496643066,
        -0.046462297439575195,
        0.5395769476890564,
        0.22151750326156616,
        -0.2719840407371521,
        0.15930218994617462,
        -0.05817796289920807,
        -0.19265705347061157,
        0.11122981458902359,
        -0.10526210069656372,
        0.018956804648041725,
        0.10042779892683029,
        0.0458432137966156,
        0.0380680225789547,
        0.15896332263946533,
        0.036964405328035355,
        -0.3804090619087219,
        0.0432436503469944,
        -0.2518051862716675,
        0.027003515511751175,
        -0.20475135743618011,
        0.20466652512550354,
        0.10829892754554749,
        -0.20189893245697021,
        0.31442534923553467,
        0.2119794487953186,
        0.2842704951763153,
        0.0248844213783741,
        0.27503857016563416,
        -0.00709279952570796,
        -0.1738051474094391,
        0.41209661960601807,
        0.03933670371770859,
        0.1676778644323349,
        -0.14899252355098724,
        0.21374917030334473,
        0.2783418595790863,
        -0.08743248879909515,
        0.10351444035768509,
        0.0791536197066307,
        -0.10866548120975494,
        -0.1735406368970871,
        0.181962251663208,
        -0.056660834699869156,
        -0.06096714735031128,
        -0.16627678275108337,
        -0.17567703127861023,
        -0.0926905944943428,
        -0.01877458021044731,
        -0.27856945991516113,
        0.08796064555644989,
        -0.25042176246643066,
        0.14023298025131226,
        0.11131127178668976,
        0.2834654152393341,
        0.18932515382766724,
        0.1736840009689331,
        -0.31071943044662476,
        0.3375324308872223,
        -0.3165377080440521,
        -0.4056268334388733,
        0.11347529292106628,
        0.027941711246967316,
        0.13407756388187408,
        0.36212292313575745,
        -0.04413391649723053,
        -0.08308655768632889,
        -0.30184200406074524,
        0.023775607347488403,
        0.10964803397655487,
        0.08698295056819916,
        0.16047461330890656,
        -0.06574083864688873,
        0.13702328503131866,
        -0.1425136923789978,
        0.14739103615283966,
        -0.07247824221849442,
        -0.01331596914678812,
        0.1270790696144104,
        -0.25588881969451904,
        -0.08330842852592468,
        -0.08651623874902725,
        -0.06594818085432053,
        0.018033528700470924,
        -0.48668622970581055,
        -0.09202909469604492,
        0.03730205073952675,
        0.1527973860502243,
        0.10378523916006088,
        0.08538120985031128,
        0.07401762902736664,
        -0.07259548455476761,
        -0.20145846903324127,
        0.08778861910104752,
        -0.23493434488773346,
        -0.2894230782985687,
        -0.08420217037200928,
        0.21920399367809296,
        0.08762695640325546,
        0.06196562200784683,
        -0.022763468325138092,
        -0.13801248371601105,
        0.2209397703409195,
        -0.014919377863407135,
        0.15599502623081207,
        0.11745193600654602,
        -0.1029694601893425,
        0.41499385237693787,
        -0.14432576298713684,
        0.10187346488237381,
        0.2572014033794403,
        0.1466841995716095,
        -0.08167563378810883,
        0.052209749817848206,
        -0.02602100931107998,
        0.14528927206993103,
        0.023235099390149117,
        0.028208762407302856,
        0.20309971272945404,
        -0.04925275221467018,
        -0.1728682965040207,
        0.3103526830673218,
        -0.36990103125572205,
        -0.1846138834953308,
        0.22724832594394684,
        0.15606501698493958,
        0.1045827567577362,
        0.12446838617324829,
        0.1972142606973648,
        0.08333294093608856,
        0.17461799085140228,
        0.1787252128124237,
        0.09379211813211441,
        0.16718170046806335,
        -0.09862423688173294,
        -0.0235268697142601,
        0.14062298834323883,
        -0.14230963587760925,
        -0.31920182704925537,
        0.09382521361112595,
        -0.13739942014217377,
        -0.08976729959249496,
        0.4909602701663971,
        -0.2404678612947464,
        0.24991312623023987,
        0.06092651188373566,
        -0.11728478968143463,
        -0.0975925624370575,
        -0.10090680420398712,
        0.07034283131361008,
        -0.3436255156993866,
        -0.10973788052797318,
        -0.20840692520141602,
        0.22019203007221222,
        -0.1924150437116623,
        -0.08671720325946808,
        -0.06386832892894745,
        -0.13954930007457733,
        -0.10375523567199707,
        -0.09582164883613586,
        -0.22594940662384033,
        -0.21060144901275635,
        -0.24678745865821838,
        0.011253474280238152,
        0.316470205783844,
        -0.08221675455570221,
        0.2361687421798706,
        -0.16380392014980316,
        -0.05416271463036537,
        0.10373072326183319,
        0.00802653282880783,
        0.06936874240636826,
        0.12300633639097214,
        0.24634581804275513,
        -0.3383883237838745,
        -0.15858356654644012,
        0.16554726660251617,
        0.036320317536592484,
        -0.19759130477905273,
        0.0807001143693924,
        -0.05887073278427124,
        -0.13168589770793915,
        -0.1266455054283142,
        -0.3345668911933899,
        0.13636690378189087,
        -0.19227445125579834,
        0.06138881295919418,
        -0.13795432448387146,
        0.08994770050048828,
        -0.06833749264478683,
        -0.18481160700321198,
        0.14345848560333252,
        -0.017321666702628136,
        0.08366327732801437,
        -0.02081938460469246,
        0.1460767388343811,
        -0.24766626954078674,
        -0.2525404095649719,
        -0.1295182704925537,
        -0.26358896493911743,
        -0.0815286710858345,
        0.029682816937565804,
        -0.02897154539823532,
        -0.07121459394693375,
        0.13044744729995728,
        0.19183826446533203,
        0.20872972905635834,
        0.3479327857494354,
        0.1384820193052292,
        0.05473380163311958,
        0.00448979064822197,
        -0.1458141952753067,
        -0.0412781685590744,
        0.35991376638412476,
        -0.14452601969242096,
        0.07118938118219376,
        0.18624523282051086,
        0.18029315769672394,
        0.17678433656692505,
        -0.20382337272167206,
        -0.17581014335155487,
        -0.10868819802999496,
        -0.19279123842716217,
        -0.1821073740720749,
        0.06769690662622452,
        -0.1420825719833374,
        -0.1050877571105957,
        0.04073795676231384,
        0.4176103174686432,
        0.058677177876234055,
        0.2412085086107254,
        -0.48028770089149475,
        0.0725245475769043,
        0.14478807151317596,
        -0.20730800926685333,
        -0.10493973642587662,
        -0.3308710753917694,
        0.0998605266213417,
        -0.19675199687480927,
        -0.15135303139686584,
        -0.24406620860099792,
        0.055897779762744904,
        0.2252463400363922,
        0.06465577334165573,
        0.14293330907821655,
        0.19613514840602875,
        -0.23915056884288788,
        0.07375513017177582,
        -0.06921731680631638,
        0.0429593101143837,
        -0.0952351987361908,
        -0.427133172750473,
        0.13026520609855652,
        0.3713661730289459,
        0.009915237314999104,
        0.1937439888715744,
        -0.040744055062532425,
        -0.1528349220752716,
        0.010245505720376968,
        0.46298593282699585,
        -0.12185723334550858,
        -0.30859997868537903,
        -0.034841395914554596,
        0.24061574041843414,
        0.35365426540374756,
        -0.10956670343875885,
        0.17651183903217316,
        0.05170818045735359,
        -0.10029902309179306,
        0.14835307002067566,
        -0.13472974300384521,
        0.09631858766078949,
        0.045860856771469116,
        0.24291913211345673,
        0.05518428608775139,
        0.062173519283533096,
        -0.08537126332521439,
        -0.2564208209514618,
        0.1643866002559662,
        -0.23441176116466522,
        -0.1708156168460846,
        0.1993955373764038,
        0.34793606400489807,
        0.2629052996635437,
        -0.23685607314109802,
        0.4093000292778015,
        -0.13427762687206268,
        -0.040838707238435745,
        -0.15510515868663788,
        0.16253525018692017,
        -0.11560826003551483,
        -0.12381191551685333,
        0.08619657903909683,
        -0.08537183701992035,
        -0.026053795590996742,
        -0.08106846362352371,
        0.08324793726205826,
        -0.10907405614852905,
        -0.03629570081830025,
        0.0736994668841362,
        0.07267967611551285,
        0.09818720817565918,
        -0.024039965122938156,
        0.021829238161444664,
        -0.08074311167001724,
        -0.13067388534545898,
        -0.23539729416370392,
        0.20322968065738678,
        -0.270210325717926,
        0.1671421229839325,
        -0.22945012152194977,
        -0.058950893580913544,
        0.14319683611392975,
        0.0851595401763916,
        -0.270032674074173,
        0.001529630389995873,
        -0.39158210158348083,
        0.02606937475502491,
        -0.16944044828414917,
        0.07832831889390945,
        0.09588993340730667,
        -0.16467255353927612,
        0.21824826300144196,
        0.10956434160470963,
        -0.3220420479774475,
        -0.009200979955494404,
        -0.2698955237865448,
        0.05136193335056305,
        -0.27117660641670227,
        0.28169235587120056,
        0.1605536937713623,
        -0.025080101564526558,
        -0.1812593787908554,
        0.14799001812934875,
        -0.3946216106414795,
        0.2688310146331787,
        -0.17285634577274323,
        -0.07540231198072433,
        -0.4210638105869293,
        0.12568767368793488,
        0.13682277500629425,
        -0.2790054678916931,
        -0.2127656191587448,
        -0.2860378921031952,
        0.06566957384347916,
        0.5546181797981262,
        -0.10096690058708191,
        -0.3325725793838501,
        -0.1952553689479828,
        0.04720666632056236,
        0.03324669227004051,
        -0.22971265017986298,
        0.007840782403945923,
        -0.28338924050331116,
        -0.09812590479850769,
        0.1581106334924698,
        -0.02707337774336338,
        0.044002991169691086,
        -0.21374276280403137,
        -0.0073470016941428185,
        0.2898261249065399,
        -0.2122933715581894,
        0.1452838033437729,
        -0.2352854609489441,
        0.13879135251045227,
        0.22520169615745544,
        -0.012937371619045734,
        -0.08425402641296387,
        -0.22076867520809174,
        0.06395766139030457,
        0.2449515461921692,
        -0.14711177349090576,
        0.17975394427776337,
        0.24162735044956207,
        -0.14459750056266785,
        -0.10795754194259644,
        0.06725779175758362,
        -0.15203726291656494,
        -0.1796645075082779,
        -0.23804442584514618,
        -0.24832351505756378,
        -0.210002601146698,
        -0.14251002669334412,
        0.13723601400852203,
        0.05919260531663895,
        0.00912119448184967,
        -0.004445903468877077,
        0.3704686164855957,
        -0.11581913381814957,
        0.2062378078699112,
        -0.009861662983894348,
        -0.3223941922187805,
        0.006377139128744602,
        0.0877382680773735,
        -0.015794074162840843,
        -0.33671918511390686,
        0.11123450845479965,
        0.03445917367935181,
        -0.10460693389177322,
        0.055391501635313034,
        0.045213423669338226,
        0.04921919107437134,
        -0.2785379886627197,
        0.19954454898834229,
        0.2912239134311676,
        0.1984354555606842,
        -0.0753050297498703,
        0.014808489009737968,
        0.12456724792718887,
        -0.020007917657494545,
        0.11349722743034363,
        0.14710894227027893,
        0.21362344920635223,
        0.17866507172584534,
        -0.21945562958717346,
        -0.11256200075149536,
        0.09526918828487396,
        0.027379434555768967,
        -0.01087801530957222,
        0.1172918900847435,
        0.31423062086105347,
        -0.17712195217609406,
        0.29248204827308655,
        -0.004234129562973976,
        -0.17961664497852325,
        0.14050140976905823,
        0.20552398264408112,
        -0.10149160772562027,
        -0.43443745374679565,
        -0.08010417968034744,
        -0.08559553325176239,
        0.20312722027301788,
        0.07177986204624176,
        -0.09831234812736511,
        0.03212859109044075,
        -0.09112975746393204,
        0.07694820314645767,
        0.007062143180519342,
        0.08878542482852936,
        -0.06893917173147202,
        -0.10126152634620667,
        0.14340566098690033,
        0.15586905181407928,
        0.22164669632911682,
        0.059178829193115234,
        0.16953647136688232,
        0.22798000276088715,
        -0.10857483744621277,
        0.14251099526882172,
        0.10444799065589905
      ],
      "weightsShape": [
        64,
        32
      ],
      "bias": [
        -0.03012491762638092,
        0.029254332184791565,
        -0.011577012948691845,
        0.008724991232156754,
        0.025867145508527756,
        0,
        0.001250899164006114,
        -0.013050995767116547,
        -0.005808020476251841,
        0.11586163192987442,
        0,
        -0.012441213242709637,
        0.01765136979520321,
        -0.020102841779589653,
        -0.00013100002252031118,
        0.005162112880498171,
        0,
        -0.030136195942759514,
        0.007998538203537464,
        -0.0102760074660182,
        0.0028129215352237225,
        0.04410271346569061,
        -0.0011796802282333374,
        0.005257018376141787,
        0.019726648926734924,
        -0.009106370620429516,
        0.015738632529973984,
        0.023883525282144547,
        -0.01470445841550827,
        -0.003448787145316601,
        0.03348320350050926,
        -0.00015218480257317424
      ],
      "biasShape": [
        1,
        32
      ],
      "activation": "relu"
    },
    {
      "weights": [
        0.5923284888267517,
        -0.8145141005516052,
        -0.3502887785434723,
        0.34897375106811523,
        -0.37462639808654785,
        0.07032021135091782,
        0.16368602216243744,
        -0.4141116738319397,
        0.40548229217529297,
        0.980721652507782,
        -0.3931204378604889,
        -0.26727429032325745,
        -0.09859558939933777,
        -0.999768853187561,
        -0.17834103107452393,
        0.11467805504798889,
        -0.40547940135002136,
        -0.5081177949905396,
        0.1830437034368515,
        0.12196123600006104,
        0.6505231261253357,
        -0.35466593503952026,
        -0.024833254516124725,
        -0.9224085807800293,
        -0.37863901257514954,
        0.24620074033737183,
        1.0381096601486206,
        -0.5012515187263489,
        -0.053916431963443756,
        -0.33635467290878296,
        -0.4442374110221863,
        0.49953100085258484
      ],
      "weightsShape": [
        32,
        1
      ],
      "bias": [
        -0.05137570574879646
      ],
      "biasShape": [
        1,
        1
      ],
      "activation": "sigmoid"
    }
  ],
  "learningRate": 0.00020999999999999998,
  "l2Lambda": 0.00001
}