{
  "__kind": "NeuralNet",
  "version": 1,
  "layers": [
    {
      "weights": [
        -0.29180943965911865,
        -0.5549604892730713,
        -0.5027308464050293,
        -0.7401738166809082,
        0.027646053582429886,
        0.13315832614898682,
        0.19895118474960327,
        -0.005492603871971369,
        0.3180658519268036,
        -0.787072479724884,
        0.34871551394462585,
        0.7797117829322815,
        -0.46589744091033936,
        -0.13679344952106476,
        -0.32830163836479187,
        0.19784870743751526,
        0.6188488602638245,
        -0.38098061084747314,
        -0.12958957254886627,
        0.06056871637701988,
        0.43516191840171814,
        0.40833449363708496,
        -0.3168327808380127,
        -0.17084766924381256,
        0.9122961759567261,
        0.019858481362462044,
        -0.4811410903930664,
        0.38502904772758484,
        0.2488064020872116,
        -0.17064544558525085,
        -0.23352639377117157,
        0.7347767353057861,
        0.11844482272863388,
        0.5091421008110046,
        -0.8270978927612305,
        -0.23390303552150726,
        -0.3316109776496887,
        -0.009363681077957153,
        0.22742198407649994,
        -0.38535648584365845,
        -0.4681485891342163,
        0.03431255370378494,
        -0.3556939661502838,
        -0.33775943517684937,
        -0.18893828988075256,
        0.16562426090240479,
        -0.2548370957374573,
        0.3502028286457062,
        -0.3010457456111908,
        -0.26418477296829224,
        0.2951039671897888,
        -0.19199511408805847,
        -0.02932475134730339,
        0.4140095114707947,
        0.01799824833869934,
        -0.36505287885665894,
        -0.7803137898445129,
        0.07486797869205475,
        0.27936851978302,
        0.5854580998420715,
        -0.09150228649377823,
        -0.09043791145086288,
        -0.017652587965130806,
        -0.16854418814182281,
        -0.285214364528656,
        0.06851296126842499,
        0.40775591135025024,
        -0.03848505765199661,
        0.3911580443382263,
        -0.5785651206970215,
        0.402687132358551,
        0.04205644875764847,
        -0.2505834102630615,
        0.6588650941848755,
        -0.15035198628902435,
        -0.6167841553688049,
        0.3232181668281555,
        0.08817944675683975,
        0.11212252080440521,
        -0.1205398291349411,
        -0.20357275009155273,
        -0.17925767600536346,
        0.34623977541923523,
        0.06280110776424408,
        -0.2078433781862259,
        -0.1295037567615509,
        -0.05980069190263748,
        0.38995060324668884,
        -0.2330155223608017,
        0.3557301163673401,
        0.4323253035545349,
        0.5243546366691589,
        -0.12183331698179245,
        -0.2972809374332428,
        -0.27805978059768677,
        0.23371969163417816,
        0.22917640209197998,
        -0.11180098354816437,
        -0.5086057782173157,
        -0.7628812789916992,
        -0.14729568362236023,
        0.6082702279090881,
        -0.18106862902641296,
        0.24931801855564117,
        0.4883681833744049,
        -0.28947004675865173,
        0.058151379227638245,
        0.4094800353050232,
        0.16668590903282166,
        -0.2206261307001114,
        -0.4507024586200714,
        0.16798055171966553,
        -0.2886447608470917,
        0.8699573874473572,
        0.283070832490921,
        -0.06296269595623016,
        -0.11076723784208298,
        -0.2245941460132599,
        -0.03263530135154724,
        0.12693952023983002,
        -0.025065762922167778,
        -0.12285786122083664,
        -0.26240456104278564,
        -0.14830508828163147,
        -0.48816239833831787,
        -0.05680008605122566,
        -0.056533098220825195,
        -0.18523551523685455,
        0.27963685989379883,
        -0.48222625255584717,
        0.10350646823644638,
        0.3854081928730011,
        0.6204424500465393,
        0.18141190707683563,
        0.3497951626777649,
        0.381584495306015,
        0.18031299114227295,
        0.143252432346344,
        -0.43155381083488464,
        -0.3118147552013397,
        0.24245142936706543,
        0.2167993038892746,
        -0.10983813554048538,
        0.3723105490207672,
        -0.2622397840023041,
        -0.0807189866900444,
        0.4674351215362549,
        0.17329852283000946,
        -0.24822671711444855,
        -0.2920163869857788,
        0.06215423345565796,
        0.1365276277065277,
        -0.14047473669052124,
        -0.019827352836728096,
        0.07397986203432083,
        -0.2664368748664856,
        -0.0035810344852507114,
        0.06428255885839462,
        0.36424118280410767,
        0.21029648184776306,
        0.7000066041946411,
        -0.009076345711946487,
        0.2714022099971771,
        0.15326668322086334,
        -0.2740385830402374,
        0.5824757218360901,
        0.4690060019493103,
        -0.5319308638572693,
        -0.17602790892124176,
        -0.33374905586242676,
        0.23957809805870056,
        0.5617722272872925,
        0.0604710653424263,
        -0.45747700333595276,
        -0.25947922468185425,
        0.6894745230674744,
        0.20502620935440063,
        0.036635760217905045,
        -0.6104355454444885,
        -0.8905689120292664,
        0.26237520575523376,
        0.43731075525283813,
        -0.6844658255577087,
        0.272716224193573,
        0.06060905009508133,
        -0.16943496465682983,
        -0.24376671016216278,
        0.012771201319992542,
        0.03063729964196682,
        0.5393363833427429,
        0.814293622970581,
        0.4307674467563629,
        0.12981198728084564,
        0.09115864336490631,
        0.34486106038093567,
        0.07466520369052887,
        0.5426740646362305,
        -0.38521715998649597,
        0.4045484662055969,
        -0.030696619302034378,
        -0.09732898324728012,
        -0.2569541335105896,
        -0.3937966525554657,
        -0.4777868986129761,
        -0.1366575062274933,
        0.3676457107067108,
        -0.2990659773349762,
        0.454797625541687,
        -0.5772199034690857,
        -0.14052358269691467,
        -0.31610751152038574,
        0.40828201174736023,
        -0.12037210911512375,
        -0.2309754192829132,
        0.04821879789233208,
        -0.46216410398483276,
        0.0701829195022583,
        0.20425397157669067,
        -0.14348186552524567,
        0.11917103826999664,
        -0.7776100039482117,
        -0.41493961215019226,
        0.07504051923751831,
        0.029647221788764,
        0.27748972177505493,
        0.10274820774793625,
        -0.054297324270009995,
        0.18880589306354523,
        0.49598920345306396,
        -0.004444057587534189,
        -0.8031899929046631,
        -0.1332760453224182,
        -0.21464131772518158,
        -0.06363125890493393,
        0.5767619609832764,
        0.1146862655878067,
        0.8149375915527344,
        -0.4575801491737366,
        0.5890898704528809,
        -0.5761966705322266,
        -0.17344635725021362,
        0.2447189837694168,
        -0.10359589755535126,
        0.046983502805233,
        -0.040839966386556625,
        0.08191066235303879,
        0.13669413328170776,
        -0.36408740282058716,
        0.4279877245426178,
        -0.06885858625173569,
        -0.05617132782936096,
        0.6292773485183716,
        -0.22227564454078674,
        -0.15943732857704163,
        -0.29833146929740906,
        0.2108963131904602,
        0.319241464138031,
        0.13977013528347015,
        0.014308508485555649,
        -0.3958315849304199,
        0.6882604956626892,
        0.10513866692781448,
        0.057497330009937286,
        0.26843777298927307,
        -0.1373138278722763,
        0.3464844822883606,
        -0.10362092405557632,
        0.4588523209095001,
        -0.1051618829369545,
        -0.06621972471475601,
        0.39634233713150024,
        -0.21205507218837738,
        -0.04145992547273636,
        -0.055483557283878326,
        0.133806049823761,
        0.16704173386096954,
        0.8810580968856812,
        0.05323953181505203,
        0.06027231365442276,
        -0.014843594282865524,
        -0.07229214161634445,
        -0.15096676349639893,
        -0.581859290599823,
        0.45519840717315674,
        -0.1962704211473465,
        0.22860999405384064,
        -0.243940070271492,
        -0.9301660060882568,
        0.36544373631477356,
        0.421146959066391,
        -0.06709528714418411,
        -0.668500542640686,
        -0.579168975353241,
        -0.17536666989326477,
        -0.08163830637931824,
        -0.44069474935531616,
        -0.1468917578458786,
        -0.32589468359947205,
        -0.1709052473306656,
        0.37908053398132324,
        -0.762791633605957,
        -0.15650784969329834,
        -0.21603544056415558,
        0.2932869493961334,
        0.3005509078502655,
        0.15002335608005524,
        0.1484023630619049,
        -0.4620577096939087,
        0.14645743370056152,
        -0.1879410445690155,
        -0.2989378869533539,
        -0.6369516849517822,
        -0.2966965138912201,
        -0.6000615954399109,
        -0.03829767182469368,
        0.24559947848320007,
        0.39920732378959656,
        0.03148174658417702,
        -0.19964101910591125,
        0.22903606295585632,
        -0.044031772762537,
        -0.007850429974496365,
        -0.028549043461680412,
        -0.594846248626709,
        0.3399047553539276,
        -0.3285551369190216,
        0.33294734358787537,
        -0.05787179619073868,
        0.12653577327728271,
        0.3212396204471588,
        0.3606598377227783,
        0.34273773431777954,
        0.4708002507686615,
        0.1157359853386879,
        -0.32102587819099426,
        -0.1287715882062912,
        0.2153407633304596,
        -0.1412489414215088,
        0.40412992238998413,
        -0.5660801529884338,
        0.07896200567483902,
        -1.0395584106445312,
        -0.1352490484714508,
        -0.15662047266960144,
        -0.1427353024482727,
        -0.20877507328987122,
        0.3001576066017151,
        -0.23214131593704224,
        0.03264018893241882,
        -0.703700840473175,
        -0.8669531345367432,
        0.031309910118579865,
        0.14457426965236664,
        -0.11991795152425766,
        -0.01244131475687027,
        -0.4689394533634186,
        0.6681390404701233,
        -0.23896802961826324,
        0.190836563706398,
        0.19209857285022736,
        -0.05496225133538246,
        0.1856844574213028,
        -0.5243614912033081,
        0.011910137720406055,
        -0.14210285246372223,
        0.4565536379814148,
        -0.014172428287565708,
        -0.16927728056907654,
        1.4706531763076782,
        -0.5698429346084595,
        -0.7366103529930115,
        -0.257917195558548,
        -0.037418898195028305,
        -0.01653341017663479,
        0.05888593941926956,
        -0.11318099498748779,
        0.4530838429927826,
        0.13100573420524597,
        0.44293731451034546,
        -0.5274372696876526,
        -0.2135305106639862,
        0.13725033402442932,
        0.39993953704833984,
        0.6840259432792664,
        -0.11690142005681992,
        0.08687243610620499,
        0.041078951209783554,
        0.2500351667404175,
        -0.23275332152843475,
        -0.16449107229709625,
        0.226173996925354,
        0.298123300075531,
        -0.1907302588224411,
        -0.25169453024864197,
        0.009652519598603249,
        -0.13751880824565887,
        -0.140664204955101,
        0.13729402422904968,
        0.4105321168899536,
        0.035163793712854385,
        -0.563888669013977,
        0.18126262724399567,
        -0.11890224367380142,
        0.34148886799812317,
        0.008653298951685429,
        -0.05315069481730461,
        -0.14678151905536652,
        -0.5281423926353455,
        0.2887907028198242,
        -0.004918323829770088,
        0.010777486488223076,
        -0.34912458062171936,
        0.21104049682617188,
        -0.008698366582393646,
        0.44292107224464417,
        0.2572782635688782,
        -0.18820974230766296,
        -0.7711750864982605,
        0.16665440797805786,
        -0.07902873307466507,
        0.29445192217826843,
        0.5532122254371643,
        -0.1410195380449295,
        -0.5085747838020325,
        0.15511268377304077,
        -0.15336203575134277,
        -0.008570581674575806,
        -0.048434656113386154,
        -0.3235982656478882,
        0.045804206281900406,
        -0.1701965630054474,
        0.31924840807914734,
        0.17053750157356262,
        0.27257734537124634,
        -0.08219120651483536,
        -0.49300074577331543,
        -0.15045419335365295,
        0.2052398920059204,
        -0.12422561645507812,
        -0.9699527621269226,
        0.34130674600601196,
        0.42660006880760193,
        -0.1469397246837616,
        0.4629068672657013,
        -0.2620003819465637,
        -0.466470330953598,
        0.37877824902534485,
        0.3089050054550171,
        0.5323359370231628,
        -0.23196005821228027,
        0.5564314126968384,
        0.1886349469423294,
        -0.1500752717256546,
        0.4332563281059265,
        0.018258212134242058,
        -0.09203911572694778,
        0.12470526993274689,
        0.1475583016872406,
        0.006232643034309149,
        0.474364697933197,
        0.10439106822013855,
        0.04383623227477074,
        -0.5195869207382202,
        -0.3721667230129242,
        -0.049958836287260056,
        0.0477878600358963,
        0.1729145646095276,
        -0.03686211630702019,
        0.33012667298316956,
        0.1631101816892624,
        0.5423296093940735,
        0.12974682450294495,
        -0.0011305103544145823,
        -0.06044421344995499,
        0.46156927943229675,
        0.21689020097255707,
        0.0047720614820718765,
        -0.26419270038604736,
        0.03992558270692825,
        -0.508959174156189,
        -0.5195890069007874,
        0.3039630353450775,
        -0.01896948367357254,
        -0.32422855496406555,
        -0.9829091429710388,
        -0.21758057177066803,
        0.2057737112045288,
        -0.027077632024884224,
        0.19541798532009125,
        -0.28441646695137024,
        -0.5640586018562317,
        0.2275923639535904,
        -0.29183754324913025,
        -0.10068171471357346,
        -0.0843232125043869,
        0.1867230087518692,
        0.343933641910553,
        0.2257595956325531,
        0.7261173129081726,
        -0.019786152988672256,
        -0.16331134736537933,
        0.020287642255425453,
        0.0694044679403305,
        0.012593178078532219,
        0.028087912127375603,
        0.0238358024507761,
        0.27652212977409363,
        -0.0959266871213913,
        -0.5445422530174255,
        0.06854480504989624,
        -0.21564142405986786,
        0.908711850643158,
        -0.27295517921447754,
        0.32016274333000183,
        -0.07031023502349854,
        0.14878372848033905,
        0.511212944984436,
        0.11346220225095749,
        0.6089146733283997,
        0.08364986628293991,
        -0.2732996642589569,
        -0.0846325233578682,
        0.19148658215999603,
        -0.05982743948698044,
        -0.07545706629753113,
        0.10268010944128036,
        0.424694687128067,
        -0.01317654736340046,
        -0.4326537847518921,
        0.27177518606185913,
        0.16409237682819366,
        -0.08332273364067078,
        0.6038179397583008,
        0.5824000239372253,
        -0.017687378451228142,
        -0.03338603302836418,
        0.22654838860034943,
        -0.030786503106355667,
        0.06279267370700836,
        -0.1567327082157135,
        0.41287916898727417,
        -0.06862808763980865,
        0.4471423625946045,
        -0.16833481192588806,
        0.23263639211654663,
        0.15195699036121368,
        -0.003469648538157344,
        -0.1659563183784485,
        -0.17670966684818268,
        0.01896747760474682,
        0.056794434785842896,
        -0.5749492645263672,
        -0.1426878720521927,
        -0.38907915353775024,
        0.34434595704078674,
        -0.501410961151123,
        0.05321619287133217,
        -0.15142013132572174,
        0.4900352656841278,
        -0.1939593255519867,
        -0.5560098886489868,
        -0.1900111436843872,
        0.003995794337242842,
        0.17202717065811157,
        0.3052215874195099,
        0.10421308875083923,
        -0.17860953509807587,
        -0.3821941614151001,
        0.4480486512184143,
        0.4628925323486328,
        -0.09410551190376282,
        -0.12657654285430908,
        -0.42299556732177734,
        0.7752038836479187,
        -0.049252983182668686,
        -0.2492920160293579,
        0.7209402322769165,
        -0.2588425874710083,
        -0.022314894944429398,
        0.27665120363235474,
        -0.18480028212070465,
        0.3274695575237274,
        -0.5076853632926941,
        -0.037263475358486176,
        0.35040777921676636,
        -0.2280283421278,
        -0.29324012994766235,
        0.04303354769945145,
        0.005457677878439426,
        0.2798970639705658,
        -0.23090916872024536,
        0.13322921097278595,
        0.06041845679283142,
        0.2099151462316513,
        -0.09290554374456406,
        0.5211687684059143,
        0.11573491990566254,
        -0.006892374716699123,
        -0.23786906898021698,
        -0.06648339331150055,
        -0.03788195177912712,
        0.10269025713205338,
        0.2446138858795166,
        0.019635092467069626,
        0.36236077547073364,
        0.5351014137268066,
        -0.7208321690559387,
        0.12312473356723785,
        0.04392961412668228,
        -0.5150064826011658,
        -0.3524778187274933,
        -0.19032138586044312,
        -0.20931552350521088,
        0.3960919976234436,
        0.1953064650297165,
        -0.41961947083473206,
        -0.2181011140346527,
        0.18914097547531128,
        0.09634141623973846,
        0.29928308725357056,
        -0.23193733394145966,
        0.25706619024276733,
        0.6413992643356323,
        -0.25441133975982666,
        0.25529325008392334,
        -0.1024644523859024,
        0.5115803480148315,
        -0.3840324282646179,
        -0.5133774876594543,
        0.2834700644016266,
        -0.4210917353630066,
        -0.3079787790775299,
        0.03470635414123535,
        0.032073065638542175,
        -0.46334007382392883,
        -0.2632030248641968,
        -0.014277936890721321,
        -0.45182880759239197,
        -0.04440479353070259,
        -0.31837427616119385,
        -0.09919945150613785,
        0.5020565986633301,
        0.16318650543689728,
        0.28792136907577515,
        0.014926176518201828,
        -0.379560649394989,
        -0.18526466190814972,
        -0.15352743864059448,
        0.011974731460213661,
        0.2394660860300064,
        0.33618661761283875,
        0.26178422570228577,
        0.28781476616859436,
        -0.11316578090190887,
        -0.32827457785606384,
        0.3970438539981842,
        0.11559708416461945,
        -0.09771085530519485,
        0.37288135290145874,
        0.070576012134552,
        0.40664470195770264,
        -0.022509543225169182,
        0.6718348264694214,
        0.6510688662528992,
        0.3174302577972412,
        -0.35531067848205566,
        -0.018927183002233505,
        0.2992941737174988,
        -0.7780318856239319,
        0.29195019602775574,
        0.19449220597743988,
        -0.484759658575058,
        -0.6172947883605957,
        -0.3216615319252014,
        -0.5071225166320801,
        -0.4189099073410034,
        -0.23595401644706726,
        -0.18458148837089539,
        -0.07587327063083649,
        0.10595178604125977,
        0.4386958181858063,
        -0.20405519008636475,
        -0.23456625640392303,
        -0.31854891777038574,
        0.2214268296957016,
        0.047408949583768845,
        0.25571465492248535,
        0.5821600556373596,
        0.22306659817695618,
        -0.26981791853904724,
        -0.21389144659042358,
        -0.31553494930267334,
        -0.6044663190841675,
        -0.13166363537311554,
        0.20817403495311737,
        0.1704656034708023,
        -0.10807568579912186,
        0.20360229909420013,
        0.05072090029716492,
        -0.13949429988861084,
        -0.261994332075119,
        -0.5990074872970581,
        -0.27915430068969727,
        -0.016246944665908813,
        -0.03615066781640053,
        -0.3177235722541809,
        0.0003141475608572364,
        0.1749550849199295,
        -0.2084525227546692,
        0.1237415224313736,
        0.01493533793836832,
        0.3792297840118408,
        0.29942598938941956,
        0.41988787055015564,
        -0.31354233622550964,
        0.2341955006122589,
        -0.46117767691612244,
        -0.45446208119392395,
        0.5108517408370972,
        0.08309367299079895,
        -0.014664306305348873,
        0.0982929915189743,
        0.4014494717121124,
        -0.05312599986791611,
        0.03111845999956131,
        -0.08731873333454132,
        -0.2826573848724365,
        -0.46291670203208923,
        -0.09912330657243729,
        -0.03478296846151352,
        0.5618804693222046,
        -0.25006210803985596,
        -0.09361822158098221,
        -0.01044212095439434,
        -0.18956032395362854,
        -0.12880562245845795,
        0.1707085818052292,
        0.1276882439851761,
        -0.1927926242351532,
        -0.02225734107196331,
        0.1877613216638565,
        -0.5136731266975403,
        -0.10105548799037933,
        -0.16916538774967194,
        0.26149505376815796,
        0.009077416732907295,
        0.3529492914676666,
        0.5580138564109802,
        0.582533597946167,
        0.1249859407544136,
        0.41700267791748047,
        -0.38173627853393555,
        -0.5417280197143555,
        -0.23243600130081177,
        -0.09439987689256668,
        -0.35626494884490967,
        -0.17021766304969788,
        -0.11531980335712433,
        -0.4300651252269745,
        0.07233648747205734,
        0.2811294198036194,
        0.20366421341896057,
        -0.2850241959095001,
        0.19120162725448608,
        0.21067020297050476,
        0.23554711043834686,
        -0.09385772049427032,
        0.6190725564956665,
        0.15372169017791748,
        0.2569255232810974,
        -0.19026929140090942,
        0.3265555799007416,
        -0.20721150934696198,
        -0.03256319463253021,
        -0.2493947446346283,
        -0.4382079541683197,
        0.027689138427376747,
        -0.09370370209217072,
        0.21550634503364563,
        0.44952255487442017,
        0.33465349674224854,
        0.21251818537712097,
        0.9353412985801697,
        0.19465599954128265,
        -0.6433804631233215,
        0.40732061862945557,
        -0.16598322987556458,
        0.4656945765018463,
        -0.05086159706115723,
        0.11749627441167831,
        0.4375836253166199,
        -0.42462068796157837,
        -0.5853701233863831,
        0.09833573549985886,
        -0.0263520535081625,
        -0.4388583302497864,
        -0.01684543676674366,
        0.006055287551134825,
        0.5910114645957947,
        0.24917884171009064,
        -0.043138135224580765,
        -0.7036121487617493,
        -0.10531625896692276,
        0.4278613328933716,
        -0.22832843661308289,
        -0.2909131646156311,
        0.2476496547460556,
        -0.2285940945148468,
        -0.3015015423297882,
        -0.6971126198768616,
        0.9103282690048218,
        0.010884194634854794,
        0.05945209041237831,
        0.42535343766212463,
        0.34846004843711853,
        -0.0318106934428215,
        0.18263472616672516,
        0.1924831122159958,
        0.06214776262640953,
        -0.05245249718427658,
        0.15988461673259735,
        0.19393964111804962,
        -0.5920403003692627,
        0.4347481429576874,
        -0.40023234486579895,
        -0.17724670469760895,
        -0.22912286221981049,
        0.11760713905096054,
        0.3179895281791687,
        -0.22329308092594147,
        0.297885000705719,
        -0.19669927656650543,
        -0.25528857111930847,
        0.4195747971534729,
        -0.0725892037153244,
        -0.05839263275265694,
        0.1883908063173294,
        0.20586074888706207,
        -0.242956280708313,
        0.4094798266887665,
        0.1203065812587738,
        0.2944857180118561,
        0.06575984507799149,
        0.4630766808986664,
        0.16831929981708527,
        0.25866207480430603,
        0.21793483197689056,
        0.0025618874933570623,
        0.21718455851078033,
        0.2045585662126541,
        -1.0054250955581665,
        0.240840345621109,
        0.11967690289020538,
        -0.9900262951850891,
        0.0005574652459472418,
        -0.17683972418308258,
        0.4024832248687744,
        -0.4088061451911926,
        0.6269353032112122,
        0.19612514972686768,
        0.2968462407588959,
        -0.10952189564704895,
        0.36302778124809265,
        0.17290014028549194,
        0.2766963243484497,
        -0.4584040343761444,
        -0.15566065907478333,
        -0.13228625059127808,
        -0.31750768423080444,
        -0.4933845102787018,
        -0.2050340175628662,
        -0.6664122343063354,
        -0.20432014763355255,
        -0.23575134575366974,
        0.10677243769168854,
        0.029356494545936584,
        -0.3281802833080292,
        -0.11950282007455826,
        -0.14672379195690155,
        0.14553171396255493,
        0.3078623116016388,
        0.3039003610610962,
        0.4236817955970764,
        -0.054631005972623825,
        0.43961969017982483,
        -0.12978117167949677,
        0.4757729172706604,
        -0.20802593231201172,
        0.13827072083950043,
        0.05704973265528679,
        0.21604669094085693,
        0.12476179748773575,
        -0.09364710003137589,
        0.04524562880396843,
        -0.2162836492061615,
        -0.15744566917419434,
        0.3859560191631317,
        -0.5703455209732056,
        -0.1591586172580719,
        -0.016742100939154625,
        -0.17059233784675598,
        -0.41737911105155945,
        0.007375292479991913,
        -0.36337926983833313,
        -0.6274611949920654,
        -0.032197482883930206,
        0.0098112216219306,
        0.6170587539672852,
        0.13750873506069183,
        0.04162697494029999,
        -0.07846274971961975,
        0.0644325390458107,
        0.5982335805892944,
        0.25768303871154785,
        0.5055588483810425,
        0.5753101110458374,
        0.36199426651000977,
        0.31112775206565857,
        0.042750392109155655,
        -0.4475052058696747,
        -0.004843931179493666,
        0.38297969102859497,
        -0.33228012919425964,
        0.24328084290027618,
        0.12749843299388885,
        0.07263380289077759,
        0.3808421492576599,
        -0.004078879486769438,
        -0.14713363349437714,
        -0.4600053131580353,
        0.024049345403909683,
        0.08939073234796524,
        0.0028124686796218157,
        0.2353638857603073,
        0.028720155358314514,
        -0.7145745158195496,
        -0.4947850704193115,
        -0.16006261110305786,
        0.3068215847015381,
        0.5840079188346863,
        -0.24705512821674347,
        -0.5660879015922546,
        -0.3532842695713043,
        -0.522060751914978,
        0.4172896444797516,
        0.5194218754768372,
        -0.1525547206401825,
        0.23706766963005066,
        -0.30888286232948303,
        0.008487576618790627,
        0.2434624582529068,
        -0.0958586037158966,
        0.002635967219248414,
        -0.2727434039115906,
        0.27317383885383606,
        -0.0006678298814222217,
        0.22246891260147095,
        0.40097689628601074,
        -0.10133948922157288,
        -0.18382838368415833,
        0.8544573783874512,
        0.27289941906929016,
        0.14379097521305084,
        0.10280488431453705,
        -0.04809252545237541,
        -0.31240615248680115,
        0.04668233543634415,
        -0.10135386884212494,
        0.49049875140190125,
        0.09883808344602585,
        -0.11843953281641006,
        -0.07871240377426147,
        -0.2249295860528946,
        0.3076011538505554,
        0.2335643321275711,
        -0.1757349967956543,
        -0.6934821605682373,
        -0.3314652442932129,
        -0.05726073309779167,
        -0.010521692223846912,
        0.07341604679822922,
        0.06922895461320877,
        -0.43765324354171753,
        -0.10729660093784332,
        0.05126680061221123,
        0.3820247948169708,
        -0.15182214975357056,
        0.304381787776947,
        0.4234388768672943,
        0.4263998866081238,
        0.6004093289375305,
        0.25505751371383667,
        0.027629533782601357,
        -0.10788699239492416,
        0.017716974020004272,
        -0.4007735848426819,
        0.6682506203651428,
        -0.02231064811348915,
        -0.536787748336792,
        0.5946353673934937,
        0.17245109379291534,
        -0.4664299190044403,
        -0.6039843559265137,
        0.2294672131538391,
        -0.5608752369880676,
        -0.08818652480840683,
        0.10503118485212326,
        0.4704243242740631,
        0.9081453680992126,
        0.5160866379737854,
        0.34434670209884644,
        -0.051860637962818146,
        -0.48557049036026,
        0.6861039400100708,
        -0.008335856720805168,
        0.13823047280311584,
        0.7854880690574646,
        -0.08698809891939163,
        0.12425817549228668,
        -0.16202999651432037,
        -0.09914067387580872,
        0.22566872835159302,
        -0.5135703682899475,
        -0.722453773021698,
        0.5376383066177368,
        0.010609840042889118,
        -0.6479511260986328,
        -0.2564663290977478,
        0.0010397534351795912,
        0.179278165102005,
        -0.22095151245594025,
        -0.7501160502433777,
        -0.044429197907447815,
        -0.4971814751625061,
        0.02811984159052372,
        -0.026788659393787384,
        0.15040706098079681,
        -0.12968875467777252,
        -0.1825215071439743,
        0.3757934868335724,
        -0.011224018409848213,
        0.44957470893859863,
        -0.11996602267026901,
        -0.2914330065250397,
        -0.10844696313142776,
        -0.10082036256790161,
        -0.21978121995925903,
        0.10025300830602646,
        0.07024186104536057,
        -0.2589045763015747,
        -0.7346048355102539,
        -0.0788249671459198,
        -0.1376737654209137,
        -0.15761780738830566,
        -0.01511231530457735,
        0.08600176125764847,
        0.19285210967063904,
        0.4184907376766205,
        -0.2882927358150482,
        -0.8727304339408875,
        -0.45902809500694275,
        0.05079824477434158,
        0.08328703045845032,
        0.13704340159893036,
        0.1647665947675705,
        0.44649702310562134,
        -0.0808321014046669,
        0.22699837386608124,
        0.4020613729953766,
        0.12340491265058517,
        -0.11463930457830429,
        0.929284930229187,
        -0.1961042433977127,
        -0.3914422392845154,
        -0.48746156692504883,
        0.05104674771428108,
        0.05014980956912041,
        0.1330871284008026,
        0.33008405566215515,
        0.43704769015312195,
        -0.10634377598762512,
        -0.051232170313596725,
        0.00013853373820893466,
        0.10642947256565094,
        -0.1006319671869278,
        -0.4272971749305725,
        0.2681962251663208,
        -0.22721406817436218
      ],
      "weightsShape": [
        17,
        64
      ],
      "bias": [
        -0.004572601988911629,
        0.017081962898373604,
        -0.023986956104636192,
        0.021750925108790398,
        -0.021030059084296227,
        -0.01919333077967167,
        0.01126168854534626,
        0.0066746934317052364,
        -0.0686287060379982,
        0.02169252559542656,
        -0.021796293556690216,
        0.16118833422660828,
        -0.02898595854640007,
        0.022281797602772713,
        0.0004261898866388947,
        0.0189675260335207,
        0.03687719255685806,
        0.0022738142870366573,
        0.004767527803778648,
        -0.023283611983060837,
        -0.00015139920287765563,
        0.029713548719882965,
        -0.041142839938402176,
        0,
        0.054941728711128235,
        -0.01845553331077099,
        0.016604986041784286,
        -0.0022273205686360598,
        0.013177333399653435,
        -0.02644594945013523,
        0.0033049664925783873,
        0.013271567411720753,
        -0.0025129897985607386,
        0.0021514068357646465,
        0.0000017680238215689315,
        0,
        0.03695821017026901,
        -0.008328920230269432,
        -0.02896275743842125,
        0,
        -0.0028655596543103456,
        0,
        0.020464885979890823,
        -0.0259406715631485,
        -0.05162481591105461,
        0.0021036367397755384,
        0.005071368999779224,
        -0.024256611242890358,
        0.02795598842203617,
        -0.004628006834536791,
        -0.00308458530344069,
        0,
        -0.0007830240065231919,
        -0.007955757901072502,
        0,
        0.0007738840649835765,
        0.016979897394776344,
        0.022671615704894066,
        -0.0066898358054459095,
        -0.0029048824217170477,
        0,
        -0.020509783178567886,
        -0.010750828310847282,
        0.02693653479218483
      ],
      "biasShape": [
        1,
        64
      ],
      "activation": "relu"
    },
    {
      "weights": [
        -0.07494983077049255,
        -0.03783030807971954,
        -0.2267291247844696,
        0.19691365957260132,
        0.18703606724739075,
        0.07719510048627853,
        0.02743801474571228,
        -0.013551860116422176,
        0.3246188461780548,
        -0.12317432463169098,
        -0.019717952236533165,
        0.35015004873275757,
        0.021760737523436546,
        -0.034401752054691315,
        0.07792693376541138,
        0.0338028259575367,
        0.2619614899158478,
        -0.14669722318649292,
        -0.22881868481636047,
        -0.17384245991706848,
        -0.47194865345954895,
        -0.14593909680843353,
        0.09245985001325607,
        -0.3971100449562073,
        0.009760059416294098,
        -0.2542855441570282,
        -0.21956320106983185,
        0.04308280348777771,
        0.35794970393180847,
        -0.22962087392807007,
        -0.012235735543072224,
        -0.2335040122270584,
        0.1301233321428299,
        -0.5175395011901855,
        -0.08817379921674728,
        0.2360289990901947,
        -0.11563781648874283,
        0.025410393252968788,
        -0.17331267893314362,
        0.18127170205116272,
        -0.06211980804800987,
        0.054708342999219894,
        -0.02249508537352085,
        -0.05813251808285713,
        0.29303017258644104,
        0.4350961744785309,
        -0.15640342235565186,
        -0.10918854922056198,
        0.2174062728881836,
        0.18215778470039368,
        0.11534414440393448,
        -0.1540178805589676,
        0.13879860937595367,
        -0.0036233789287507534,
        -0.11215578764677048,
        0.13048917055130005,
        0.14868099987506866,
        0.18422746658325195,
        -0.05367149040102959,
        -0.1802351325750351,
        -0.14656537771224976,
        -0.026447409763932228,
        0.2182544469833374,
        -0.03521675243973732,
        0.2696431875228882,
        0.07894488424062729,
        -0.17057710886001587,
        -0.06372557580471039,
        0.23734815418720245,
        0.2003069818019867,
        0.029164325445890427,
        0.20864927768707275,
        -0.09886381030082703,
        0.25390592217445374,
        -0.07595749944448471,
        -0.2002238780260086,
        -0.04485123232007027,
        -0.1272280514240265,
        -0.026135899126529694,
        -0.03317105770111084,
        0.14252139627933502,
        -0.1575135439634323,
        -0.21504022181034088,
        -0.06907793134450912,
        -0.15072819590568542,
        0.1836821436882019,
        -0.2553151845932007,
        -0.08885442465543747,
        -0.05363105982542038,
        0.06401409953832626,
        -0.20820757746696472,
        -0.09786570072174072,
        -0.17307429015636444,
        0.09432553499937057,
        0.37640419602394104,
        -0.29896920919418335,
        0.08254794776439667,
        -0.10319619625806808,
        -0.11555448174476624,
        0.08473117649555206,
        0.06004727631807327,
        0.002298855222761631,
        -0.17098243534564972,
        0.04090696573257446,
        0.2890985906124115,
        -0.012216317467391491,
        -0.007352219894528389,
        -0.0010417799931019545,
        -0.04465798661112785,
        0.2496267408132553,
        -0.21652236580848694,
        -0.1854819357395172,
        -0.01158079132437706,
        -0.2330307960510254,
        0.19216524064540863,
        -0.09972139447927475,
        -0.11484803259372711,
        0.2645334005355835,
        -0.007635137531906366,
        -0.18950040638446808,
        -0.040775518864393234,
        -0.5096527338027954,
        0.003998744301497936,
        -0.1533273458480835,
        -0.14858119189739227,
        -0.0052703614346683025,
        0.09028637409210205,
        -0.11058522760868073,
        -0.2764168977737427,
        0.11799796670675278,
        -0.044089946895837784,
        -0.17392754554748535,
        -0.02542935125529766,
        0.16729293763637543,
        -0.225223571062088,
        -0.27627092599868774,
        -0.17792287468910217,
        0.10149143636226654,
        0.18887075781822205,
        0.05723956227302551,
        0.3834112286567688,
        0.31383684277534485,
        0.05206264927983284,
        0.09258787333965302,
        0.010765637271106243,
        0.28780093789100647,
        -0.4060504138469696,
        -0.018360944464802742,
        0.19790790975093842,
        -0.22157827019691467,
        0.3202899992465973,
        0.10205498337745667,
        0.31004151701927185,
        -0.3814156651496887,
        -0.11915042251348495,
        0.05723509564995766,
        -0.015773506835103035,
        -0.10047226399183273,
        -0.28951409459114075,
        -0.0627359077334404,
        0.022711390629410744,
        0.10858117789030075,
        0.2802230715751648,
        0.06494733691215515,
        -0.07021716982126236,
        0.1422910839319229,
        0.11977306008338928,
        0.3276823163032532,
        0.1060853824019432,
        0.007749458774924278,
        -0.04681958630681038,
        -0.1802450269460678,
        0.12192146480083466,
        0.22389961779117584,
        0.04367541894316673,
        -0.05205075442790985,
        0.13510863482952118,
        -0.10066533088684082,
        -0.1359255015850067,
        -0.11845715343952179,
        0.14445318281650543,
        -0.08523458987474442,
        0.14864328503608704,
        -0.424398809671402,
        -0.12718810141086578,
        -0.3053779602050781,
        0.2169027179479599,
        -0.1569213718175888,
        -0.3255211412906647,
        -0.026316601783037186,
        0.2133457213640213,
        0.06131654977798462,
        -0.08087412267923355,
        0.3027154207229614,
        -0.08545543253421783,
        0.016199644654989243,
        0.0045704287476837635,
        0.03002343885600567,
        -0.00840789545327425,
        -0.07072918117046356,
        0.11485029757022858,
        0.060019902884960175,
        0.06600016355514526,
        0.006005625706166029,
        0.22956933081150055,
        0.1324174404144287,
        0.09876524657011032,
        -0.14193427562713623,
        0.08155792206525803,
        0.06296676397323608,
        -0.37034526467323303,
        -0.03308534249663353,
        0.2520328164100647,
        -0.11024417728185654,
        -0.041123662143945694,
        0.10600099712610245,
        -0.05789833143353462,
        0.07522033154964447,
        0.15122084319591522,
        -0.13159537315368652,
        -0.12729422748088837,
        0.11531969904899597,
        -0.013404837809503078,
        0.1403692066669464,
        -0.08814998716115952,
        -0.23454917967319489,
        0.18309268355369568,
        -0.1689886599779129,
        0.0191191416233778,
        0.06442738324403763,
        0.010140876285731792,
        0.3949853479862213,
        -0.338863343000412,
        -0.18412718176841736,
        -0.05887729674577713,
        0.23475775122642517,
        -0.0001878810435300693,
        -0.28492942452430725,
        -0.277800977230072,
        -0.27545836567878723,
        -0.23818469047546387,
        -0.10375921428203583,
        0.2765886187553406,
        0.07777300477027893,
        0.0426487922668457,
        -0.023250209167599678,
        -0.12921729683876038,
        -0.014204423874616623,
        0.11095830053091049,
        -0.10233385115861893,
        -0.17623133957386017,
        0.2867853045463562,
        0.0551498644053936,
        0.42061492800712585,
        0.3005993068218231,
        -0.1447579711675644,
        0.06902886182069778,
        -0.04398195073008537,
        0.29407232999801636,
        0.16404753923416138,
        0.20889514684677124,
        0.1491311639547348,
        -0.05827658623456955,
        -0.05666344612836838,
        0.08785974234342575,
        0.015537555329501629,
        0.09845185279846191,
        0.05288655683398247,
        -0.12183646857738495,
        -0.011975192464888096,
        0.11149417608976364,
        -0.22061339020729065,
        -0.04504094645380974,
        0.06925094872713089,
        -0.32417353987693787,
        0.24767763912677765,
        0.0439472571015358,
        0.013677805662155151,
        0.3152087926864624,
        -0.08808131515979767,
        0.21415887773036957,
        -0.1471536010503769,
        -0.09673264622688293,
        -0.33408424258232117,
        0.00836962554603815,
        -0.22198611497879028,
        -0.2352483570575714,
        -0.08149508386850357,
        0.23027299344539642,
        -0.18013833463191986,
        -0.22101162374019623,
        -0.06767706573009491,
        -0.1165241077542305,
        0.13993000984191895,
        -0.1287887841463089,
        0.21276982128620148,
        0.039200309664011,
        0.26515984535217285,
        -0.06219836696982384,
        -0.20373597741127014,
        -0.197555810213089,
        0.04770810157060623,
        0.0016978716012090445,
        -0.06014963611960411,
        -0.024471288546919823,
        -0.0025730321649461985,
        0.035137008875608444,
        -0.04262678697705269,
        0.15858523547649384,
        0.21228575706481934,
        -0.30185091495513916,
        0.23017574846744537,
        -0.19376306235790253,
        0.19730538129806519,
        0.1430237591266632,
        0.16784505546092987,
        -0.19596050679683685,
        0.338697612285614,
        0.03271853178739548,
        0.3134100139141083,
        0.055954430252313614,
        0.28492534160614014,
        0.13009679317474365,
        0.05409088358283043,
        -0.09674268215894699,
        -0.08621780574321747,
        0.015783321112394333,
        -0.043834272772073746,
        0.16396155953407288,
        0.013165578246116638,
        -0.11928071826696396,
        -0.05801548436284065,
        -0.13694660365581512,
        0.0489828959107399,
        -0.1546507030725479,
        -0.2305159717798233,
        -0.10841444879770279,
        -0.04740561172366142,
        -0.10141568630933762,
        0.17098979651927948,
        0.28401947021484375,
        -0.04301765561103821,
        -0.3267359435558319,
        0.0005722029018215835,
        0.06814081966876984,
        -0.09872026741504669,
        -0.16791009902954102,
        -0.09108927100896835,
        -0.16342365741729736,
        -0.07120592147111893,
        -0.3265729546546936,
        0.0001047865953296423,
        -0.16423432528972626,
        0.0755520835518837,
        0.16197890043258667,
        0.013877425342798233,
        -0.33395814895629883,
        0.20118214190006256,
        -0.069830983877182,
        0.03163071721792221,
        -0.21332824230194092,
        -0.18059150874614716,
        0.11555119603872299,
        -0.05818619951605797,
        -0.44535520672798157,
        0.16115304827690125,
        -0.16044719517230988,
        0.04535238817334175,
        0.0017797002801671624,
        -0.22817088663578033,
        -0.15000349283218384,
        0.058444101363420486,
        0.101347915828228,
        0.2763066589832306,
        -0.1878548413515091,
        0.19751736521720886,
        0.17333810031414032,
        0.16349494457244873,
        0.2052861452102661,
        -0.3963211476802826,
        -0.011412977240979671,
        0.30153191089630127,
        0.08766882866621017,
        0.045517124235630035,
        -0.12178049981594086,
        0.10490264743566513,
        -0.0735083520412445,
        -0.06862853467464447,
        -0.2804287075996399,
        0.136662095785141,
        -0.15339107811450958,
        0.3514035642147064,
        0.1609046757221222,
        0.27471020817756653,
        -0.06458006799221039,
        0.19735530018806458,
        -0.1828361451625824,
        -0.19464489817619324,
        0.05708945542573929,
        0.2142861932516098,
        -0.08817647397518158,
        0.18395672738552094,
        0.03188260644674301,
        0.11058345437049866,
        0.011911150068044662,
        0.005601357202976942,
        -0.16386669874191284,
        0.1369418352842331,
        0.10973729938268661,
        -0.5438926815986633,
        0.1545887291431427,
        0.19737768173217773,
        0.3136504590511322,
        -0.07646787166595459,
        0.1642000526189804,
        -0.1853669285774231,
        -0.15811777114868164,
        -0.40780988335609436,
        -0.011487796902656555,
        -0.345918208360672,
        0.06691493093967438,
        -0.0943470373749733,
        0.2818247079849243,
        -0.12721237540245056,
        -0.0013916348107159138,
        -0.06024805083870888,
        -0.1624828279018402,
        -0.1257423758506775,
        -0.12788145244121552,
        -0.017884911969304085,
        -0.18891820311546326,
        -0.01176496408879757,
        0.19884702563285828,
        -0.02267160452902317,
        -0.3329651653766632,
        -0.06875158846378326,
        0.10295672714710236,
        0.08109200745820999,
        0.12093459069728851,
        0.07841747254133224,
        0.11940979212522507,
        -0.08225879073143005,
        0.03967064991593361,
        -0.1671379655599594,
        -0.24000509083271027,
        -0.04458704590797424,
        0.31820040941238403,
        0.13995742797851562,
        0.04358622059226036,
        -0.4481607973575592,
        0.06076159328222275,
        -0.12751075625419617,
        0.07982542365789413,
        -0.19629360735416412,
        0.2470080554485321,
        -0.31539538502693176,
        0.042346369475126266,
        -0.22174401581287384,
        0.057532601058483124,
        0.14338834583759308,
        0.2880484461784363,
        0.0335797518491745,
        0.14834412932395935,
        -0.01703493669629097,
        -0.018504366278648376,
        -0.004388122819364071,
        0.14990662038326263,
        -0.16036821901798248,
        -0.018142083659768105,
        0.14598119258880615,
        0.17803627252578735,
        0.056029848754405975,
        -0.12943585216999054,
        0.08151506632566452,
        0.026854921132326126,
        0.045290786772966385,
        0.09893110394477844,
        0.13691449165344238,
        -0.13954216241836548,
        0.23665307462215424,
        0.06520678848028183,
        0.06082231178879738,
        -0.042528994381427765,
        0.29836583137512207,
        0.25526612997055054,
        -0.14263425767421722,
        0.05061166733503342,
        0.31982600688934326,
        -0.21894560754299164,
        -0.0756620541214943,
        -0.003942210227251053,
        -0.06377680599689484,
        -0.03642438352108002,
        -0.011008148081600666,
        -0.10507307201623917,
        -0.12167434394359589,
        -0.4169403910636902,
        -0.009545229375362396,
        -0.1013675108551979,
        -0.07944682240486145,
        -0.04951876401901245,
        0.5158188939094543,
        -0.23245221376419067,
        0.2083573192358017,
        0.09428369253873825,
        0.05579700320959091,
        -0.06619026511907578,
        0.08209113031625748,
        -0.048674795776605606,
        -0.3957241475582123,
        0.22244521975517273,
        -0.05700534209609032,
        -0.27619341015815735,
        0.16464051604270935,
        0.2426510900259018,
        0.03414866700768471,
        -0.1378057599067688,
        0.1693476438522339,
        -0.2185242921113968,
        -0.26128652691841125,
        0.08507871627807617,
        0.11894100159406662,
        -0.16171342134475708,
        0.04993954673409462,
        -0.08727981895208359,
        0.014495938085019588,
        -0.12497267127037048,
        -0.00228662951849401,
        -0.23126466572284698,
        -0.0814346969127655,
        -0.05554032698273659,
        0.2280699908733368,
        0.10667534172534943,
        0.3235781788825989,
        -0.07847864925861359,
        -0.2317599505186081,
        0.3074122369289398,
        0.3246746361255646,
        -0.456990510225296,
        -0.1604670137166977,
        -0.17492394149303436,
        0.01581261307001114,
        0.1323537677526474,
        0.14562195539474487,
        0.28511688113212585,
        0.0637095719575882,
        0.1826700121164322,
        -0.2608865201473236,
        -0.024188222363591194,
        0.09520460665225983,
        0.023212052881717682,
        0.15890882909297943,
        -0.029229070991277695,
        -0.12279113382101059,
        0.0026764962822198868,
        -0.013666893355548382,
        0.1993088573217392,
        -0.15799559652805328,
        -0.14244242012500763,
        -0.1616159975528717,
        -0.043402064591646194,
        0.28841254115104675,
        -0.09642494469881058,
        0.34691208600997925,
        -0.01700771227478981,
        0.2967243492603302,
        -0.11051163822412491,
        -0.05993346869945526,
        -0.20143342018127441,
        -0.04722151532769203,
        0.11040566116571426,
        -0.022985151037573814,
        -0.22341769933700562,
        0.1167835146188736,
        -0.063297800719738,
        -0.07950477302074432,
        -0.07075881958007812,
        0.10318838059902191,
        -0.1364889293909073,
        -0.08405263721942902,
        0.02928050234913826,
        -0.0009437997941859066,
        -0.13380901515483856,
        -0.004534436855465174,
        -0.08859378099441528,
        -0.043050240725278854,
        0.15487417578697205,
        0.18135501444339752,
        -0.06564806401729584,
        -0.11903954297304153,
        -0.06814844906330109,
        0.09620403498411179,
        0.10914787650108337,
        0.29167813062667847,
        0.05586962774395943,
        -0.05658593028783798,
        -0.02043827995657921,
        -0.018135562539100647,
        0.0330488458275795,
        -0.18651746213436127,
        -0.06891108304262161,
        0.14953076839447021,
        0.046724867075681686,
        -0.12241653352975845,
        -0.0556572824716568,
        0.20552772283554077,
        0.21617068350315094,
        -0.07253727316856384,
        0.05114955082535744,
        -0.08028506487607956,
        -0.19929108023643494,
        0.3224979043006897,
        0.24022020399570465,
        -0.3124426007270813,
        -0.10454211384057999,
        0.04273974522948265,
        0.21955204010009766,
        -0.1376018077135086,
        0.01664891093969345,
        0.13416853547096252,
        -0.11049884557723999,
        -0.10279446840286255,
        0.0013093802845105529,
        -0.04469594731926918,
        -0.5495085716247559,
        0.036446958780288696,
        0.3920312225818634,
        0.002579414052888751,
        0.192388653755188,
        -0.012470460496842861,
        0.07893073558807373,
        0.21282029151916504,
        0.27084124088287354,
        -0.09120890498161316,
        -0.07502587884664536,
        0.21426376700401306,
        0.09083353728055954,
        0.0276448093354702,
        0.1334630250930786,
        -0.20801059901714325,
        -0.08014874160289764,
        -0.19852443039417267,
        0.013101528398692608,
        -0.10277801752090454,
        -0.041278161108493805,
        0.15204395353794098,
        0.16422446072101593,
        -0.2745791971683502,
        -0.336839497089386,
        -0.014600561931729317,
        -0.026592211797833443,
        -0.18243062496185303,
        -0.10457582026720047,
        0.01700512319803238,
        -0.032846685498952866,
        0.2504120171070099,
        0.03957188501954079,
        0.05435163900256157,
        -0.047503482550382614,
        0.13477016985416412,
        -0.02619759738445282,
        0.18334046006202698,
        0.18253113329410553,
        0.18670524656772614,
        0.18407157063484192,
        0.05812438204884529,
        -0.20982621610164642,
        0.2266595959663391,
        0.030415140092372894,
        0.15959370136260986,
        0.20469743013381958,
        -0.13578972220420837,
        -0.01916634850203991,
        -0.2533540725708008,
        -0.006572325248271227,
        0.17005188763141632,
        -0.2381715178489685,
        0.08671219646930695,
        -0.19036543369293213,
        0.0540178008377552,
        -0.17819437384605408,
        0.3147721588611603,
        0.40822169184684753,
        0.27595463395118713,
        0.12678711116313934,
        -0.0536518432199955,
        -0.06762779504060745,
        -0.11758154630661011,
        0.14973849058151245,
        -0.001166599104180932,
        0.016187014058232307,
        -0.03716977685689926,
        0.09227336943149567,
        -0.21697060763835907,
        0.04424082115292549,
        0.11808151751756668,
        0.019340015947818756,
        -0.2916363477706909,
        -0.059771839529275894,
        0.130755215883255,
        -0.055389270186424255,
        0.21569207310676575,
        0.17801113426685333,
        -0.2986530065536499,
        -0.06472055613994598,
        0.16277725994586945,
        0.13016986846923828,
        0.24205784499645233,
        0.14291855692863464,
        0.09646384418010712,
        0.021054474636912346,
        0.24220114946365356,
        0.08532382547855377,
        0.30242758989334106,
        -0.011713134124875069,
        0.1611918956041336,
        -0.4350548982620239,
        -0.0013949588174000382,
        -0.041827648878097534,
        -0.02429109252989292,
        -0.0023912035394459963,
        -0.15490204095840454,
        0.33085936307907104,
        0.1881904900074005,
        -0.08003906905651093,
        -0.03890550136566162,
        0.15402385592460632,
        -0.12054437398910522,
        -0.43312665820121765,
        0.3942970633506775,
        0.31499844789505005,
        0.23255304992198944,
        0.09067508578300476,
        -0.12822221219539642,
        0.17371079325675964,
        -0.4494800269603729,
        0.025583408772945404,
        0.042041096836328506,
        -0.01698562130331993,
        -0.2532733082771301,
        -0.04971691220998764,
        -0.08988117426633835,
        -0.25938814878463745,
        0.05315157026052475,
        0.14754065871238708,
        0.027257462963461876,
        0.44524696469306946,
        0.00705981208011508,
        -0.05603659898042679,
        0.2980911135673523,
        0.42849650979042053,
        0.29644376039505005,
        0.303623765707016,
        0.05906827375292778,
        0.058123912662267685,
        -0.2234182208776474,
        0.12810415029525757,
        0.40879586338996887,
        0.01632857881486416,
        0.15266746282577515,
        -0.1482381522655487,
        0.11692356318235397,
        0.26884669065475464,
        0.1622617393732071,
        0.09039809554815292,
        0.40050914883613586,
        0.08740720897912979,
        -0.07447787374258041,
        0.2950107455253601,
        0.5001823902130127,
        0.1860899031162262,
        -0.1383354663848877,
        -0.04223598167300224,
        0.0174985621124506,
        0.17751799523830414,
        -0.10913867503404617,
        0.3324495255947113,
        -0.03432673215866089,
        0.26167112588882446,
        0.1612028032541275,
        -0.06232350319623947,
        0.11591745913028717,
        0.07083433121442795,
        0.10650015622377396,
        -0.015504307113587856,
        -0.07895496487617493,
        -0.6781859397888184,
        0.31195497512817383,
        0.06144670397043228,
        0.19782297313213348,
        0.08216247707605362,
        -0.3233952224254608,
        0.1876637041568756,
        -0.2833135426044464,
        0.020222267135977745,
        -0.08340311795473099,
        0.14498217403888702,
        0.23092561960220337,
        -0.003763222834095359,
        0.18554095923900604,
        -0.0929165706038475,
        0.22843360900878906,
        0.03773235157132149,
        -0.2796337306499481,
        0.00795078370720148,
        -0.384673148393631,
        -0.09867788106203079,
        0.06840960681438446,
        0.05659271404147148,
        0.04303434491157532,
        0.24232745170593262,
        0.15822115540504456,
        -0.15167421102523804,
        -0.18696711957454681,
        -0.2327078878879547,
        -0.08130131661891937,
        -0.4028799831867218,
        -0.209081768989563,
        0.13739612698554993,
        0.25413593649864197,
        -0.07967155426740646,
        -0.16132616996765137,
        0.1552552580833435,
        -0.06018294021487236,
        -0.20936445891857147,
        -0.10444468259811401,
        -0.046213120222091675,
        0.029770715162158012,
        -0.5206219553947449,
        0.1653853803873062,
        0.016611449420452118,
        -0.03641762584447861,
        -0.05423417314887047,
        -0.15209737420082092,
        0.04177465662360191,
        0.23699067533016205,
        -0.18249042332172394,
        0.40200966596603394,
        -0.314512699842453,
        -0.1633554846048355,
        -0.09446395933628082,
        -0.021503610536456108,
        0.13369019329547882,
        -0.1320304274559021,
        -0.1641654670238495,
        0.0747164636850357,
        -0.11172612756490707,
        -0.12655392289161682,
        -0.2705691158771515,
        0.18014059960842133,
        -0.021950382739305496,
        0.0913446918129921,
        0.058696214109659195,
        0.23609668016433716,
        0.2565074563026428,
        -0.19191700220108032,
        -0.13703730702400208,
        -0.14968912303447723,
        0.13880221545696259,
        0.1568296253681183,
        -0.028839610517024994,
        0.33025121688842773,
        -0.036186862736940384,
        0.11014273017644882,
        0.030637923628091812,
        0.03972658887505531,
        -0.030277715995907784,
        -0.13956430554389954,
        0.1553029865026474,
        0.052505724132061005,
        0.08869419991970062,
        0.026700105518102646,
        0.1195446252822876,
        0.02011818438768387,
        0.08600553125143051,
        0.1896905153989792,
        -0.3551194667816162,
        -0.339036762714386,
        0.1716860681772232,
        -0.1950254738330841,
        -0.19589143991470337,
        0.0028447099030017853,
        0.18649113178253174,
        -0.03640635311603546,
        -0.1554764062166214,
        0.21593044698238373,
        0.0958590880036354,
        0.14306940138339996,
        -0.10113498568534851,
        0.036520570516586304,
        0.024756712839007378,
        -0.058071576058864594,
        0.19336944818496704,
        -0.16181325912475586,
        0.1093447133898735,
        -0.1746140867471695,
        -0.24005162715911865,
        0.20516930520534515,
        -0.07495105266571045,
        -0.13993558287620544,
        0.0014150532661005855,
        0.05914824455976486,
        -0.521509051322937,
        -0.16064965724945068,
        -0.018407342955470085,
        0.22691918909549713,
        -0.21017365157604218,
        0.21802695095539093,
        -0.1912321299314499,
        0.279552161693573,
        0.3016992509365082,
        -0.11709801852703094,
        -0.003920489456504583,
        0.018653951585292816,
        0.1608724594116211,
        -0.22844353318214417,
        -0.36013463139533997,
        0.1967148333787918,
        0.5826371312141418,
        -0.1522364616394043,
        -0.4469890892505646,
        0.03722072020173073,
        -0.027126166969537735,
        -0.15201479196548462,
        -0.03978972136974335,
        0.43867558240890503,
        0.189979687333107,
        -0.11914373934268951,
        0.12799596786499023,
        0.19628433883190155,
        0.009442232549190521,
        -0.09263748675584793,
        -0.022657623514533043,
        -0.009467468596994877,
        0.012688474729657173,
        -0.2032291293144226,
        0.0779721811413765,
        0.0011064278660342097,
        -0.22680427134037018,
        0.17960160970687866,
        0.36307668685913086,
        -0.2168603390455246,
        0.25321727991104126,
        -0.053433608263731,
        0.3351939022541046,
        0.13166409730911255,
        0.11746469140052795,
        -0.15778055787086487,
        -0.04828410968184471,
        -0.04512166231870651,
        -0.23103220760822296,
        -0.06587615609169006,
        0.03429529070854187,
        -0.0642118975520134,
        -0.3197670876979828,
        0.04889090731739998,
        0.027874451130628586,
        -0.2656331956386566,
        0.190370112657547,
        -0.20691151916980743,
        -0.0841304361820221,
        0.11568393558263779,
        -0.15224772691726685,
        -0.39872729778289795,
        0.08146818727254868,
        -0.03412443771958351,
        0.07700425386428833,
        0.0791296437382698,
        -0.0072928001172840595,
        -0.12140343338251114,
        -0.011279839091002941,
        0.042120616883039474,
        0.12999533116817474,
        -0.3158781826496124,
        -0.3689160943031311,
        0.13174687325954437,
        0.04544414207339287,
        0.06325654685497284,
        -0.023011621087789536,
        0.0015787387965247035,
        -0.18403007090091705,
        -0.16910935938358307,
        0.317769318819046,
        -0.541484534740448,
        0.08315213769674301,
        -0.31008386611938477,
        0.13240909576416016,
        0.38270923495292664,
        -0.07320234924554825,
        -0.2687898278236389,
        0.0288629699498415,
        0.007634555455297232,
        -0.07575665414333344,
        -0.037533972412347794,
        -0.13836438953876495,
        -0.16595055162906647,
        -0.06943702697753906,
        -0.07221217453479767,
        0.29004815220832825,
        0.2688334882259369,
        -0.16289909183979034,
        -0.35897520184516907,
        -0.21926264464855194,
        -0.17821063101291656,
        0.22238318622112274,
        -0.16249342262744904,
        -0.41559311747550964,
        0.036961525678634644,
        -0.14932478964328766,
        -0.003999039530754089,
        -0.042752981185913086,
        0.2223341017961502,
        0.026515483856201172,
        -0.1219470202922821,
        -0.18517661094665527,
        0.4399762451648712,
        0.013107719831168652,
        -0.16566450893878937,
        -0.14249931275844574,
        0.07815203070640564,
        0.16340181231498718,
        -0.0860966220498085,
        0.18133902549743652,
        -0.06200101971626282,
        -0.24274709820747375,
        0.07245716452598572,
        0.1605333685874939,
        -0.19653044641017914,
        0.4738655090332031,
        -0.06795788556337357,
        0.17625673115253448,
        -0.1398223638534546,
        0.07874709367752075,
        -0.21438223123550415,
        -0.1211371198296547,
        0.2886158525943756,
        0.22106032073497772,
        -0.2588644325733185,
        -0.22278910875320435,
        0.038853488862514496,
        -0.14418701827526093,
        -0.10070585459470749,
        0.15998737514019012,
        0.13086917996406555,
        0.16960163414478302,
        -0.058005109429359436,
        0.17410556972026825,
        -0.10101618617773056,
        0.07927697151899338,
        -0.003339446848258376,
        -0.1047411859035492,
        0.18994861841201782,
        0.1666545420885086,
        -0.03263579308986664,
        0.026453444734215736,
        0.0667339563369751,
        -0.08648920804262161,
        -0.26872605085372925,
        0.0247451514005661,
        -0.25383904576301575,
        0.05348389968276024,
        0.08184808492660522,
        -0.24325399100780487,
        -0.48595109581947327,
        0.37926986813545227,
        -0.16139018535614014,
        0.06800081580877304,
        0.26535508036613464,
        0.016053741797804832,
        0.10768453031778336,
        -0.20188426971435547,
        0.08730049431324005,
        -0.014978067949414253,
        0.13103076815605164,
        0.1628301441669464,
        0.17508938908576965,
        0.14295490086078644,
        0.1471901386976242,
        -0.13252198696136475,
        0.050671495497226715,
        0.061048753559589386,
        0.5121910572052002,
        0.17546407878398895,
        -0.004012482240796089,
        0.15430785715579987,
        0.32043007016181946,
        -0.1663859486579895,
        0.00802780780941248,
        -0.0543966218829155,
        -0.12795354425907135,
        0.21831460297107697,
        0.1962764412164688,
        -0.4036897122859955,
        -0.22047686576843262,
        0.05185911804437637,
        0.34686240553855896,
        -0.4375291168689728,
        0.16452747583389282,
        -0.19208687543869019,
        0.03738391771912575,
        0.13561558723449707,
        0.19746071100234985,
        0.03912879526615143,
        0.10780265927314758,
        0.18533748388290405,
        0.15426227450370789,
        0.2942241132259369,
        -0.13871262967586517,
        -0.26088184118270874,
        0.11353255808353424,
        -0.020218366757035255,
        0.14875425398349762,
        -0.10904594510793686,
        -0.18737860023975372,
        -0.060145143419504166,
        -0.11717256903648376,
        0.19233618676662445,
        0.2692202925682068,
        -0.13097558915615082,
        -0.2634822130203247,
        -0.24378333985805511,
        -0.3797434866428375,
        0.264657586812973,
        -0.13720417022705078,
        0.1739310324192047,
        -0.03192199394106865,
        0.4479786455631256,
        0.47090935707092285,
        -0.14253708720207214,
        0.07112407684326172,
        0.026581427082419395,
        -0.0525134913623333,
        -0.09018199145793915,
        -0.017523474991321564,
        0.44208666682243347,
        0.0825638622045517,
        0.39485809206962585,
        -0.14140084385871887,
        0.05578276515007019,
        -0.1103082150220871,
        -0.12749119102954865,
        -0.28945469856262207,
        0.08776633441448212,
        0.22101786732673645,
        -0.11345122754573822,
        -0.12082589417695999,
        0.0984206348657608,
        0.02153969742357731,
        0.1770511418581009,
        -0.05644339695572853,
        0.06428667157888412,
        -0.04448045417666435,
        0.3369384706020355,
        0.06255962699651718,
        0.1479869931936264,
        -0.09074468910694122,
        0.2149711698293686,
        -0.04764489457011223,
        -0.2279571294784546,
        -0.2049391269683838,
        0.2766103446483612,
        -0.03599176183342934,
        0.19465360045433044,
        0.1604401022195816,
        0.0432390421628952,
        0.07913869619369507,
        0.04183224216103554,
        0.06307365745306015,
        0.04234245419502258,
        -0.07075415551662445,
        0.10610510408878326,
        0.2841743230819702,
        -0.041904266923666,
        0.35283124446868896,
        -0.10352841019630432,
        -0.34868496656417847,
        0.10110906511545181,
        -0.04743468761444092,
        -0.13537125289440155,
        -0.1309080570936203,
        0.03978898376226425,
        0.09635911881923676,
        0.006893747486174107,
        -0.3014895021915436,
        -0.2728680670261383,
        0.27454873919487,
        0.1391405612230301,
        0.05949443578720093,
        0.20589740574359894,
        -0.12548306584358215,
        0.04682866856455803,
        -0.1400177925825119,
        0.2679595649242401,
        0.22881768643856049,
        0.08473647385835648,
        -0.15463125705718994,
        -0.07381220161914825,
        0.22330226004123688,
        0.05492619425058365,
        -0.09560130536556244,
        0.05334767326712608,
        0.2298709899187088,
        -0.0356450192630291,
        0.13076379895210266,
        0.14100633561611176,
        -0.11144597083330154,
        0.13360461592674255,
        -0.0839301198720932,
        0.15678291022777557,
        0.07747119665145874,
        -0.1939706802368164,
        -0.13547642529010773,
        -0.14471435546875,
        -0.08743874728679657,
        0.04007793590426445,
        -0.02405010163784027,
        -0.038759149610996246,
        0.19614222645759583,
        0.038604069501161575,
        0.02495124563574791,
        -0.11490904539823532,
        -0.16455574333667755,
        -0.08854969590902328,
        -0.05791724473237991,
        -0.11075230687856674,
        -0.22392021119594574,
        0.06804825365543365,
        0.12326526641845703,
        -0.1730532944202423,
        -0.0024198072496801615,
        -0.016094442456960678,
        -0.039924707263708115,
        0.25744035840034485,
        -0.22763602435588837,
        0.20326778292655945,
        -0.22460728883743286,
        -0.07695592194795609,
        -0.36431026458740234,
        0.11857228726148605,
        -0.08316133916378021,
        0.024626392871141434,
        -0.1747579425573349,
        -0.09946863353252411,
        0.32150527834892273,
        -0.10043863952159882,
        -0.09922261536121368,
        0.1687026470899582,
        0.024849729612469673,
        0.24206902086734772,
        0.16016553342342377,
        0.15338514745235443,
        0.05687439441680908,
        -0.04146941378712654,
        0.22529496252536774,
        0.03631438687443733,
        0.09128346294164658,
        0.13905058801174164,
        0.08933085203170776,
        -0.13233718276023865,
        0.08335337042808533,
        0.17775461077690125,
        -0.18062564730644226,
        0.03836556524038315,
        0.0443299263715744,
        0.21707162261009216,
        -0.0026308458764106035,
        -0.18779005110263824,
        -0.02287994883954525,
        0.23879119753837585,
        -0.1260756254196167,
        0.2616638243198395,
        0.09657258540391922,
        -0.47406426072120667,
        0.20178425312042236,
        0.015546458773314953,
        -0.1419813334941864,
        0.19703717529773712,
        -0.05010966956615448,
        0.04147085174918175,
        -0.2089235633611679,
        0.04494030773639679,
        0.32405194640159607,
        -0.10942958295345306,
        -0.21985696256160736,
        -0.22671779990196228,
        -0.04096754267811775,
        0.21853521466255188,
        -0.20727381110191345,
        -0.12512174248695374,
        -0.26932865381240845,
        0.04418029263615608,
        -0.014175617136061192,
        -0.09859045594930649,
        0.14787763357162476,
        0.170193612575531,
        0.1093282625079155,
        -0.033987753093242645,
        -0.056783340871334076,
        0.0007103993557393551,
        -0.12967941164970398,
        -0.14794006943702698,
        0.11107256263494492,
        -0.1343584656715393,
        0.29841867089271545,
        -0.09543856233358383,
        -0.17565181851387024,
        -0.005858737509697676,
        -0.3939414322376251,
        -0.03573901206254959,
        0.11564154922962189,
        0.06510746479034424,
        -0.16720856726169586,
        -0.12316664308309555,
        -0.008830903097987175,
        -0.0931997001171112,
        -0.03794768080115318,
        -0.036622896790504456,
        -0.1967378854751587,
        0.1983070969581604,
        -0.09569332003593445,
        -0.03901997581124306,
        0.012339486740529537,
        0.11680544167757034,
        0.026174575090408325,
        -0.1489620804786682,
        -0.03216664493083954,
        0.03887331113219261,
        0.039206765592098236,
        0.10627428442239761,
        0.14900954067707062,
        0.045728620141744614,
        0.16176441311836243,
        0.11976614594459534,
        -0.05590682849287987,
        0.23043163120746613,
        -0.13213865458965302,
        -0.20940616726875305,
        0.020553382113575935,
        -0.14325125515460968,
        -0.14384335279464722,
        0.09338018298149109,
        0.14346320927143097,
        -0.1951824128627777,
        0.019177434965968132,
        -0.17552851140499115,
        -0.0710555911064148,
        0.3782360851764679,
        0.3143346905708313,
        -0.07686784863471985,
        0.06176632642745972,
        0.2537855803966522,
        0.27572670578956604,
        0.17748910188674927,
        0.03882880136370659,
        0.028488503769040108,
        0.23385509848594666,
        0.17009636759757996,
        -0.2508803904056549,
        0.2280692756175995,
        0.057664260268211365,
        0.3482394814491272,
        0.023158885538578033,
        0.1998806595802307,
        -0.004364720545709133,
        -0.13991770148277283,
        0.0996718481183052,
        -0.03432861343026161,
        0.10072962194681168,
        -0.11321594566106796,
        -0.26878318190574646,
        0.03951941058039665,
        -0.27366477251052856,
        0.09091228991746902,
        0.05826849117875099,
        -0.2362307906150818,
        -0.23346053063869476,
        0.24136057496070862,
        0.11477679014205933,
        0.17120318114757538,
        0.25285956263542175,
        0.28630170226097107,
        -0.14595703780651093,
        -0.19291135668754578,
        0.15225587785243988,
        -0.05971192941069603,
        -0.10250864177942276,
        0.3703337013721466,
        0.13372671604156494,
        0.1885492354631424,
        -0.0148931248113513,
        0.13170082867145538,
        -0.06658419221639633,
        0.011383446864783764,
        0.09663980454206467,
        -0.16044189035892487,
        -0.13712197542190552,
        -0.10478417575359344,
        -0.3489478528499603,
        -0.2002631276845932,
        0.04715004190802574,
        0.20978254079818726,
        -0.37508535385131836,
        -0.13379304111003876,
        0.2784101963043213,
        -0.10633199661970139,
        0.15109361708164215,
        0.0481022372841835,
        0.10811852663755417,
        -0.08894181996583939,
        -0.18727721273899078,
        -0.0011538811959326267,
        0.08489513397216797,
        0.05271383002400398,
        0.22213870286941528,
        0.015370124951004982,
        -0.023186683654785156,
        0.12144114077091217,
        0.06926671415567398,
        -0.03737034648656845,
        -0.26863017678260803,
        0.05671989917755127,
        0.11510713398456573,
        0.08948870003223419,
        -0.369789183139801,
        0.028711402788758278,
        -0.19720882177352905,
        -0.30424562096595764,
        0.183831125497818,
        -0.003689926117658615,
        -0.115557461977005,
        -0.1354031264781952,
        0.08205144107341766,
        0.033570338040590286,
        -0.010796518065035343,
        0.005732465069741011,
        -0.24964699149131775,
        -0.21255820989608765,
        -0.06123201549053192,
        0.12066183984279633,
        0.026556193828582764,
        0.0760534405708313,
        -0.06431826204061508,
        -0.1256897896528244,
        0.1489487886428833,
        0.29926392436027527,
        0.014460178092122078,
        0.0980985015630722,
        -0.017563652247190475,
        0.0041165160946547985,
        -0.0857628583908081,
        -0.1654232144355774,
        -0.04971637576818466,
        -0.13032591342926025,
        -0.08442535996437073,
        -0.20050372183322906,
        0.24489952623844147,
        -0.25836867094039917,
        0.03273402526974678,
        0.2591325044631958,
        0.38679805397987366,
        -0.1670508086681366,
        -0.0574696883559227,
        -0.23130904138088226,
        0.09588737040758133,
        0.0022511628922075033,
        0.14248652756214142,
        0.2749938666820526,
        0.14958103001117706,
        -0.20263391733169556,
        -0.15954819321632385,
        0.03063322603702545,
        0.08127915859222412,
        0.04729028046131134,
        0.13973040878772736,
        -0.42352592945098877,
        0.10435108095407486,
        0.14872999489307404,
        0.33455607295036316,
        -0.24077722430229187,
        -0.3365391492843628,
        0.2905738055706024,
        0.000013145523553248495,
        -0.03914503753185272,
        -0.01013635378330946,
        -0.004398833028972149,
        -0.13997404277324677,
        -0.05819106101989746,
        -0.08157551288604736,
        -0.05718528479337692,
        0.09504253417253494,
        0.12016647309064865,
        -0.22661630809307098,
        0.000449330429546535,
        0.11953452229499817,
        -0.43677863478660583,
        0.28298360109329224,
        0.024514591321349144,
        0.0481192022562027,
        0.07583028823137283,
        0.016256140545010567,
        -0.13170892000198364,
        -0.16774113476276398,
        -0.015775512903928757,
        -0.19066764414310455,
        -0.0653781071305275,
        -0.24936416745185852,
        -0.10099974274635315,
        -0.14077909290790558,
        0.18635165691375732,
        -0.18158893287181854,
        -0.02156100980937481,
        -0.08963914215564728,
        0.21364933252334595,
        0.26640018820762634,
        0.06885024905204773,
        -0.2828408181667328,
        -0.2998172640800476,
        -0.10598612576723099,
        -0.16868722438812256,
        0.27699533104896545,
        -0.13316795229911804,
        0.2285899817943573,
        0.055392395704984665,
        0.19816052913665771,
        0.044220030307769775,
        -0.059266362339258194,
        0.17681854963302612,
        -0.2134300023317337,
        0.2822346091270447,
        -0.20007285475730896,
        -0.07323144376277924,
        0.03262967988848686,
        -0.1491348147392273,
        -0.3547710180282593,
        -0.6061637997627258,
        0.19420115649700165,
        -0.13358426094055176,
        -0.0594610795378685,
        0.36655017733573914,
        -0.20638398826122284,
        0.004499620292335749,
        0.21864832937717438,
        -0.15188489854335785,
        0.020202262327075005,
        0.016620663926005363,
        0.06209167465567589,
        -0.19450995326042175,
        -0.17315523326396942,
        -0.2897849678993225,
        -0.004775172099471092,
        -0.22415243089199066,
        0.07845691591501236,
        0.05163665860891342,
        -0.1158408373594284,
        0.18752442300319672,
        -0.5074545741081238,
        -0.11316198855638504,
        -0.0246479120105505,
        0.05639761686325073,
        -0.1396557092666626,
        0.17854778468608856,
        -0.1998491883277893,
        0.08492040634155273,
        -0.3016820549964905,
        0.00008004967821761966,
        0.3525276482105255,
        -0.018992796540260315,
        0.32344305515289307,
        -0.3590956926345825,
        -0.15532878041267395,
        -0.2249317169189453,
        0.18510152399539948,
        0.1908135712146759,
        0.29048943519592285,
        0.09538079798221588,
        0.1605023443698883,
        -0.08973773568868637,
        0.028024164959788322,
        -0.04335494339466095,
        -0.02925180085003376,
        -0.38816386461257935,
        0.058696500957012177,
        -0.26412954926490784,
        -0.1761675626039505,
        0.03682980686426163,
        -0.18102435767650604,
        0.03587644174695015,
        -0.06487958878278732,
        -0.4017517566680908,
        -0.10861770063638687,
        -0.020762916654348373,
        -0.03297440707683563,
        0.11222484707832336,
        -0.043111491948366165,
        -0.058643557131290436,
        0.007865622639656067,
        0.28896772861480713,
        -0.019679170101881027,
        -0.11759275197982788,
        -0.05205801874399185,
        -0.0849151462316513,
        -0.07606872916221619,
        0.029037820175290108,
        -0.054939836263656616,
        0.4322488605976105,
        -0.04760441556572914,
        -0.12501461803913116,
        -0.3844880759716034,
        -0.20909865200519562,
        0.30237528681755066,
        -0.0011017898796126246,
        -0.22618231177330017,
        0.2429472655057907,
        0.18978799879550934,
        0.17002184689044952,
        0.007021503057330847,
        0.17592495679855347,
        0.03003670461475849,
        -0.0008360437932424247,
        -0.005523309111595154,
        -0.021424831822514534,
        -0.15338385105133057,
        -0.09657441824674606,
        -0.2649264931678772,
        -0.09913618862628937,
        0.03717884048819542,
        -0.0765102207660675,
        -0.3215569257736206,
        -0.028359657153487206,
        0.011353089474141598,
        0.15703704953193665,
        -0.18383710086345673,
        -0.02130202390253544,
        0.3723818361759186,
        0.02652534656226635,
        0.03254234045743942,
        0.10485317558050156,
        0.07583412528038025,
        -0.30147454142570496,
        -0.16485431790351868,
        -0.0812821090221405,
        -0.21426258981227875,
        -0.2607261538505554,
        0.13243542611598969,
        -0.2337161898612976,
        0.048896465450525284,
        -0.18225444853305817,
        -0.05592218413949013,
        -0.18084639310836792,
        -0.2519005537033081,
        -0.04008319973945618,
        -0.019526556134223938,
        -0.09523163735866547,
        -0.25258323550224304,
        -0.06272449344396591,
        -0.029470134526491165,
        -0.10652055591344833,
        -0.19799624383449554,
        0.04163268208503723,
        0.15737226605415344,
        -0.3508216440677643,
        0.1510878950357437,
        0.03898559510707855,
        -0.09097134321928024,
        -0.07207555323839188,
        0.11432575434446335,
        -0.034510400146245956,
        -0.021014628931879997,
        -0.39386090636253357,
        -0.08402114361524582,
        -0.24840369820594788,
        0.23453553020954132,
        -0.15600252151489258,
        -0.19628886878490448,
        0.039580412209033966,
        0.016912534832954407,
        -0.09212386608123779,
        0.1245446726679802,
        0.08459149301052094,
        0.2425629049539566,
        0.007286364678293467,
        0.10521949827671051,
        -0.15441936254501343,
        0.10127122700214386,
        0.05452374368906021,
        -0.15859004855155945,
        0.13558495044708252,
        0.007227481808513403,
        -0.18779531121253967,
        0.1309760957956314,
        -0.15369759500026703,
        0.4408896863460541,
        0.15518006682395935,
        0.0693100318312645,
        -0.08580270409584045,
        -0.00019369115761946887,
        0.17564848065376282,
        -0.163168802857399,
        -0.10756129026412964,
        0.04382093623280525,
        0.5386438369750977,
        -0.14070552587509155,
        -0.17969931662082672,
        -0.12662957608699799,
        0.3965592384338379,
        -0.21217545866966248,
        0.02068439871072769,
        0.20427075028419495,
        0.031340740621089935,
        0.09950365126132965,
        0.22704985737800598,
        -0.05348766967654228,
        -0.000602346786763519,
        0.11134687066078186,
        0.09171877801418304,
        -0.26652219891548157,
        0.01722770743072033,
        -0.07062152773141861,
        0.14809952676296234,
        0.5464357137680054,
        0.2067364901304245,
        -0.06801499426364899,
        0.10985606163740158,
        0.15291589498519897,
        -0.26348844170570374,
        -0.22044990956783295,
        -0.28734949231147766,
        0.29325464367866516,
        -0.4243628978729248,
        0.056384503841400146,
        0.10109084099531174,
        -0.0908823013305664,
        -0.15102839469909668,
        0.420922189950943,
        -0.1760886162519455,
        -0.15355728566646576,
        -0.049260854721069336,
        0.011659727431833744,
        -0.03524232283234596,
        -0.032043516635894775,
        0.11238007992506027,
        -0.0013574782060459256,
        0.09210006147623062,
        -0.03667989373207092,
        0.07530635595321655,
        -0.15969835221767426,
        -0.10499264299869537,
        -0.0074481056071817875,
        -0.3528003394603729,
        -0.6181109547615051,
        0.031124820932745934,
        -0.2695920467376709,
        0.08774194866418839,
        -0.026669636368751526,
        0.10363330692052841,
        0.14908382296562195,
        -0.13337649405002594,
        -0.11510199308395386,
        -0.05495978146791458,
        -0.0683181956410408,
        -0.2755971848964691,
        -0.025486856698989868,
        -0.06452590972185135,
        -0.20729932188987732,
        0.17650742828845978,
        -0.06293436884880066,
        -0.054127078503370285,
        -0.09784228354692459,
        -0.02671111188828945,
        0.16412770748138428,
        0.045046329498291016,
        -0.03991033136844635,
        -0.15391740202903748,
        -0.2417597770690918,
        -0.11619547009468079,
        0.31292492151260376,
        -0.09378749877214432,
        -0.08923458307981491,
        -0.11958011239767075,
        0.31290191411972046,
        0.11277598887681961,
        -0.2196999043226242,
        0.020029598847031593,
        -0.20725955069065094,
        0.026022620499134064,
        0.026382608339190483,
        0.18590347468852997,
        -0.16489315032958984,
        -0.30395087599754333,
        0.31226208806037903,
        -0.026910802349448204,
        0.049830470234155655,
        0.026678837835788727,
        -0.08273656666278839,
        0.049767330288887024,
        0.30877089500427246,
        0.2606298327445984,
        -0.14401893317699432,
        -0.1564396321773529,
        0.01996355876326561,
        0.306736558675766,
        0.05856888368725777,
        0.15293803811073303,
        -0.04887353628873825,
        -0.1420465111732483,
        0.024036573246121407,
        0.0010033838916569948,
        -0.010429492220282555,
        -0.1689208298921585,
        0.3028687536716461,
        0.09033071994781494,
        0.11441528052091599,
        -0.11281663924455643,
        0.04874042049050331,
        -0.13453248143196106,
        0.11755454540252686,
        0.15331095457077026,
        -0.2856592535972595,
        -0.13712044060230255,
        -0.025877468287944794,
        -0.06928250193595886,
        -0.07691819220781326,
        0.15737466514110565,
        -0.03571580722928047,
        0.020682666450738907,
        -0.009619557298719883,
        -0.3473239243030548,
        0.05280449986457825,
        0.19578947126865387,
        0.05909697711467743,
        -0.17005419731140137,
        0.24562804400920868,
        0.048250310122966766,
        0.19677487015724182,
        0.17397353053092957,
        0.07136008888483047,
        0.01802540197968483,
        0.31261423230171204,
        0.09535926580429077,
        -0.04434605687856674,
        -0.1431584507226944,
        0.023879213258624077,
        -0.3811846971511841,
        -0.23212918639183044,
        -0.09374282509088516,
        0.14924293756484985,
        0.07163070142269135,
        0.25859931111335754,
        -0.23907676339149475,
        -0.11283104121685028,
        -0.0012257422786206007,
        0.10614152997732162,
        -0.30758124589920044,
        0.03441343456506729,
        -0.04824963957071304,
        0.002291058422997594,
        -0.01074206829071045,
        0.3052200376987457,
        0.1942463219165802,
        -0.2232540249824524,
        0.08866717666387558,
        -0.15819762647151947,
        0.31307610869407654,
        0.01812421903014183,
        0.12888260185718536,
        0.023012327030301094,
        -0.08574454486370087,
        0.274198979139328,
        0.15985088050365448,
        -0.24581052362918854,
        -0.09439931064844131,
        0.015407112427055836,
        0.3182319402694702,
        -0.2823527753353119,
        0.13643376529216766,
        -0.07694859057664871,
        0.1330859512090683,
        -0.030674727633595467,
        -0.048146866261959076,
        0.19858728349208832,
        0.15729165077209473,
        0.05114702135324478,
        0.30863285064697266,
        0.029339933767914772,
        0.03354731947183609,
        -0.3171153962612152,
        0.1402822881937027,
        -0.06942182034254074,
        0.020007941871881485,
        0.22531281411647797,
        -0.1727394461631775,
        0.08863236755132675,
        -0.2176903486251831,
        -0.06909158080816269,
        0.2134709656238556,
        0.03049105778336525,
        0.14158684015274048,
        0.21336983144283295,
        -0.152884840965271,
        -0.3866260349750519,
        -0.10036181658506393,
        0.060047030448913574,
        -0.14881843328475952,
        -0.3045006990432739,
        -0.014492003247141838,
        0.21412737667560577,
        0.20458489656448364,
        0.064297616481781,
        0.16861021518707275,
        -0.08749827742576599,
        0.2808764576911926,
        -0.04097795486450195,
        -0.12805834412574768,
        0.054536353796720505,
        -0.014254530891776085,
        -0.05459199845790863,
        -0.23478500545024872,
        0.016944339498877525,
        -0.23706750571727753,
        0.20758330821990967,
        -0.05266725271940231,
        -0.046775754541158676,
        0.022714268416166306,
        -0.05949320271611214,
        -0.30259108543395996,
        0.04036718234419823,
        0.19689929485321045,
        -0.18818283081054688,
        0.09357369691133499,
        0.06733972579240799,
        0.11398150026798248,
        -0.10108840465545654,
        0.13242727518081665,
        0.15943975746631622,
        0.018000798299908638,
        -0.08640674501657486,
        -0.1607692688703537,
        -0.023593593388795853,
        -0.010048449970781803,
        0.09090185910463333,
        -0.10050173848867416,
        -0.16977748274803162,
        0.26165878772735596,
        -0.18535809218883514,
        0.07760389149188995,
        0.2655763030052185,
        -0.023703278973698616,
        0.17904311418533325,
        -0.10964709520339966,
        -0.07026947289705276,
        0.040569011121988297,
        -0.016871992498636246,
        -0.2699744999408722,
        -0.04594084247946739,
        -0.36241763830184937,
        -0.13444024324417114,
        0.19094546139240265,
        -0.13969840109348297,
        -0.03843085095286369,
        0.07611497491598129,
        -0.06279189884662628,
        -0.24386072158813477,
        -0.05227646976709366,
        -0.26321694254875183,
        -0.04256070405244827,
        -0.27667495608329773,
        -0.15054970979690552,
        0.0007146989810280502,
        -0.19863224029541016,
        0.08448632806539536,
        0.18876324594020844,
        0.13903674483299255,
        -0.18493026494979858,
        -0.2304406464099884,
        -0.06431858986616135,
        -0.02390504628419876,
        -0.3487495183944702,
        -0.14372314512729645,
        0.20952917635440826,
        -0.13824035227298737,
        0.19190655648708344,
        0.20012101531028748,
        -0.01333761028945446,
        0.03955311328172684,
        0.05067487806081772,
        0.14678195118904114,
        0.049600787460803986,
        0.1869305521249771,
        0.08303485810756683,
        0.22855672240257263,
        -0.016690323129296303,
        -0.0665607824921608,
        0.017664777114987373,
        0.11053624749183655,
        -0.1151328980922699,
        0.023282941430807114,
        -0.3136155903339386,
        0.07398126274347305,
        0.04534400999546051,
        0.2618018686771393,
        -0.0017846364062279463,
        -0.1666879802942276,
        0.23518960177898407,
        -0.016189033165574074,
        -0.14905878901481628,
        -0.06106140837073326,
        0.17804698646068573,
        0.0015987921506166458,
        0.22096380591392517,
        0.21884162724018097,
        0.10739339888095856,
        0.04048704355955124,
        -0.11265981197357178,
        0.12440025806427002,
        0.2299254685640335,
        -0.2640361785888672,
        0.20286621153354645,
        -0.2212381362915039,
        -0.49843400716781616,
        -0.24491801857948303,
        -0.033648185431957245,
        0.1809660643339157,
        -0.045832838863134384,
        -0.14264872670173645,
        -0.02699534222483635,
        -0.35801756381988525,
        0.08690295368432999,
        0.405787855386734,
        -0.0968167707324028,
        -0.36266279220581055,
        -0.29154664278030396,
        -0.21125462651252747,
        0.2941347062587738,
        0.13321185111999512,
        0.19731536507606506,
        0.2298896163702011,
        0.17697222530841827,
        0.4226892590522766,
        0.12590020895004272,
        0.5119812488555908,
        -0.17163985967636108,
        0.33808228373527527,
        -0.16869297623634338,
        0.02439836785197258,
        -0.00368941156193614,
        0.11506078392267227,
        0.1285298615694046,
        0.001113775186240673
      ],
      "weightsShape": [
        64,
        32
      ],
      "bias": [
        -0.0031107093673199415,
        0.017464198172092438,
        -0.005070794373750687,
        0.02335537225008011,
        -0.012200313620269299,
        -0.008814318105578423,
        -0.0024632771965116262,
        -0.009966461919248104,
        0.014222385361790657,
        0.006128048058599234,
        -0.001377747394144535,
        0.0030953101813793182,
        -0.007406642660498619,
        0.0027792747132480145,
        -0.0010387660004198551,
        0.0012431270442903042,
        0.015341603197157383,
        -0.001934572821483016,
        -0.026575272902846336,
        -0.020991384983062744,
        -0.01587802916765213,
        0.08327530324459076,
        0.009835668839514256,
        0.0008729257970117033,
        0.011402211152017117,
        -0.012546099722385406,
        0.00890254508703947,
        -0.0375993549823761,
        -0.00007488951086997986,
        0.043188802897930145,
        0.021906167268753052,
        0.02250395156443119
      ],
      "biasShape": [
        1,
        32
      ],
      "activation": "relu"
    },
    {
      "weights": [
        0.33067190647125244,
        -0.43003854155540466,
        0.31459781527519226,
        0.4871326684951782,
        0.7661436200141907,
        -0.45587462186813354,
        -0.3004246652126312,
        -0.2801351547241211,
        0.5977898240089417,
        -0.13595429062843323,
        0.05140109732747078,
        -0.05667726323008537,
        -0.3642366826534271,
        0.24532094597816467,
        0.060613684356212616,
        0.40791377425193787,
        -0.19691035151481628,
        0.09896885603666306,
        0.3670310378074646,
        -0.2680468261241913,
        0.4305488169193268,
        -0.53797447681427,
        0.02769145742058754,
        -0.32079437375068665,
        0.4600721299648285,
        0.24633370339870453,
        0.2806536853313446,
        -0.22987864911556244,
        -0.2753984034061432,
        -0.7620833516120911,
        -0.5708190202713013,
        0.476751446723938
      ],
      "weightsShape": [
        32,
        1
      ],
      "bias": [
        -0.00938845332711935
      ],
      "biasShape": [
        1,
        1
      ],
      "activation": "sigmoid"
    }
  ],
  "learningRate": 0.00007,
  "l2Lambda": 0.00001
}