{
  "__kind": "NeuralNet",
  "version": 1,
  "layers": [
    {
      "weights": [
        0.21496398746967316,
        -0.224701926112175,
        0.16420359909534454,
        0.2687102258205414,
        -0.04482632502913475,
        0.012387074530124664,
        0.6580774784088135,
        -0.11535052210092545,
        0.03666737675666809,
        -0.23723289370536804,
        -0.11482405662536621,
        0.09963832795619965,
        0.24826407432556152,
        -0.5370437502861023,
        -0.21415847539901733,
        0.6298835873603821,
        -0.1921873390674591,
        -0.10593965649604797,
        0.8810937404632568,
        -0.7183789610862732,
        0.2890865206718445,
        0.11674576252698898,
        0.08883036673069,
        -0.08405912667512894,
        -0.4110329747200012,
        -0.4759473204612732,
        0.2874372601509094,
        -0.42525172233581543,
        0.33549270033836365,
        -0.26525378227233887,
        0.18841183185577393,
        0.10285799950361252,
        -0.01302635669708252,
        -0.5469508767127991,
        0.2405472844839096,
        0.17821627855300903,
        0.1433783620595932,
        0.42012885212898254,
        -0.3239838480949402,
        0.5989232063293457,
        -0.004498951602727175,
        -0.5496958494186401,
        0.29614144563674927,
        -0.15356145799160004,
        -0.09474630653858185,
        -0.3460923433303833,
        -0.23902711272239685,
        -0.21445754170417786,
        0.46627315878868103,
        -0.20568296313285828,
        0.16221508383750916,
        0.24206840991973877,
        -0.3004348576068878,
        0.04227849096059799,
        0.4645780026912689,
        -0.4888416528701782,
        -0.5533149242401123,
        -0.29181045293807983,
        0.373174786567688,
        0.17485685646533966,
        -0.015718184411525726,
        -0.2957020699977875,
        0.03074011392891407,
        0.09911636263132095,
        -0.36781609058380127,
        0.6823792457580566,
        -0.022999335080385208,
        0.5903031229972839,
        0.2553832232952118,
        -0.2106114625930786,
        -0.282551109790802,
        0.24281728267669678,
        -0.25600466132164,
        -0.04390239343047142,
        0.8278151154518127,
        0.3877027630805969,
        0.1200743317604065,
        -0.06610098481178284,
        -0.7816612720489502,
        0.3894065022468567,
        0.09590153396129608,
        -0.5756223201751709,
        -0.27874672412872314,
        -0.3984192907810211,
        -0.4913368225097656,
        -0.37242287397384644,
        -0.1392592042684555,
        -0.07064809650182724,
        -0.1760985255241394,
        -0.039239030331373215,
        0.4102206528186798,
        -0.5034781694412231,
        0.2501152455806732,
        0.586829662322998,
        0.14857834577560425,
        0.36168256402015686,
        -0.7463764548301697,
        -0.09598879516124725,
        0.1402471959590912,
        0.11295604705810547,
        0.2427016645669937,
        0.4212435483932495,
        -0.3561132252216339,
        -0.012786305509507656,
        0.30268174409866333,
        -0.1127123087644577,
        0.2866652011871338,
        0.20531149208545685,
        -0.49393773078918457,
        -0.159231498837471,
        0.37372565269470215,
        -0.2513259947299957,
        -0.00822913646697998,
        -0.3432747721672058,
        -0.5817466378211975,
        0.11829594522714615,
        0.5933566689491272,
        0.14313258230686188,
        0.19364428520202637,
        0.18684764206409454,
        0.15142399072647095,
        -0.062005698680877686,
        0.23004017770290375,
        0.40092214941978455,
        0.3391229808330536,
        0.1117262914776802,
        0.48900529742240906,
        0.12213734537363052,
        0.5004513263702393,
        0.13090495765209198,
        0.06515403836965561,
        -0.670211136341095,
        0.3127390146255493,
        0.048489704728126526,
        -0.5658950209617615,
        -0.3711516261100769,
        -0.2781808376312256,
        -0.03722347691655159,
        0.020840689539909363,
        0.23845727741718292,
        0.543419361114502,
        -0.7426937222480774,
        -0.3617906868457794,
        0.1913466453552246,
        0.19996973872184753,
        0.013361351564526558,
        0.07479123026132584,
        -0.7992646098136902,
        -0.09521513432264328,
        0.522667407989502,
        -0.6551886200904846,
        0.35538578033447266,
        -0.09366219490766525,
        0.18876594305038452,
        -0.44438761472702026,
        0.6452842950820923,
        -0.3705599009990692,
        -0.40651360154151917,
        0.24329252541065216,
        0.2110258936882019,
        -0.49906620383262634,
        0.6510428190231323,
        -0.8822234869003296,
        -0.14588551223278046,
        -0.25764399766921997,
        0.46517249941825867,
        0.41224539279937744,
        0.8327892422676086,
        -0.167914018034935,
        0.00001573999907122925,
        0.20336583256721497,
        0.20710943639278412,
        -0.22343988716602325,
        -0.5650764107704163,
        -0.3471948802471161,
        0.456451952457428,
        -0.31750449538230896,
        0.15686675906181335,
        -0.36503323912620544,
        0.13567864894866943,
        -0.006686878390610218,
        -0.34983208775520325,
        0.2254611998796463,
        -0.008601779118180275,
        0.39773958921432495,
        0.39511364698410034,
        -0.05698627978563309,
        -0.27113577723503113,
        0.29747137427330017,
        0.2714386284351349,
        -0.017510343343019485,
        0.9231727123260498,
        -0.2927284836769104,
        0.317001610994339,
        0.34900081157684326,
        0.1413906067609787,
        0.4153662919998169,
        0.19525469839572906,
        0.3968293070793152,
        0.09317294508218765,
        0.30439630150794983,
        -0.3504852056503296,
        -0.25455042719841003,
        0.02016170136630535,
        -0.24616840481758118,
        0.1242809072136879,
        0.06954652816057205,
        0.12096349895000458,
        0.16880501806735992,
        -0.09579591453075409,
        0.21122531592845917,
        0.2133386731147766,
        0.4228534996509552,
        -0.3420334458351135,
        -0.07731715589761734,
        0.21800100803375244,
        -0.0757606029510498,
        -0.4185771942138672,
        -0.5704342722892761,
        0.31493043899536133,
        0.07943598181009293,
        0.07491685450077057,
        -0.034952275454998016,
        0.015301692299544811,
        -0.1664385348558426,
        0.676507830619812,
        -0.024392521008849144,
        -0.20364786684513092,
        -0.024921702221035957,
        0.34332773089408875,
        -0.24164199829101562,
        0.33001986145973206,
        0.0773695781826973,
        0.5689712166786194,
        -0.06331746280193329,
        0.8527833223342896,
        -0.015988817438483238,
        0.07505176961421967,
        -0.1606399267911911,
        -0.8575416207313538,
        -0.2503957450389862,
        0.45255473256111145,
        -0.27766361832618713,
        -0.08077049255371094,
        0.006308721844106913,
        0.14789271354675293,
        0.049496524035930634,
        -0.0798298567533493,
        -0.04369477555155754,
        0.052072662860155106,
        -0.668097972869873,
        -0.3538344204425812,
        0.5909938812255859,
        -0.03765642270445824,
        0.22127412259578705,
        -0.2100556194782257,
        -0.07468857616186142,
        -0.7947002649307251,
        0.36389288306236267,
        0.00870517548173666,
        -0.6957294940948486,
        -0.5563536286354065,
        -0.16092802584171295,
        -0.47022032737731934,
        -0.22602538764476776,
        -0.38435959815979004,
        0.23647110164165497,
        0.12204287946224213,
        0.08504464477300644,
        -0.3801345229148865,
        -0.0001566840655868873,
        -0.18057575821876526,
        -0.6448583602905273,
        0.5608962774276733,
        -0.49893897771835327,
        -0.2071971744298935,
        0.7491374015808105,
        0.24524608254432678,
        0.38990604877471924,
        -0.17491193115711212,
        -0.014445723965764046,
        0.3430405557155609,
        0.31787368655204773,
        0.34083229303359985,
        0.13096195459365845,
        -0.38386401534080505,
        -0.505116879940033,
        -0.5028612017631531,
        0.2478834092617035,
        -0.1531621664762497,
        -0.4121182858943939,
        0.5175094604492188,
        -1.2370072603225708,
        -0.20374326407909393,
        -0.23445671796798706,
        -0.1488310992717743,
        0.2933586537837982,
        -0.6972609758377075,
        -0.04872806370258331,
        0.10317083448171616,
        -0.05538053810596466,
        -0.042533088475465775,
        0.1831578016281128,
        0.04305186867713928,
        0.5623900890350342,
        -0.2522956430912018,
        -0.12306540459394455,
        0.3441462814807892,
        0.052964020520448685,
        0.2429177165031433,
        -0.3286062180995941,
        -0.6379101872444153,
        -0.29646605253219604,
        -0.35057374835014343,
        -0.3941173255443573,
        -0.4278435707092285,
        0.3947000801563263,
        0.7129485011100769,
        -0.03199407830834389,
        0.3561159670352936,
        -0.030859166756272316,
        0.21251961588859558,
        -0.24534159898757935,
        0.9425609707832336,
        0.13975480198860168,
        0.30354994535446167,
        0.43059834837913513,
        -0.47569581866264343,
        -0.10698671638965607,
        -0.3976350724697113,
        0.08181041479110718,
        -0.3411559760570526,
        0.455386221408844,
        -0.29211559891700745,
        -0.6183977723121643,
        -0.13780806958675385,
        -0.38781771063804626,
        0.09036873281002045,
        -0.09231376647949219,
        0.10911687463521957,
        -0.08937352150678635,
        -0.5668915510177612,
        0.5748834609985352,
        0.10404933989048004,
        -0.09772027283906937,
        -0.09559573978185654,
        0.7040860056877136,
        -0.37651532888412476,
        0.9510788917541504,
        -0.1518549919128418,
        0.10451673716306686,
        -0.4159700572490692,
        0.5507474541664124,
        -0.007117110770195723,
        0.3619336187839508,
        -0.19207336008548737,
        -0.4899112582206726,
        0.5491551160812378,
        -0.10651445388793945,
        0.15335577726364136,
        -0.11730240285396576,
        -0.5218368768692017,
        -0.1238723173737526,
        -0.045228809118270874,
        0.68779456615448,
        -0.35691094398498535,
        0.4149516522884369,
        -0.11853042989969254,
        0.08806157112121582,
        -0.42199429869651794,
        -0.17257560789585114,
        -1.071474313735962,
        0.44093814492225647,
        0.42497706413269043,
        -0.25320449471473694,
        0.1636461466550827,
        0.4561409056186676,
        0.5019952654838562,
        -0.670256495475769,
        -0.134071946144104,
        0.11282343417406082,
        0.4067745804786682,
        0.6568124294281006,
        -0.4830884337425232,
        0.28842952847480774,
        -0.5290627479553223,
        -0.17486612498760223,
        0.4121587872505188,
        -0.18197301030158997,
        -0.3369135856628418,
        0.209367573261261,
        0.04595217481255531,
        -0.19284282624721527,
        0.814746618270874,
        0.03592665120959282,
        0.35702401399612427,
        0.4876849055290222,
        -0.2656928598880768,
        0.33248502016067505,
        0.5156810283660889,
        -0.22219882905483246,
        -0.6002237200737,
        0.09089694172143936,
        0.5852267742156982,
        0.18420198559761047,
        0.37245500087738037,
        1.0469399690628052,
        0.23894572257995605,
        0.19961583614349365,
        0.1919628232717514,
        -0.15595678985118866,
        0.3062392771244049,
        0.22259798645973206,
        0.10918212682008743,
        0.2851767838001251,
        0.16651585698127747,
        0.031209759414196014,
        0.27261069416999817,
        -0.35151755809783936,
        0.003862445242702961,
        -0.43511757254600525,
        0.37330567836761475,
        0.01947675831615925,
        0.014618217945098877,
        0.14320649206638336,
        0.28763890266418457,
        0.08245483785867691,
        0.08258761465549469,
        0.21027199923992157,
        0.267136812210083,
        -0.1698904037475586,
        0.047607216984033585,
        -0.2576572000980377,
        0.22890236973762512,
        -0.24076038599014282,
        0.16616453230381012,
        0.1815692037343979,
        -1.0698388814926147,
        -0.1130606159567833,
        0.4687210023403168,
        -0.5780849456787109,
        -0.23346258699893951,
        0.6030582189559937,
        -0.42190495133399963,
        0.07906243205070496,
        0.16549637913703918,
        0.08308872580528259,
        -0.021432289853692055,
        -0.07600623369216919,
        -0.09392395615577698,
        0.6030897498130798,
        0.01585727371275425,
        -0.08171103149652481,
        0.015167566016316414,
        0.004589055199176073,
        -0.09393157064914703,
        0.5858142375946045,
        -0.34947970509529114,
        0.5213740468025208,
        0.06442556530237198,
        0.24512848258018494,
        0.5709201097488403,
        -0.052269045263528824,
        -0.06969176977872849,
        0.26228344440460205,
        -0.1698419600725174,
        -0.27728271484375,
        0.2563079595565796,
        -0.1114932969212532,
        0.14556436240673065,
        -0.5150713324546814,
        -0.07448027282953262,
        0.02161339856684208,
        0.09913274645805359,
        0.18638330698013306,
        -0.16635365784168243,
        -0.6839474439620972,
        0.31790533661842346,
        -0.2598598897457123,
        -0.35864362120628357,
        -0.21512949466705322,
        -0.2489665299654007,
        0.243628591299057,
        -0.6584562063217163,
        -0.2849329113960266,
        0.8249847292900085,
        0.14266058802604675,
        0.014626829884946346,
        0.4487058222293854,
        0.02981633134186268,
        -0.040748804807662964,
        -0.47684812545776367,
        0.8278136253356934,
        0.08543627709150314,
        -0.5588085055351257,
        0.5490907430648804,
        -0.3389533460140228,
        -0.2378007471561432,
        0.1872897446155548,
        0.6462876796722412,
        0.03224042057991028,
        0.5144246220588684,
        0.23518939316272736,
        -0.4584926664829254,
        -0.04756930470466614,
        -0.5327306985855103,
        -0.07659438997507095,
        -0.16818910837173462,
        -0.11761786043643951,
        0.08780544251203537,
        0.1181173250079155,
        -0.029417602345347404,
        -0.40985772013664246,
        0.20996196568012238,
        -0.22687137126922607,
        0.20995980501174927,
        -0.4113158881664276,
        0.7807986736297607,
        -0.5943868160247803,
        0.03090686909854412,
        0.44547995924949646,
        -0.13018275797367096,
        -0.31406402587890625,
        0.6960827112197876,
        -0.5482900142669678,
        0.19113053381443024,
        0.006683798972517252,
        0.1068611666560173,
        0.2932857275009155,
        -0.06111069396138191,
        0.30092349648475647,
        -0.11579309403896332,
        0.4403257966041565,
        0.1628863662481308,
        0.3673563003540039,
        -0.4064318537712097,
        -0.10709138214588165,
        0.4766348898410797,
        0.49769994616508484,
        0.4259587526321411,
        0.10848062485456467,
        -0.2314946949481964,
        0.4830136299133301,
        0.16545115411281586,
        -0.28154483437538147,
        0.17735926806926727,
        -0.23845219612121582,
        0.08227460831403732,
        -0.4203489422798157,
        0.32757341861724854,
        0.5112656354904175,
        0.36470210552215576,
        -0.2332751303911209,
        0.08172778785228729,
        -0.22322995960712433,
        -0.15822193026542664,
        0.7313945889472961,
        -0.4917865991592407,
        0.10027283430099487,
        -0.1907367706298828,
        -0.023233482614159584,
        0.5824666023254395,
        -0.4616381525993347,
        -0.18117476999759674,
        -0.13447892665863037,
        0.1371058225631714,
        -0.22437439858913422,
        -0.047742925584316254,
        -0.4356522858142853,
        0.40126991271972656,
        -0.5045182108879089,
        -0.3983916640281677,
        0.18443135917186737,
        -0.24351108074188232,
        -0.577897846698761,
        -0.20676715672016144,
        0.1574721336364746,
        0.4019460380077362,
        -0.7207292914390564,
        0.27192947268486023,
        0.2829221189022064,
        0.7223013639450073,
        0.1490887850522995,
        -0.3888939321041107,
        -0.015637392178177834,
        0.7593563795089722,
        -0.40129274129867554,
        -0.33261168003082275,
        -0.2709563076496124,
        -0.26076507568359375,
        -0.20882591605186462,
        -0.1316855251789093,
        0.6968675851821899,
        -0.42701229453086853,
        0.24947918951511383,
        -0.23583710193634033,
        0.6531457304954529,
        0.04390830546617508,
        -0.24361011385917664,
        0.16978347301483154,
        0.2818603813648224,
        0.2608048915863037,
        0.0052140625193715096,
        -0.4878905117511749,
        0.17827017605304718,
        -0.03731366991996765,
        0.19465778768062592,
        -0.13332636654376984,
        -0.2308938205242157,
        -0.13655924797058105,
        0.22082124650478363,
        -0.09144845604896545,
        0.0769747793674469,
        0.37300926446914673,
        -0.20762020349502563,
        0.3965277075767517,
        -0.2806605398654938,
        -0.050508853048086166,
        -0.18693022429943085,
        0.11660286039113998,
        0.10482717305421829,
        -0.2095874547958374,
        -0.4541737139225006,
        0.4954644739627838,
        -0.018387215211987495,
        0.17638781666755676,
        -0.059326108545064926,
        -0.19370999932289124,
        0.05945809185504913,
        -0.08627190440893173,
        -0.19991829991340637,
        0.20360133051872253,
        0.013887603767216206,
        0.3778376877307892,
        -0.22851915657520294,
        -0.1284427046775818,
        0.1714169979095459,
        -0.6518946290016174,
        -0.08349093049764633,
        -0.6816557049751282,
        -0.24252048134803772,
        -0.0377170629799366,
        0.40564292669296265,
        0.4041252136230469,
        -0.08562056720256805,
        0.5148282647132874,
        0.7921485900878906,
        0.1034640520811081,
        -0.46309152245521545,
        -0.6209098696708679,
        0.0995740070939064,
        0.16875144839286804,
        -0.13173656165599823,
        0.40784555673599243,
        0.25463154911994934,
        0.7151141166687012,
        -0.3251132369041443,
        -0.06682564318180084,
        -0.01388183981180191,
        -0.5013934373855591,
        0.47184106707572937,
        0.424338161945343,
        0.4424367845058441,
        -0.03179296851158142,
        -0.5433213114738464,
        0.3966299593448639,
        0.4262860417366028,
        -0.31295281648635864,
        0.08121681958436966,
        0.46592575311660767,
        0.055513832718133926,
        -0.4836777448654175,
        -0.20588229596614838,
        -0.755258321762085,
        -0.07857101410627365,
        0.11877919733524323,
        0.4267578721046448,
        0.9231139421463013,
        0.10221835225820541,
        0.23177020251750946,
        -0.15555702149868011,
        -0.04142184928059578,
        -0.19105488061904907,
        0.16474409401416779,
        0.2653699815273285,
        -0.3706185519695282,
        -0.6811060905456543,
        -0.07223935425281525,
        0.5334982872009277,
        0.14480862021446228,
        0.33318933844566345,
        0.23003245890140533,
        -0.457386314868927,
        0.23015424609184265,
        -0.20141366124153137,
        0.11309672892093658,
        0.29536792635917664,
        0.11419259011745453,
        0.17671942710876465,
        -0.0824018269777298,
        -0.09362451732158661,
        0.8032519221305847,
        -0.38881269097328186,
        -0.23314224183559418,
        0.3280753493309021,
        0.699455201625824,
        -0.36893919110298157,
        0.12096959352493286,
        -0.6425307989120483,
        0.11275777220726013,
        -0.09140712022781372,
        -0.13676169514656067,
        -0.06702181696891785,
        -0.034584302455186844,
        -0.30660003423690796,
        -0.24672381579875946,
        -0.2631196677684784,
        -0.03780433535575867,
        0.2717413306236267,
        -0.3520827293395996,
        0.008612465113401413,
        0.20151953399181366,
        -0.17522546648979187,
        -0.30433422327041626,
        -0.1764369010925293,
        0.4400113523006439,
        -0.2608061134815216,
        0.2093736231327057,
        0.1874401718378067,
        -0.010342768393456936,
        -0.02851817198097706,
        -0.3001512289047241,
        0.23407158255577087,
        0.3000611662864685,
        -0.29516610503196716,
        0.6946632266044617,
        0.38704678416252136,
        -0.6915175914764404,
        0.09386780112981796,
        -0.11036742478609085,
        0.13132795691490173,
        0.007324564270675182,
        -0.4510488212108612,
        0.18541474640369415,
        0.1464969962835312,
        -0.018405620008707047,
        -0.24691607058048248,
        0.4853975474834442,
        0.11012999713420868,
        -0.411965548992157,
        0.5310413241386414,
        0.32994750142097473,
        0.21068142354488373,
        -0.020320996642112732,
        -0.027937091886997223,
        0.38185203075408936,
        -0.11298464983701706,
        0.4095947742462158,
        -0.26963189244270325,
        -0.7675572037696838,
        0.3230155408382416,
        0.041845522820949554,
        -0.3253353536128998,
        0.12506918609142303,
        -0.06860706955194473,
        -0.004929754417389631,
        -0.3591780662536621,
        0.12512707710266113,
        0.34026262164115906,
        0.09075359255075455,
        0.13455455005168915,
        -0.32002967596054077,
        -0.32663291692733765,
        0.34147366881370544,
        -0.16591352224349976,
        -0.30180323123931885,
        -0.4176695644855499,
        -0.033605385571718216,
        0.062479667365550995,
        -0.4732608497142792,
        0.23647406697273254,
        0.12221051752567291,
        0.6388632655143738,
        0.3079143762588501,
        0.400203138589859,
        0.33258312940597534,
        -0.044836290180683136,
        0.24220918118953705,
        0.2983928322792053,
        -0.3804176151752472,
        0.9560474157333374,
        0.4559958875179291,
        -0.6173698306083679,
        0.025634240359067917,
        -0.011716539971530437,
        -0.4539739787578583,
        -0.33206766843795776,
        0.14054344594478607,
        0.2396080195903778,
        0.16816695034503937,
        0.49762678146362305,
        0.0004811105609405786,
        0.22932250797748566,
        -0.002439635805785656,
        0.47602877020835876,
        0.0804845467209816,
        0.23702453076839447,
        -0.02914499118924141,
        -0.1527508646249771,
        -0.23213918507099152,
        -0.2765102982521057,
        -0.10721506178379059,
        0.22936280071735382,
        -0.6950945854187012,
        0.19283661246299744,
        -0.3157704174518585,
        0.11082526296377182,
        0.09798353165388107,
        -0.187856987118721,
        0.2770131528377533,
        -0.5108534097671509,
        -0.4445748031139374,
        0.2736309766769409,
        -0.3675125539302826,
        -0.11028710007667542,
        -0.1795181781053543,
        0.31938859820365906,
        -0.41230297088623047,
        -0.786855936050415,
        0.1924382895231247,
        -0.5138179659843445,
        0.31663885712623596,
        0.2217784821987152,
        -0.02623593620955944,
        0.2963021397590637,
        0.17631186544895172,
        0.14878705143928528,
        0.06938229501247406,
        0.1688360720872879,
        -0.05280693247914314,
        -0.11642484366893768,
        0.08904918283224106,
        -0.18407411873340607,
        0.11037871241569519,
        0.5355758666992188,
        -0.479610800743103,
        -0.031168827787041664,
        0.17564237117767334,
        -0.8741000890731812,
        -0.33937132358551025,
        -0.6155266761779785,
        -0.7774130702018738,
        -0.3937910497188568,
        0.18959155678749084,
        -0.11335881054401398,
        0.3856268525123596,
        0.2885742485523224,
        -0.06097716838121414,
        -0.2616575062274933,
        0.3053637444972992,
        -0.43997910618782043,
        0.6624804139137268,
        0.7344561815261841,
        -0.12616728246212006,
        0.44606664776802063,
        0.4369802176952362,
        0.049944426864385605,
        -0.01790696568787098,
        0.6557196974754333,
        0.09349976480007172,
        0.5007160902023315,
        0.03522729501128197,
        0.11022916436195374,
        -0.6039438843727112,
        -0.3090173602104187,
        -0.09145758301019669,
        0.5070237517356873,
        0.10288825631141663,
        0.1647276133298874,
        -0.6894527673721313,
        -0.7758458256721497,
        0.1639963537454605,
        -0.10674203187227249,
        0.21398675441741943,
        0.019957292824983597,
        -0.28279349207878113,
        -0.14746391773223877,
        0.5697184801101685,
        -0.2347119301557541,
        -0.33686545491218567,
        -0.17546746134757996,
        -0.13345859944820404,
        0.019596334546804428,
        0.46164774894714355,
        0.3785119950771332,
        0.5180664658546448,
        -0.017995623871684074,
        0.4627334177494049,
        0.17100319266319275,
        -0.5902544856071472,
        0.3661688566207886,
        -0.11178256571292877,
        -0.2502298355102539,
        0.23612263798713684,
        -0.43329498171806335,
        0.33792081475257874,
        -0.33449944853782654,
        -0.690037727355957,
        0.20614095032215118,
        0.5928500890731812,
        -0.10981333255767822,
        -0.10894741117954254,
        -0.4797355830669403,
        -0.16404271125793457,
        0.5880885720252991,
        -0.37949463725090027,
        -0.3377104103565216,
        1.0593221187591553,
        0.07351184636354446,
        -0.4382741153240204,
        0.09522181004285812,
        0.1458863914012909,
        -0.1433202475309372,
        -0.3571469783782959,
        -0.03538106009364128,
        0.034649040549993515,
        0.16041624546051025,
        0.583842396736145,
        -0.243031308054924,
        0.38284367322921753,
        0.4531002938747406,
        -0.6282563805580139,
        -0.07626461982727051,
        -0.25422075390815735,
        0.2693834900856018,
        -0.3757968842983246,
        1.003890037536621,
        0.42208629846572876,
        -0.738292932510376,
        -0.43502312898635864,
        0.17853204905986786,
        -0.09346532076597214,
        0.1418764889240265,
        -0.15110959112644196,
        0.1600925773382187,
        -0.26623988151550293,
        0.24414947628974915,
        0.38971561193466187,
        0.1586836278438568,
        -0.0456923209130764,
        -0.4956774413585663,
        -0.08411415666341782,
        -0.4950575530529022,
        0.00043233242467977107,
        -0.0447932668030262,
        0.32847896218299866,
        -0.16526441276073456,
        0.1780480146408081,
        0.05607239156961441,
        0.03226785361766815,
        -0.2600354850292206,
        -0.19454112648963928,
        0.1786421835422516,
        -0.4145275354385376,
        0.08350012451410294,
        0.5324088335037231,
        0.5163286924362183,
        -0.24587416648864746,
        0.058788903057575226,
        -0.06674764305353165,
        0.2847104072570801,
        0.3245428204536438,
        -0.07632418721914291,
        -0.13073377311229706,
        0.3193042278289795,
        -0.25365301966667175,
        0.7878209352493286,
        0.2864114046096802,
        0.6601405739784241,
        0.5354859828948975,
        0.09952943027019501,
        0.5673109889030457,
        -0.31673920154571533,
        0.2537420392036438,
        0.03869481384754181,
        0.5186441540718079,
        0.05716308578848839,
        0.5190442800521851,
        0.3281862437725067,
        -0.1809329092502594,
        0.2378188818693161,
        0.5626760721206665,
        -0.26434746384620667,
        -0.4927406311035156,
        -0.3410806655883789,
        0.6521357297897339,
        -0.6255874037742615,
        -0.027237707749009132,
        -0.00873302947729826,
        -0.33905190229415894,
        -0.3964634835720062,
        0.5217870473861694,
        -0.6601282954216003,
        0.4255686402320862,
        -0.48338934779167175,
        0.23160488903522491,
        0.12410257011651993,
        -0.05205533280968666,
        -0.09020177274942398,
        0.23055638372898102,
        -0.14426763355731964,
        -0.048194631934165955,
        -0.5199862718582153,
        0.012261739932000637,
        0.613898754119873,
        0.45716339349746704,
        -0.10879537463188171,
        0.05832906439900398,
        0.06542111933231354,
        -0.19510915875434875,
        0.2986620366573334,
        0.09369658678770065,
        0.12330770492553711,
        0.38314399123191833,
        0.13971135020256042,
        -0.472269207239151,
        0.05737747997045517,
        -0.32291117310523987,
        0.08702085167169571,
        -0.6422106623649597,
        0.22319570183753967,
        -0.2510666251182556,
        0.02909969538450241,
        0.09756850451231003,
        -0.3423142731189728,
        -0.19752773642539978,
        0.40534400939941406,
        0.021909179165959358,
        -0.6313581466674805,
        0.029998579993844032,
        -0.21267865598201752,
        -0.5597736835479736,
        0.5698398947715759,
        0.5175779461860657,
        0.0396578349173069,
        0.6434454917907715,
        0.1317572295665741,
        0.41952425241470337,
        -0.1550433188676834,
        -0.16372427344322205,
        -0.0996544137597084,
        -0.17408640682697296,
        -0.7013691067695618,
        0.028369447216391563,
        -0.3044462203979492,
        0.03393297642469406,
        -0.4737251102924347,
        -0.36213740706443787,
        0.16358813643455505,
        -0.23181550204753876,
        0.007653835229575634,
        0.11084690690040588,
        -0.13653309643268585,
        0.444358229637146,
        0.2241065949201584,
        0.11892711371183395,
        -0.3356710970401764,
        -0.001072048326022923,
        -0.5465726256370544,
        0.12490501254796982,
        -0.33485719561576843,
        -0.0529480054974556,
        0.2698659896850586,
        0.1829776167869568,
        0.5723783373832703,
        0.017749309539794922,
        -0.4089195728302002,
        -0.5560033917427063,
        0.4892963469028473,
        0.18595078587532043,
        -0.5201737880706787,
        0.2403736263513565,
        -0.19242748618125916,
        -0.4242990016937256,
        -0.4001900851726532,
        0.20646098256111145,
        -0.24955253303050995,
        0.33014920353889465
      ],
      "weightsShape": [
        17,
        64
      ],
      "bias": [
        0.05368690565228462,
        0.09908808022737503,
        -0.020635360851883888,
        -0.01272688340395689,
        -0.07991543412208557,
        -0.06552328169345856,
        -0.00555223785340786,
        -0.000020122195564908907,
        -0.004402598366141319,
        0.06220189481973648,
        0.036086276173591614,
        0.03228921815752983,
        -0.10899744927883148,
        0.04246508330106735,
        -0.07951458543539047,
        -0.015701284632086754,
        0.07720237225294113,
        -0.00010905078670475632,
        0.023600254207849503,
        0.004324350971728563,
        -0.004584162496030331,
        -0.015980033203959465,
        -0.06978490948677063,
        -0.03435421362519264,
        -0.014139210805296898,
        -0.009310519322752953,
        0.09379955381155014,
        0.00798070803284645,
        0.06519582122564316,
        -0.027144834399223328,
        -0.0561944842338562,
        0.002546715782955289,
        0.03904733806848526,
        -0.07876834273338318,
        0.09471049159765244,
        -0.0058289566077291965,
        -0.010886453092098236,
        -0.03784014284610748,
        0.01342045608907938,
        -0.05126585811376572,
        -0.032773520797491074,
        -0.010343633592128754,
        0,
        0.060611169785261154,
        0.04757116734981537,
        0,
        -0.01798943616449833,
        0.007555009331554174,
        0.08879504352807999,
        -0.006593076512217522,
        -0.028080137446522713,
        -0.029850441962480545,
        -0.005439333152025938,
        0.03311968967318535,
        -0.03930658847093582,
        0.0009158494649454951,
        -0.04010758921504021,
        -0.009602895937860012,
        -0.00010994238255079836,
        0.004918891470879316,
        -0.013365195132791996,
        -0.01340385340154171,
        0.02420070208609104,
        0.12292679399251938
      ],
      "biasShape": [
        1,
        64
      ],
      "activation": "relu"
    },
    {
      "weights": [
        0.5465847253799438,
        0.07949533313512802,
        0.17957916855812073,
        0.0968085303902626,
        -0.06158382073044777,
        0.02850334718823433,
        0.006620835512876511,
        -0.23141400516033173,
        -0.19610373675823212,
        0.15548211336135864,
        -0.38668856024742126,
        0.05156577378511429,
        -0.11887181550264359,
        -0.17170527577400208,
        -0.18675543367862701,
        0.0774356946349144,
        0.10791248828172684,
        -0.02750449627637863,
        0.004108058754354715,
        -0.15393391251564026,
        0.009369655512273312,
        -0.1374977082014084,
        -0.12255356460809708,
        0.06985388696193695,
        -0.13113142549991608,
        -0.06561149656772614,
        0.1041945368051529,
        0.023175792768597603,
        0.1172960102558136,
        -0.013527452945709229,
        -0.03531591594219208,
        0.39364972710609436,
        -0.08629939705133438,
        0.04407517611980438,
        -0.0157900582998991,
        0.3216906189918518,
        -0.03127988427877426,
        -0.25674593448638916,
        -0.199863001704216,
        -0.166073277592659,
        0.20838598906993866,
        0.10221261531114578,
        -0.11382365226745605,
        -0.06450056284666061,
        0.14977076649665833,
        -0.11468936502933502,
        -0.20471122860908508,
        -0.14847996830940247,
        0.07544645667076111,
        0.10591300576925278,
        -0.3154192864894867,
        -0.09700854867696762,
        -0.3301164209842682,
        0.16932788491249084,
        0.22626768052577972,
        0.32635465264320374,
        -0.12980586290359497,
        -0.2428274005651474,
        0.096828393638134,
        0.03777649626135826,
        -0.34112924337387085,
        0.0009452140075154603,
        -0.11135983467102051,
        0.3234003484249115,
        -0.04409666359424591,
        0.06789791584014893,
        0.1344979852437973,
        0.1160319596529007,
        -0.016784705221652985,
        -0.0569380559027195,
        0.12112198024988174,
        -0.2992912828922272,
        0.08420132100582123,
        -0.128054678440094,
        0.13155829906463623,
        0.03139461949467659,
        -0.031654614955186844,
        -0.11768468469381332,
        -0.13087642192840576,
        -0.025107651948928833,
        -0.1361551284790039,
        -0.18394848704338074,
        0.47071149945259094,
        -0.1809162050485611,
        -0.04618855193257332,
        -0.08645131438970566,
        -0.062046609818935394,
        0.21993008255958557,
        0.11499310284852982,
        0.04480643942952156,
        -0.04485904425382614,
        0.12927155196666718,
        0.07147142291069031,
        -0.10506293922662735,
        -0.052661873400211334,
        0.024710172787308693,
        -0.2038540095090866,
        0.09481067955493927,
        -0.06278868764638901,
        0.056383151561021805,
        0.06561360508203506,
        -0.14133645594120026,
        0.014590582810342312,
        0.05463656783103943,
        0.09936779737472534,
        0.1175425574183464,
        0.16262350976467133,
        0.07810746878385544,
        0.11579476296901703,
        0.08676451444625854,
        -0.016002215445041656,
        -0.2585811913013458,
        0.09026335179805756,
        -0.4532812833786011,
        -0.4885524809360504,
        -0.09679535776376724,
        -0.30758941173553467,
        0.028074342757463455,
        0.10559212416410446,
        -0.4490412771701813,
        -0.1370704025030136,
        -0.050013359636068344,
        -0.011258214712142944,
        0.05285698547959328,
        0.30237236618995667,
        -0.5120248794555664,
        0.20690946280956268,
        0.13902807235717773,
        -0.15615595877170563,
        -0.19206556677818298,
        0.03643949702382088,
        -0.12246923893690109,
        -0.15403498709201813,
        -0.14405037462711334,
        -0.06944061815738678,
        0.4095904529094696,
        -0.17078641057014465,
        0.09303492307662964,
        -0.15666931867599487,
        0.1729937642812729,
        -0.2882520258426666,
        -0.2319277822971344,
        0.20022794604301453,
        0.4575522541999817,
        0.27763479948043823,
        0.05244848132133484,
        -0.152334064245224,
        0.0010589348385110497,
        0.14762850105762482,
        0.07135044038295746,
        0.07443764805793762,
        0.09882739931344986,
        -0.23903626203536987,
        -0.165520578622818,
        0.021746806800365448,
        -0.14689360558986664,
        -0.18715894222259521,
        -0.12161067128181458,
        0.13759873807430267,
        -0.043877873569726944,
        -0.20118804275989532,
        0.16080382466316223,
        0.11232413351535797,
        0.014077756553888321,
        -0.26030492782592773,
        -0.28337785601615906,
        0.18173661828041077,
        0.39106395840644836,
        0.4873353838920593,
        -0.07300055772066116,
        -0.07274793088436127,
        0.04294316843152046,
        -0.0783606618642807,
        -0.19149506092071533,
        0.02785908430814743,
        0.09753239899873734,
        -0.11229114234447479,
        0.0010831269901245832,
        0.04028039798140526,
        -0.05260324105620384,
        -0.02979430928826332,
        -0.29719021916389465,
        -0.07025119662284851,
        0.007208336144685745,
        0.08316070586442947,
        -0.36073800921440125,
        -0.41153913736343384,
        0.2413037121295929,
        -0.28457674384117126,
        0.26762935519218445,
        0.06508058309555054,
        0.12661795318126678,
        0.024071786552667618,
        -0.1703638881444931,
        -0.00216489820741117,
        0.01903274655342102,
        0.14701496064662933,
        0.12138158082962036,
        -0.3407231271266937,
        0.2467985302209854,
        -0.1480930596590042,
        0.11697245389223099,
        0.23421813547611237,
        0.03203563019633293,
        -0.08258908241987228,
        -0.06564915925264359,
        -0.44047465920448303,
        -0.34597572684288025,
        -0.0813937708735466,
        -0.15194129943847656,
        0.20921824872493744,
        0.38491955399513245,
        0.31500327587127686,
        -0.10481639951467514,
        -0.1628868132829666,
        0.14196380972862244,
        0.24385692179203033,
        0.20177724957466125,
        -0.1942203789949417,
        -0.15845833718776703,
        -0.3260670006275177,
        -0.1218079999089241,
        -0.11962541937828064,
        -0.34760820865631104,
        -0.03351897746324539,
        0.22005042433738708,
        -0.14047031104564667,
        -0.06797458231449127,
        -0.040493398904800415,
        -0.025389431044459343,
        -0.1937013417482376,
        -0.19296608865261078,
        -0.1379242092370987,
        0.3961676359176636,
        -0.08480262011289597,
        0.1999913454055786,
        0.2918863892555237,
        0.14377440512180328,
        0.025890419259667397,
        -0.2403734028339386,
        -0.12282132357358932,
        0.18226318061351776,
        -0.014295129105448723,
        0.19909942150115967,
        -0.059803325682878494,
        0.06377403438091278,
        0.3974694609642029,
        -0.45359593629837036,
        0.08882655203342438,
        0.007905911654233932,
        -0.07666706293821335,
        -0.06954799592494965,
        -0.01594540849328041,
        0.07913979887962341,
        -0.40710943937301636,
        0.232574924826622,
        0.016126718372106552,
        0.06862197071313858,
        -0.10034725815057755,
        -0.061467863619327545,
        0.10457765311002731,
        0.1357831060886383,
        -0.19348879158496857,
        -0.28795602917671204,
        0.07429732382297516,
        -0.08210615068674088,
        0.16585849225521088,
        -0.17535518109798431,
        0.14477914571762085,
        -0.03172148019075394,
        0.20663928985595703,
        -0.014601522125303745,
        -0.014281261712312698,
        -0.13744398951530457,
        -0.13747787475585938,
        -0.18204224109649658,
        0.14083024859428406,
        0.2861787974834442,
        0.23817934095859528,
        0.016619134694337845,
        0.17775791883468628,
        0.28744328022003174,
        -0.06602828949689865,
        0.14846311509609222,
        0.06872817128896713,
        -0.028150947764515877,
        0.21334518492221832,
        -0.020152270793914795,
        -0.18042977154254913,
        0.11113592982292175,
        -0.05665761977434158,
        0.14998510479927063,
        -0.1584019660949707,
        0.12443485110998154,
        -0.10063871741294861,
        0.1198287159204483,
        0.13073217868804932,
        -0.08858782798051834,
        0.13188539445400238,
        -0.06132199987769127,
        -0.026160763576626778,
        -0.24744585156440735,
        -0.00996407214552164,
        -0.29950252175331116,
        -0.1608295887708664,
        -0.004982565063983202,
        -0.06991838663816452,
        -0.044558145105838776,
        -0.328514963388443,
        0.048018816858530045,
        -0.20423582196235657,
        -0.1901959478855133,
        -0.03647499158978462,
        0.033590830862522125,
        0.046037256717681885,
        0.16951578855514526,
        -0.011281599290668964,
        -0.3174850642681122,
        -0.2497342973947525,
        0.13085725903511047,
        0.22037912905216217,
        -0.11648514866828918,
        -0.12837450206279755,
        -0.38250306248664856,
        -0.09976278990507126,
        0.047725848853588104,
        0.10851868242025375,
        0.4161967635154724,
        -0.49875229597091675,
        -0.09565634280443192,
        0.04056282341480255,
        0.0716455727815628,
        -0.3179992139339447,
        -0.1495780646800995,
        0.17794740200042725,
        -0.013416728004813194,
        0.1404372751712799,
        0.17500391602516174,
        0.184595987200737,
        -0.12954987585544586,
        -0.0175715871155262,
        -0.006585014518350363,
        -0.03439166769385338,
        0.06662239879369736,
        0.12184837460517883,
        0.22097912430763245,
        0.18197762966156006,
        -0.1269088238477707,
        0.1709003895521164,
        -0.104775071144104,
        -0.14043855667114258,
        -0.16924838721752167,
        0.15412713587284088,
        -0.15598167479038239,
        -0.20412057638168335,
        -0.017402643337845802,
        0.22708195447921753,
        -0.05375940352678299,
        0.3933452367782593,
        0.254878431558609,
        0.06287506967782974,
        -0.2500298321247101,
        -0.16414643824100494,
        -0.2822749614715576,
        -0.04587911069393158,
        0.22097547352313995,
        -0.330097496509552,
        0.01588243804872036,
        -0.05139234662055969,
        0.15884512662887573,
        0.10372088104486465,
        0.19582100212574005,
        -0.024046417325735092,
        0.20090536773204803,
        0.07296088337898254,
        0.0069959512911736965,
        0.22783146798610687,
        -0.05767817050218582,
        -0.30939194560050964,
        0.16858942806720734,
        0.168104887008667,
        -0.02328294701874256,
        0.04118640720844269,
        -0.10867544263601303,
        0.30932286381721497,
        -0.11383005976676941,
        0.20708973705768585,
        -0.12513530254364014,
        0.014086153358221054,
        0.08038932830095291,
        0.3134995698928833,
        0.05659347027540207,
        -0.2485606074333191,
        -0.055757347494363785,
        -0.06013835221529007,
        -0.0728963240981102,
        -0.17572076618671417,
        0.15536418557167053,
        -0.01705496944487095,
        0.0259247999638319,
        -0.11561326682567596,
        -0.21840132772922516,
        0.13576790690422058,
        0.13323703408241272,
        -0.018410127609968185,
        0.3859741985797882,
        0.07144753634929657,
        -0.157149076461792,
        -0.08386107534170151,
        0.43151068687438965,
        0.11457515507936478,
        0.22075867652893066,
        0.07982070744037628,
        0.24545131623744965,
        0.1664772629737854,
        -0.24616631865501404,
        0.012352842837572098,
        -0.19406470656394958,
        -0.00007468288822565228,
        -0.26413998007774353,
        -0.20983940362930298,
        0.1468241959810257,
        -0.2994798421859741,
        0.2691285312175751,
        0.1832137554883957,
        0.04136188328266144,
        0.31555891036987305,
        0.04036059230566025,
        -0.3471355438232422,
        0.005863582249730825,
        -0.12349944561719894,
        -0.3738003373146057,
        0.2888219356536865,
        -0.22920720279216766,
        -0.28346940875053406,
        0.3247604966163635,
        -0.050601791590452194,
        0.5263879299163818,
        -0.1988300383090973,
        0.11002494394779205,
        -0.10956373810768127,
        -0.12459474802017212,
        -0.28129005432128906,
        -0.15511062741279602,
        -0.3512280583381653,
        -0.012538044713437557,
        0.0937337577342987,
        0.30366867780685425,
        -0.05198320746421814,
        -0.05621122568845749,
        0.27277514338493347,
        0.027732502669095993,
        -0.2711591422557831,
        0.20774723589420319,
        -0.40734073519706726,
        0.04474251717329025,
        -0.2636004388332367,
        -0.4659416377544403,
        0.1657354086637497,
        0.03244221210479736,
        -0.1774098128080368,
        0.17368946969509125,
        -0.23863443732261658,
        -0.05285078287124634,
        0.14577381312847137,
        0.12044614553451538,
        -0.017170727252960205,
        0.050588760524988174,
        0.3189667761325836,
        0.12872469425201416,
        -0.10864920169115067,
        -0.09278306365013123,
        -0.13041681051254272,
        -0.4230710566043854,
        -0.4231293797492981,
        0.050775934010744095,
        0.22436164319515228,
        -0.04669902101159096,
        -0.30768993496894836,
        -0.09270720928907394,
        0.23272715508937836,
        -0.1674196422100067,
        0.445905476808548,
        -0.2045554220676422,
        0.4062129557132721,
        0.03648817166686058,
        -0.10506373643875122,
        0.08467862010002136,
        -0.009201559238135815,
        -0.2360970824956894,
        -0.21406038105487823,
        -0.10729330033063889,
        -0.052203983068466187,
        -0.19767260551452637,
        0.014623662456870079,
        -0.3008064925670624,
        -0.23772116005420685,
        -0.19046291708946228,
        0.11254598200321198,
        -0.09132630378007889,
        -0.04755481332540512,
        -0.013999187387526035,
        0.2522572875022888,
        -0.2549702525138855,
        -0.04483269900083542,
        0.25003814697265625,
        -0.3552664816379547,
        -0.0172385536134243,
        -0.1444426327943802,
        -0.1808994710445404,
        -0.17026254534721375,
        -0.12394475191831589,
        -0.19498670101165771,
        -0.025816747918725014,
        0.2099587768316269,
        0.028268616646528244,
        -0.4290175437927246,
        -0.028403207659721375,
        -0.13330700993537903,
        0.2414296567440033,
        -0.47333794832229614,
        -0.28128618001937866,
        0.008395444601774216,
        0.014076665043830872,
        -0.10427387058734894,
        0.12166164815425873,
        0.060213230550289154,
        -0.15032963454723358,
        -0.3178708851337433,
        0.1028379276394844,
        0.3701099157333374,
        0.02274014800786972,
        -0.21567773818969727,
        0.0701446458697319,
        -0.12957468628883362,
        0.25113967061042786,
        -0.13307105004787445,
        0.07365311682224274,
        0.06080149859189987,
        0.12925590574741364,
        -0.08943948894739151,
        0.24118293821811676,
        -0.5832445025444031,
        -0.1920052021741867,
        0.028730902820825577,
        -0.08754748851060867,
        -0.1148400530219078,
        0.2712579667568207,
        -0.11762242764234543,
        -0.015517889522016048,
        -0.2614794671535492,
        0.05762004479765892,
        -0.034296613186597824,
        0.05413020774722099,
        -0.11498070508241653,
        -0.023256966844201088,
        0.002739286981523037,
        -0.19627204537391663,
        -0.08446633070707321,
        -0.026179321110248566,
        -0.14814050495624542,
        0.13060259819030762,
        0.09833507984876633,
        -0.24708223342895508,
        -0.055137526243925095,
        -0.05508079752326012,
        -0.06604402512311935,
        -0.16126790642738342,
        0.27335578203201294,
        -0.12162700295448303,
        -0.08023977279663086,
        0.08637755364179611,
        -0.19727222621440887,
        0.23110325634479523,
        0.3690391778945923,
        -0.3329090476036072,
        -0.30748650431632996,
        0.022881116718053818,
        0.04063880071043968,
        -0.3037034869194031,
        -0.42203718423843384,
        -0.14422327280044556,
        -0.4082949459552765,
        0.011413895525038242,
        -0.325603187084198,
        -0.2715074419975281,
        -0.09920218586921692,
        -0.010969237424433231,
        -0.11266517639160156,
        -0.14406375586986542,
        0.06950812041759491,
        -0.05110551044344902,
        0.10467705130577087,
        0.2126282900571823,
        -0.1793241947889328,
        0.33194905519485474,
        0.10594192147254944,
        -0.6560258865356445,
        0.2834855020046234,
        -0.07818055152893066,
        0.064175084233284,
        0.38364237546920776,
        -0.1888861507177353,
        0.05817151069641113,
        -0.3402024209499359,
        -0.06213204190135002,
        -0.24825799465179443,
        -0.012425394728779793,
        -0.08116236329078674,
        0.03775325417518616,
        0.21205443143844604,
        -0.0523214116692543,
        0.050597187131643295,
        0.06089181452989578,
        0.24357903003692627,
        -0.09212476760149002,
        -0.3600437641143799,
        -0.076163649559021,
        0.4232253134250641,
        -0.08890662342309952,
        -0.16428111493587494,
        0.0984942615032196,
        -0.1999565064907074,
        0.3181302845478058,
        -0.06463420391082764,
        -0.16678306460380554,
        0.02393358200788498,
        -0.3527631163597107,
        0.022220637649297714,
        0.29694893956184387,
        -0.2587880492210388,
        -0.04289820417761803,
        0.01174644473940134,
        -0.06998974084854126,
        -0.20874926447868347,
        0.043669987469911575,
        0.026001812890172005,
        -0.18195796012878418,
        0.03717426955699921,
        -0.033321939408779144,
        0.2666264772415161,
        -0.23241986334323883,
        0.2639053761959076,
        0.13947641849517822,
        0.1589207500219345,
        -0.3869101405143738,
        -0.2956886887550354,
        0.11324585974216461,
        -0.07693080604076385,
        -0.15069736540317535,
        -0.2402420938014984,
        -0.09846075624227524,
        -0.2607097327709198,
        -0.12157213687896729,
        -0.10061219334602356,
        -0.13016453385353088,
        0.14055472612380981,
        0.06159532442688942,
        -0.17655029892921448,
        0.3404111862182617,
        0.13438177108764648,
        -0.00475691445171833,
        -0.020380422472953796,
        0.060729652643203735,
        -0.03553127497434616,
        0.04288451746106148,
        0.15898406505584717,
        0.09751691669225693,
        -0.21149170398712158,
        -0.06976311653852463,
        -0.1915925294160843,
        -0.14403769373893738,
        0.028915278613567352,
        0.09441548585891724,
        0.006053514312952757,
        0.22467465698719025,
        -0.005803658161312342,
        0.18212072551250458,
        0.13423901796340942,
        -0.5960074067115784,
        -0.09506730735301971,
        -0.05742407590150833,
        -0.10187448561191559,
        0.36130043864250183,
        0.41952285170555115,
        -0.1121748760342598,
        -0.1486341655254364,
        -0.04604702070355415,
        -0.091863714158535,
        0.26571470499038696,
        0.11356297880411148,
        0.018246451392769814,
        -0.25199082493782043,
        -0.33865562081336975,
        0.03350513055920601,
        -0.2359953224658966,
        -0.026508809998631477,
        -0.2414352297782898,
        0.029469406232237816,
        0.2941763401031494,
        -0.35864245891571045,
        0.034903813153505325,
        -0.3253883421421051,
        -0.06571563333272934,
        0.0644335225224495,
        -0.28541162610054016,
        0.03613932058215141,
        0.2720549702644348,
        -0.02448798343539238,
        -0.1580585539340973,
        -0.2646261155605316,
        0.1739816814661026,
        0.12367089092731476,
        0.17255084216594696,
        0.02284456230700016,
        -0.03891250118613243,
        0.07876670360565186,
        0.16792137920856476,
        0.13881058990955353,
        -0.23494288325309753,
        -0.21261641383171082,
        -0.3296256959438324,
        0.19012589752674103,
        -0.320816308259964,
        0.13789719343185425,
        0.17698028683662415,
        -0.09407094120979309,
        -0.1046980619430542,
        -0.006079124286770821,
        0.4107716679573059,
        0.0885062962770462,
        0.19279257953166962,
        0.37947696447372437,
        -0.15467816591262817,
        -0.04178398847579956,
        -0.16665728390216827,
        -0.16373759508132935,
        -0.061552342027425766,
        0.07840966433286667,
        -0.2521328628063202,
        0.09745236486196518,
        -0.1460346132516861,
        0.3179474174976349,
        0.0454137809574604,
        0.125377357006073,
        0.4152526259422302,
        -0.3837430775165558,
        -0.08179472386837006,
        0.016857488080859184,
        0.07876880466938019,
        -0.049455709755420685,
        0.04345964267849922,
        -0.2593269944190979,
        -0.053207408636808395,
        0.02337879128754139,
        0.17930692434310913,
        0.11541260033845901,
        0.10307159274816513,
        0.20899291336536407,
        -0.05558063089847565,
        0.0450810007750988,
        -0.023743830621242523,
        -0.1173328310251236,
        -0.0841430202126503,
        0.13109639286994934,
        0.13114765286445618,
        -0.08648257702589035,
        -0.07181403785943985,
        -0.050638046115636826,
        -0.2585379183292389,
        0.062058642506599426,
        -0.2268466055393219,
        -0.11885352432727814,
        0.3889180123806,
        -0.16062332689762115,
        -0.015254695899784565,
        -0.2078857123851776,
        -0.037553589791059494,
        -0.028646886348724365,
        0.015674002468585968,
        -0.15081706643104553,
        0.17250125110149384,
        -0.21835215389728546,
        -0.15107332170009613,
        -0.17705121636390686,
        0.0799386277794838,
        0.05362417921423912,
        0.4209698438644409,
        -0.14621129631996155,
        0.014627166092395782,
        0.12228165566921234,
        0.04473011940717697,
        0.14142684638500214,
        0.1688014715909958,
        -0.1470317542552948,
        -0.20574326813220978,
        -0.09335994720458984,
        -0.5615426301956177,
        0.3572327196598053,
        0.0459233820438385,
        0.15477502346038818,
        -0.06135881319642067,
        -0.008775184862315655,
        0.124311663210392,
        0.05997256934642792,
        0.0011030829045921564,
        -0.1074761375784874,
        0.1367722898721695,
        0.00222411984577775,
        -0.3601686358451843,
        0.1505952626466751,
        0.053195733577013016,
        -0.16236406564712524,
        -0.08458761870861053,
        -0.0843840166926384,
        0.07327891141176224,
        -0.27915024757385254,
        -0.2721055746078491,
        0.07674480974674225,
        0.18043185770511627,
        -0.23750655353069305,
        0.18036417663097382,
        0.13608916103839874,
        -0.2425745576620102,
        0.1131562888622284,
        0.15300118923187256,
        -0.15821906924247742,
        -0.27615851163864136,
        -0.16883526742458344,
        -0.042848046869039536,
        0.060833144932985306,
        0.09957284480333328,
        0.11834919452667236,
        0.27190467715263367,
        -0.27217647433280945,
        -0.08920583128929138,
        -0.12293243408203125,
        -0.1403263360261917,
        -0.11906949430704117,
        -0.007498269900679588,
        0.14846430718898773,
        0.22237446904182434,
        -0.00044106109999120235,
        0.3151918053627014,
        0.43093737959861755,
        0.10671587288379669,
        0.026148319244384766,
        0.11972931027412415,
        -0.12414368242025375,
        0.1459176391363144,
        -0.19465142488479614,
        -0.0267387293279171,
        0.009136145934462547,
        -0.04300391301512718,
        0.24902848899364471,
        -0.24929936230182648,
        -0.2409655749797821,
        0.09674764424562454,
        0.07745884358882904,
        0.02940836362540722,
        -0.06078303977847099,
        -0.5317397713661194,
        0.005564799532294273,
        -0.23042729496955872,
        -0.050682853907346725,
        -0.13962653279304504,
        -0.09655535221099854,
        -0.12830045819282532,
        0.15625785291194916,
        -0.10856707394123077,
        0.1906568557024002,
        -0.1715712696313858,
        0.13433609902858734,
        -0.04185313358902931,
        0.20756134390830994,
        0.3215562105178833,
        0.32696688175201416,
        -0.0751485824584961,
        -0.30418887734413147,
        -0.21003051102161407,
        -0.008864321745932102,
        0.05309011787176132,
        -0.24118515849113464,
        0.022206401452422142,
        0.11537327617406845,
        0.0538545623421669,
        -0.015862146392464638,
        0.09159930050373077,
        -0.38331395387649536,
        -0.023325663059949875,
        0.08127013593912125,
        0.06480715423822403,
        0.18340513110160828,
        0.18845760822296143,
        0.3615708649158478,
        -0.009227326139807701,
        -0.15120483934879303,
        0.29649293422698975,
        0.3634989857673645,
        0.023226827383041382,
        -0.11606650054454803,
        0.3532383143901825,
        0.058555591851472855,
        -0.07643239200115204,
        0.6494357585906982,
        -0.11622798442840576,
        -0.01832570508122444,
        0.10191497206687927,
        -0.28818362951278687,
        -0.15409515798091888,
        0.08251383155584335,
        -0.14515283703804016,
        -0.0005308499094098806,
        -0.2867453098297119,
        -0.03878912702202797,
        0.010916904546320438,
        -0.06298325955867767,
        0.27673834562301636,
        0.02491449937224388,
        0.18176478147506714,
        -0.057877615094184875,
        -0.0412319041788578,
        0.11728924512863159,
        -0.10323286801576614,
        -0.056931477040052414,
        0.1265440136194229,
        -0.32884469628334045,
        0.335069864988327,
        -0.0135134756565094,
        0.34501299262046814,
        -0.24619948863983154,
        0.033072762191295624,
        0.2477603703737259,
        0.3192618787288666,
        -0.00636301701888442,
        -0.0008038753876462579,
        0.35085806250572205,
        0.025136049836874008,
        -0.05490880087018013,
        -0.0019306521862745285,
        -0.09226971864700317,
        -0.02170664258301258,
        0.017539076507091522,
        -0.13338671624660492,
        -0.03076259233057499,
        -0.11583505570888519,
        0.021647732704877853,
        -0.02235405147075653,
        0.03890335559844971,
        -0.09464018791913986,
        0.10378552228212357,
        -0.00010386599024059251,
        0.16118477284908295,
        0.07530518621206284,
        -0.05999051406979561,
        -0.06874390691518784,
        0.1581309586763382,
        -0.26144149899482727,
        0.009109207428991795,
        -0.1612948775291443,
        0.2149055153131485,
        0.16993187367916107,
        0.039198797196149826,
        -0.17198601365089417,
        -0.06871365010738373,
        -0.1610117256641388,
        0.11932671815156937,
        0.16262580454349518,
        0.09472817182540894,
        -0.22887788712978363,
        -0.12539251148700714,
        0.27491918206214905,
        0.10939507931470871,
        0.07959838211536407,
        -0.07758799940347672,
        -0.06619288772344589,
        0.3283536434173584,
        -0.03276117146015167,
        0.16553223133087158,
        -0.12279008328914642,
        -0.06719493120908737,
        0.16398555040359497,
        -0.014681894332170486,
        -0.14373672008514404,
        -0.16075176000595093,
        -0.2713991105556488,
        0.043766118586063385,
        0.08484559506177902,
        -0.048197705298662186,
        0.22391687333583832,
        -0.09119237214326859,
        -0.20357701182365417,
        -0.33165645599365234,
        -0.029530830681324005,
        0.08176548033952713,
        -0.1212378516793251,
        -0.14639301598072052,
        0.12963584065437317,
        -0.1430855244398117,
        0.1504911482334137,
        -0.11369737982749939,
        -0.13914364576339722,
        -0.20238645374774933,
        0.030032603070139885,
        -0.05160981044173241,
        -0.1746012270450592,
        0.0931708812713623,
        0.3915444612503052,
        0.08539129048585892,
        0.04290274158120155,
        0.16598111391067505,
        0.19923202693462372,
        -0.2512660324573517,
        -0.0709228664636612,
        0.2856646776199341,
        -0.03752169385552406,
        -0.24976865947246552,
        0.32631614804267883,
        -0.1388862580060959,
        -0.039964791387319565,
        -0.20159384608268738,
        0.3344143331050873,
        0.19834046065807343,
        0.1369483470916748,
        -0.11458973586559296,
        0.08810454607009888,
        -0.1172744408249855,
        -0.28788772225379944,
        0.08493073284626007,
        -0.15689833462238312,
        -0.23645277321338654,
        0.18176370859146118,
        -0.18497101962566376,
        -0.1221940815448761,
        -0.1434311866760254,
        -0.07771869003772736,
        0.4075299799442291,
        0.08563023805618286,
        0.0966118723154068,
        -0.1316509246826172,
        -0.030801769345998764,
        0.020167021080851555,
        0.08386078476905823,
        0.5597217082977295,
        0.018409335985779762,
        -0.07317641377449036,
        -0.2419864535331726,
        0.01698194071650505,
        0.12419142574071884,
        -0.16899201273918152,
        -0.0831131637096405,
        0.03127614036202431,
        0.3627225458621979,
        -0.38916483521461487,
        -0.22156815230846405,
        0.021164588630199432,
        -0.18464629352092743,
        -0.006286383140832186,
        -0.18647266924381256,
        -0.09304075688123703,
        0.5714554786682129,
        0.10569779574871063,
        0.4561660587787628,
        -0.12098145484924316,
        0.0489303357899189,
        -0.1704149842262268,
        0.027612026780843735,
        0.09648685902357101,
        -0.20145954191684723,
        -0.2846940755844116,
        -0.0856424868106842,
        -0.08854418992996216,
        0.020474852994084358,
        -0.08547240495681763,
        -0.3019643723964691,
        -0.027536191046237946,
        -0.5346303582191467,
        0.12803079187870026,
        0.08792440593242645,
        0.22781848907470703,
        -0.02607525698840618,
        -0.20391200482845306,
        -0.09100580215454102,
        0.13476769626140594,
        0.20264218747615814,
        -0.05618426576256752,
        0.09677525609731674,
        0.3230940103530884,
        -0.06784006953239441,
        0.08115947991609573,
        -0.26110532879829407,
        0.17367100715637207,
        0.030389454215765,
        -0.07342710345983505,
        -0.09643887728452682,
        -0.2379099428653717,
        0.19794395565986633,
        -0.02636072039604187,
        -0.22945883870124817,
        -0.015530286356806755,
        0.08091386407613754,
        -0.06236671656370163,
        -0.13264088332653046,
        -0.2297213077545166,
        -0.08592084795236588,
        -0.06466943770647049,
        -0.223309725522995,
        0.06167403981089592,
        0.05738501995801926,
        0.09878982603549957,
        -0.17780807614326477,
        -0.1662510484457016,
        -0.1308271884918213,
        -0.013160559348762035,
        0.18888156116008759,
        0.04354499652981758,
        -0.0807405635714531,
        -0.11992474645376205,
        0.14772939682006836,
        -0.18704815208911896,
        0.15733082592487335,
        0.06948773562908173,
        0.1636306494474411,
        0.287693053483963,
        -0.2826521098613739,
        0.15192943811416626,
        0.10322005301713943,
        -0.04033774882555008,
        0.25214704871177673,
        -0.13266701996326447,
        0.22432807087898254,
        0.24142798781394958,
        0.054257478564977646,
        -0.17686624825000763,
        0.21508243680000305,
        0.11963556706905365,
        -0.03655465692281723,
        0.024593524634838104,
        -0.037992704659700394,
        -0.19226442277431488,
        0.22541940212249756,
        0.023503847420215607,
        -0.37739676237106323,
        -0.1214352622628212,
        0.10581780225038528,
        0.013485546223819256,
        0.24863854050636292,
        -0.12601901590824127,
        -0.098988838493824,
        -0.0095744077116251,
        -0.14688095450401306,
        0.3245570957660675,
        0.027677470818161964,
        -0.016036011278629303,
        0.3294465243816376,
        -0.0024033207446336746,
        -0.03172774985432625,
        -0.2183838188648224,
        0.2855486273765564,
        -0.10851268470287323,
        0.011156979948282242,
        0.017412349581718445,
        -0.25997063517570496,
        -0.3922003507614136,
        0.1343712955713272,
        -0.18488024175167084,
        -0.2008008360862732,
        -0.22217817604541779,
        0.009537393227219582,
        -0.010355346836149693,
        -0.15232154726982117,
        0.20564094185829163,
        -0.12257497012615204,
        -0.4030001163482666,
        -0.013883735984563828,
        0.3228261470794678,
        0.08487889170646667,
        0.18363888561725616,
        0.037332404404878616,
        0.2536014914512634,
        -0.11407727748155594,
        0.48885858058929443,
        -0.25983744859695435,
        0.3228490650653839,
        0.2817353308200836,
        -0.08107169717550278,
        -0.19615523517131805,
        0.2777297794818878,
        -0.15112347900867462,
        -0.11395356804132462,
        -0.2284129410982132,
        0.215984046459198,
        0.14810939133167267,
        -0.34970879554748535,
        -0.08580411225557327,
        0.1396102011203766,
        0.2662545144557953,
        -0.15764129161834717,
        -0.03734547272324562,
        -0.26364344358444214,
        0.08895678073167801,
        -0.04428239166736603,
        0.4676891267299652,
        -0.24619853496551514,
        -0.1388351321220398,
        -0.02400505729019642,
        -0.07982850819826126,
        0.06988868862390518,
        -0.2605055272579193,
        0.021312035620212555,
        -0.015263458713889122,
        0.07655593007802963,
        -0.15534387528896332,
        -0.2207915186882019,
        -0.2030368447303772,
        -0.053134575486183167,
        0.027119213715195656,
        0.18875153362751007,
        -0.0316595658659935,
        -0.14209875464439392,
        -0.09440524131059647,
        0.123348169028759,
        0.11476939916610718,
        0.05595564842224121,
        -0.05094249173998833,
        -0.11494140326976776,
        -0.0729890763759613,
        0.00622325437143445,
        0.016743125393986702,
        -0.081489197909832,
        0.1306992918252945,
        -0.050434812903404236,
        -0.29862627387046814,
        0.08494516462087631,
        0.11241748183965683,
        -0.08058929443359375,
        -0.05991118401288986,
        0.19527146220207214,
        -0.07606702297925949,
        -0.06755279004573822,
        0.05614485964179039,
        -0.03130817413330078,
        -0.00888634379953146,
        0.13175362348556519,
        0.07723727822303772,
        0.15251009166240692,
        0.04242512956261635,
        0.5095892548561096,
        -0.0834786519408226,
        0.24775072932243347,
        -0.2654716968536377,
        0.2601100206375122,
        0.5562246441841125,
        0.37241214513778687,
        -0.21655860543251038,
        -0.23762880265712738,
        0.08501710742712021,
        0.3111748695373535,
        -0.16200943291187286,
        -0.0798402950167656,
        -0.19137118756771088,
        0.20029939711093903,
        0.23499037325382233,
        -0.3950432240962982,
        0.09425436705350876,
        -0.18821395933628082,
        0.228634774684906,
        0.16263143718242645,
        0.19220185279846191,
        0.1627892255783081,
        -0.17401587963104248,
        -0.13380557298660278,
        0.15756262838840485,
        0.01914024166762829,
        0.23036667704582214,
        0.010294263251125813,
        -0.32545149326324463,
        0.09246186167001724,
        -0.222913920879364,
        0.11999525129795074,
        -0.023021794855594635,
        0.23106305301189423,
        -0.1697186678647995,
        -0.16212274134159088,
        -0.2926875650882721,
        0.16032680869102478,
        -0.022085953503847122,
        0.040336724370718,
        0.0753614753484726,
        -0.011529864743351936,
        0.10216378420591354,
        -0.0027270058635622263,
        -0.0273158997297287,
        -0.27825093269348145,
        -0.08233347535133362,
        0.2820795178413391,
        -0.04451882094144821,
        0.05649483576416969,
        0.01604188047349453,
        0.020235499367117882,
        0.15862247347831726,
        0.27149897813796997,
        -0.20656916499137878,
        -0.31984809041023254,
        0.17118951678276062,
        -0.11634812504053116,
        0.16529260575771332,
        -0.2906850278377533,
        -0.2558722496032715,
        -0.002418823540210724,
        0.04245224967598915,
        0.22285081446170807,
        -0.19339515268802643,
        -0.09608214348554611,
        0.14750155806541443,
        -0.43521609902381897,
        -0.25505298376083374,
        0.14548403024673462,
        0.23911239206790924,
        -0.013077529147267342,
        -0.24396014213562012,
        0.018869265913963318,
        -0.4870440661907196,
        0.012328924611210823,
        -0.42495816946029663,
        -0.08269395679235458,
        0.3081790804862976,
        0.1769249588251114,
        0.3224203586578369,
        0.2164049744606018,
        0.2787274420261383,
        0.3345823884010315,
        -0.08626101166009903,
        0.09244608879089355,
        -0.1130366399884224,
        -0.06146512180566788,
        0.3136909008026123,
        0.10965057462453842,
        0.07103826105594635,
        -0.08265529572963715,
        0.04753117263317108,
        0.1412520408630371,
        0.039761241525411606,
        0.21940185129642487,
        -0.27016741037368774,
        -0.1233149841427803,
        0.1971488893032074,
        -0.24827542901039124,
        -0.17704583704471588,
        0.13867181539535522,
        0.039415307343006134,
        -0.19835695624351501,
        -0.16104711592197418,
        -0.17356212437152863,
        0.025539806112647057,
        0.058879632502794266,
        -0.20635193586349487,
        -0.00877650361508131,
        0.07054466754198074,
        -0.141015887260437,
        0.21418315172195435,
        0.05870258808135986,
        0.04501044750213623,
        0.23386985063552856,
        0.11225250363349915,
        0.13774797320365906,
        0.14222732186317444,
        0.1576114147901535,
        0.02210524119436741,
        -0.3817027509212494,
        -0.24563361704349518,
        0.07194160670042038,
        0.028500908985733986,
        -0.0033176997676491737,
        -0.14450594782829285,
        0.1916169375181198,
        0.04737863689661026,
        -0.04900277033448219,
        0.2147400677204132,
        -0.19585636258125305,
        -0.015093464404344559,
        -0.014799189753830433,
        0.1681174784898758,
        0.028723882511258125,
        -0.27010461688041687,
        0.017313405871391296,
        -0.1049678772687912,
        -0.004682293627411127,
        0.20397460460662842,
        -0.22632165253162384,
        0.05336783453822136,
        -0.19247595965862274,
        0.49855276942253113,
        -0.07292498648166656,
        0.2098095864057541,
        0.11882558465003967,
        0.15825796127319336,
        -0.05602319538593292,
        0.11324343830347061,
        0.11998184025287628,
        0.15651749074459076,
        0.16835322976112366,
        0.05482564494013786,
        -0.0006547430530190468,
        -0.06542391330003738,
        0.27586841583251953,
        -0.1422489732503891,
        0.2019067406654358,
        0.15406154096126556,
        -0.03411435708403587,
        0.14912186563014984,
        0.12815049290657043,
        0.07846149057149887,
        -0.3113386034965515,
        0.12490417808294296,
        0.07307329028844833,
        0.2964141070842743,
        -0.022726401686668396,
        -0.1994391232728958,
        -0.27567312121391296,
        -0.0326535627245903,
        -0.10946255177259445,
        -0.22349412739276886,
        -0.15122033655643463,
        -0.06168033182621002,
        0.05640261620283127,
        -0.11999443918466568,
        -0.0033316046465188265,
        -0.04538031667470932,
        0.18453086912631989,
        -0.1623740792274475,
        0.14941702783107758,
        0.06048712506890297,
        -0.050532106310129166,
        0.01371731422841549,
        -0.2779563069343567,
        -0.015452247112989426,
        -0.5664854049682617,
        -0.1602196991443634,
        -0.08062171936035156,
        -0.23265065252780914,
        -0.020570678636431694,
        0.08202467858791351,
        -0.15056033432483673,
        0.15878276526927948,
        0.019681597128510475,
        0.11143002659082413,
        -0.20141291618347168,
        -0.12465871125459671,
        0.12621724605560303,
        0.030787620693445206,
        -0.0007278582197614014,
        0.2818027436733246,
        -0.20686833560466766,
        0.14695043861865997,
        -0.09446560591459274,
        -0.0814855620265007,
        -0.24639320373535156,
        0.24510963261127472,
        -0.12532931566238403,
        0.13051408529281616,
        0.22955578565597534,
        -0.27847743034362793,
        -0.01125510036945343,
        -0.09842943400144577,
        0.028416065499186516,
        0.0689801573753357,
        -0.15437249839305878,
        0.061982858926057816,
        -0.29346805810928345,
        -0.02521870844066143,
        -0.3292962312698364,
        0.14632393419742584,
        -0.11303511261940002,
        0.14391270279884338,
        0.0423215851187706,
        -0.09849080443382263,
        0.08723951876163483,
        0.0009773861384019256,
        -0.25698211789131165,
        -0.01947551779448986,
        0.22161716222763062,
        -0.18521270155906677,
        0.25940844416618347,
        0.04713578149676323,
        -0.18942740559577942,
        0.08340635895729065,
        0.0596160814166069,
        -0.05400969833135605,
        0.03865431994199753,
        -0.1958184838294983,
        -0.00337219494394958,
        -0.07802751660346985,
        -0.057075127959251404,
        0.37286844849586487,
        -0.4821529984474182,
        0.10121965408325195,
        0.2498818039894104,
        -0.11406206339597702,
        0.2228168398141861,
        0.09352850168943405,
        -0.3111906051635742,
        0.0482708103954792,
        -0.10392243415117264,
        -0.09093783050775528,
        0.05887797474861145,
        0.1774951070547104,
        -0.04576271027326584,
        0.1763371080160141,
        0.2338578701019287,
        -0.14759401977062225,
        0.07524872571229935,
        -0.23480746150016785,
        0.12244771420955658,
        -0.08503700792789459,
        0.187119260430336,
        0.07277984172105789,
        -0.04856410250067711,
        0.05710962414741516,
        -0.290997713804245,
        0.0801972970366478,
        -0.23435480892658234,
        0.37201422452926636,
        0.36498919129371643,
        0.056360747665166855,
        0.0739775076508522,
        0.23604536056518555,
        -0.1625797003507614,
        -0.19115512073040009,
        -0.47558125853538513,
        -0.09038066864013672,
        0.1082584485411644,
        -0.20674793422222137,
        -0.05292997136712074,
        -0.12717236578464508,
        -0.01538523007184267,
        -0.161798357963562,
        -0.01647024042904377,
        -0.35340389609336853,
        0.33178314566612244,
        0.038649819791316986,
        0.12711521983146667,
        -0.36573871970176697,
        0.0689915344119072,
        -0.0033514155074954033,
        -0.020511310547590256,
        0.1556244194507599,
        0.0008508021128363907,
        0.16487249732017517,
        -0.0008747636456973851,
        -0.010860173963010311,
        -0.19330419600009918,
        -0.3960435092449188,
        -0.12306508421897888,
        -0.3627220690250397,
        -0.5084686279296875,
        0.18929407000541687,
        0.051150303333997726,
        0.1312435418367386,
        -0.2776791751384735,
        -0.25483453273773193,
        -0.1302201896905899,
        -0.06967740505933762,
        0.27388229966163635,
        0.3128516972064972,
        0.12862540781497955,
        -0.02054004743695259,
        0.15993832051753998,
        0.01949230208992958,
        0.15712286531925201,
        0.03543531522154808,
        0.27277475595474243,
        -0.089055635035038,
        -0.27339330315589905,
        0.26729872822761536,
        -0.19359859824180603,
        -0.41289934515953064,
        -0.26291197538375854,
        -0.22149375081062317,
        0.3637751638889313,
        0.15544995665550232,
        -0.08543998748064041,
        0.08022677898406982,
        0.17765547335147858,
        0.40496668219566345,
        0.16819971799850464,
        0.3935225009918213,
        0.12522518634796143,
        0.09508122503757477,
        0.37250223755836487,
        -0.36824142932891846,
        -0.06971211731433868,
        -0.08505173772573471,
        0.019222376868128777,
        -0.12379101663827896,
        -0.43896716833114624,
        0.13423091173171997,
        0.3383355736732483,
        -0.2017185091972351,
        0.06553635001182556,
        -0.05340665578842163,
        0.14551089704036713,
        -0.3383897840976715,
        -0.09160739928483963,
        0.05714019387960434,
        0.28520530462265015,
        0.09990110993385315,
        0.03275348246097565,
        -0.17976775765419006,
        0.11866354942321777,
        0.13046440482139587,
        -0.2220347821712494,
        -0.05749444290995598,
        0.1299518197774887,
        0.162271186709404,
        -0.04265545308589935,
        -0.17654776573181152,
        0.17632971704006195,
        0.1930701732635498,
        -0.057893842458724976,
        -0.07625604420900345,
        -0.1577969193458557,
        0.07003456354141235,
        0.19933179020881653,
        0.10234587639570236,
        0.4107489585876465,
        0.16558456420898438,
        -0.08955644816160202,
        -0.03866936266422272,
        0.017428068444132805,
        -0.33483201265335083,
        -0.20388288795948029,
        0.09767022728919983,
        -0.20772115886211395,
        0.007857405580580235,
        -0.0416722297668457,
        -0.03437438979744911,
        -0.35720935463905334,
        0.011900422163307667,
        -0.13561920821666718,
        0.09599453210830688,
        -0.09430412203073502,
        0.034580715000629425,
        0.10962525755167007,
        0.2537651062011719,
        0.17134684324264526,
        0.32498690485954285,
        -0.14362052083015442,
        0.03168772906064987,
        0.07136202603578568,
        0.08513259887695312,
        -0.0577734149992466,
        -0.28875792026519775,
        -0.08083752542734146,
        0.024192536249756813,
        -0.01890408806502819,
        -0.040424831211566925,
        -0.105680912733078,
        0.18297116458415985,
        -0.09134151041507721,
        0.13118349015712738,
        0.30210644006729126,
        -0.05605778098106384,
        0.011532307602465153,
        -0.0478825606405735,
        0.06880035251379013,
        0.1610885113477707,
        -0.1893034279346466,
        -0.07700605690479279,
        -0.10364975780248642,
        -0.029572902247309685,
        -0.20345857739448547,
        -0.10564585030078888,
        -0.08779311180114746,
        -0.2002076357603073,
        -0.10779969394207001,
        0.0437653586268425,
        0.08042570948600769,
        -0.014793762937188148,
        0.30854734778404236,
        -0.045999545603990555,
        0.17063550651073456,
        0.09118688851594925,
        -0.12323515862226486,
        0.17179055511951447,
        -0.06377998739480972,
        -0.16772513091564178,
        -0.07225045561790466,
        0.3109663724899292,
        -0.03176472336053848,
        0.0029430491849780083,
        -0.07215161621570587,
        0.0015754841733723879,
        -0.03233284130692482,
        -0.01389604527503252,
        0.1340629905462265,
        0.08598975092172623,
        0.20606425404548645,
        -0.16203181445598602,
        0.2117532342672348,
        -0.15622170269489288,
        -0.08786120265722275,
        0.07338474690914154,
        0.3113929331302643,
        0.19924931228160858,
        0.15592068433761597,
        -0.006742527242749929,
        -0.11711890250444412,
        0.28359925746917725,
        0.12841857969760895,
        -0.1630876064300537,
        -0.08698489516973495,
        0.17619019746780396,
        -0.07311790436506271,
        0.07214237749576569,
        -0.11906076222658157,
        -0.2149718850851059,
        0.2523403763771057,
        0.05377281457185745,
        -0.10497098416090012,
        -0.18799492716789246,
        -0.11787258088588715,
        0.2510981261730194,
        0.14653658866882324,
        -0.04489672929048538,
        0.3270585536956787,
        0.2452022135257721,
        0.011170173063874245,
        0.18290795385837555,
        -0.1214803084731102,
        -0.026468724012374878,
        -0.13507872819900513,
        0.015196391381323338,
        -0.30642232298851013,
        -0.125915065407753,
        0.37831318378448486,
        -0.21032074093818665,
        0.4275384545326233,
        0.1491892784833908,
        -0.027123237028717995,
        0.03341464325785637,
        0.12471841275691986,
        -0.21850529313087463,
        -0.040419768542051315,
        0.4182880222797394,
        0.04801624268293381,
        0.15457092225551605,
        0.10461880266666412,
        0.0072945193387568,
        0.044439297169446945,
        0.02991904504597187,
        -0.205332413315773,
        0.08388928323984146,
        0.1660546213388443,
        -0.126936674118042,
        -0.33405840396881104,
        0.019909339025616646,
        0.10981954634189606,
        -0.15526966750621796,
        0.35141608119010925,
        -0.029113437980413437,
        -0.15405987203121185,
        -0.1881248652935028,
        -0.021091215312480927,
        0.12598833441734314,
        0.19746768474578857,
        0.20092642307281494,
        0.17921170592308044,
        -0.38966360688209534,
        -0.11086469143629074,
        0.019993679597973824,
        -0.09032175689935684,
        0.01135888323187828,
        -0.4968220889568329,
        -0.013845414854586124,
        0.16386093199253082,
        -0.09499181061983109,
        -0.06672941893339157,
        -0.08125020563602448,
        -0.4182852804660797,
        0.08311299979686737,
        -0.005120361689478159,
        -0.24289244413375854,
        -0.036647964268922806,
        -0.08048301190137863,
        -0.09095820784568787,
        -0.02942262403666973,
        0.13582231104373932,
        0.08747199177742004,
        -0.04259764775633812,
        -0.3306896984577179,
        -0.11575650423765182,
        0.01683923415839672,
        0.11782177537679672,
        -0.10845896601676941,
        0.09962192177772522,
        0.006571016740053892,
        0.11596410721540451,
        -0.10748697817325592,
        -0.2275041788816452,
        0.11918573826551437,
        -0.09053881466388702,
        -0.3924194276332855,
        -0.2022193819284439,
        -0.009381077252328396,
        -0.06230230629444122,
        0.11877225339412689,
        0.03793730214238167,
        -0.4090995192527771,
        -0.0004463242075871676,
        0.1486508995294571,
        -0.04603441059589386,
        0.18814247846603394,
        0.2476864457130432,
        0.08831309527158737,
        0.009087101556360722,
        0.08730745315551758,
        -0.23847278952598572,
        -0.038048841059207916,
        0.012717142701148987,
        0.030859611928462982,
        -0.06057276576757431,
        -0.08106275647878647,
        -0.18755404651165009,
        -0.004157470539212227,
        0.06230068579316139,
        0.2236270010471344,
        0.06719363480806351,
        0.047211818397045135,
        -0.036203719675540924,
        0.18632414937019348,
        0.2170814573764801,
        -0.5349071621894836,
        0.08590562641620636,
        -0.046620555222034454,
        0.0523739717900753,
        0.1352861523628235,
        0.0819428563117981,
        -0.12565676867961884,
        0.2702001929283142,
        -0.13769866526126862,
        0.07729531824588776,
        0.36841151118278503,
        0.04846012592315674,
        0.12091681361198425,
        -0.18336202204227448,
        0.39100760221481323,
        -0.10195237398147583,
        -0.03727353364229202,
        -0.11582333594560623,
        0.02172756940126419,
        0.10657241195440292,
        0.10766437649726868,
        0.2856900990009308,
        0.02486404962837696,
        0.2690376043319702,
        -0.15669511258602142,
        0.03577795997262001,
        -0.31437447667121887,
        -0.07119393348693848,
        0.14349365234375,
        0.12262281030416489,
        0.1528214067220688,
        -0.030193472281098366,
        -0.10691539943218231,
        0.04999702051281929,
        0.29909247159957886,
        -0.056868430227041245,
        -0.14559532701969147,
        -0.21166540682315826,
        0.02555263228714466,
        -0.19393014907836914,
        -0.3094237446784973,
        -0.18033988773822784,
        -0.15505176782608032,
        -0.04619480296969414,
        -0.3207695484161377,
        -0.29965806007385254,
        0.206266850233078,
        0.2244906723499298,
        -0.07607623189687729,
        -0.10263758152723312,
        0.21875913441181183,
        0.04691904038190842,
        -0.13045886158943176,
        -0.035880886018276215,
        0.15588785707950592,
        0.25199055671691895,
        -0.5688401460647583,
        -0.05644680932164192,
        -0.07757890969514847,
        0.15866144001483917,
        0.16922332346439362,
        -0.07059624791145325,
        0.03011724166572094,
        0.20816469192504883,
        0.10773066431283951,
        0.11245089024305344,
        0.48956677317619324,
        -0.003563467413187027,
        0.27876389026641846,
        0.11407390236854553,
        0.07980271428823471,
        0.06619866192340851,
        0.1668640673160553,
        0.01760951429605484,
        -0.0904763862490654,
        0.3863840103149414,
        0.0177396722137928,
        -0.2741006314754486,
        0.07707300037145615,
        -0.013150561600923538,
        0.14771094918251038,
        0.274225115776062,
        -0.23337160050868988,
        0.10219604521989822,
        0.24871063232421875,
        0.0171508826315403,
        0.0719962939620018,
        0.21078838407993317,
        0.1410074084997177,
        0.24651116132736206,
        0.31108036637306213,
        0.082130067050457,
        0.08969561010599136,
        0.16434012353420258,
        -0.1272420436143875,
        -0.06204450875520706,
        -0.2911554276943207,
        -0.10003732144832611,
        -0.25820761919021606,
        -0.0065931291319429874,
        -0.06482545286417007,
        0.2844788432121277,
        0.20977742969989777,
        -0.11587183177471161,
        0.06889983266592026,
        0.41348502039909363,
        0.18008188903331757,
        -0.018036432564258575,
        -0.13760356605052948,
        -0.01850569061934948,
        -0.13254404067993164,
        0.17653535306453705,
        0.04167915880680084,
        0.03865162655711174,
        0.06776970624923706,
        -0.24082766473293304,
        0.057166118174791336,
        0.4737078845500946,
        0.008188742212951183,
        0.08234511315822601,
        0.39798012375831604,
        0.20503683388233185,
        0.20686598122119904,
        0.07829506695270538,
        -0.07501088082790375,
        0.21507222950458527,
        0.07498310506343842,
        0.08767963945865631,
        0.045841559767723083,
        0.14741100370883942,
        -0.2706569731235504,
        -0.07878267019987106,
        -0.1786191463470459,
        0.01635029911994934,
        0.011572057381272316,
        -0.14165069162845612,
        -0.12467493116855621,
        0.008967498317360878,
        -0.10902103036642075,
        0.48409226536750793,
        0.02459084801375866,
        0.00915315467864275,
        0.020998522639274597,
        -0.14037439227104187,
        -0.16485163569450378,
        -0.16568730771541595,
        0.016242720186710358,
        0.23086446523666382,
        0.31354179978370667,
        -0.1906883716583252,
        0.03142913430929184,
        -0.174142524600029,
        0.34113892912864685,
        -0.15807487070560455,
        -0.06723058968782425,
        -0.3123621940612793,
        -0.1493779867887497,
        -0.06878297030925751,
        -0.1700105518102646,
        -0.06822514533996582,
        0.1711513102054596,
        0.04859985038638115,
        0.09129006415605545,
        -0.07707764953374863,
        -0.11257155984640121,
        -0.35113292932510376,
        0.07676800340414047,
        0.020209938287734985,
        0.09137938916683197,
        0.12250571697950363,
        -0.0951593667268753,
        0.12169818580150604,
        0.40420305728912354,
        -0.24632036685943604,
        -0.004151958040893078,
        0.2537863552570343,
        -0.0631454810500145,
        -0.2920060157775879,
        0.16703124344348907,
        -0.28847745060920715,
        0.16723038256168365,
        -0.049297917634248734,
        0.12393399327993393,
        -0.2832273840904236,
        0.02205502800643444,
        0.14227698743343353,
        0.12602174282073975,
        -0.0553218238055706,
        0.12495645880699158,
        0.1552845984697342,
        0.35820597410202026,
        -0.1636316180229187,
        -0.44161665439605713,
        -0.1848662793636322,
        -0.05808655917644501,
        -0.019172348082065582,
        -0.260850191116333,
        0.15584230422973633,
        -0.07617457211017609,
        -0.09938433021306992,
        -0.06527002155780792,
        0.19309061765670776,
        0.2828390598297119,
        -0.11002539843320847,
        0.15989521145820618,
        -0.10464923828840256,
        -0.248698428273201,
        0.32867366075515747,
        -0.048424310982227325,
        0.013967960141599178,
        -0.0020456474740058184,
        0.09658913314342499,
        -0.04173771291971207,
        -0.1753578931093216,
        -0.12554241716861725,
        -0.05045924708247185
      ],
      "weightsShape": [
        64,
        32
      ],
      "bias": [
        0.030070967972278595,
        -0.0036925035528838634,
        0.017619449645280838,
        0.028260471299290657,
        -0.005031326320022345,
        -0.009586352854967117,
        -0.062243979424238205,
        0.006186590064316988,
        0.02162087708711624,
        0,
        0,
        0.0172549057751894,
        0.058362655341625214,
        0,
        -0.015408674255013466,
        0,
        -0.021942229941487312,
        -0.02252861298620701,
        -0.018756432458758354,
        0.0018838428659364581,
        -0.017463406547904015,
        -0.009798979386687279,
        -0.009473606012761593,
        -0.0012608753750100732,
        0,
        0.003656613640487194,
        0.004530764650553465,
        0.02705891989171505,
        -0.0036327450070530176,
        -0.061011847108602524,
        0,
        0.035441502928733826
      ],
      "biasShape": [
        1,
        32
      ],
      "activation": "relu"
    },
    {
      "weights": [
        0.4448278546333313,
        -0.22426238656044006,
        0.42248260974884033,
        -0.6155627965927124,
        -0.32650619745254517,
        -0.3376368582248688,
        -0.7934000492095947,
        -0.01914774626493454,
        -0.910922646522522,
        0.37286868691444397,
        -0.18347066640853882,
        -0.1574273705482483,
        -0.40934959053993225,
        -0.250864177942276,
        -0.3759990334510803,
        0.34232497215270996,
        0.6268098950386047,
        0.5379044413566589,
        0.5363159775733948,
        0.533898115158081,
        -0.11939382553100586,
        -0.5782296061515808,
        -0.22345846891403198,
        -0.31115782260894775,
        0.2009204477071762,
        0.340160071849823,
        0.18974871933460236,
        -0.27594199776649475,
        0.9236844182014465,
        0.9987927675247192,
        0.09780338406562805,
        0.4573616087436676
      ],
      "weightsShape": [
        32,
        1
      ],
      "bias": [
        -0.14007101953029633
      ],
      "biasShape": [
        1,
        1
      ],
      "activation": "sigmoid"
    }
  ],
  "learningRate": 0.001,
  "l2Lambda": 0.00001
}