{
  "__kind": "NeuralNet",
  "version": 1,
  "layers": [
    {
      "weights": [
        -0.07033238559961319,
        -0.005707073491066694,
        -0.08470975607633591,
        0.4894005358219147,
        -0.6034742593765259,
        -0.23807308077812195,
        -0.057638898491859436,
        -0.2929505407810211,
        0.5797857046127319,
        0.315714567899704,
        -0.31392669677734375,
        0.08263806253671646,
        -0.6128678321838379,
        -0.40965262055397034,
        -0.8332486152648926,
        0.5038674473762512,
        -0.010893718339502811,
        -0.2677837312221527,
        -0.09216273576021194,
        0.43044742941856384,
        0.7061754465103149,
        0.00935211032629013,
        0.1875399351119995,
        -0.32767727971076965,
        -0.850536584854126,
        -0.26361846923828125,
        -0.8486451506614685,
        0.3673648238182068,
        -0.3473316431045532,
        0.8136746883392334,
        0.0767817273736,
        -0.025641746819019318,
        -0.10511172562837601,
        0.1824038326740265,
        0.73274827003479,
        -0.09107019752264023,
        0.10028835386037827,
        0.44450053572654724,
        -0.10499327629804611,
        -0.2571817934513092,
        0.7606918811798096,
        -0.010041545145213604,
        -0.036005064845085144,
        -0.4243951141834259,
        0.35354089736938477,
        0.06858298927545547,
        -0.14148060977458954,
        -0.027618279680609703,
        0.0045158639550209045,
        0.5488983988761902,
        -0.1524011194705963,
        0.7284314632415771,
        -0.08654270321130753,
        0.8733176589012146,
        -0.07041063159704208,
        0.16631963849067688,
        -0.37540802359580994,
        -0.35430261492729187,
        -0.2923004627227783,
        -0.5270065069198608,
        0.20569853484630585,
        0.032441966235637665,
        -0.3011177182197571,
        -0.5887960195541382,
        0.2696092426776886,
        0.2178603559732437,
        0.11785110831260681,
        -0.3608080744743347,
        -0.5449279546737671,
        -0.5105215311050415,
        1.466066837310791,
        0.43083345890045166,
        0.18334881961345673,
        0.5587354898452759,
        -0.2596330940723419,
        0.05169914290308952,
        -0.08880388736724854,
        0.4420892000198364,
        -0.3415806293487549,
        -0.17722588777542114,
        -0.20432277023792267,
        0.718805193901062,
        -0.544586718082428,
        -0.5011045932769775,
        0.014310703612864017,
        0.3698401153087616,
        0.5174009799957275,
        -0.0011222135508432984,
        0.3373345136642456,
        -0.17668691277503967,
        0.16646991670131683,
        0.4889322817325592,
        -0.10104989260435104,
        0.3238023519515991,
        0.09142836183309555,
        0.5743672251701355,
        0.14695791900157928,
        -0.007485007401555777,
        -0.4746226668357849,
        -0.2990141808986664,
        0.30590879917144775,
        -0.07640991359949112,
        0.41715142130851746,
        0.7055010199546814,
        -0.4518376588821411,
        -0.29608961939811707,
        0.06825760751962662,
        0.6227286458015442,
        -0.04776577651500702,
        -0.07281854748725891,
        0.0082551883533597,
        0.11375179141759872,
        -0.4213351905345917,
        -0.010470066219568253,
        0.26706746220588684,
        0.6174632906913757,
        0.17683474719524384,
        0.02139449678361416,
        -0.15040747821331024,
        0.19045698642730713,
        -0.19933836162090302,
        0.15312999486923218,
        0.1733253300189972,
        -0.3203897476196289,
        0.3824187219142914,
        0.6105786561965942,
        0.6304782629013062,
        -0.2282295525074005,
        0.2369438111782074,
        -0.6195375323295593,
        0.1386929452419281,
        -0.1640855371952057,
        -0.27574044466018677,
        0.16614283621311188,
        0.4654962718486786,
        0.19822636246681213,
        -0.29705071449279785,
        0.3817662298679352,
        -0.05714429169893265,
        -0.20655567944049835,
        -0.08175903558731079,
        -0.05014440789818764,
        0.4592146873474121,
        0.5552451610565186,
        -0.13345851004123688,
        0.6140902042388916,
        0.2046496868133545,
        -0.0571114644408226,
        -0.34084442257881165,
        -0.034731097519397736,
        0.20158390700817108,
        -0.23566849529743195,
        -0.2714615762233734,
        0.12986448407173157,
        -0.30080291628837585,
        -0.01777123659849167,
        -0.33888670802116394,
        -0.10156868398189545,
        -0.12869785726070404,
        -0.27748414874076843,
        0.3377280533313751,
        -0.005784095264971256,
        0.21770703792572021,
        -0.663765013217926,
        0.15397126972675323,
        -0.30905064940452576,
        -0.17892009019851685,
        -0.6372603178024292,
        0.44141122698783875,
        0.20844241976737976,
        0.6404834985733032,
        0.22040073573589325,
        0.030596673488616943,
        0.11044655740261078,
        -0.32964378595352173,
        0.08172090351581573,
        -0.28870856761932373,
        0.06104087457060814,
        0.1915385127067566,
        -0.7195098400115967,
        0.11309535801410675,
        0.3963620364665985,
        0.3623458445072174,
        0.27550193667411804,
        -0.41075068712234497,
        0.7280595302581787,
        0.008732926100492477,
        0.21604269742965698,
        -0.5280461311340332,
        0.28826677799224854,
        0.5986747741699219,
        0.4376695454120636,
        0.4262253940105438,
        -0.6802577376365662,
        0.183953657746315,
        0.04413192346692085,
        0.042493175715208054,
        0.22806298732757568,
        0.17758290469646454,
        -0.3307736814022064,
        0.3089902997016907,
        0.042589083313941956,
        -0.09588988870382309,
        0.5395058393478394,
        -0.002862862078472972,
        -0.0033075520768761635,
        -0.04860309883952141,
        -0.4641956090927124,
        -0.30448710918426514,
        0.08766777068376541,
        0.16701163351535797,
        0.2366689145565033,
        0.024420438334345818,
        0.09375761449337006,
        0.16312742233276367,
        -0.3880305588245392,
        0.13151930272579193,
        -0.16829141974449158,
        -0.4458010792732239,
        -0.1453634798526764,
        -0.09447994828224182,
        -0.43359798192977905,
        0.5811953544616699,
        -0.11557997018098831,
        0.2503780424594879,
        0.48966410756111145,
        -0.2569011449813843,
        0.33111101388931274,
        0.2168271392583847,
        -0.8363199234008789,
        0.08177011460065842,
        -0.465923011302948,
        0.26909953355789185,
        0.2598140239715576,
        -0.11375175416469574,
        -0.11952004581689835,
        0.08198734372854233,
        0.3851596415042877,
        -0.2562227249145508,
        0.22508221864700317,
        -0.01616036519408226,
        -0.1751760095357895,
        0.08158665150403976,
        -0.29622262716293335,
        -0.3482602834701538,
        -0.40680140256881714,
        -0.49018505215644836,
        -0.06792978942394257,
        -0.008783425204455853,
        0.3687076270580292,
        0.040344204753637314,
        0.5104408860206604,
        -0.6025232076644897,
        -0.3479170799255371,
        0.29594236612319946,
        0.2583819329738617,
        -0.4852098524570465,
        0.08079957962036133,
        -0.877120316028595,
        -0.07682610303163528,
        0.1935148537158966,
        0.3371119499206543,
        -0.6198651194572449,
        0.4469798803329468,
        0.32522934675216675,
        0.7465591430664062,
        -0.39991143345832825,
        0.47228625416755676,
        -0.4450582265853882,
        0.4781802296638489,
        0.042062725871801376,
        -0.3435939848423004,
        0.20426622033119202,
        -0.6478071212768555,
        0.895422637462616,
        0.2563892602920532,
        0.18048739433288574,
        0.16650357842445374,
        0.21938371658325195,
        -0.22517536580562592,
        0.009466112591326237,
        -0.08644632995128632,
        -0.40907418727874756,
        0.2557939291000366,
        0.4127045273780823,
        -0.01578172668814659,
        -0.4336904287338257,
        0.27049535512924194,
        -0.4577082693576813,
        -0.769997775554657,
        0.6172318458557129,
        -0.01161852665245533,
        0.04898234084248543,
        -0.2704496681690216,
        -0.5269495248794556,
        -0.2146661877632141,
        -0.4178015887737274,
        -0.98835289478302,
        -0.1816123127937317,
        0.45535367727279663,
        -0.4824456572532654,
        -0.31448397040367126,
        0.5161386132240295,
        -0.6243221163749695,
        0.31108614802360535,
        -0.08496440201997757,
        -0.23308269679546356,
        -0.22953173518180847,
        0.7756249308586121,
        0.08296053111553192,
        0.08405321836471558,
        -0.27139216661453247,
        0.22405219078063965,
        -0.40818148851394653,
        -0.65281081199646,
        0.7056899070739746,
        0.6718000173568726,
        0.5237472057342529,
        -0.020410792902112007,
        0.16370275616645813,
        -0.16946902871131897,
        0.18388262391090393,
        -0.4832817316055298,
        -0.08477805554866791,
        -0.3415639400482178,
        0.4077584445476532,
        0.2705064117908478,
        -0.0071237580850720406,
        0.2695295512676239,
        -0.49408069252967834,
        -0.6181979179382324,
        0.8604665994644165,
        0.4066155254840851,
        -0.3276813328266144,
        -0.3295641541481018,
        0.19043762981891632,
        0.5100323557853699,
        -0.27726224064826965,
        -0.30966830253601074,
        -0.17437587678432465,
        0.20931147038936615,
        -0.09903416037559509,
        -0.058354735374450684,
        -0.7069307565689087,
        -0.47351065278053284,
        -0.17671439051628113,
        0.1406252086162567,
        0.3189590573310852,
        -0.069106824696064,
        -0.332854300737381,
        -0.30019962787628174,
        -0.6552197337150574,
        -0.020352942869067192,
        0.30615368485450745,
        -0.4015577435493469,
        0.7315695881843567,
        -0.28105252981185913,
        -0.09767792373895645,
        0.1773124486207962,
        0.08149820566177368,
        -0.16418853402137756,
        -0.6713386178016663,
        -0.1538890302181244,
        0.5620468258857727,
        -0.1899089217185974,
        0.3810432255268097,
        -0.034541934728622437,
        0.4955732226371765,
        -0.17484623193740845,
        0.07861368358135223,
        -0.4855584502220154,
        0.4286295473575592,
        -0.12324996292591095,
        0.5433157682418823,
        -0.28718096017837524,
        0.05829282104969025,
        0.3479314148426056,
        -0.1617828905582428,
        -0.3121917247772217,
        -0.30349501967430115,
        0.13346247375011444,
        0.01929645799100399,
        0.36587440967559814,
        0.33130037784576416,
        0.708926796913147,
        -0.1778332144021988,
        0.23989306390285492,
        0.06541991978883743,
        0.03880948945879936,
        -0.2252519726753235,
        0.08565953373908997,
        -0.27696463465690613,
        -0.10408740490674973,
        0.35221239924430847,
        0.3696325421333313,
        0.038392599672079086,
        -0.46058884263038635,
        0.42607375979423523,
        -0.054876476526260376,
        -0.22940270602703094,
        -0.34789571166038513,
        -0.10149531811475754,
        0.1850622147321701,
        0.10162615031003952,
        0.008385631255805492,
        0.7817384600639343,
        -0.06034025549888611,
        0.5802240967750549,
        -0.07660709321498871,
        0.576535165309906,
        -0.09589889645576477,
        0.25137215852737427,
        0.15090955793857574,
        -0.3590131103992462,
        0.5670913457870483,
        0.4791068434715271,
        0.2820416986942291,
        -0.04953981190919876,
        -0.19627614319324493,
        -0.31404823064804077,
        0.19143551588058472,
        0.36814504861831665,
        -0.22025227546691895,
        -0.07176580280065536,
        -0.2536585330963135,
        0.4148959219455719,
        0.49629098176956177,
        -0.1204632967710495,
        -0.4560329020023346,
        -0.2561219334602356,
        -0.1979120373725891,
        0.27605751156806946,
        0.05676458030939102,
        -0.5104988217353821,
        0.6464569568634033,
        0.2372324913740158,
        -0.3522709310054779,
        0.3166752755641937,
        0.4885743260383606,
        0.24508050084114075,
        0.37950119376182556,
        0.2769346237182617,
        0.11082121729850769,
        1.194037675857544,
        -0.038492776453495026,
        -0.18169426918029785,
        -0.43196654319763184,
        -0.6083711385726929,
        0.15115876495838165,
        0.32357367873191833,
        0.0728181004524231,
        0.4555729925632477,
        -0.06139565631747246,
        -0.4076188802719116,
        0.41198408603668213,
        0.39478716254234314,
        0.17201708257198334,
        -0.022242354229092598,
        -0.2932947874069214,
        0.04500064253807068,
        0.5489227175712585,
        0.2730148434638977,
        -0.6447659134864807,
        -0.1540573239326477,
        -0.37308624386787415,
        -0.052747104316949844,
        -0.07184450328350067,
        0.21365176141262054,
        0.617193341255188,
        0.18721087276935577,
        -0.346632719039917,
        -0.15531663596630096,
        -0.25077497959136963,
        -0.027145463973283768,
        -0.6387234926223755,
        0.3483257293701172,
        0.504660964012146,
        -0.5525949001312256,
        -0.2997042238712311,
        -0.010186243802309036,
        0.1332867443561554,
        0.7283614277839661,
        0.11198984086513519,
        0.06729698181152344,
        -0.2390432357788086,
        -0.41752785444259644,
        0.3232247233390808,
        -0.4059011936187744,
        0.30992060899734497,
        -0.00993386935442686,
        -0.24913941323757172,
        0.0836818516254425,
        0.1642729938030243,
        -0.3874516487121582,
        0.23120935261249542,
        -0.10926926881074905,
        0.019031811505556107,
        0.4781084358692169,
        -0.012478766962885857,
        0.37828484177589417,
        0.1354270577430725,
        0.03892304003238678,
        0.08791663497686386,
        -0.2884996235370636,
        -0.5590463280677795,
        -0.3328824043273926,
        -0.14413899183273315,
        -0.01649811491370201,
        -0.14275425672531128,
        0.11245369166135788,
        0.10707883536815643,
        -0.1878291815519333,
        -0.4989006221294403,
        0.4366648495197296,
        0.07914557307958603,
        -0.44056713581085205,
        0.5374494194984436,
        0.14468005299568176,
        -0.033541593700647354,
        0.2517004907131195,
        0.049371253699064255,
        0.4829460084438324,
        -0.06194537132978439,
        0.05280778184533119,
        -0.3493054509162903,
        0.3432433009147644,
        0.37156400084495544,
        0.295028418302536,
        -0.18184718489646912,
        -0.2711837887763977,
        -0.23873282968997955,
        -0.015546205453574657,
        0.27933844923973083,
        -0.45183271169662476,
        0.09612549841403961,
        -0.06103644147515297,
        0.12802210450172424,
        -0.03579241409897804,
        0.06767215579748154,
        -0.010568666271865368,
        -0.05475050210952759,
        0.04045660421252251,
        0.059764161705970764,
        -0.538301944732666
      ],
      "weightsShape": [
        17,
        32
      ],
      "bias": [
        0.16402959823608398,
        -0.003098528366535902,
        -0.016491174697875977,
        -0.020353028550744057,
        0.058188922703266144,
        -0.0018279808573424816,
        0.13003996014595032,
        -0.033985111862421036,
        0.21605895459651947,
        0.08265338093042374,
        -0.08815913647413254,
        0.12986192107200623,
        -0.03752830997109413,
        -0.009793359786272049,
        -4.6872929715391365e-7,
        -0.011240762658417225,
        -0.03474918752908707,
        -0.026895206421613693,
        0.04863005504012108,
        -0.002108881017193198,
        0.04586588963866234,
        0.10785955935716629,
        0.09717009216547012,
        0.02098882384598255,
        0.007381624076515436,
        -0.032272838056087494,
        0,
        0.1902308613061905,
        -0.12201201915740967,
        -0.14843355119228363,
        0.09993629902601242,
        -0.010982321575284004
      ],
      "biasShape": [
        1,
        32
      ],
      "activation": "relu"
    },
    {
      "weights": [
        -0.13442355394363403,
        -0.221157506108284,
        -0.17747433483600616,
        -0.2071240246295929,
        0.6087722182273865,
        0.23838061094284058,
        0.20658190548419952,
        -0.11611376702785492,
        -0.18173086643218994,
        0.009137468412518501,
        -0.24048396944999695,
        -0.07649453729391098,
        0.28920555114746094,
        0.0752858817577362,
        0.22453942894935608,
        0.24812299013137817,
        -0.24344100058078766,
        0.4117428958415985,
        0.26122990250587463,
        -0.15701574087142944,
        0.23092326521873474,
        0.5711648464202881,
        -0.11174904555082321,
        0.01377622876316309,
        -0.0733800157904625,
        0.015557713806629181,
        -0.14844964444637299,
        0.14323361217975616,
        0.02382124401628971,
        -0.22855310142040253,
        -0.2139388769865036,
        -0.0648263543844223,
        0.1822235882282257,
        -0.4567687213420868,
        0.2817224860191345,
        -0.10833238810300827,
        -0.14547768235206604,
        0.21645429730415344,
        -0.11513027548789978,
        -0.19340939819812775,
        0.09620914608240128,
        -0.06044284999370575,
        0.16013844311237335,
        -0.14213015139102936,
        0.032572828233242035,
        -0.4965578615665436,
        0.1424015462398529,
        -0.1474544256925583,
        -0.3624846041202545,
        0.27412617206573486,
        0.18485385179519653,
        -0.017935095354914665,
        -0.5573459267616272,
        -0.06516310572624207,
        -0.11884791404008865,
        -0.3580191731452942,
        -0.10203216969966888,
        -0.28676900267601013,
        0.05978509783744812,
        0.12778928875923157,
        -0.2372225672006607,
        0.10038863867521286,
        -0.2740880846977234,
        0.023231135681271553,
        0.30063948035240173,
        0.2468666434288025,
        -0.06637819856405258,
        -0.15980403125286102,
        -0.09195950627326965,
        -0.19437213242053986,
        0.28249919414520264,
        -0.1678134649991989,
        -0.12208091467618942,
        0.18751521408557892,
        0.10238979756832123,
        0.38885629177093506,
        -0.21314318478107452,
        -0.4015081524848938,
        0.08164448291063309,
        0.04986274987459183,
        -0.2706952393054962,
        0.18861038982868195,
        0.16928978264331818,
        0.17869624495506287,
        -0.10289890319108963,
        0.031549811363220215,
        -0.03735266253352165,
        -0.2370016872882843,
        -0.09266336262226105,
        0.008922642096877098,
        0.12485185265541077,
        -0.08846651017665863,
        0.12839250266551971,
        -0.28548741340637207,
        0.2515818178653717,
        -0.012988000176846981,
        -0.4475722312927246,
        -0.19478608667850494,
        -0.3383665084838867,
        -0.002630008617416024,
        0.39351508021354675,
        0.487994909286499,
        -0.1483740210533142,
        0.15482622385025024,
        0.11918476223945618,
        0.041303448379039764,
        -0.32053041458129883,
        -0.6140616536140442,
        -0.4259151518344879,
        0.025669267401099205,
        -0.4170898199081421,
        0.11385158449411392,
        0.3108828365802765,
        -0.45744767785072327,
        -0.19601723551750183,
        0.16292540729045868,
        0.46911415457725525,
        0.6967379450798035,
        -0.29305222630500793,
        -0.1619688719511032,
        0.4465295374393463,
        -0.11971117556095123,
        0.019949350506067276,
        0.14920279383659363,
        -0.28782370686531067,
        -1.0278420448303223,
        -0.021596495062112808,
        -0.19131705164909363,
        0.33980289101600647,
        0.17628195881843567,
        0.021337885409593582,
        0.016702178865671158,
        0.07080402970314026,
        -0.5724583864212036,
        0.03275693207979202,
        0.06735546886920929,
        -0.04112767055630684,
        -0.13067744672298431,
        0.36718741059303284,
        -0.028065990656614304,
        -0.011765783652663231,
        0.148049995303154,
        0.021768197417259216,
        -0.060956843197345734,
        -0.26974794268608093,
        -0.04552065208554268,
        -0.7362425327301025,
        -0.09028946608304977,
        0.5524736642837524,
        0.1319708675146103,
        0.234084352850914,
        -0.02340359054505825,
        0.06526464223861694,
        -0.5350832939147949,
        0.17260289192199707,
        -0.37230026721954346,
        0.2681020200252533,
        -0.4030424654483795,
        0.13566496968269348,
        0.1089639663696289,
        -0.2589128017425537,
        0.1230759471654892,
        -0.23493000864982605,
        -0.218645840883255,
        0.28329572081565857,
        0.27519601583480835,
        0.11503491550683975,
        0.2701881527900696,
        -0.10020731389522552,
        0.6056161522865295,
        0.09443210810422897,
        -0.5036529898643494,
        0.46753162145614624,
        -0.6101457476615906,
        0.20537734031677246,
        0.11426445841789246,
        0.14950156211853027,
        0.04022536799311638,
        0.3659689426422119,
        -0.007954031229019165,
        0.3584696650505066,
        0.3615785837173462,
        0.2869132459163666,
        -0.8261347413063049,
        0.02008531615138054,
        0.08814790099859238,
        -0.4108429253101349,
        0.1878495216369629,
        -0.21752919256687164,
        0.5967785716056824,
        0.11095750331878662,
        -0.19297099113464355,
        0.1515478938817978,
        0.13209520280361176,
        0.1899489164352417,
        -0.32191503047943115,
        -0.11033740639686584,
        -0.010013999417424202,
        -0.3819107115268707,
        -0.23443777859210968,
        -0.06286808848381042,
        -0.17159698903560638,
        -0.3806536793708801,
        -0.2471216768026352,
        0.33678677678108215,
        -0.4105561673641205,
        -0.2004699409008026,
        -0.06339925527572632,
        -0.4747675657272339,
        -0.33536842465400696,
        0.2097928673028946,
        0.10550826787948608,
        0.08090324699878693,
        -0.40512871742248535,
        0.13594327867031097,
        0.462188720703125,
        -0.1679563969373703,
        -0.792354166507721,
        0.2244090884923935,
        -0.15722434222698212,
        0.0152565473690629,
        0.4524186849594116,
        0.17591281235218048,
        0.03596917539834976,
        -0.03852449730038643,
        0.49047648906707764,
        0.03781573101878166,
        -0.08317198604345322,
        -0.3330169916152954,
        0.1720687448978424,
        -0.3021818995475769,
        0.2222839742898941,
        0.19542209804058075,
        0.11755595356225967,
        -0.44103968143463135,
        -0.2604524791240692,
        0.22130675613880157,
        -0.1633942574262619,
        0.1256035417318344,
        0.39743489027023315,
        0.3413086235523224,
        -0.08505865931510925,
        0.007752168457955122,
        0.313490092754364,
        0.07603135704994202,
        -0.1620083451271057,
        0.653683066368103,
        0.07860815525054932,
        -0.31490886211395264,
        -0.22400614619255066,
        0.05071580037474632,
        0.11884184926748276,
        0.30555859208106995,
        -0.32020488381385803,
        0.022647090256214142,
        -0.18923577666282654,
        0.46694138646125793,
        -0.14102362096309662,
        -0.3288719356060028,
        -0.15617065131664276,
        0.43336912989616394,
        -0.018584223464131355,
        0.10745016485452652,
        -0.6436139345169067,
        0.29226991534233093,
        0.04781453311443329,
        -0.09304413199424744,
        0.11062828451395035,
        0.2373763620853424,
        -0.042732786387205124,
        -0.29704365134239197,
        -0.2794302999973297,
        0.12419158965349197,
        -0.2286577820777893,
        -0.2726704776287079,
        -0.0420818068087101,
        -0.006945655215531588,
        0.2511075735092163,
        0.26798146963119507,
        0.20319490134716034,
        -0.24103562533855438,
        0.22077560424804688,
        -0.20622816681861877,
        -0.20711682736873627,
        -0.25379878282546997,
        0.0738946944475174,
        0.16455556452274323,
        -0.24914605915546417,
        0.02471677027642727,
        0.17532770335674286,
        0.4199923574924469,
        0.059480950236320496,
        0.19603893160820007,
        -0.48082658648490906,
        0.01066324207931757,
        0.05740435793995857,
        -0.37222376465797424,
        -0.01363720465451479,
        -0.2830285131931305,
        0.23162610828876495,
        -0.04356496408581734,
        0.5494223237037659,
        0.19062064588069916,
        -0.10911127924919128,
        0.48977208137512207,
        -0.014040403068065643,
        -0.09451346099376678,
        -0.05221721529960632,
        0.24755413830280304,
        -0.08018901944160461,
        0.15955616533756256,
        0.008210386149585247,
        0.10957055538892746,
        -0.3706760108470917,
        -0.0468868687748909,
        -0.12994931638240814,
        -0.3146159052848816,
        -0.07461436837911606,
        -0.41629019379615784,
        0.17017991840839386,
        -0.022849872708320618,
        -0.24098186194896698,
        0.0796624943614006,
        -0.4202622175216675,
        0.6068453192710876,
        -0.18957503139972687,
        -0.20065085589885712,
        -0.15157508850097656,
        -0.4213438034057617,
        -0.10129618644714355,
        -0.1596847027540207,
        0.6462691426277161,
        -0.14367754757404327,
        -0.4457419216632843,
        -0.14882557094097137,
        -0.3387767970561981,
        0.3569437265396118,
        0.18263216316699982,
        -0.24798564612865448,
        0.1102338507771492,
        -0.22932592034339905,
        0.1627606749534607,
        -0.3685429096221924,
        -0.29782748222351074,
        -0.44487351179122925,
        0.27309197187423706,
        -0.011011198163032532,
        0.29425859451293945,
        0.4578033983707428,
        0.536586582660675,
        0.16923372447490692,
        0.1665017306804657,
        -0.06909679621458054,
        -0.17364279925823212,
        -0.21594581007957458,
        0.06380113959312439,
        0.16955582797527313,
        -0.19088472425937653,
        0.09221872687339783,
        0.190290629863739,
        -0.20299847424030304,
        -0.022128736600279808,
        0.06773176044225693,
        -0.14371703565120697,
        -0.11550235003232956,
        0.10447447746992111,
        -0.2578226923942566,
        0.3443877696990967,
        -0.11455447226762772,
        0.11970303952693939,
        -0.4510795474052429,
        -0.34396490454673767,
        0.14195828139781952,
        0.5420191884040833,
        -0.11354504525661469,
        -0.23387399315834045,
        0.09761059284210205,
        0.05211073160171509,
        -0.42505979537963867,
        -0.19192133843898773,
        0.16085559129714966,
        -0.15484994649887085,
        0.060297004878520966,
        0.06789670884609222,
        -0.09797854721546173,
        0.1434083878993988,
        -0.11527833342552185,
        -0.12182845920324326,
        -0.0973200723528862,
        0.1648305356502533,
        -0.12892815470695496,
        0.015751875936985016,
        0.2184552550315857,
        -0.38550764322280884,
        0.3673352599143982,
        0.26820817589759827,
        0.38111743330955505,
        -0.16084162890911102,
        0.4439648687839508,
        -0.10715274512767792,
        -0.07898245006799698,
        0.2374902367591858,
        0.2194821834564209,
        0.07447928190231323,
        -0.23811379075050354,
        0.18572218716144562,
        -0.22478057444095612,
        0.13752764463424683,
        -0.254276841878891,
        -0.275954008102417,
        0.5333462953567505,
        -0.18884742259979248,
        -0.10569406300783157,
        -0.016642337664961815,
        0.7095754742622375,
        -0.16607950627803802,
        -0.05091925710439682,
        0.04222199320793152,
        -0.24787604808807373,
        0.17709752917289734,
        -0.12066087126731873,
        0.004276650492101908,
        0.21478304266929626,
        0.1965276300907135,
        -0.1167517602443695,
        0.08248115330934525,
        -0.3006476163864136,
        -0.1655099242925644,
        0.2964394688606262,
        -0.02624596655368805,
        0.18097062408924103,
        -0.023441897705197334,
        -0.17084409296512604,
        0.38682806491851807,
        0.2641972005367279,
        -0.013864251784980297,
        -0.11710215359926224,
        -0.03738752752542496,
        -0.16871193051338196,
        -0.19455298781394958,
        -0.08649050444364548,
        0.06604350358247757,
        0.05677976831793785,
        0.131865993142128,
        -0.22387059032917023,
        0.5655620098114014,
        -0.5382936000823975,
        -0.4087905287742615,
        -0.10516083985567093,
        0.06969276070594788,
        0.041328415274620056,
        -0.033892419189214706,
        0.165060892701149,
        0.29235175251960754,
        -0.16332268714904785,
        0.004545660689473152,
        0.3458026647567749,
        0.10228502005338669,
        -0.019702624529600143,
        -0.23971085250377655,
        0.034722279757261276,
        -0.14529871940612793,
        -0.022652873769402504,
        0.08026225119829178,
        0.01444330532103777,
        0.23180130124092102,
        -0.03974224254488945,
        0.29932332038879395,
        0.49930429458618164,
        0.04382675886154175,
        -0.06847011297941208,
        -0.1528167575597763,
        0.1361461728811264,
        0.2983371913433075,
        -0.2824953496456146,
        -0.19122783839702606,
        -0.1607169359922409,
        -0.4098190665245056,
        -0.16061168909072876,
        -0.4675462245941162,
        -0.5163768529891968,
        0.13796497881412506,
        0.3060377240180969,
        0.22076798975467682,
        0.32005318999290466,
        -0.798815131187439,
        0.3493066728115082,
        0.4589047133922577,
        0.027284568175673485,
        -0.2878696322441101,
        -0.5222180485725403,
        -0.008888226002454758,
        -0.24531042575836182,
        -0.4026896357536316,
        0.04678703099489212,
        0.010621469467878342,
        -0.23505625128746033,
        -0.1263210028409958,
        0.11855747550725937,
        0.18083487451076508,
        0.03853829577565193,
        -0.16444611549377441,
        -0.01371090393513441,
        -0.11471164971590042,
        -0.16963694989681244,
        -0.11105244606733322,
        -0.1684112846851349,
        -0.03615391626954079,
        0.00529645849019289,
        0.006679460871964693,
        0.08485593646764755,
        -0.04851043224334717
      ],
      "weightsShape": [
        32,
        16
      ],
      "bias": [
        0.093277707695961,
        0.019045598804950714,
        0.15567557513713837,
        -0.007004288025200367,
        -0.06720557063817978,
        -0.023973559960722923,
        0.0069704847410321236,
        -0.013774164952337742,
        -0.020505616441369057,
        0,
        0.002742108656093478,
        0.18802312016487122,
        0.015350079163908958,
        0.15860240161418915,
        -0.07056780904531479,
        -0.0011613874230533838
      ],
      "biasShape": [
        1,
        16
      ],
      "activation": "relu"
    },
    {
      "weights": [
        -0.4646274447441101,
        -0.21408326923847198,
        -0.7871597409248352,
        -0.07813090831041336,
        1.3596889972686768,
        0.9162895679473877,
        -0.019736014306545258,
        -0.38917502760887146,
        -0.10145416855812073,
        -0.17517916858196259,
        0.3881053328514099,
        -0.9038166403770447,
        0.589814305305481,
        -1.3157134056091309,
        0.7097757458686829,
        0.11837311089038849
      ],
      "weightsShape": [
        16,
        1
      ],
      "bias": [
        -0.14404574036598206
      ],
      "biasShape": [
        1,
        1
      ],
      "activation": "sigmoid"
    }
  ],
  "learningRate": 0.001,
  "l2Lambda": 0.0001
}