{
  "__kind": "NeuralNet",
  "version": 1,
  "layers": [
    {
      "weights": [
        0.1864476203918457,
        0.09641213715076447,
        -0.037388984113931656,
        0.025630205869674683,
        -0.08514347672462463,
        -0.7924875617027283,
        0.1331494152545929,
        -0.010384506545960903,
        0.3679986894130707,
        0.09132436662912369,
        -0.1549270898103714,
        -0.01450547855347395,
        -0.09063328057527542,
        -0.5180695652961731,
        0.20797188580036163,
        -0.010155120864510536,
        0.050521112978458405,
        0.5886472463607788,
        0.09285491704940796,
        -0.009277458302676678,
        -0.12295180559158325,
        -0.10879655927419662,
        -0.15896694362163544,
        -0.012447027489542961,
        0.24760940670967102,
        -0.3608376681804657,
        -0.07941482216119766,
        -0.08837553858757019,
        0.009063458070158958,
        -0.20351922512054443,
        -0.03159242123365402,
        -0.2286984771490097,
        -0.13749638199806213,
        -0.2819852828979492,
        -0.027232224121689796,
        -0.02133319340646267,
        -0.10029172152280807,
        -0.12550236284732819,
        -0.3390338122844696,
        -0.19204957783222198,
        -0.07207761704921722,
        -0.20055216550827026,
        0.19980300962924957,
        0.1404563933610916,
        0.11087167263031006,
        -0.05495437607169151,
        -0.18596147000789642,
        -0.09241898357868195,
        0.2584012448787689,
        -0.37508171796798706,
        -0.07703644782304764,
        0.004406662657856941,
        -0.05223560333251953,
        0.07917699217796326,
        0.009989275597035885,
        0.18848004937171936,
        -0.10702954977750778,
        0.09314943850040436,
        0.2436698079109192,
        -0.2695446014404297,
        0.17507025599479675,
        -0.27956974506378174,
        -0.3456582725048065,
        -0.10278288275003433,
        -0.2361745536327362,
        -0.10054076462984085,
        -0.17392952740192413,
        -0.036253537982702255,
        -0.09983779489994049,
        0.2935667634010315,
        0.352223664522171,
        0.05916740000247955,
        -0.11254063248634338,
        -0.2450839877128601,
        0.4294574558734894,
        -0.22273731231689453,
        0.12055453658103943,
        0.207969069480896,
        0.004285883624106646,
        -0.21961085498332977,
        -0.41582223773002625,
        -0.33924034237861633,
        -0.29752781987190247,
        -0.7992507815361023,
        0.20626841485500336,
        0.21118144690990448,
        -0.8045234084129333,
        -0.07946702837944031,
        0.1515735685825348,
        -0.09871348738670349,
        0.25028708577156067,
        -0.09783627092838287,
        0.5143510103225708,
        0.2460319548845291,
        0.2094329446554184,
        -0.24359461665153503,
        0.005805035121738911,
        0.03649565950036049,
        0.4137377142906189,
        0.8005664944648743,
        -0.45678985118865967,
        0.527282178401947,
        0.43269339203834534,
        0.4936072528362274,
        0.13474750518798828,
        0.1522030383348465,
        -0.06813260912895203,
        -0.283623069524765,
        -0.8082364797592163,
        0.0642176941037178,
        0.3273983597755432,
        -0.1055174395442009,
        -0.050954144448041916,
        0.2946180999279022,
        0.48695048689842224,
        -0.04875829443335533,
        -0.022072043269872665,
        0.3301748037338257,
        -0.015065128915011883,
        -0.21437036991119385,
        -0.4037463665008545,
        -0.021722909063100815,
        -0.16660182178020477,
        0.028617307543754578,
        -0.3290034532546997,
        0.47744184732437134,
        -0.01133725605905056,
        0.24555671215057373,
        0.20569796860218048,
        -0.32569262385368347,
        0.21931003034114838,
        -0.683344841003418,
        -0.5886272192001343,
        -0.09607426077127457,
        0.4436996579170227,
        -0.5159037113189697,
        0.27269047498703003,
        0.6239804029464722,
        0.07120297849178314,
        0.1628509908914566,
        -0.05008244141936302,
        -0.1978979855775833,
        0.20167168974876404,
        0.056716229766607285,
        -0.3620416522026062,
        -0.2068963199853897,
        -0.2528628706932068,
        0.1824716329574585,
        -0.25512975454330444,
        -0.3366544544696808,
        0.21647801995277405,
        -0.019625447690486908,
        -0.8035744428634644,
        -0.24086129665374756,
        -0.710610032081604,
        0.05851816385984421,
        0.02848636545240879,
        0.12595973908901215,
        -0.4513389468193054,
        -0.24291560053825378,
        -0.37699592113494873,
        -0.3985395133495331,
        -0.7483848333358765,
        -0.311881959438324,
        -0.02256307192146778,
        -0.34574711322784424,
        0.6106168627738953,
        -0.6316046118736267,
        0.4981585741043091,
        -0.4071763753890991,
        0.20652976632118225,
        -0.47191718220710754,
        0.6537226438522339,
        -0.02728412300348282,
        -0.1467636525630951,
        0.194012850522995,
        -0.5656344890594482,
        0.30821701884269714,
        0.21735446155071259,
        0.6897468566894531,
        -0.35541877150535583,
        0.4401003122329712,
        0.3757273256778717,
        -0.18779343366622925,
        0.003912259358912706,
        -0.7033995985984802,
        0.04440867155790329,
        0.026507163420319557,
        0.32344570755958557,
        -0.027522297576069832,
        -0.6102933883666992,
        0.11864329129457474,
        0.09609680622816086,
        -0.27678182721138,
        -0.1352042704820633,
        0.08164215087890625,
        0.010713578201830387,
        -0.3465530276298523,
        0.05640416964888573,
        0.01082051731646061,
        0.15356320142745972,
        -0.35154637694358826,
        0.2884688377380371,
        0.17945334315299988,
        0.4789682924747467,
        -0.11110521107912064,
        -0.43999505043029785,
        -0.3961038291454315,
        0.46276241540908813,
        -0.0009967118967324495,
        -0.22519299387931824,
        -0.41597744822502136,
        -0.027363309636712074,
        -0.43090102076530457,
        0.6032295823097229,
        -0.12373913824558258,
        -0.4218837022781372,
        -0.1760515570640564,
        -0.12787984311580658,
        -0.04698130488395691,
        -0.17610003054141998,
        0.537027895450592,
        0.06817112118005753,
        -0.3344833552837372,
        0.05897630751132965,
        -0.3821258544921875,
        0.0138631546869874,
        -0.4999236464500427,
        -0.1550486981868744,
        -0.4665718674659729,
        -0.28853893280029297,
        -0.5484347343444824,
        0.23170596361160278,
        -0.07702562212944031,
        -0.33848753571510315,
        0.5798701643943787,
        0.39284396171569824,
        -0.10524226725101471,
        0.1324007362127304,
        0.3217456340789795,
        -0.2391466498374939,
        0.19609762728214264,
        -0.039824146777391434,
        0.5822134613990784,
        -0.37160396575927734,
        -0.07303280383348465,
        0.3797222673892975,
        0.3761868476867676,
        -0.040517088025808334,
        0.2392118275165558,
        -0.28051942586898804,
        -0.20623888075351715,
        0.023981168866157532,
        -0.17290925979614258,
        0.10274901986122131,
        -0.14643874764442444,
        0.16791239380836487,
        -0.10453005135059357,
        0.26128432154655457,
        0.11774740368127823,
        0.1388336569070816,
        0.3255191743373871,
        0.11945264786481857,
        0.07308169454336166,
        0.037075258791446686,
        -0.022132903337478638,
        0.10095708817243576,
        -0.0011816719779744744,
        0.20867112278938293,
        0.03778465837240219,
        -0.050641980022192,
        0.21075136959552765,
        -0.09551119804382324,
        0.4380914866924286,
        0.08480360358953476,
        0.07444643974304199,
        0.1607394516468048,
        0.4809419512748718,
        -0.135090172290802,
        -0.1921766698360443,
        -0.12096024304628372,
        0.21200239658355713,
        0.133879154920578,
        -0.0481991320848465,
        0.6944246292114258,
        -0.08215882629156113,
        0.04559275507926941,
        0.18338000774383545,
        0.0158165842294693,
        0.3110448122024536,
        0.08054085075855255,
        0.14933423697948456,
        -0.5637995600700378,
        -0.21878987550735474,
        -0.19534043967723846,
        0.18120545148849487,
        -0.14979377388954163,
        -0.013507355004549026,
        -0.1092497780919075,
        -0.14868801832199097,
        0.2427663654088974,
        0.039586134254932404,
        0.1447492241859436,
        -0.1637297123670578,
        0.7043562531471252,
        0.13042227923870087,
        0.09298358112573624,
        0.24140550196170807,
        -0.18599404394626617,
        -0.03187074512243271,
        -0.10437003523111343,
        0.07390586286783218,
        0.0075986930169165134,
        0.03829570114612579,
        0.2067340463399887,
        0.1970854103565216,
        0.2573864758014679,
        -0.3704262673854828,
        -0.022451726719737053,
        0.2848079204559326,
        0.08842349052429199,
        0.1453719139099121,
        0.21585755050182343,
        -0.22551390528678894,
        0.18617500364780426,
        -0.03406389430165291,
        0.33056750893592834,
        -0.24088844656944275,
        0.14487972855567932,
        -0.3697535991668701,
        -0.4981990158557892,
        0.15996935963630676,
        -0.1760266125202179,
        -0.16440507769584656,
        -0.16329088807106018,
        -0.10116346925497055,
        -0.11917171627283096,
        0.047969527542591095,
        0.2958070933818817,
        0.5457528233528137,
        0.19624772667884827,
        0.04180917143821716,
        0.5771914720535278,
        -0.3488811254501343,
        -0.08678840100765228,
        -0.1856798678636551,
        -0.11650431156158447,
        -0.045218754559755325,
        0.5473612546920776,
        -0.16406595706939697,
        0.05329770967364311,
        -0.12611567974090576,
        -0.03400291129946709,
        0.15349537134170532,
        -0.2231120467185974,
        -0.2507716417312622,
        0.29256126284599304,
        -0.27464041113853455,
        -0.024809814989566803,
        0.33269283175468445,
        0.08122504502534866,
        0.28664150834083557,
        -0.20872163772583008,
        0.47320565581321716,
        0.32817521691322327,
        -0.14614389836788177,
        0.23182398080825806,
        -0.029619529843330383,
        -0.012394309975206852,
        0.08136968314647675,
        0.0913725271821022,
        0.06954601407051086,
        -0.3940501809120178,
        -0.13555319607257843,
        0.26440876722335815,
        -0.2938602566719055,
        0.11178740113973618,
        -0.34767910838127136,
        0.043554119765758514,
        0.27118119597435,
        0.4266432225704193,
        0.3488999903202057,
        0.2886354327201843,
        0.5074771046638489,
        -0.18554043769836426,
        -0.1576329469680786,
        0.39838269352912903,
        -0.879528284072876,
        -0.044862911105155945,
        -0.10404856503009796,
        0.11044995486736298,
        -0.2774568498134613,
        0.38933300971984863,
        0.19838246703147888,
        -0.0028974227607250214,
        0.15521012246608734,
        -0.015863541513681412,
        0.016701724380254745,
        0.263175904750824,
        -0.29965293407440186,
        -0.24827250838279724,
        -0.0742325410246849,
        0.19826564192771912,
        0.4511944651603699,
        -0.19874301552772522,
        -0.6047460436820984,
        -0.1371576189994812,
        0.0033081360161304474,
        -0.22211997210979462,
        0.3446275293827057,
        0.04922233894467354,
        -0.38198143243789673,
        0.2795439660549164,
        -0.12564721703529358,
        -0.16305141150951385,
        -0.44428884983062744,
        -0.33595508337020874,
        0.356768935918808,
        0.1478484869003296,
        -0.21643488109111786,
        -0.22256237268447876,
        -0.424811989068985,
        0.24023976922035217,
        -0.46402350068092346,
        -0.32158753275871277,
        -0.04729858413338661,
        0.12662135064601898,
        0.23622097074985504,
        0.20965996384620667,
        -0.04411044344305992,
        0.0522199347615242,
        0.2014254331588745,
        -0.09974361956119537,
        -0.19093717634677887,
        -0.03496694564819336,
        0.24789497256278992,
        -0.21208347380161285,
        -0.2871285676956177,
        0.5196322202682495,
        0.1368243247270584,
        -0.2669799327850342,
        -0.41207247972488403,
        0.10267271101474762,
        0.395815372467041,
        -0.07794950157403946,
        -0.16764651238918304,
        0.226109117269516,
        0.17169331014156342,
        -0.20551230013370514,
        -0.10844194889068604,
        0.6424078941345215,
        0.6220791339874268,
        0.5247755646705627,
        0.21831773221492767,
        -0.27299806475639343,
        -0.11415723711252213,
        -0.07191538065671921,
        0.006625005509704351,
        0.09933661669492722,
        -0.3379974365234375,
        0.214572936296463,
        -0.10684710741043091,
        0.08930274099111557,
        -0.1913866251707077,
        -0.22002528607845306,
        -0.3411143124103546,
        -0.037288494408130646,
        -0.7584540843963623,
        0.042066432535648346,
        0.39487314224243164,
        -0.31747955083847046,
        0.08997689932584763,
        0.7832549810409546,
        -0.3158026337623596,
        0.44000178575515747,
        -0.3671726882457733,
        -0.033374227583408356,
        -0.14964649081230164,
        0.26944079995155334,
        0.5720305442810059,
        0.04632993042469025,
        -0.2285277098417282,
        0.42691516876220703,
        0.05489616096019745,
        0.00682968320325017,
        0.4155728816986084,
        0.44826337695121765,
        0.4225863516330719,
        -0.021670369431376457,
        -0.3565441370010376,
        -0.18816040456295013,
        0.20028488337993622,
        -0.16541285812854767,
        -0.35656872391700745,
        -0.17124059796333313,
        -0.42440757155418396,
        0.046169549226760864,
        0.18050093948841095,
        0.7045513391494751,
        -0.1684594452381134,
        -0.05610865727066994,
        -0.34142249822616577,
        -0.0627676248550415,
        -0.36999425292015076,
        0.5346335768699646,
        0.43535131216049194,
        0.12032556533813477,
        0.29318615794181824,
        0.13469631969928741,
        0.25605711340904236,
        -0.24629734456539154,
        0.03306123614311218,
        -0.1779743731021881,
        0.1331697404384613,
        -0.43247026205062866,
        -0.40557050704956055,
        0.04671241343021393,
        -0.4214921295642853,
        0.8084587454795837,
        0.18310412764549255,
        -0.6092364192008972,
        -0.4067448377609253,
        0.0020537488162517548,
        -0.2389303594827652,
        -0.036469053477048874,
        -0.3860640525817871,
        -0.3711012303829193,
        0.046773720532655716,
        -0.12343183904886246,
        -0.3438611626625061,
        0.5120967030525208,
        -0.37919655442237854,
        0.10746237635612488,
        0.1161361038684845,
        -0.20835570991039276,
        -0.04012921825051308,
        -0.6753358840942383,
        -0.08565951138734818,
        -0.020542481914162636,
        -0.09168544411659241,
        -0.036185115575790405,
        0.43567338585853577,
        0.055477041751146317,
        0.03340960666537285
      ],
      "weightsShape": [
        17,
        32
      ],
      "bias": [
        -0.06213879585266113,
        -0.08908624202013016,
        0.15073910355567932,
        -0.04127313196659088,
        0.12499398738145828,
        -0.054125551134347916,
        0.08287996798753738,
        -0.11417894810438156,
        0.011602007783949375,
        -0.09674029797315598,
        -0.004689743742346764,
        0.06438924372196198,
        0.13438405096530914,
        0,
        0.08997799456119537,
        -0.016670724377036095,
        0.0016692845383659005,
        0.07497423887252808,
        -0.0041349949315190315,
        -0.06384019553661346,
        -0.005007350351661444,
        0.0913083627820015,
        -0.05157099664211273,
        0,
        0.15429933369159698,
        0,
        0.049615632742643356,
        -0.03002801164984703,
        0.1125432476401329,
        0.11051137000322342,
        -0.07617966085672379,
        0.10957406461238861
      ],
      "biasShape": [
        1,
        32
      ],
      "activation": "relu"
    },
    {
      "weights": [
        0.186344712972641,
        -0.048002202063798904,
        -0.11763251572847366,
        -0.24569803476333618,
        0.32693853974342346,
        0.43347471952438354,
        -0.0722312331199646,
        0.11950665712356567,
        -0.08448667824268341,
        -0.20898793637752533,
        0.07619142532348633,
        0.026224391534924507,
        -0.14782202243804932,
        0.16278912127017975,
        -0.09048382937908173,
        0.15207171440124512,
        0.2056853026151657,
        0.10316144675016403,
        0.11481472849845886,
        -0.023374851793050766,
        -0.3676316738128662,
        0.20973940193653107,
        0.04821942746639252,
        0.07196082174777985,
        0.17138250172138214,
        -0.2907307744026184,
        0.17773029208183289,
        0.14082394540309906,
        0.18039976060390472,
        0.3455832302570343,
        0.09297702461481094,
        0.001111520454287529,
        -0.0412105992436409,
        0.21593374013900757,
        0.04991140961647034,
        0.43745654821395874,
        -0.04336872696876526,
        0.08344627171754837,
        0.04488784447312355,
        0.2293221354484558,
        -0.4345615804195404,
        0.000024575467250542715,
        -0.10543924570083618,
        0.1237926259636879,
        -0.003343825927004218,
        0.04611224681138992,
        0.136085644364357,
        0.2898350954055786,
        0.4739537835121155,
        0.051378197968006134,
        -0.6554799675941467,
        -0.20487497746944427,
        -0.4239087700843811,
        0.21213829517364502,
        0.2056722790002823,
        0.6102139353752136,
        -0.21070286631584167,
        0.043117135763168335,
        0.08662490546703339,
        -0.4474136233329773,
        0.1433579921722412,
        0.452022522687912,
        0.20129835605621338,
        -0.4447990953922272,
        -0.2435823380947113,
        0.052760690450668335,
        0.004609137307852507,
        0.13983899354934692,
        -0.10621434450149536,
        0.11080165952444077,
        0.04656394198536873,
        -0.3257773816585541,
        -0.2292761206626892,
        -0.33681774139404297,
        -0.10663031041622162,
        0.15494200587272644,
        -0.11726082861423492,
        -0.2723107635974884,
        0.05246495455503464,
        0.29867205023765564,
        0.2734296917915344,
        0.14559732377529144,
        -0.20367413759231567,
        0.35657939314842224,
        -0.28263184428215027,
        -0.0273959469050169,
        0.045953501015901566,
        0.17576216161251068,
        0.04411153495311737,
        -0.06395899504423141,
        0.1925259679555893,
        -0.18038509786128998,
        -0.02277124673128128,
        0.35168880224227905,
        -0.048217374831438065,
        -0.357526570558548,
        0.6836915612220764,
        -0.19597621262073517,
        -0.009291819296777248,
        -0.2408052533864975,
        0.13094663619995117,
        0.0878559947013855,
        0.08958686888217926,
        -0.24585691094398499,
        0.18047069013118744,
        0.13571809232234955,
        -0.1103111207485199,
        -0.4613552689552307,
        -0.1487749069929123,
        0.22663581371307373,
        0.008159661665558815,
        -0.42115089297294617,
        0.14766845107078552,
        -0.19253341853618622,
        -0.4419805109500885,
        -0.09336291253566742,
        -0.056653786450624466,
        -0.001460133120417595,
        0.020610464736819267,
        0.7561367154121399,
        0.21563488245010376,
        0.004374269396066666,
        0.10698603093624115,
        -0.6014411449432373,
        0.04131404310464859,
        0.19054096937179565,
        0.11616091430187225,
        -0.25462836027145386,
        -0.07910576462745667,
        -0.10028058290481567,
        0.2671378552913666,
        0.3025391101837158,
        0.35591721534729004,
        0.20116795599460602,
        0.2621249854564667,
        -0.5143903493881226,
        -0.06305702030658722,
        -0.36318469047546387,
        0.19990545511245728,
        -0.08190183341503143,
        -0.4446229040622711,
        0.33186858892440796,
        -0.1979368031024933,
        -0.0972575917840004,
        -0.12064294517040253,
        0.09720894694328308,
        -0.4203169643878937,
        -0.028794392943382263,
        0.36974212527275085,
        -0.024736454710364342,
        0.2338331639766693,
        -0.43904727697372437,
        -0.23242586851119995,
        -0.055183496326208115,
        0.17154814302921295,
        -0.5651172399520874,
        0.020161613821983337,
        0.09435387700796127,
        0.2676173150539398,
        -0.024539021775126457,
        -0.15200459957122803,
        0.024364421144127846,
        0.02712884545326233,
        -0.3478853106498718,
        -0.07059100270271301,
        -0.03762774541974068,
        0.029507404193282127,
        0.13571377098560333,
        0.3331424295902252,
        -0.15724064409732819,
        -0.21553081274032593,
        0.3003029227256775,
        -0.1234799399971962,
        0.2238016575574875,
        -0.14031347632408142,
        0.19670972228050232,
        0.0073620169423520565,
        0.45425742864608765,
        0.10664741694927216,
        -0.1664140522480011,
        0.04335157200694084,
        -0.06624937057495117,
        0.19430367648601532,
        -0.44655725359916687,
        -0.012147142551839352,
        -0.1726943403482437,
        0.13134761154651642,
        -0.08303279429674149,
        -0.1681756228208542,
        -0.13483937084674835,
        -0.25481149554252625,
        -0.03828292712569237,
        -0.222408726811409,
        0.08189424872398376,
        0.12833689153194427,
        -0.027403468266129494,
        -0.3569689691066742,
        0.15015096962451935,
        -0.02789360284805298,
        -0.8116171956062317,
        -0.09929244220256805,
        0.12147299200296402,
        0.34193313121795654,
        -0.007762630470097065,
        -0.02174316719174385,
        0.2576170861721039,
        0.13043294847011566,
        -0.06529033929109573,
        -0.4304693639278412,
        -0.05672217160463333,
        -0.02539021521806717,
        -0.36166611313819885,
        0.096221923828125,
        0.10748449712991714,
        0.04629203677177429,
        0.09845533967018127,
        0.26080799102783203,
        0.0961066335439682,
        0.06235336512327194,
        0.015311328694224358,
        -0.24606168270111084,
        -0.21988742053508759,
        0.13294702768325806,
        0.5678991079330444,
        0.14750349521636963,
        0.021883301436901093,
        0.1993371993303299,
        0.11657523363828659,
        0.06048473343253136,
        -0.2538093030452728,
        0.1923486739397049,
        0.17119558155536652,
        -0.1515204757452011,
        0.10807257145643234,
        0.17613592743873596,
        0.39451760053634644,
        -0.07909974455833435,
        -0.22513242065906525,
        -0.3813789486885071,
        0.17475445568561554,
        0.39825624227523804,
        -0.02923249453306198,
        -0.05174849554896355,
        0.3060106635093689,
        0.31801214814186096,
        -0.0017303198110312223,
        -0.237553209066391,
        -0.19360603392124176,
        -0.01198080275207758,
        0.07921645790338516,
        -0.1993076354265213,
        -0.1644345074892044,
        -0.3720092475414276,
        -0.027820168063044548,
        -0.165195494890213,
        0.08176352828741074,
        0.03305436670780182,
        -0.20114746689796448,
        -0.023560773581266403,
        0.18879736959934235,
        -0.15510791540145874,
        -0.024690255522727966,
        0.3061714172363281,
        -0.03259589523077011,
        -0.22863158583641052,
        -0.20230530202388763,
        -0.05291644483804703,
        0.05002199113368988,
        0.07159128785133362,
        0.054379113018512726,
        -0.025544146075844765,
        -0.005571085959672928,
        -0.31152790784835815,
        -0.1977497935295105,
        0.12572196125984192,
        -0.11429602652788162,
        0.5325658917427063,
        0.06286913901567459,
        -0.24564139544963837,
        0.007603796198964119,
        -0.032908570021390915,
        0.0858151763677597,
        -0.33266496658325195,
        0.15875934064388275,
        0.19653087854385376,
        -0.06196638196706772,
        -0.046747393906116486,
        0.1346418559551239,
        0.20179255306720734,
        -0.2552785575389862,
        0.35669389367103577,
        -0.2873038351535797,
        0.3871277868747711,
        0.01873539760708809,
        -0.025126924738287926,
        0.4111771285533905,
        0.06692714244127274,
        0.011354987509548664,
        0.01649034023284912,
        0.04004266485571861,
        -0.39474329352378845,
        0.12490696460008621,
        -0.29378777742385864,
        0.10968578606843948,
        -0.17768971621990204,
        0.15253786742687225,
        0.4432584345340729,
        0.5171332359313965,
        0.10810501128435135,
        0.36554643511772156,
        0.027900146320462227,
        -0.8931648135185242,
        -0.011925806291401386,
        -0.09923004359006882,
        0.0073778643272817135,
        0.7862325310707092,
        0.19962424039840698,
        -0.36688724160194397,
        -0.1676090955734253,
        0.16595979034900665,
        0.21547922492027283,
        0.011514034122228622,
        0.10908108949661255,
        -0.2002023160457611,
        -0.07363903522491455,
        -0.02498460002243519,
        -0.06004389375448227,
        -0.14740319550037384,
        0.2508699297904968,
        -0.052670881152153015,
        -0.31067052483558655,
        -0.19127868115901947,
        -0.10816767066717148,
        -0.20339442789554596,
        -0.10946398973464966,
        -0.12928365170955658,
        0.04894711449742317,
        -0.0969623327255249,
        0.1525733470916748,
        0.02948036603629589,
        -0.35019543766975403,
        0.14000989496707916,
        0.10491439700126648,
        0.3125750422477722,
        -0.18179959058761597,
        -0.36374375224113464,
        -0.40675118565559387,
        0.24352239072322845,
        0.38969674706459045,
        -0.13196204602718353,
        0.09303636103868484,
        0.2628975212574005,
        0.10122942924499512,
        -0.08822055160999298,
        0.1672542244195938,
        0.15843254327774048,
        0.019877418875694275,
        -0.2686617374420166,
        -0.3570811450481415,
        -0.27624037861824036,
        0.20438164472579956,
        0.12864378094673157,
        -0.22526632249355316,
        0.4369712173938751,
        0.569399356842041,
        -0.3489495515823364,
        -0.0754157081246376,
        0.7055885791778564,
        0.007441233843564987,
        -0.11080478876829147,
        -0.18696282804012299,
        -0.07304318249225616,
        -0.227297842502594,
        0.17403720319271088,
        0.056594811379909515,
        0.02740253321826458,
        -0.1734759509563446,
        -0.004829804878681898,
        -0.09855911880731583,
        0.22109471261501312,
        0.034057699143886566,
        -0.04472840204834938,
        0.27217546105384827,
        0.09523675590753555,
        -0.44636648893356323,
        -0.30382147431373596,
        -0.23094415664672852,
        0.24134561419487,
        -0.39860910177230835,
        -0.05523836240172386,
        -0.10485859215259552,
        0.20105955004692078,
        -0.5119872093200684,
        -0.07401592284440994,
        0.19612818956375122,
        0.3874441683292389,
        -0.012856570072472095,
        -0.4345041513442993,
        0.13825030624866486,
        0.16231191158294678,
        0.015587549656629562,
        -0.11243098974227905,
        -0.06523109972476959,
        -0.1967093050479889,
        -0.1022980809211731,
        -0.09366348385810852,
        -0.08999094367027283,
        0.14938946068286896,
        0.13623014092445374,
        -0.07531467080116272,
        0.19446663558483124,
        -0.028637003153562546,
        -0.13150319457054138,
        0.21021395921707153,
        0.2441388964653015,
        0.11152367293834686,
        -0.22364798188209534,
        0.37550151348114014,
        -0.26562950015068054,
        -0.14868389070034027,
        -0.1654566079378128,
        0.18255960941314697,
        -0.03897155448794365,
        0.2828134298324585,
        -0.04663776978850365,
        -0.21549373865127563,
        0.14773114025592804,
        0.180688738822937,
        0.10956638306379318,
        -0.12272045016288757,
        0.0146645437926054,
        -0.06287532299757004,
        0.2668725550174713,
        0.08461404591798782,
        0.19183695316314697,
        0.10821226239204407,
        -0.24944710731506348,
        -0.30415573716163635,
        0.33411625027656555,
        -0.05491238459944725,
        -0.29542404413223267,
        0.11024916917085648,
        -0.3894851505756378,
        0.3289339542388916,
        0.35406142473220825,
        -0.02077641524374485,
        -0.2589551508426666,
        0.3268648087978363,
        0.26520097255706787,
        -0.19416536390781403,
        -0.3111294209957123,
        0.12905581295490265,
        -0.13915544748306274,
        -0.46837499737739563,
        -0.21466752886772156,
        -0.3844996392726898,
        0.5627172589302063,
        -0.03897937014698982,
        -0.17262253165245056,
        0.14447163045406342,
        0.04214952513575554,
        0.43752822279930115,
        0.15394005179405212,
        0.21563675999641418,
        0.44481271505355835,
        -0.17219245433807373,
        0.013673088513314724,
        0.03187907487154007,
        -0.1292966902256012,
        0.19497030973434448,
        0.2941388189792633,
        0.43797680735588074,
        -0.031793754547834396,
        0.040472958236932755,
        0.14462411403656006,
        -0.29247841238975525,
        0.09073211997747421,
        0.30009856820106506,
        -0.6222718358039856,
        -0.2638818025588989,
        -0.08396171033382416,
        -0.022945186123251915,
        -0.12615029513835907,
        0.14071732759475708,
        -0.04571725055575371,
        -0.09007834643125534,
        -0.21449095010757446,
        -0.3059768080711365,
        0.2993543744087219,
        0.15131844580173492,
        0.0072989631444215775,
        0.11711899936199188,
        -0.28536882996559143,
        -0.2233997881412506,
        -0.35507115721702576,
        -0.12920914590358734,
        0.0011774711310863495,
        -0.09017734974622726,
        -0.03371219336986542,
        0.00447209645062685,
        -0.03389666974544525,
        -0.0916825383901596,
        -0.1295166164636612,
        0.6092513799667358,
        -0.43380007147789,
        -0.09296836704015732,
        -0.017497867345809937,
        0.3630288541316986,
        0.29749464988708496,
        -0.22889098525047302,
        0.22349253296852112,
        0.14565308392047882
      ],
      "weightsShape": [
        32,
        16
      ],
      "bias": [
        -0.02953740395605564,
        -0.03187869116663933,
        0.005322440527379513,
        0.04866519570350647,
        0.027921874076128006,
        0.006106319837272167,
        -0.05868297070264816,
        -0.03474077209830284,
        -0.03024742193520069,
        -0.013698476366698742,
        -0.08009719103574753,
        0.10227126628160477,
        0.04711882025003433,
        0.04167535901069641,
        0.03315937519073486,
        0.0759161040186882
      ],
      "biasShape": [
        1,
        16
      ],
      "activation": "relu"
    },
    {
      "weights": [
        0.9895961284637451,
        0.27666735649108887,
        -0.9502505660057068,
        -0.6515761613845825,
        -0.8395181894302368,
        0.4074685573577881,
        -0.21666137874126434,
        1.7821333408355713,
        0.5411154627799988,
        -0.401535302400589,
        0.2851238250732422,
        -1.3343992233276367,
        -0.12812675535678864,
        1.05620276927948,
        -0.40070340037345886,
        -0.8675347566604614
      ],
      "weightsShape": [
        16,
        1
      ],
      "bias": [
        -0.055603835731744766
      ],
      "biasShape": [
        1,
        1
      ],
      "activation": "sigmoid"
    }
  ],
  "learningRate": 0.001,
  "l2Lambda": 0.0001
}