{
  "__kind": "NeuralNet",
  "version": 1,
  "layers": [
    {
      "weights": [
        -0.046980299055576324,
        0.5001917481422424,
        0.00043256860226392746,
        -0.6384778618812561,
        0.2617301344871521,
        -0.10384123027324677,
        0.04789462313055992,
        -0.01884296163916588,
        0.845680296421051,
        0.4800446629524231,
        -0.09458377957344055,
        -0.24357102811336517,
        0.00744255818426609,
        -0.23691092431545258,
        0.44463616609573364,
        0.0614885650575161,
        0.04424462094902992,
        0.39806634187698364,
        0.2827182412147522,
        0.35068419575691223,
        0.5039632320404053,
        -0.34581151604652405,
        0.1425061970949173,
        0.6217098832130432,
        -0.4206688106060028,
        0.036343399435281754,
        -0.3757808208465576,
        0.20823520421981812,
        -0.2922665476799011,
        -0.34457945823669434,
        0.06404383480548859,
        -0.33186230063438416,
        -0.2169443815946579,
        0.5646622180938721,
        -0.20553751289844513,
        -0.09927409887313843,
        -0.42904892563819885,
        0.5327138900756836,
        -0.07371681928634644,
        -0.2698594331741333,
        0.07457568496465683,
        -0.08801142126321793,
        0.08328060060739517,
        0.33179184794425964,
        -0.16232949495315552,
        -0.566709041595459,
        -0.44695234298706055,
        0.1987115889787674,
        0.09949931502342224,
        0.4627522826194763,
        0.3508901000022888,
        -0.4254898428916931,
        0.46015962958335876,
        0.3738601803779602,
        -0.13571275770664215,
        -0.34189876914024353,
        -0.25109052658081055,
        0.21599020063877106,
        0.0005499867256730795,
        -0.15358148515224457,
        -0.3894152045249939,
        0.2049672156572342,
        -0.30503007769584656,
        -0.059720225632190704,
        -0.47042006254196167,
        -0.4289895296096802,
        -0.22839520871639252,
        0.47442537546157837,
        -0.0727197527885437,
        0.5863689184188843,
        -0.05745017156004906,
        0.3155106008052826,
        -0.24156545102596283,
        0.45702019333839417,
        -0.35114341974258423,
        -0.3469449281692505,
        0.16722948849201202,
        -0.5794637799263,
        -0.06124458089470863,
        -0.011201450601220131,
        -0.41530641913414,
        -0.17821645736694336,
        -0.7139371037483215,
        -0.9428029656410217,
        -0.34845152497291565,
        -0.3852854371070862,
        -0.002926189685240388,
        0.15339778363704681,
        0.33030617237091064,
        -0.10622023791074753,
        0.028867531567811966,
        -0.24233503639698029,
        0.13115239143371582,
        0.4276861846446991,
        -0.3531484603881836,
        0.16671885550022125,
        -0.11780289560556412,
        0.3134525418281555,
        0.042581379413604736,
        -0.09998637437820435,
        -0.0026868542190641165,
        -0.11163995414972305,
        -0.198511004447937,
        -0.5941200256347656,
        -0.2827022075653076,
        -0.31107160449028015,
        0.14290153980255127,
        0.18262402713298798,
        1.1220650672912598,
        0.1291978359222412,
        0.06568761169910431,
        0.09639722108840942,
        0.4171781539916992,
        0.24659475684165955,
        -0.7803540229797363,
        0.06178766489028931,
        0.3787831962108612,
        0.20171400904655457,
        -0.1981905847787857,
        -0.09905523806810379,
        -0.4217822551727295,
        -0.5623365640640259,
        -0.17314806580543518,
        -0.5360187292098999,
        0.031868983060121536,
        -0.010420134291052818,
        -0.2459108829498291,
        0.8287683129310608,
        -0.5322743654251099,
        -0.05228482186794281,
        0.24586062133312225,
        -0.4518722891807556,
        0.05425618588924408,
        -0.06531781703233719,
        -0.5570997595787048,
        0.20662103593349457,
        -0.16777819395065308,
        0.5734632015228271,
        0.7900062203407288,
        0.5262919664382935,
        -0.3411974310874939,
        0.23157788813114166,
        0.05422079563140869,
        0.25655490159988403,
        -0.3352373540401459,
        0.11897710710763931,
        -0.23385119438171387,
        0.23943772912025452,
        0.1764444261789322,
        0.022309793159365654,
        -0.10412682592868805,
        0.39840832352638245,
        0.2728022634983063,
        -0.1741044819355011,
        -0.5188736319541931,
        0.1153009757399559,
        -0.6480036973953247,
        -0.19633860886096954,
        -0.13197478652000427,
        -0.038384828716516495,
        0.2792600393295288,
        -0.32340872287750244,
        -0.341481477022171,
        0.049226123839616776,
        -0.25943076610565186,
        0.10741348564624786,
        0.28766390681266785,
        0.12472395598888397,
        -0.1974848508834839,
        -0.2651292681694031,
        0.007667510770261288,
        -0.10263308882713318,
        0.3063310980796814,
        0.3093419075012207,
        -0.08572780340909958,
        -0.024193046614527702,
        -0.31111231446266174,
        0.18274790048599243,
        -0.13934792578220367,
        -0.7630205154418945,
        -0.40144720673561096,
        0.14695583283901215,
        0.48478052020072937,
        0.06903596967458725,
        0.32397589087486267,
        0.34302395582199097,
        0.6919779777526855,
        0.5671150088310242,
        0.2774779498577118,
        -0.29020223021507263,
        -0.6581078767776489,
        -0.15538422763347626,
        0.022582653909921646,
        0.2841961681842804,
        0.1758923977613449,
        -0.35625505447387695,
        -0.013251952826976776,
        0.017447369173169136,
        0.24501672387123108,
        0.11756689101457596,
        0.11998986452817917,
        -0.29760441184043884,
        -0.1960938274860382,
        -0.2743854820728302,
        -0.4540548622608185,
        -0.46342042088508606,
        -0.10831635445356369,
        -0.12492037564516068,
        0.18806353211402893,
        0.4141661822795868,
        -0.5426080822944641,
        0.038942739367485046,
        0.19695185124874115,
        0.25218117237091064,
        -0.2816183865070343,
        -0.28631898760795593,
        -0.342886745929718,
        0.05707379803061485,
        -0.14415350556373596,
        0.23313066363334656,
        0.10895084589719772,
        0.21382465958595276,
        0.031434644013643265,
        -0.2309434711933136,
        0.5692201256752014,
        -0.13731594383716583,
        -0.29024964570999146,
        -0.1913028210401535,
        -0.09589822590351105,
        0.014686418697237968,
        -0.016185615211725235,
        -0.5696277022361755,
        -0.1241077110171318,
        0.17541100084781647,
        0.04130365699529648,
        -0.003271707333624363,
        -0.5337133407592773,
        0.32776716351509094,
        -0.6996543407440186,
        -0.3196869492530823,
        -0.14003486931324005,
        -0.11790376156568527,
        -0.2578716278076172,
        0.03459608554840088,
        0.1995425969362259,
        0.09903845936059952,
        0.10430099815130234,
        0.08284510672092438,
        0.18181967735290527,
        0.27786797285079956,
        -0.37443646788597107,
        0.13176392018795013,
        0.4835320711135864,
        0.09719569981098175,
        -0.06261011958122253,
        0.952530026435852,
        -0.190264031291008,
        0.162654310464859,
        0.001209651818498969,
        -0.5903888940811157,
        0.6556597352027893,
        0.2903466820716858,
        -0.2603113353252411,
        0.31602418422698975,
        -0.2879031002521515,
        -0.11597435176372528,
        -0.1795179396867752,
        -0.251388281583786,
        0.2714233696460724,
        -0.18840493261814117,
        0.08045551925897598,
        -0.21982508897781372,
        0.19881047308444977,
        0.17161481082439423,
        -0.7591869831085205,
        0.18720592558383942,
        -0.4752861559391022,
        0.04594917222857475,
        0.23648811876773834,
        0.3999800980091095,
        0.31142231822013855,
        0.21819299459457397,
        0.04738737642765045,
        -0.6124780774116516,
        0.5138283967971802,
        0.22575487196445465,
        0.10385178029537201,
        -0.38198259472846985,
        0.7062923908233643,
        -0.007164823357015848,
        -0.27042871713638306,
        -0.054391372948884964,
        -0.2143978774547577,
        0.4267534017562866,
        -0.32299667596817017,
        -0.37087294459342957,
        0.29507026076316833,
        0.09217765182256699,
        -0.3894748389720917,
        0.2525169253349304,
        -0.2015903741121292,
        0.34566423296928406,
        0.7900221943855286,
        -0.6003788709640503,
        0.4976827800273895,
        0.6353599429130554,
        -0.14219561219215393,
        0.2637190818786621,
        -0.387277215719223,
        -0.31966549158096313,
        0.2904632091522217,
        -0.28948265314102173,
        -0.4508983790874481,
        -0.04318869486451149,
        -0.3592093884944916,
        0.10041074454784393,
        -0.8521814346313477,
        0.10784940421581268,
        0.903799831867218,
        0.37389668822288513,
        -0.02950746938586235,
        0.16203564405441284,
        0.03159699961543083,
        0.3595871329307556,
        0.1747681200504303,
        0.848955512046814,
        0.15947449207305908,
        -0.3655465245246887,
        -0.06842631101608276,
        0.21817317605018616,
        -0.46824997663497925,
        0.004578387830406427,
        -0.19373773038387299,
        -0.559977650642395,
        0.03619680926203728,
        0.6698269844055176,
        -0.8465684056282043,
        0.10362400859594345,
        0.1475442498922348,
        -0.315170019865036,
        -0.15707342326641083,
        0.30835798382759094,
        -0.1327127069234848,
        0.2519245445728302,
        -0.4677540957927704,
        -0.4051322638988495,
        0.5346295833587646,
        -0.2442370355129242,
        0.4277581572532654,
        -0.14826123416423798,
        -0.12814538180828094,
        0.06442559510469437,
        0.06988633424043655,
        -0.16595540940761566,
        0.1454462707042694,
        -0.18995480239391327,
        0.12307244539260864,
        0.5127392411231995,
        -0.2891544997692108,
        -0.2525577247142792,
        0.15630173683166504,
        -0.3291362524032593,
        0.04713601991534233,
        -0.4720572531223297,
        0.028581269085407257,
        0.12411992996931076,
        0.44915512204170227,
        -0.04616406932473183,
        0.41160866618156433,
        -0.036806799471378326,
        -0.729965090751648,
        -0.07567622512578964,
        0.060409318655729294,
        -0.4317662715911865,
        -0.2344583123922348,
        -0.4222922623157501,
        -0.17423002421855927,
        0.11180948466062546,
        -0.017018215730786324,
        0.5683590173721313,
        -0.2543456554412842,
        -0.48927295207977295,
        -0.27830347418785095,
        0.9922246932983398,
        -0.011419123038649559,
        0.2504861652851105,
        -0.022321337834000587,
        0.2805077135562897,
        0.02986086905002594,
        0.10369560867547989,
        -0.3224584758281708,
        -0.006585157476365566,
        -0.2873906195163727,
        0.023995401337742805,
        0.27263543009757996,
        0.061799634248018265,
        -0.2106265425682068,
        0.6134700775146484,
        -0.2771998941898346,
        -0.3658575117588043,
        0.10993632674217224,
        -0.506927490234375,
        0.719974935054779,
        -0.031743232160806656,
        0.8708050847053528,
        -0.2303512841463089,
        0.21531617641448975,
        -0.09397847950458527,
        -0.09180980920791626,
        -0.12713801860809326,
        -0.24383090436458588,
        -0.11022365093231201,
        -0.05489310249686241,
        0.24301981925964355,
        0.34730809926986694,
        -0.42079249024391174,
        -0.22612345218658447,
        0.6854392290115356,
        -0.26188498735427856,
        -0.11147306859493256,
        0.3680315315723419,
        0.31778404116630554,
        -0.37494927644729614,
        -0.015063449740409851,
        0.4519689679145813,
        0.2873525619506836,
        0.2683022916316986,
        0.3365129828453064,
        0.3333374857902527,
        0.10519976168870926,
        0.5642091631889343,
        0.6277511715888977,
        -0.04728575423359871,
        -0.21167492866516113,
        -0.5859808325767517,
        -0.4596370756626129,
        0.4974331259727478,
        -0.17299716174602509,
        0.33549436926841736,
        0.16126082837581635,
        -0.1229720413684845,
        0.17958401143550873,
        -0.23968705534934998,
        -0.05072185397148132,
        0.09721913933753967,
        0.6314073801040649,
        -0.10028798878192902,
        0.41379058361053467,
        0.24313440918922424,
        -0.2597029209136963,
        0.25278547406196594,
        -0.24576415121555328,
        -0.1620793640613556,
        -0.20847086608409882,
        -0.20593492686748505,
        0.16039346158504486,
        -0.35112082958221436,
        0.0520220585167408,
        0.2487853467464447,
        -0.10991369187831879,
        -0.027650684118270874,
        -0.49801281094551086,
        -0.48756730556488037,
        0.16326843202114105,
        -0.5101890563964844,
        -0.9528911709785461,
        0.000031064526410773396,
        -0.48806846141815186,
        -0.014715260826051235,
        -0.09069265425205231,
        0.09457307308912277,
        -1.0281959772109985,
        -0.9161292910575867,
        0.038874756544828415,
        0.14350606501102448,
        -0.029414178803563118,
        0.3228375017642975,
        -0.1719108670949936,
        -0.2421465367078781,
        -0.40322303771972656,
        -0.2560628652572632,
        0.17655666172504425,
        0.25877347588539124,
        -0.6095381379127502,
        0.39928340911865234,
        0.3018738925457001,
        -0.20635084807872772,
        -0.39362767338752747,
        0.19286909699440002,
        0.18974526226520538,
        0.28854361176490784,
        0.19511845707893372,
        0.16946467757225037,
        -0.14617615938186646,
        0.007249542511999607,
        0.3474448025226593,
        0.00407026382163167,
        0.46984025835990906,
        -0.09816285967826843,
        -0.44308778643608093,
        -0.18440748751163483,
        -0.412522554397583,
        -0.29292717576026917,
        0.4493559002876282,
        0.41680994629859924,
        -0.46272027492523193,
        -0.6348182559013367,
        -0.3150022029876709,
        -0.07825612276792526,
        -0.06067448481917381,
        -0.27413883805274963,
        0.4501834511756897,
        -0.9974116683006287,
        0.027343973517417908,
        -0.4718037247657776,
        -0.32413262128829956,
        -0.5085769891738892,
        0.41913947463035583,
        0.30433496832847595,
        -0.033735357224941254,
        -0.09444208443164825,
        0.06353281438350677,
        0.14137357473373413,
        0.40354692935943604,
        -0.016896232962608337,
        -0.32225513458251953,
        -0.0003226695698685944,
        0.1561512053012848,
        -0.06403213739395142,
        0.2979657053947449,
        0.1684706211090088,
        -0.0772310122847557,
        -0.11142249405384064,
        0.1506672352552414,
        -0.056827809661626816,
        -0.2932676672935486,
        -0.1727178543806076,
        0.20341934263706207,
        0.07901632785797119,
        -0.2246623933315277,
        0.3836095929145813,
        -0.4035833775997162,
        -0.6193903088569641,
        -0.5395685434341431,
        0.13442200422286987,
        0.07880284637212753,
        0.6475944519042969,
        -0.22885648906230927,
        -0.6123946309089661,
        -0.10166226327419281,
        -0.4667356312274933,
        0.18323586881160736,
        -0.25409096479415894,
        -0.21659454703330994,
        0.09110616147518158,
        0.21589308977127075,
        0.4770384728908539,
        0.07556711882352829,
        0.40217602252960205,
        0.11742298305034637,
        0.39410823583602905,
        -0.40377527475357056,
        -0.5113228559494019,
        -0.2011418640613556,
        0.5683536529541016,
        -0.02562861517071724,
        0.6385872960090637,
        0.13687582314014435,
        0.25374355912208557,
        -0.1690487414598465,
        0.15348398685455322,
        -0.010495414957404137,
        0.1166183203458786,
        0.16458117961883545,
        0.10559909045696259,
        -0.2320934534072876,
        0.03173866495490074,
        0.20271673798561096,
        -0.5362433791160583,
        -0.5869491100311279,
        -0.14737087488174438,
        -0.30318987369537354,
        -0.20924973487854004,
        0.5775745511054993,
        0.2078840732574463,
        0.5281574726104736,
        -0.028553809970617294,
        0.14403784275054932,
        0.14572317898273468,
        -0.01082366518676281,
        -0.051119450479745865,
        0.14101144671440125,
        -0.032455865293741226,
        0.9648887515068054,
        0.34805870056152344,
        0.4327050745487213,
        -0.4366511404514313,
        -0.08523891866207123,
        0.6437822580337524,
        -0.7334814667701721,
        -0.5686933994293213,
        -0.2336064577102661,
        0.5994537472724915,
        -0.1310221403837204,
        -0.3061739504337311,
        -0.0423264317214489,
        0.1310228854417801,
        0.03740208223462105,
        0.16791723668575287,
        0.01976541057229042,
        0.3208150267601013,
        -0.3149869740009308,
        0.08334782719612122,
        -0.07001572847366333,
        0.3371405005455017,
        0.334594190120697,
        0.04809842258691788,
        0.11768881976604462,
        0.40621218085289,
        0.5084928870201111,
        -0.1892358511686325,
        -0.8226236701011658,
        0.18567705154418945,
        0.5186529755592346,
        -0.18199995160102844,
        -0.06241486221551895,
        0.035368409007787704,
        -0.1052204817533493,
        -0.8016384840011597,
        -0.13284902274608612,
        0.18457253277301788,
        -0.5743772983551025,
        0.45946991443634033,
        -0.9040305614471436,
        0.28875863552093506,
        0.016885390505194664,
        0.21443262696266174,
        -0.20583435893058777,
        -0.5957862138748169,
        0.11631688475608826,
        -0.5321274995803833,
        -0.07974245399236679,
        -0.6628199219703674,
        0.14344102144241333,
        -0.0689491480588913,
        0.06577760726213455,
        -0.08509523421525955,
        -0.7207422852516174,
        0.1127810925245285,
        0.2997245490550995,
        -0.16819487512111664,
        0.0765719935297966,
        -0.42150506377220154,
        -0.43246904015541077,
        0.45200687646865845,
        0.6337549090385437,
        0.13929323852062225,
        0.09330734610557556,
        -1.4920531511306763,
        0.023524291813373566,
        0.21250957250595093,
        -0.3516569137573242,
        0.6568745970726013,
        -0.24427632987499237,
        0.3160535395145416,
        -0.5905844569206238,
        -0.2028064876794815,
        -0.3372844159603119,
        0.2107369601726532,
        -0.3353734314441681,
        0.3484155535697937,
        0.2739641070365906,
        0.22005786001682281,
        0.17361198365688324,
        0.37653401494026184,
        0.45788833498954773,
        0.018220797181129456,
        -0.0871247798204422,
        -0.34852054715156555,
        0.5424889922142029,
        0.24516962468624115,
        -0.43869689106941223,
        0.6182465553283691,
        0.0332939513027668,
        0.12254449725151062,
        -0.3357759714126587,
        0.3108140826225281,
        -0.0689266175031662,
        0.10473091900348663,
        -0.4593464434146881,
        -0.099003866314888,
        0.44344407320022583,
        -0.2679276466369629,
        0.7089617252349854,
        -0.00838087685406208,
        -0.0471617616713047,
        -0.30447202920913696,
        -0.28556492924690247,
        0.02956051006913185,
        0.11560129374265671,
        0.04714338108897209,
        0.0360960029065609,
        -0.46808815002441406,
        0.2116144895553589,
        -0.43849626183509827,
        -0.36016690731048584,
        -0.013018827885389328,
        -0.07024022191762924,
        0.129328653216362,
        -0.6801258325576782,
        0.04358309134840965,
        -0.10114509612321854,
        -0.23927812278270721,
        -0.015281736850738525,
        -0.5547766089439392,
        0.13892942667007446,
        0.05514895170927048,
        -0.12084483355283737,
        0.0797637552022934,
        0.5706964731216431,
        -0.49312955141067505,
        0.2621540129184723,
        0.1210290864109993,
        -0.17166732251644135,
        -0.43925875425338745,
        -0.3606288731098175,
        0.24253150820732117,
        -0.3137187063694,
        -0.12120739370584488,
        0.3346908390522003,
        -0.049349550157785416,
        0.44925200939178467,
        0.18269586563110352,
        0.3436393737792969,
        0.12083190679550171,
        0.5132085084915161,
        0.2450905442237854,
        0.04430254176259041,
        -0.03178972378373146,
        -0.5336743593215942,
        -0.3961438238620758,
        -0.75225830078125,
        0.09401220083236694,
        0.11252913624048233,
        0.37444761395454407,
        0.4105736017227173,
        -0.49165472388267517,
        0.08795304596424103,
        -0.006562177557498217,
        0.11620563268661499,
        0.42123669385910034,
        0.8880581855773926,
        0.2889183461666107,
        -0.34691107273101807,
        -0.042709097266197205,
        0.27999699115753174,
        -0.4354352056980133,
        0.569651186466217,
        -0.2829371690750122,
        -0.03471047058701515,
        -0.15598748624324799,
        -0.1674296259880066,
        -0.5298810601234436,
        -0.37312111258506775,
        -0.27549904584884644,
        -0.14600875973701477,
        -0.22632566094398499,
        -0.3109853267669678,
        0.4304371178150177,
        0.3556368947029114,
        0.21686029434204102,
        0.18957339227199554,
        0.2787479758262634,
        -0.09670735150575638,
        0.029821006581187248,
        -0.36235785484313965,
        0.5244682431221008,
        0.05592690408229828,
        -0.15597370266914368,
        -0.3288537859916687,
        0.19012391567230225,
        -0.24706050753593445,
        -0.04401346668601036,
        0.063014917075634,
        0.1221187636256218,
        0.5618647336959839,
        -0.16246680915355682,
        -0.331292986869812,
        -0.18913796544075012,
        -0.1960761547088623,
        0.2730810344219208,
        0.5900353789329529,
        -0.166717529296875,
        0.5384985208511353,
        -0.11359178274869919,
        -0.22156672179698944,
        -0.537289023399353,
        0.142555370926857,
        0.34283870458602905,
        -0.027622375637292862,
        -0.17987017333507538,
        -0.09465327858924866,
        0.08221029490232468,
        -0.5319899320602417,
        -0.053665149956941605,
        -0.2525891959667206,
        -0.3087186813354492,
        0.033925220370292664,
        0.31032440066337585,
        0.20268762111663818,
        0.3936503529548645,
        -0.4765505790710449,
        -0.240841805934906,
        -0.06228252872824669,
        0.7157064080238342,
        -0.3125619888305664,
        0.749187171459198,
        0.5360025763511658,
        0.7301506400108337,
        0.14335669577121735,
        -0.03314477577805519,
        0.2516119182109833,
        -0.5419660210609436,
        -0.13311409950256348,
        -0.18674838542938232,
        -0.27795854210853577,
        -0.3550250232219696,
        -0.5556102395057678,
        -0.22851671278476715,
        -0.10235358774662018,
        -0.14302024245262146,
        0.15348583459854126,
        -0.3596794903278351,
        0.4357353746891022,
        -0.35606035590171814,
        0.07993049174547195,
        -0.33969050645828247,
        0.08082514256238937,
        -0.4981815218925476,
        -0.14246788620948792,
        -0.4013270139694214,
        0.06846481561660767,
        0.09790264815092087,
        -0.5377172231674194,
        -0.04909716174006462,
        0.30679675936698914,
        0.22638659179210663,
        0.37342044711112976,
        -0.551947295665741,
        -0.12722136080265045,
        0.6092717051506042,
        0.3585105836391449,
        -0.08501686900854111,
        -0.3569185733795166,
        -0.401934951543808,
        0.43030574917793274,
        0.030093688517808914,
        0.3027072548866272,
        -0.25902697443962097,
        -0.6906725168228149,
        0.1612423211336136,
        0.271389365196228,
        -0.2535502314567566,
        -0.190492182970047,
        -0.10897044092416763,
        0.22534288465976715,
        0.033442284911870956,
        -0.11110570281744003,
        -0.28271540999412537,
        -0.1573387086391449,
        -0.6899094581604004,
        0.29317110776901245,
        0.32663625478744507,
        -0.37353017926216125,
        0.028128527104854584,
        -0.6472842693328857,
        -0.22797515988349915,
        0.19669203460216522,
        0.10373397171497345,
        0.30701032280921936,
        -0.4724630117416382,
        -0.22051967680454254,
        -0.2449132353067398,
        0.16291971504688263,
        -0.20878104865550995,
        -0.03909330442547798,
        0.2516869902610779,
        0.10487951338291168,
        0.5392614006996155,
        -0.11781302839517593,
        -0.07345828413963318,
        0.34571072459220886,
        -0.34179699420928955,
        0.09194692224264145,
        -0.16177865862846375,
        -0.5513119697570801,
        0.19498133659362793,
        -0.2884548008441925,
        0.12862716615200043,
        -0.10173439979553223,
        0.08819860219955444,
        0.5693936347961426,
        -0.37698933482170105,
        -0.1798633188009262,
        -0.019836492836475372,
        -0.4845616817474365,
        0.37491321563720703,
        0.5529287457466125,
        0.1868518590927124,
        -0.31368017196655273,
        -0.1098242700099945,
        -0.5897695422172546,
        0.4731537401676178,
        -0.6243621110916138,
        -0.7910695672035217,
        -0.17631517350673676,
        -0.4612451493740082,
        0.4108031392097473,
        -0.31991660594940186,
        0.05675217881798744,
        0.15955498814582825,
        0.005479450803250074,
        -0.8191680908203125,
        -0.1545451581478119,
        0.6001428961753845,
        0.051944419741630554,
        -0.3490832448005676,
        -0.5105794072151184,
        -0.08189376443624496,
        0.44873905181884766,
        -0.07064740359783173,
        -0.9309905171394348,
        0.06047336384654045,
        -0.1324021965265274,
        0.046118754893541336,
        -0.059601034969091415,
        -0.13489198684692383,
        -0.09503849595785141,
        0.027674902230501175,
        -0.06174561008810997,
        0.8232247829437256,
        0.4645175337791443,
        -0.31554797291755676,
        -0.1538863629102707,
        0.007204669527709484,
        -0.11798683553934097,
        -0.47999754548072815,
        0.07868868857622147,
        -0.07138162106275558,
        -0.122820183634758,
        -0.05271262675523758,
        -0.11266282200813293,
        -0.8112028241157532,
        0.3770127296447754,
        0.21930639445781708,
        -0.40863341093063354,
        0.11628209054470062,
        0.005761073436588049,
        -0.10243287682533264,
        -0.10103686153888702,
        -0.32084357738494873,
        -0.7598544359207153,
        -0.07627422362565994,
        -0.32178935408592224,
        -0.21580654382705688,
        0.17565065622329712,
        -0.23631471395492554,
        -0.051067519932985306,
        0.10926465690135956,
        -0.27691107988357544,
        0.04567410796880722,
        0.28488269448280334,
        -0.03256937116384506,
        -0.3329663872718811,
        0.7255042791366577,
        -0.013771722093224525,
        0.024439644068479538,
        0.5934069156646729,
        -0.4173309803009033,
        -0.3277754783630371,
        -0.2840295433998108,
        -0.0730079934000969,
        -0.19295097887516022,
        0.48080840706825256,
        0.5057442784309387,
        0.08765638619661331,
        0.15990418195724487,
        -0.3802601993083954,
        -0.8192628026008606,
        -0.5512893795967102,
        0.003489843336865306,
        -0.35054585337638855,
        -0.33698663115501404,
        -0.39275887608528137,
        -0.13901396095752716,
        0.3760095238685608,
        0.1992543637752533,
        0.03887882083654404,
        0.28363969922065735,
        0.24206140637397766,
        -0.2971404492855072,
        0.6405864953994751,
        -0.4719642102718353,
        0.3650510609149933,
        0.38404789566993713,
        0.18707789480686188,
        -0.024717403575778008,
        -0.7009155750274658,
        0.14753350615501404,
        0.09029005467891693,
        0.43081673979759216,
        -0.4040675759315491,
        0.009890858083963394,
        0.12391688674688339,
        0.037423454225063324,
        -0.0232962965965271,
        0.11767682433128357,
        -0.18371857702732086,
        0.504247784614563,
        0.3745630383491516,
        0.026477567851543427,
        0.187220960855484,
        0.0893133282661438,
        -0.18165414035320282,
        0.30342772603034973,
        -0.04706883057951927,
        0.22966983914375305,
        0.2791704833507538,
        -0.2063591629266739,
        -0.3372851312160492,
        -0.09369468688964844,
        -0.07182914018630981,
        -0.050596073269844055,
        -0.07773013412952423,
        0.08024228364229202,
        0.35474902391433716,
        0.44432300329208374,
        -0.13448511064052582,
        0.2903360426425934,
        0.6184844374656677,
        0.31633201241493225,
        -0.36445745825767517,
        0.32596278190612793,
        0.13345657289028168,
        -0.09483378380537033,
        0.47858601808547974,
        -0.25625890493392944,
        -0.5190944671630859,
        0.18949775397777557,
        -0.21138522028923035,
        0.21520216763019562,
        -0.13872234523296356,
        0.08134333789348602,
        0.6316486597061157,
        0.32366472482681274,
        0.20454291999340057,
        0.38809308409690857,
        -0.24713179469108582,
        0.013034234754741192,
        -0.15855737030506134,
        -0.4560070037841797,
        -0.48099467158317566,
        0.08911168575286865,
        0.12659284472465515,
        0.33475127816200256,
        -0.5772589445114136,
        -0.3265078067779541,
        0.2551164925098419,
        -0.5196989178657532,
        0.655507504940033,
        -0.19934268295764923,
        0.150423064827919,
        -0.033501673489809036,
        0.49076566100120544,
        -0.35228291153907776,
        0.6679681539535522,
        -0.2637856900691986,
        0.2496960163116455,
        0.9013867378234863,
        0.37068915367126465,
        0.0371100977063179,
        -0.029292115941643715,
        -0.8501983880996704,
        -0.3902673125267029,
        0.17822545766830444,
        -0.13216841220855713,
        0.08633150905370712,
        0.03579438105225563
      ],
      "weightsShape": [
        17,
        64
      ],
      "bias": [
        -0.003144547576084733,
        0.009348967112600803,
        -0.0016190923051908612,
        -0.02014394849538803,
        -0.010455123148858547,
        0.0396919846534729,
        -0.003909667022526264,
        0.0028196019120514393,
        -0.009757823310792446,
        -0.009894339367747307,
        0.003636235138401389,
        -0.010144341737031937,
        -0.006148200947791338,
        0,
        0.08370774984359741,
        0.0012300427770242095,
        -0.01510791014879942,
        0.05475668981671333,
        0.033779457211494446,
        0.005558636970818043,
        -0.0028913463465869427,
        -0.06645847111940384,
        0.001513830153271556,
        0.08598335832357407,
        -0.00054258102318272,
        -0.021253222599625587,
        -0.026071548461914062,
        -0.00008632660319563001,
        0.12977801263332367,
        -0.013093529269099236,
        -0.0031867274083197117,
        0,
        -0.01117479708045721,
        0.028115293011069298,
        0.0598992221057415,
        0,
        0.009038614109158516,
        -0.05392621085047722,
        -0.0015841673593968153,
        -0.009341825731098652,
        -0.02560386061668396,
        0.020376792177557945,
        0.03174968808889389,
        -0.022395994514226913,
        0.028402816504240036,
        0.09603656083345413,
        0.11707752197980881,
        0.07612456381320953,
        -0.004377029836177826,
        0.0017390402499586344,
        0,
        0.0194084532558918,
        -0.047981809824705124,
        0.030914923176169395,
        0.007951424457132816,
        0.008596979081630707,
        -0.005056465044617653,
        -0.0014930055476725101,
        0.008223496377468109,
        0.01457308791577816,
        0.10227856785058975,
        0.012097861617803574,
        -0.0024027687031775713,
        0.013148985803127289
      ],
      "biasShape": [
        1,
        64
      ],
      "activation": "relu"
    },
    {
      "weights": [
        0.07008048892021179,
        0.0662459209561348,
        -0.30998659133911133,
        0.35236021876335144,
        -0.15448571741580963,
        -0.1610695719718933,
        -0.02238353155553341,
        0.1656510978937149,
        0.00919957086443901,
        0.043547533452510834,
        -0.39819803833961487,
        -0.09423890709877014,
        -0.07532532513141632,
        -0.43307626247406006,
        0.1524602174758911,
        0.22120846807956696,
        0.23507830500602722,
        -0.13081666827201843,
        0.02621353790163994,
        -0.1332874894142151,
        0.272841215133667,
        -0.2031840980052948,
        0.06597624719142914,
        0.21098162233829498,
        -0.022359678521752357,
        0.16422083973884583,
        -0.23984675109386444,
        -0.24575014412403107,
        0.07440569996833801,
        -0.24429714679718018,
        -0.07194404304027557,
        0.041012849658727646,
        -0.09408301115036011,
        0.0072804586961865425,
        -0.014185342937707901,
        -0.10849608480930328,
        -0.03816022351384163,
        0.025401990860700607,
        -0.0060885329730808735,
        0.008734570816159248,
        0.07002580910921097,
        0.08983832597732544,
        0.022130627185106277,
        0.010202017612755299,
        -0.19939857721328735,
        0.35348087549209595,
        -0.04619775339961052,
        -0.07040522992610931,
        -0.13530313968658447,
        -0.14472781121730804,
        0.008702751249074936,
        0.13304215669631958,
        0.1580546796321869,
        -0.05352204293012619,
        0.17013828456401825,
        0.13885897397994995,
        0.06984248012304306,
        0.14952731132507324,
        -0.32832345366477966,
        -0.04213050380349159,
        -0.160353884100914,
        -0.05963630601763725,
        -0.003434947691857815,
        0.11202841997146606,
        0.18362602591514587,
        0.06794381141662598,
        -0.12957438826560974,
        -0.11317888647317886,
        -0.006899280473589897,
        0.12012801319360733,
        0.23880207538604736,
        -0.08555805683135986,
        0.3354162871837616,
        -0.1142679750919342,
        0.25498166680336,
        -0.10157305002212524,
        -0.08848650753498077,
        -0.14175555109977722,
        0.2088487148284912,
        0.12238527089357376,
        0.042554475367069244,
        0.39522093534469604,
        0.03559752553701401,
        0.09037282317876816,
        -0.034806087613105774,
        -0.09904167801141739,
        -0.041020285338163376,
        0.029988687485456467,
        -0.20401103794574738,
        -0.2711515426635742,
        0.04108322784304619,
        -0.1102382093667984,
        -0.052554499357938766,
        -0.08915342390537262,
        -0.3620679974555969,
        -0.06684711575508118,
        -0.02004142478108406,
        0.14226526021957397,
        -0.09009946882724762,
        0.002503888215869665,
        0.4135938286781311,
        -0.0010129549773409963,
        0.2864651083946228,
        0.17894260585308075,
        0.0886654481291771,
        -0.05223923549056053,
        -0.19642940163612366,
        0.08973979949951172,
        0.19684720039367676,
        -0.12438159435987473,
        -0.11204434186220169,
        0.007847373373806477,
        0.26226070523262024,
        -0.05515780672430992,
        0.32811957597732544,
        0.20405413210391998,
        -0.37217551469802856,
        0.0032343720085918903,
        -0.14906273782253265,
        -0.36454588174819946,
        -0.004184080753475428,
        0.25720807909965515,
        -0.23232388496398926,
        -0.06360305100679398,
        -0.03775648772716522,
        -0.16736286878585815,
        -0.23746377229690552,
        0.21059353649616241,
        -0.24110428988933563,
        0.1459268480539322,
        0.1508663445711136,
        0.17634400725364685,
        -0.24261513352394104,
        0.11513543128967285,
        0.1307050734758377,
        0.12110793590545654,
        -0.0764390379190445,
        0.15909093618392944,
        0.2540709674358368,
        -0.04931086301803589,
        -0.19538316130638123,
        0.209307461977005,
        -0.11520040780305862,
        0.09861595928668976,
        0.13142170011997223,
        0.1840846836566925,
        0.08064202219247818,
        0.015256237238645554,
        -0.21779927611351013,
        0.12724518775939941,
        0.44742903113365173,
        0.4300907552242279,
        0.03175520896911621,
        0.3836648762226105,
        0.35957905650138855,
        -0.3899703919887543,
        -0.0652233362197876,
        0.20929208397865295,
        -0.1318303644657135,
        -0.25372880697250366,
        0.08455612510442734,
        0.12728489935398102,
        0.26314371824264526,
        0.03826674446463585,
        -0.07469747960567474,
        -0.2086830586194992,
        0.1000024750828743,
        -0.16450586915016174,
        0.14885538816452026,
        -0.0018105012131854892,
        0.19298064708709717,
        0.1485595852136612,
        0.05813504010438919,
        -0.027696853503584862,
        -0.10308012366294861,
        0.10880915820598602,
        0.12047664821147919,
        -0.11660148203372955,
        0.37204813957214355,
        0.17662875354290009,
        0.11696450412273407,
        -0.05465085804462433,
        -0.20721182227134705,
        0.04134107381105423,
        0.31032896041870117,
        0.06686165183782578,
        -0.476365864276886,
        0.18191097676753998,
        -0.05764418840408325,
        0.2142234742641449,
        -0.05382484197616577,
        0.2672206461429596,
        0.35462459921836853,
        0.0672016367316246,
        -0.18551889061927795,
        0.2792210280895233,
        0.17213591933250427,
        0.11565270274877548,
        0.1611107885837555,
        -0.5831533670425415,
        -0.23577755689620972,
        0.11625628918409348,
        0.29996174573898315,
        -0.007070895284414291,
        -0.022440584376454353,
        0.05510484799742699,
        -0.05590388923883438,
        0.18216948211193085,
        0.13376186788082123,
        0.26426494121551514,
        -0.22187641263008118,
        -0.029487133026123047,
        0.11615712195634842,
        -0.06169462949037552,
        0.18586333096027374,
        0.03411870077252388,
        -0.14148078858852386,
        -0.1230534017086029,
        -0.12284015119075775,
        -0.04599449783563614,
        -0.18178199231624603,
        0.2608022689819336,
        -0.07464701682329178,
        -0.10022687911987305,
        -0.06585812568664551,
        0.020842423662543297,
        -0.17518022656440735,
        0.15821434557437897,
        0.1514030396938324,
        0.0129610700532794,
        0.059935376048088074,
        -0.27914515137672424,
        0.212246373295784,
        -0.02403535321354866,
        0.033041562885046005,
        -0.068046934902668,
        0.08886698633432388,
        -0.13381151854991913,
        -0.11429067701101303,
        -0.10950843244791031,
        -0.03084826096892357,
        0.04370509460568428,
        0.008848218247294426,
        0.02260782942175865,
        -0.29115140438079834,
        0.0742323249578476,
        0.16712112724781036,
        0.1772979199886322,
        -0.46689847111701965,
        -0.2179705947637558,
        0.06979621201753616,
        0.1433064192533493,
        0.03078550472855568,
        0.2906196415424347,
        -0.35888198018074036,
        0.02484285458922386,
        0.02850000187754631,
        -0.36414313316345215,
        -0.06443142890930176,
        -0.010755889117717743,
        0.088479183614254,
        -0.31641507148742676,
        0.0722586140036583,
        -0.029226118698716164,
        0.011940800584852695,
        -0.2510489523410797,
        -0.08381304889917374,
        0.04888226464390755,
        -0.2405126839876175,
        -0.2752469778060913,
        0.013831430114805698,
        0.266954243183136,
        -0.4213460087776184,
        0.39951273798942566,
        -0.2594638764858246,
        0.12379122525453568,
        0.1359405815601349,
        -0.07196367532014847,
        -0.006950731854885817,
        0.009895553812384605,
        0.3191381096839905,
        -0.03061414323747158,
        -0.23460136353969574,
        -0.046832840889692307,
        0.07481425255537033,
        -0.2654595375061035,
        -0.03516959771513939,
        -0.07759692519903183,
        -0.008326191455125809,
        -0.08890558779239655,
        0.2234264761209488,
        0.08846571296453476,
        0.01722663640975952,
        0.21229512989521027,
        0.18877115845680237,
        -0.1282804012298584,
        0.2033955305814743,
        0.0031589812133461237,
        -0.025386186316609383,
        0.00609945971518755,
        -0.21213595569133759,
        -0.09518509358167648,
        0.018046244978904724,
        -0.5429322719573975,
        -0.027996288612484932,
        -0.13439638912677765,
        -0.25905558466911316,
        -0.21841341257095337,
        -0.0568060576915741,
        -0.08059535175561905,
        -0.022425265982747078,
        0.0027186714578419924,
        0.14373107254505157,
        0.36582285165786743,
        -0.11501704156398773,
        0.16826985776424408,
        -0.17780327796936035,
        0.23019689321517944,
        -0.3196764886379242,
        -0.17617949843406677,
        0.1980116367340088,
        -0.21558749675750732,
        -0.18369880318641663,
        -0.0005616046255454421,
        0.13640740513801575,
        0.00009947963553713635,
        0.11787653714418411,
        -0.46227025985717773,
        0.054718513041734695,
        0.23173049092292786,
        -0.24769070744514465,
        0.08197098970413208,
        -0.1711217314004898,
        -0.05148075893521309,
        0.07023628056049347,
        0.25586193799972534,
        0.2658241093158722,
        0.08250947296619415,
        0.2622409462928772,
        0.05263233557343483,
        0.04631412401795387,
        0.1897583305835724,
        -0.09315261244773865,
        0.17754234373569489,
        0.20638035237789154,
        0.23309116065502167,
        0.2809920907020569,
        0.12620729207992554,
        -0.1237550675868988,
        -0.3903217911720276,
        0.3453938663005829,
        -0.021894318982958794,
        0.2055298537015915,
        -0.06626421958208084,
        -0.08973388373851776,
        -0.2104135900735855,
        -0.10207979381084442,
        -0.17128613591194153,
        0.03538752347230911,
        0.20648685097694397,
        -0.06070960313081741,
        0.014864851720631123,
        0.21618753671646118,
        0.15530838072299957,
        -0.18670210242271423,
        0.4262005388736725,
        -0.24023932218551636,
        -0.011539870873093605,
        0.3058304190635681,
        -0.06856205314397812,
        -0.2572265863418579,
        -0.03784670680761337,
        -0.1359192430973053,
        -0.3848606050014496,
        0.08085127919912338,
        -0.002666359767317772,
        -0.22084714472293854,
        0.09258154779672623,
        -0.05819813162088394,
        0.3018747568130493,
        0.20286913216114044,
        0.24376262724399567,
        -0.23485805094242096,
        0.1120559573173523,
        -0.05991620197892189,
        -0.03420901298522949,
        0.05709262564778328,
        -0.013743841089308262,
        -0.18889153003692627,
        -0.13548579812049866,
        0.26528310775756836,
        0.0712072104215622,
        0.18483757972717285,
        -0.28620803356170654,
        0.0609871968626976,
        -0.09536688029766083,
        -0.012051056139171124,
        -0.05913387984037399,
        -0.39892324805259705,
        -0.09234534949064255,
        -0.03616926819086075,
        0.0653165727853775,
        -0.07520376145839691,
        0.08353778719902039,
        -0.12342037260532379,
        -0.14522773027420044,
        -0.2096482515335083,
        0.3954419493675232,
        0.11072367429733276,
        0.1478474885225296,
        0.053684186190366745,
        -0.020538609474897385,
        -0.14716576039791107,
        -0.08281578868627548,
        -0.0022987988777458668,
        0.0016739366110414267,
        0.138000950217247,
        0.14791728556156158,
        -0.10014677047729492,
        0.0205167755484581,
        -0.1143399327993393,
        0.0441652312874794,
        0.05556011572480202,
        -0.3278813660144806,
        -0.04409288614988327,
        0.2255481481552124,
        -0.188030406832695,
        0.2181626409292221,
        0.21895167231559753,
        -0.251433789730072,
        -0.07924908399581909,
        0.12296812981367111,
        -0.05110645666718483,
        -0.07276784628629684,
        -0.18736658990383148,
        0.15875257551670074,
        -0.23929615318775177,
        0.15531447529792786,
        -0.11294171959161758,
        -0.2660002112388611,
        0.13430774211883545,
        0.2257213443517685,
        0.3490019142627716,
        -0.09594114869832993,
        0.013467258773744106,
        0.18356548249721527,
        0.01588011533021927,
        0.18421828746795654,
        -0.12853758037090302,
        0.43972083926200867,
        -0.13632436096668243,
        -0.07168509066104889,
        -0.11816210299730301,
        0.12777967751026154,
        0.1980532705783844,
        0.10919579118490219,
        0.15938188135623932,
        -0.04386280104517937,
        0.12930341064929962,
        0.292712926864624,
        -0.31588003039360046,
        -0.011580885387957096,
        -0.4382443428039551,
        -0.10223779827356339,
        0.11996633559465408,
        -0.10455343127250671,
        -0.10668246448040009,
        -0.27662602066993713,
        -0.08601514250040054,
        -0.17934100329875946,
        -0.05235714465379715,
        0.08853746950626373,
        0.055861182510852814,
        0.016969112679362297,
        0.3329375684261322,
        -0.06506521999835968,
        0.1567845642566681,
        0.10221326351165771,
        -0.0927092656493187,
        -0.03995886445045471,
        -0.2562742829322815,
        0.09616506844758987,
        0.06233469024300575,
        0.02354002743959427,
        0.27977511286735535,
        -0.04183221608400345,
        0.27558115124702454,
        0.08731884509325027,
        0.09258124977350235,
        -0.1637977808713913,
        -0.03905468434095383,
        0.019121039658784866,
        0.09863406419754028,
        -0.18780486285686493,
        -0.17238976061344147,
        -0.3600514233112335,
        0.20290431380271912,
        -0.4586264193058014,
        0.03707031160593033,
        -0.15323491394519806,
        -0.301150381565094,
        -0.21981680393218994,
        -0.5578622221946716,
        -0.1218705028295517,
        -0.03069632314145565,
        -0.2328064888715744,
        -0.10494308173656464,
        -0.21152442693710327,
        -0.12559829652309418,
        0.04900052398443222,
        0.16876962780952454,
        0.1573907881975174,
        -0.19686131179332733,
        -0.1531437784433365,
        0.26356542110443115,
        0.41443920135498047,
        -0.027985217049717903,
        0.2134065330028534,
        -0.05279574543237686,
        -0.0360766164958477,
        -0.022557457908988,
        -0.32223790884017944,
        -0.2578088045120239,
        0.21622148156166077,
        -0.13589085638523102,
        0.1815069615840912,
        0.10751927644014359,
        -0.008656781166791916,
        0.1630731225013733,
        0.029606381431221962,
        0.0366554856300354,
        -0.1681250035762787,
        -0.026528948917984962,
        -0.3185020387172699,
        0.04958467558026314,
        -0.01771695539355278,
        0.14473071694374084,
        -0.2764149606227875,
        0.23631323873996735,
        0.06365164369344711,
        -0.21643443405628204,
        -0.17102889716625214,
        0.16982540488243103,
        0.2777901291847229,
        -0.10172788798809052,
        0.014483591541647911,
        -0.10680868476629257,
        0.2514965832233429,
        0.11290406435728073,
        -0.3322642147541046,
        0.07216054201126099,
        0.22317153215408325,
        0.01261055562645197,
        0.14283612370491028,
        -0.16476202011108398,
        0.3489817678928375,
        0.2191375344991684,
        -0.011724157258868217,
        0.12361486256122589,
        -0.0011521062115207314,
        0.03197326138615608,
        0.001739692990668118,
        0.18482990562915802,
        -0.06291612237691879,
        -0.15671560168266296,
        0.15762144327163696,
        0.1438581794500351,
        0.020627319812774658,
        0.0033650058321654797,
        0.025515656918287277,
        0.015080899931490421,
        -0.15272007882595062,
        -0.16158996522426605,
        0.17743591964244843,
        0.08641126751899719,
        -0.04951611906290054,
        0.3304859399795532,
        -0.14836882054805756,
        0.03824155405163765,
        -0.19686059653759003,
        0.13087230920791626,
        0.1534302830696106,
        -0.150167316198349,
        0.10951295495033264,
        0.2368324249982834,
        -0.04342871159315109,
        -0.3469769060611725,
        -0.0421985387802124,
        0.22126750648021698,
        0.18566103279590607,
        -0.18357683718204498,
        0.15948925912380219,
        0.04148094356060028,
        0.3031492829322815,
        -0.19698956608772278,
        -0.12038574367761612,
        -0.05982979014515877,
        -0.08272232115268707,
        0.14132767915725708,
        0.46076837182044983,
        -0.278125137090683,
        -0.13268621265888214,
        0.17978084087371826,
        -0.08018188178539276,
        -0.044472262263298035,
        0.33663269877433777,
        0.02224832773208618,
        0.16403411328792572,
        -0.07221689075231552,
        -0.14197561144828796,
        -0.007620055228471756,
        -0.24488133192062378,
        -0.08772813528776169,
        0.28231754899024963,
        -0.022631924599409103,
        0.08448300510644913,
        0.27270397543907166,
        -0.16183356940746307,
        0.37524569034576416,
        0.07072202116250992,
        0.15393155813217163,
        0.17944592237472534,
        0.018358999863266945,
        -0.18105003237724304,
        -0.02876083180308342,
        0.2970128059387207,
        -0.0010792185785248876,
        0.3318813741207123,
        0.3569880425930023,
        0.15028470754623413,
        -0.35795336961746216,
        -0.07972722500562668,
        0.23522596061229706,
        -0.18944427371025085,
        0.08502370864152908,
        0.3045772612094879,
        -0.051354262977838516,
        -0.0421869233250618,
        0.28502246737480164,
        0.0010428460082039237,
        0.4158172309398651,
        -0.23009146749973297,
        -0.11556421220302582,
        -0.05861162766814232,
        0.2653311789035797,
        0.06748539209365845,
        0.07083192467689514,
        -0.09278548508882523,
        0.060586463660001755,
        -0.07642697542905807,
        0.22703106701374054,
        -0.28567442297935486,
        0.25378260016441345,
        0.044395823031663895,
        -0.44661369919776917,
        -0.44420573115348816,
        -0.138615682721138,
        0.30773624777793884,
        -0.08766882866621017,
        -0.1500551551580429,
        0.15235282480716705,
        -0.1186598613858223,
        -0.060255397111177444,
        0.17946705222129822,
        -0.20430977642536163,
        -0.0466582216322422,
        0.11357609927654266,
        -0.2806856036186218,
        0.13115304708480835,
        -0.1933620125055313,
        -0.1083829402923584,
        -0.3680281639099121,
        -0.3159107267856598,
        0.10696087032556534,
        0.10664211958646774,
        -0.16433636844158173,
        -0.05817986652255058,
        -0.47460705041885376,
        0.13385984301567078,
        0.08470381796360016,
        0.0988464504480362,
        0.1352243572473526,
        -0.028348905965685844,
        -0.0052343979477882385,
        -0.08448631316423416,
        -0.04763927310705185,
        -0.1111796498298645,
        -0.27961212396621704,
        -0.14571328461170197,
        -0.007902687415480614,
        0.08649297803640366,
        -0.03476011008024216,
        -0.14697560667991638,
        0.12598858773708344,
        -0.07006613910198212,
        -0.05194428563117981,
        -0.2597709596157074,
        -0.06412636488676071,
        0.1922593116760254,
        0.5415351986885071,
        0.18870443105697632,
        -0.06782910972833633,
        -0.13385853171348572,
        -0.1351788341999054,
        -0.07271908968687057,
        -0.06642847508192062,
        -0.13918492197990417,
        0.08704645186662674,
        -0.1652957797050476,
        -0.1775735318660736,
        0.057218316942453384,
        0.1600467711687088,
        0.10233647376298904,
        -0.408686101436615,
        -0.08855804800987244,
        -0.1653624325990677,
        0.3897484540939331,
        -0.008707547560334206,
        -0.09402626752853394,
        -0.17114461958408356,
        -0.16853809356689453,
        -0.12365566194057465,
        0.1495833843946457,
        0.007706563454121351,
        -0.14631527662277222,
        0.19928070902824402,
        -0.2703212797641754,
        -0.046486664563417435,
        0.08954358845949173,
        -0.3211449980735779,
        0.03343801572918892,
        0.06971809267997742,
        0.2364075630903244,
        0.030464287847280502,
        0.030161678791046143,
        -0.14082373678684235,
        0.10695164650678635,
        0.16841460764408112,
        -0.17586874961853027,
        -0.03530552238225937,
        0.4722309708595276,
        0.1945565938949585,
        -0.3095770478248596,
        0.0518154501914978,
        0.1583879590034485,
        -0.220877006649971,
        0.20250526070594788,
        0.20187680423259735,
        0.0005120952846482396,
        0.16235855221748352,
        0.11988194286823273,
        -0.09824799001216888,
        -0.05034038797020912,
        0.2534392774105072,
        -0.1403752863407135,
        0.23952728509902954,
        0.23907692730426788,
        0.1686714142560959,
        0.16111335158348083,
        -0.15405932068824768,
        -0.004585690796375275,
        0.10797201842069626,
        0.16331081092357635,
        -0.24246777594089508,
        0.09272988885641098,
        0.14252157509326935,
        0.014342094771564007,
        -0.23611445724964142,
        0.13950957357883453,
        0.021950742229819298,
        0.035665810108184814,
        0.05300729349255562,
        0.06537925451993942,
        0.06393221020698547,
        -0.008345959708094597,
        0.2341785430908203,
        0.10314148664474487,
        0.38159698247909546,
        -0.024616703391075134,
        0.16503681242465973,
        0.03975631296634674,
        -0.12227479368448257,
        0.20809780061244965,
        0.17421235144138336,
        0.2587078809738159,
        -0.0016041293274611235,
        -0.06815813481807709,
        -0.0016156493220478296,
        0.013825391419231892,
        -0.013222286477684975,
        0.020941635593771935,
        -0.023446884006261826,
        -0.40343937277793884,
        -0.25578975677490234,
        -0.18634508550167084,
        -0.2891024053096771,
        0.007688072510063648,
        0.01969635859131813,
        -0.029542751610279083,
        0.10689346492290497,
        0.1559310257434845,
        -0.07090922445058823,
        0.1598363071680069,
        0.028392475098371506,
        0.14461471140384674,
        -0.12281554937362671,
        0.05204872786998749,
        0.05575910583138466,
        -0.22497901320457458,
        -0.099521704018116,
        -0.027069034054875374,
        0.15628184378147125,
        0.01088325772434473,
        -0.0816161185503006,
        0.053246140480041504,
        0.21996915340423584,
        0.04765768721699715,
        0.18901145458221436,
        -0.0022575953043997288,
        0.000023350308765657246,
        0.1637672483921051,
        -0.10574429482221603,
        -0.046569228172302246,
        -0.017476487904787064,
        -0.1235302984714508,
        0.1281762570142746,
        -0.05085949972271919,
        -0.38471177220344543,
        -0.430450439453125,
        0.02192268893122673,
        -0.15906740725040436,
        -0.14571622014045715,
        0.19352184236049652,
        0.09762264043092728,
        0.15828052163124084,
        -0.05718545988202095,
        -0.09860019385814667,
        0.10559495538473129,
        0.004102000501006842,
        -0.38293659687042236,
        -0.1584930270910263,
        -0.18687410652637482,
        -0.2112581729888916,
        0.054782163351774216,
        -0.12475927174091339,
        0.10331297665834427,
        0.2804854214191437,
        -0.1122019812464714,
        -0.004309250041842461,
        0.10265146195888519,
        -0.19169798493385315,
        0.09081829339265823,
        0.29615268111228943,
        0.21629947423934937,
        -0.25483793020248413,
        -0.040773216634988785,
        0.007017733994871378,
        0.16747190058231354,
        -0.20398391783237457,
        0.21633142232894897,
        0.10044385492801666,
        0.25135737657546997,
        -0.25145137310028076,
        0.12038593739271164,
        0.32263731956481934,
        0.06908641755580902,
        -0.055907681584358215,
        0.11769947409629822,
        0.2003174126148224,
        -0.13542217016220093,
        0.24863265454769135,
        0.32132580876350403,
        -0.048388928174972534,
        0.26671522855758667,
        0.14316782355308533,
        -0.26980188488960266,
        -0.06967806071043015,
        0.2952018976211548,
        -0.11424008756875992,
        -0.18522612750530243,
        -0.10276703536510468,
        0.33456704020500183,
        -0.04264390468597412,
        -0.015286189503967762,
        -0.05916600301861763,
        -0.1451605260372162,
        0.28538626432418823,
        -0.013893790543079376,
        0.21940843760967255,
        -0.01320457924157381,
        0.15116490423679352,
        -0.12240198999643326,
        0.08852889388799667,
        -0.26538434624671936,
        -0.044811926782131195,
        -0.4664386510848999,
        -0.17623278498649597,
        -0.13259123265743256,
        0.49249616265296936,
        -0.04272929206490517,
        0.13306914269924164,
        0.09239545464515686,
        0.12478136271238327,
        -0.18925458192825317,
        -0.11745592206716537,
        -0.04718770086765289,
        -0.15444932878017426,
        0.09408301115036011,
        -0.035003021359443665,
        0.08674522489309311,
        0.16240575909614563,
        0.022173387929797173,
        -0.5068054795265198,
        -0.02489466592669487,
        0.2362213283777237,
        -0.2778196930885315,
        -0.25724178552627563,
        0.018378878012299538,
        0.026338350027799606,
        -0.15332379937171936,
        0.08749667555093765,
        0.09779009968042374,
        0.36825162172317505,
        -0.21412497758865356,
        0.057655420154333115,
        -0.26469531655311584,
        -0.1373160481452942,
        0.15255260467529297,
        0.14867310225963593,
        0.01319084595888853,
        0.07801881432533264,
        -0.03346678242087364,
        0.0904606431722641,
        -0.2838824987411499,
        0.006658992264419794,
        -0.10559412837028503,
        -0.15864291787147522,
        0.316581666469574,
        -0.019572142511606216,
        0.09237295389175415,
        0.170272558927536,
        -0.23060999810695648,
        0.06657493859529495,
        0.234541118144989,
        0.15452590584754944,
        0.18955393135547638,
        0.08296362310647964,
        -0.19750480353832245,
        0.08909859508275986,
        0.26270216703414917,
        0.06816258281469345,
        0.08562527596950531,
        -0.07515233755111694,
        -0.19564926624298096,
        0.35803452134132385,
        0.0925675705075264,
        -0.14820484817028046,
        -0.12739470601081848,
        -0.02600082755088806,
        0.3226909637451172,
        -0.02851681597530842,
        -0.19499079883098602,
        0.24682165682315826,
        -0.3926343321800232,
        0.14539143443107605,
        -0.16369600594043732,
        0.0065805381163954735,
        -0.1687508076429367,
        0.1706477850675583,
        -0.00048812173190526664,
        -0.037119586020708084,
        0.21612097322940826,
        -0.1407458782196045,
        -0.14716896414756775,
        -0.06381399929523468,
        0.08245601505041122,
        0.0009559413883835077,
        0.01931670494377613,
        -0.07948661595582962,
        0.3815053105354309,
        -0.3673246204853058,
        -0.06525363773107529,
        -0.07318460196256638,
        -0.0039098504930734634,
        0.21599175035953522,
        0.020659344270825386,
        -0.5226671695709229,
        -0.08332525938749313,
        0.0034282272681593895,
        0.17761628329753876,
        0.19840852916240692,
        -0.041305385529994965,
        0.13384050130844116,
        -0.04640919342637062,
        -0.1008533462882042,
        -0.22086194157600403,
        -0.36093834042549133,
        0.1886601746082306,
        -0.14675405621528625,
        0.21918316185474396,
        0.23008176684379578,
        -0.20174764096736908,
        0.018954044207930565,
        0.20286719501018524,
        -0.11900448054075241,
        -0.06019942834973335,
        0.06938458979129791,
        -0.061386991292238235,
        -0.05888368934392929,
        -0.012117176316678524,
        0.03336716070771217,
        -0.037758372724056244,
        -0.22217248380184174,
        -0.10900988429784775,
        -0.0029681245796382427,
        0.02787724696099758,
        0.1820477545261383,
        -0.1666184961795807,
        -0.15444253385066986,
        0.12684889137744904,
        -0.01423810888081789,
        -0.18559759855270386,
        0.1124974861741066,
        0.19091132283210754,
        -0.2965278923511505,
        0.10168332606554031,
        -0.10352238267660141,
        -0.2606198489665985,
        0.16026072204113007,
        -0.060085974633693695,
        0.2475188821554184,
        -0.17177405953407288,
        -0.05259964242577553,
        -0.04433255270123482,
        -0.23177923262119293,
        0.19516362249851227,
        0.10956969112157822,
        -0.013734638690948486,
        -0.0769931823015213,
        0.06913162767887115,
        0.34552645683288574,
        -0.02608996257185936,
        0.05269064009189606,
        0.1086912751197815,
        -0.16938167810440063,
        -0.23252594470977783,
        0.004976191557943821,
        0.011132513172924519,
        0.14328569173812866,
        0.04713461920619011,
        0.17974501848220825,
        0.031020913273096085,
        0.19471800327301025,
        0.021331578493118286,
        0.27367547154426575,
        0.13679780066013336,
        -0.2779657542705536,
        -0.07591976225376129,
        -0.0926705151796341,
        0.29313239455223083,
        -0.3646801710128784,
        0.16097645461559296,
        0.05593295022845268,
        0.2930369973182678,
        0.18785740435123444,
        0.12810847163200378,
        0.09055893868207932,
        -0.09355123341083527,
        -0.1954171061515808,
        -0.1399465948343277,
        -0.051578838378190994,
        -0.08181559294462204,
        -0.19929419457912445,
        0.014392746612429619,
        -0.13569632172584534,
        -0.29848232865333557,
        0.4265653192996979,
        0.051337502896785736,
        0.0812997817993164,
        0.03832213953137398,
        -0.3761359751224518,
        -0.17682838439941406,
        0.0015353936469182372,
        0.22024957835674286,
        -0.0933488979935646,
        0.01829858496785164,
        0.030116839334368706,
        -0.18202511966228485,
        -0.10453083366155624,
        -0.1603720337152481,
        0.16787505149841309,
        0.23724950850009918,
        0.2734379470348358,
        0.01588190719485283,
        -0.01864740625023842,
        0.19474531710147858,
        0.09200576692819595,
        0.07240774482488632,
        0.019171807914972305,
        -0.14380015432834625,
        -0.14403457939624786,
        0.09452743828296661,
        -0.061399172991514206,
        -0.1919829100370407,
        0.028518056496977806,
        -0.1329949051141739,
        0.04264087602496147,
        0.08337458223104477,
        -0.263275146484375,
        -0.07239723205566406,
        -0.10439907759428024,
        -0.24594751000404358,
        -0.12460855394601822,
        0.0972236767411232,
        -0.08744048327207565,
        0.12634077668190002,
        0.30567339062690735,
        -0.14008215069770813,
        -0.26454561948776245,
        0.08098332583904266,
        -0.16491232812404633,
        0.06089284271001816,
        -0.18990971148014069,
        0.19174493849277496,
        0.16307108104228973,
        0.37063127756118774,
        0.013874868862330914,
        0.07623150199651718,
        -0.05389602482318878,
        0.3948831856250763,
        -0.04268917068839073,
        -0.13074816763401031,
        -0.19786305725574493,
        -0.24733373522758484,
        0.20069751143455505,
        -0.24873383343219757,
        0.04952261224389076,
        0.23068714141845703,
        0.026293890550732613,
        0.08203064650297165,
        -0.399862676858902,
        -0.1885339468717575,
        0.1507398933172226,
        -0.09189923852682114,
        0.1625419408082962,
        -0.022107886150479317,
        0.004814506508409977,
        0.10097704827785492,
        0.2027258574962616,
        -0.08732321113348007,
        -0.08715807646512985,
        -0.08841194212436676,
        0.17354241013526917,
        0.09076002240180969,
        -0.21736127138137817,
        0.0030283459927886724,
        -0.28640034794807434,
        0.2210804671049118,
        -0.046766262501478195,
        -0.15082073211669922,
        -0.33898839354515076,
        0.22398893535137177,
        -0.3006524443626404,
        -0.09337283670902252,
        0.1127902939915657,
        0.025907767936587334,
        0.014991719275712967,
        0.1549428403377533,
        0.03145302087068558,
        -0.09400041401386261,
        0.07515718042850494,
        0.03265562653541565,
        -0.2110377699136734,
        -0.025772130116820335,
        -0.09497427195310593,
        0.06388334929943085,
        -0.08702895045280457,
        0.08696064352989197,
        -0.02492586337029934,
        0.2722989618778229,
        0.05876981467008591,
        -0.05182132497429848,
        -0.2901238203048706,
        0.06380629539489746,
        -0.03429665043950081,
        0.28653964400291443,
        0.2587878704071045,
        -0.06674514710903168,
        0.23491966724395752,
        0.10961496829986572,
        0.06738302111625671,
        0.005674293730407953,
        0.2106979787349701,
        0.39185088872909546,
        0.020961787551641464,
        -0.16351661086082458,
        0.17759844660758972,
        0.05756789818406105,
        0.08338429778814316,
        -0.07352747768163681,
        0.027218880131840706,
        -0.0032792568672448397,
        -0.4173693358898163,
        0.14432834088802338,
        -0.11399530619382858,
        0.24762073159217834,
        -0.2506948411464691,
        0.015005886554718018,
        0.22667738795280457,
        0.19148112833499908,
        -0.0005390449659898877,
        0.0540647953748703,
        0.08752769976854324,
        0.04802462086081505,
        -0.005817159544676542,
        -0.09470611810684204,
        0.07829157263040543,
        0.053321924060583115,
        0.1108565405011177,
        0.1397249400615692,
        0.0632724016904831,
        0.07455295324325562,
        -0.13035725057125092,
        -0.1522756963968277,
        0.11152145266532898,
        -0.03533294051885605,
        -0.1738608181476593,
        -0.37248778343200684,
        0.12890267372131348,
        0.3566642999649048,
        -0.17892082035541534,
        0.2085050493478775,
        -0.055187296122312546,
        -0.09783293306827545,
        -0.006801138631999493,
        0.0388738252222538,
        0.13799329102039337,
        0.023348283022642136,
        -0.008939686231315136,
        -0.04608484357595444,
        0.12850846350193024,
        0.2049122154712677,
        -0.29187634587287903,
        0.20238016545772552,
        0.3855848014354706,
        -0.0027418984100222588,
        0.042889419943094254,
        -0.1645493358373642,
        -0.079458087682724,
        -0.24229513108730316,
        -0.3883674740791321,
        0.15778428316116333,
        0.034789133816957474,
        0.05362899973988533,
        0.2922367751598358,
        -0.15131916105747223,
        0.17548112571239471,
        -0.06133610010147095,
        0.2553146183490753,
        0.13110561668872833,
        0.014233379624783993,
        0.03364136070013046,
        0.2458919733762741,
        0.1584649682044983,
        0.1110398918390274,
        -0.0749756395816803,
        -0.37751278281211853,
        -0.00821665208786726,
        -0.11142420023679733,
        0.30758970975875854,
        0.04777799919247627,
        0.05412160977721214,
        -0.06879077106714249,
        -0.1237405464053154,
        -0.27878668904304504,
        0.1837446540594101,
        0.058494362980127335,
        -0.15712356567382812,
        -0.11958841979503632,
        0.053897302597761154,
        0.007657685317099094,
        0.06108246371150017,
        0.14300920069217682,
        0.06956721842288971,
        0.05047018080949783,
        -0.3869503140449524,
        -0.5589560866355896,
        0.10312613844871521,
        0.00667312229052186,
        -0.18831966817378998,
        -0.33278051018714905,
        -0.18834207952022552,
        -0.19922035932540894,
        -0.07816082239151001,
        0.0899999588727951,
        0.22919026017189026,
        -0.012137278914451599,
        -0.057846445590257645,
        -0.14581908285617828,
        -0.09740319103002548,
        -0.10819536447525024,
        -0.1885349154472351,
        -0.3153846859931946,
        0.39822840690612793,
        0.38431403040885925,
        -0.06238671392202377,
        -0.059937477111816406,
        0.04315238073468208,
        0.01665293239057064,
        -0.09097324311733246,
        -0.02326425537467003,
        -0.056062906980514526,
        -0.07206916809082031,
        0.1014028936624527,
        0.08632813394069672,
        -0.18183118104934692,
        -0.21863150596618652,
        -0.29449495673179626,
        -0.14826960861682892,
        -0.13856792449951172,
        0.18831612169742584,
        -0.056942328810691833,
        0.022901484742760658,
        -0.3607870638370514,
        0.06530731171369553,
        -0.08863761276006699,
        0.020983442664146423,
        -0.18925341963768005,
        -0.0861177146434784,
        -0.09355064481496811,
        -0.06690198183059692,
        -0.14859163761138916,
        0.02135763317346573,
        -0.04038140922784805,
        0.14282405376434326,
        -0.16152384877204895,
        -0.032952241599559784,
        0.23803547024726868,
        -0.04830150678753853,
        0.2845304012298584,
        -0.01397397369146347,
        0.26776114106178284,
        0.08363668620586395,
        0.110353983938694,
        -0.2510640025138855,
        -0.22156678140163422,
        -0.10490904003381729,
        -0.11367660015821457,
        0.013853845186531544,
        -0.1822725087404251,
        0.11339470744132996,
        -0.05978124216198921,
        -0.3691054582595825,
        0.22485487163066864,
        0.09073182940483093,
        0.1789630800485611,
        0.08240712434053421,
        -0.1978663057088852,
        -0.09743869304656982,
        0.3071103096008301,
        -0.22869564592838287,
        0.22549250721931458,
        0.29189494252204895,
        0.040673140436410904,
        0.19411522150039673,
        0.2671579122543335,
        0.08005423098802567,
        -0.12148347496986389,
        0.11180300265550613,
        0.2892993688583374,
        -0.36047592759132385,
        0.01531954761594534,
        0.13258694112300873,
        -0.1543339043855667,
        0.005078965798020363,
        0.14313194155693054,
        0.22428709268569946,
        -0.01648865081369877,
        0.08510126173496246,
        -0.009446357376873493,
        0.12735527753829956,
        0.07480873912572861,
        0.11419598758220673,
        0.11230694502592087,
        0.0809820145368576,
        -0.14745460450649261,
        0.11406070739030838,
        -0.2062244415283203,
        -0.08109451830387115,
        0.2976289689540863,
        0.16252097487449646,
        0.38780727982521057,
        0.12270405888557434,
        -0.07423156499862671,
        0.16863740980625153,
        0.1641656458377838,
        0.09149398654699326,
        -0.0424300916492939,
        0.013456427492201328,
        0.13618214428424835,
        0.12161160260438919,
        0.20136667788028717,
        0.4877009093761444,
        -0.019709672778844833,
        -0.210701584815979,
        -0.14085017144680023,
        -0.24450896680355072,
        -0.20888634026050568,
        0.2122311145067215,
        0.17046275734901428,
        -0.3636651337146759,
        0.21343204379081726,
        0.09851673245429993,
        -0.4142918884754181,
        -0.4364781677722931,
        0.19835279881954193,
        0.04438605532050133,
        0.052176885306835175,
        0.05724400654435158,
        -0.09019618481397629,
        -0.19989897310733795,
        0.06317511200904846,
        -0.08653033524751663,
        0.16159744560718536,
        0.2276698648929596,
        -0.07321921736001968,
        0.18674233555793762,
        0.07384656369686127,
        0.09648390859365463,
        -0.2309955507516861,
        -0.2692941129207611,
        -0.12685488164424896,
        0.04407453164458275,
        -0.016288237646222115,
        0.10957733541727066,
        0.09440767765045166,
        -0.2828769087791443,
        -0.02837168052792549,
        -0.008652628399431705,
        0.154308021068573,
        -0.053088512271642685,
        0.08261305838823318,
        0.1399625986814499,
        -0.2959885597229004,
        0.051537420600652695,
        0.06019918993115425,
        0.07412345707416534,
        -0.3963317573070526,
        -0.17814849317073822,
        0.12766355276107788,
        0.06905144453048706,
        -0.07888422906398773,
        -0.1222810298204422,
        0.3725767135620117,
        -0.05941961705684662,
        0.22789467871189117,
        0.1381973922252655,
        -0.04024416208267212,
        0.0511508472263813,
        0.17822664976119995,
        0.13037283718585968,
        0.004447192419320345,
        0.1599431037902832,
        -0.1899755895137787,
        -0.1387067437171936,
        0.15622882544994354,
        0.38704073429107666,
        -0.19135379791259766,
        0.35722729563713074,
        -0.1356077641248703,
        -0.03505251184105873,
        0.07536795735359192,
        0.0368405357003212,
        -0.019814183935523033,
        0.31466954946517944,
        0.3874830901622772,
        -0.19209669530391693,
        -0.05215508118271828,
        0.19790887832641602,
        -0.08617909997701645,
        0.035109762102365494,
        -0.1399727761745453,
        -0.4013309180736542,
        0.14174991846084595,
        -0.14237144589424133,
        0.07695639878511429,
        0.2475443035364151,
        -0.17574559152126312,
        -0.3926023840904236,
        0.013976288959383965,
        0.22657987475395203,
        -0.1186123937368393,
        -0.12296168506145477,
        0.11038069427013397,
        -0.07089155912399292,
        0.09119421988725662,
        -0.4098934233188629,
        -0.17259322106838226,
        0.09820283949375153,
        -0.10647638887166977,
        -0.11391012370586395,
        -0.00007934345921967179,
        0.2842220962047577,
        -0.17128989100456238,
        -0.09473085403442383,
        -0.1483744978904724,
        -0.045905932784080505,
        0.37148115038871765,
        0.12344235926866531,
        -0.34694021940231323,
        0.050656892359256744,
        -0.05346972495317459,
        -0.10562852025032043,
        -0.2582860291004181,
        0.1299746036529541,
        -0.07367940992116928,
        0.3045651614665985,
        -0.07496555894613266,
        0.09425757080316544,
        -0.03530757129192352,
        -0.19880568981170654,
        -0.041317880153656006,
        0.5208703279495239,
        0.08770797401666641,
        -0.18644121289253235,
        0.19279690086841583,
        -0.044154439121484756,
        -0.047484882175922394,
        -0.14063410460948944,
        0.14591054618358612,
        0.007078927475959063,
        0.22162535786628723,
        0.059010230004787445,
        -0.3776850402355194,
        0.07183632999658585,
        0.013190475292503834,
        0.3917546570301056,
        -0.058378010988235474,
        0.1947907954454422,
        -0.07548267394304276,
        -0.06977161765098572,
        -0.08586285263299942,
        -0.05286792293190956,
        0.0954393818974495,
        0.16676636040210724,
        -0.15672501921653748,
        -0.04988349974155426,
        0.2757377028465271,
        -0.042592037469148636,
        -0.07893745601177216,
        -0.3197682499885559,
        0.27294567227363586,
        -0.0655779093503952,
        -0.08510991185903549,
        0.09581106156110764,
        -0.21473297476768494,
        0.28195759654045105,
        0.06693042069673538,
        -0.06477192044258118,
        0.21786881983280182,
        -0.031887467950582504,
        -0.14837555587291718,
        -0.03379864990711212,
        -0.1687924563884735,
        0.3290480375289917,
        0.17213483154773712,
        -0.26022475957870483,
        0.2826886773109436,
        -0.06748193502426147,
        0.4195362329483032,
        0.061915699392557144,
        -0.2244964838027954,
        -0.07307043671607971,
        -0.2909480035305023,
        -0.0247200820595026,
        0.24071098864078522,
        -0.2957039177417755,
        -0.29473188519477844,
        -0.24368327856063843,
        -0.3279368281364441,
        0.2255314588546753,
        0.10305319726467133,
        -0.10631255060434341,
        -0.05957982316613197,
        -0.20543330907821655,
        0.10669004917144775,
        -0.13005828857421875,
        -0.08531060814857483,
        0.08162251114845276,
        0.038227152079343796,
        0.05164458230137825,
        -0.06625249981880188,
        0.3109842538833618,
        -0.13535520434379578,
        0.010036417283117771,
        -0.016570642590522766,
        -0.21411286294460297,
        0.482295423746109,
        -0.18297278881072998,
        -0.4207693040370941,
        -0.10167019814252853,
        0.07016605138778687,
        0.15424883365631104,
        -0.009686259552836418,
        -0.035553328692913055,
        0.3093758821487427,
        0.004999441094696522,
        0.16053837537765503,
        -0.071143738925457,
        -0.23285488784313202,
        -0.31419527530670166,
        0.1043514534831047,
        -0.16234765946865082,
        -0.10070467740297318,
        0.1361430138349533,
        -0.11894217133522034,
        0.13315677642822266,
        -0.13710638880729675,
        0.1098434329032898,
        0.20182843506336212,
        0.19700351357460022,
        0.0016449764370918274,
        -0.02532006800174713,
        -0.11534333974123001,
        -0.2027052342891693,
        -0.05562031641602516,
        0.34074851870536804,
        0.2603946030139923,
        0.0699722170829773,
        -0.2221219390630722,
        -0.03604373335838318,
        -0.33439868688583374,
        0.36047622561454773,
        0.1697109043598175,
        0.25787627696990967,
        0.12887121737003326,
        -0.13072621822357178,
        0.29096782207489014,
        0.08884775638580322,
        -0.08134337514638901,
        0.14740118384361267,
        0.18441228568553925,
        -0.07393176853656769,
        0.017789753153920174,
        0.06425464898347855,
        -0.16906780004501343,
        0.043732743710279465,
        0.009025424718856812,
        -0.09269031882286072,
        -0.2703644633293152,
        -0.2971048355102539,
        0.04291334003210068,
        -0.10013191401958466,
        -0.13414515554904938,
        -0.004972669295966625,
        -0.20101295411586761,
        0.2767844796180725,
        0.27312394976615906,
        -0.08175428956747055,
        -0.1302058845758438,
        -0.008054057136178017,
        0.26072150468826294,
        -0.28892791271209717,
        0.28223931789398193,
        0.03985235467553139,
        -0.1268334984779358,
        -0.2595084309577942,
        -0.21829542517662048,
        0.19682800769805908,
        -0.1597711443901062,
        0.05171183496713638,
        -0.17127369344234467,
        -0.18448640406131744,
        0.23200684785842896,
        -0.11685656011104584,
        -0.05569501966238022,
        -0.031227413564920425,
        0.022007666528224945,
        -0.07071490585803986,
        -0.3995607793331146,
        -0.1746622771024704,
        0.016048677265644073,
        -0.17690825462341309,
        0.0009947362123057246,
        -0.2176983505487442,
        0.2541901469230652,
        0.15325313806533813,
        0.004968648310750723,
        0.12426810711622238,
        0.32353535294532776,
        -0.1416584551334381,
        -0.031922001391649246,
        0.3457803726196289,
        0.03784242272377014,
        -0.20643781125545502,
        0.30426549911499023,
        -0.007684515789151192,
        0.38229015469551086,
        -0.22433890402317047,
        0.19240881502628326,
        0.011430204845964909,
        -0.3373414874076843,
        -0.14459821581840515,
        0.05682004243135452,
        0.06762292981147766,
        0.11619697511196136,
        -0.10375121980905533,
        -0.050274040549993515,
        -0.21346484124660492,
        0.07843123376369476,
        -0.22757241129875183,
        0.11326464265584946,
        0.28196394443511963,
        -0.20304957032203674,
        -0.04302259534597397,
        -0.014182141050696373,
        -0.2483377754688263,
        0.1835782676935196,
        -0.031596604734659195,
        -0.016697894781827927,
        -0.7347030639648438,
        0.19560833275318146,
        0.010713339783251286,
        -0.2374909669160843,
        0.014247591607272625,
        0.09349425137042999,
        0.014308713376522064,
        0.028495753183960915,
        0.2307184487581253,
        0.024695007130503654,
        -0.15962688624858856,
        -0.07207842916250229,
        -0.2088814675807953,
        -0.21503813564777374,
        0.03899000957608223,
        -0.09097668528556824,
        -0.18341879546642303,
        -0.22042302787303925,
        0.1602945625782013,
        -0.1758147031068802,
        -0.3818797767162323,
        0.6001965999603271,
        0.2898746430873871,
        -0.08119931817054749,
        0.5467435121536255,
        -0.056364767253398895,
        -0.49367761611938477,
        0.029555873945355415,
        -0.3874456584453583,
        0.25522997975349426,
        -0.10489679872989655,
        0.10132810473442078,
        0.22179357707500458,
        0.3162522315979004,
        0.33628368377685547,
        -0.06880208849906921,
        -0.0990411713719368,
        0.264024019241333,
        -0.14646631479263306,
        0.08598683774471283,
        0.04343432933092117,
        -0.005654068198055029,
        0.2755751311779022,
        0.010178109630942345,
        0.1864381581544876,
        -0.1489681750535965,
        -0.061037853360176086,
        -0.1172756478190422,
        -0.030318114906549454,
        -0.14637301862239838,
        0.03847568854689598,
        0.0036788827273994684,
        0.0956544280052185,
        -0.21784821152687073,
        0.05348867177963257,
        0.08518604189157486,
        0.249782994389534,
        -0.4801899194717407,
        0.11505192518234253,
        0.10362855345010757,
        -0.20904240012168884,
        -0.16529683768749237,
        0.011028632521629333,
        0.045980602502822876,
        0.25193703174591064,
        0.11410460621118546,
        0.25743067264556885,
        0.25435009598731995,
        0.18521465361118317,
        -0.402565598487854,
        -0.41783156991004944,
        0.20766210556030273,
        -0.1313541978597641,
        -0.15881529450416565,
        0.3582974076271057,
        -0.16711962223052979,
        -0.0826365053653717,
        0.3238977789878845,
        -0.18532250821590424,
        0.04933323711156845,
        0.08691497147083282,
        0.06932378560304642,
        -0.17692074179649353,
        0.13117940723896027,
        -0.05838867649435997,
        0.03607514128088951,
        -0.5372341275215149,
        -0.14661408960819244,
        -0.28577035665512085,
        0.1577776074409485,
        -0.11141348630189896,
        -0.001047433470375836,
        -0.30089887976646423,
        0.00966985709965229,
        -0.17345719039440155,
        0.12643693387508392,
        0.15761861205101013,
        0.1461831033229828,
        -0.022155987098813057,
        -0.08426254987716675,
        0.10529675334692001,
        -0.06565332412719727,
        0.07111166417598724,
        0.14803071320056915,
        -0.18837198615074158,
        -0.06886515021324158,
        0.21617962419986725,
        0.16556107997894287,
        0.02891668491065502,
        -0.062040288001298904,
        -0.14607541263103485,
        -0.23197348415851593,
        0.06893359869718552,
        -0.037455350160598755,
        0.11501366645097733,
        0.06150725483894348,
        -0.06771630793809891,
        0.07014517486095428,
        0.20893259346485138,
        0.061396483331918716,
        -0.2681196928024292,
        -0.010884860530495644,
        -0.0840517207980156,
        0.0501728393137455,
        -0.12670055031776428,
        -0.07257097959518433,
        0.0017576306127011776,
        -0.018959863111376762,
        -0.24385696649551392,
        0.09089891612529755,
        -0.1815810203552246,
        -0.02102024294435978,
        0.18119977414608002,
        0.015287830494344234,
        0.1436740905046463,
        -0.07137306034564972,
        -0.021553633734583855,
        -0.21976736187934875,
        0.04904035106301308,
        0.0930132046341896,
        -0.004077845253050327,
        0.0446089468896389,
        -0.11538805812597275,
        -0.07051360607147217,
        0.12898623943328857,
        0.3285301625728607,
        -0.07228678464889526,
        -0.01669629104435444,
        -0.051865316927433014,
        -0.19979515671730042,
        -0.09073922783136368,
        -0.30293184518814087,
        -0.2588006258010864,
        0.46176087856292725,
        -0.010479879565536976,
        0.06133038550615311,
        -0.34069690108299255,
        0.020482666790485382,
        -0.024146728217601776,
        0.04868320748209953,
        -0.04224880039691925,
        -0.1893487125635147,
        0.1604810655117035,
        -0.005237892735749483,
        -0.08849607408046722,
        0.43048012256622314,
        0.0927376076579094,
        -0.014181491918861866,
        0.13091455399990082,
        0.07050292193889618,
        0.0792645588517189,
        -0.002089864807203412,
        0.06517888605594635,
        -0.1718360334634781,
        0.004990614950656891,
        -0.17409181594848633,
        -0.3615882396697998,
        0.11132379621267319,
        0.3282623291015625,
        -0.020687080919742584,
        -0.07299982011318207,
        -0.0037563869263976812,
        -0.05039443448185921,
        0.08683792501688004,
        0.010812260210514069,
        0.3870410919189453,
        0.21682262420654297,
        -0.19391056895256042,
        0.0063199978321790695,
        -0.17096136510372162,
        0.09311708807945251,
        0.04588529095053673,
        -0.0910818949341774,
        0.1240074560046196,
        -0.06261482834815979,
        0.008008641190826893,
        -0.13915832340717316,
        0.1662425547838211,
        0.22454765439033508,
        -0.03199729323387146,
        -0.04568621143698692,
        -0.04049824923276901,
        -0.08721283078193665,
        -0.16973844170570374,
        -0.22802434861660004,
        -0.12188532203435898,
        -0.16520698368549347,
        0.21573100984096527,
        0.25629591941833496,
        0.06779775768518448,
        -0.17532959580421448,
        0.01787698268890381,
        -0.09388811886310577,
        0.21616306900978088,
        0.28152933716773987,
        -0.25086620450019836,
        0.21679125726222992,
        0.042331013828516006,
        -0.1320902705192566,
        0.09827689081430435,
        0.10268944501876831,
        0.010067038238048553,
        -0.16297708451747894,
        -0.09510605037212372,
        0.17010681331157684,
        0.1975661963224411,
        0.1864352524280548,
        -0.06271820515394211,
        -0.45696142315864563,
        0.17480282485485077,
        -0.06338959187269211,
        0.06329299509525299,
        0.05969332158565521,
        -0.06053144112229347,
        0.07432521879673004,
        -0.15348124504089355,
        -0.11790718138217926,
        0.06005314365029335,
        0.04836808145046234,
        0.0690482035279274,
        0.08186391741037369,
        -0.12561282515525818,
        0.2043282687664032,
        -0.0720684826374054,
        0.15304185450077057,
        0.09923922270536423,
        -0.10768170654773712,
        0.025293994694948196,
        0.010127377696335316,
        0.14463970065116882,
        0.10652673989534378,
        -0.10981828719377518,
        -0.1057792454957962,
        -0.20990495383739471,
        -0.18511611223220825,
        0.2432822287082672,
        0.2746334373950958,
        0.07049310207366943,
        -0.30378612875938416,
        0.28581538796424866,
        0.06272146850824356,
        0.2388651967048645,
        -0.01634019985795021,
        0.16872480511665344,
        0.20640285313129425,
        0.1371016949415207,
        0.13349461555480957,
        0.19304069876670837,
        -0.1098448634147644,
        -0.24738824367523193,
        0.008329960517585278,
        0.1450047492980957,
        0.07811393588781357,
        0.1618598848581314,
        -0.3103751540184021,
        0.5729807019233704,
        0.14264319837093353,
        -0.1665257066488266,
        0.2553005814552307,
        -0.17131686210632324,
        0.16448651254177094,
        0.2605816721916199,
        -0.2507653832435608,
        0.16342005133628845,
        -0.4203738570213318,
        -0.3030230700969696,
        0.18114490807056427,
        -0.07404033839702606,
        0.326077401638031,
        -0.08648031204938889,
        0.24016353487968445,
        -0.13708935678005219,
        -0.14885342121124268,
        -0.238178551197052,
        -0.17423175275325775,
        0.12219979614019394,
        0.5022271871566772,
        0.12401048094034195,
        0.13978099822998047,
        -0.06970050930976868,
        -0.061522163450717926,
        -0.052542105317115784,
        -0.0018205404048785567,
        -0.20924748480319977,
        -0.2885744571685791,
        0.18026655912399292,
        -0.04517335444688797,
        0.10073573887348175,
        0.020186660811305046,
        0.224619522690773,
        -0.1314787119626999,
        -0.1309400498867035,
        -0.03363265097141266,
        -0.18516840040683746,
        0.11547337472438812,
        0.1326235830783844,
        0.07919581234455109,
        0.05983224883675575,
        -0.030844418331980705,
        -0.05534375086426735,
        -0.29124465584754944,
        0.060674089938402176,
        -0.1734529286623001,
        0.030995618551969528,
        0.07023340463638306,
        -0.06735077500343323,
        -0.19009628891944885,
        -0.10507741570472717
      ],
      "weightsShape": [
        64,
        32
      ],
      "bias": [
        -0.0003732594195753336,
        0.06832573562860489,
        0.025646651163697243,
        0.0733908861875534,
        -0.02259048819541931,
        0,
        0.002154140267521143,
        0.0574931763112545,
        0.02815006673336029,
        0.013341986574232578,
        0.00789606012403965,
        0.023179026320576668,
        0,
        -0.003926402889192104,
        0,
        -0.003338843584060669,
        0.03692452237010002,
        0.00048403465189039707,
        0.050790928304195404,
        -0.007472585421055555,
        0.0017642140155658126,
        0.020063308998942375,
        0,
        -0.04601652920246124,
        -0.012545216828584671,
        -0.004147574305534363,
        0.012445426546037197,
        0.022337662056088448,
        0.012058518826961517,
        0.060333043336868286,
        0,
        0.012200918048620224
      ],
      "biasShape": [
        1,
        32
      ],
      "activation": "relu"
    },
    {
      "weights": [
        0.171451136469841,
        0.7098652124404907,
        -0.30775949358940125,
        -0.5622543096542358,
        0.04317488521337509,
        -0.40819188952445984,
        -0.03565473109483719,
        -0.5021724700927734,
        -0.2526082396507263,
        0.09471253305673599,
        -0.08323255181312561,
        -0.3024809658527374,
        0.10459034144878387,
        0.7151086330413818,
        -0.4255830943584442,
        0.12950994074344635,
        0.8574597239494324,
        0.28055259585380554,
        -0.6287900805473328,
        -0.11135265976190567,
        0.2261035442352295,
        0.19721221923828125,
        0.3782297670841217,
        0.2569027245044708,
        -0.1693575531244278,
        0.41616082191467285,
        0.2532505989074707,
        -0.3269510567188263,
        -0.3649221956729889,
        0.5873900651931763,
        0.07294308394193649,
        -0.11642245203256607
      ],
      "weightsShape": [
        32,
        1
      ],
      "bias": [
        -0.1573057770729065
      ],
      "biasShape": [
        1,
        1
      ],
      "activation": "sigmoid"
    }
  ],
  "learningRate": 0.00007,
  "l2Lambda": 0.00001
}