{
  "__kind": "NeuralNet",
  "version": 1,
  "layers": [
    {
      "weights": [
        0.12633416056632996,
        -0.13410666584968567,
        -0.3096623420715332,
        -0.18813776969909668,
        -0.2562752962112427,
        0.44279855489730835,
        0.06309999525547028,
        0.1825886219739914,
        -0.6553156971931458,
        0.4185563027858734,
        0.5312076807022095,
        0.45553141832351685,
        -0.02913602441549301,
        -0.15963207185268402,
        -0.017047910019755363,
        -0.03831285610795021,
        -0.112425796687603,
        -0.10391946882009506,
        -0.43201944231987,
        -0.08716610074043274,
        -0.30234846472740173,
        -0.7649036645889282,
        -0.19977806508541107,
        0.2813628315925598,
        -0.006659755017608404,
        0.28499048948287964,
        0.023625530302524567,
        -0.5366419553756714,
        -0.046081166714429855,
        0.8565864562988281,
        0.45490121841430664,
        0.01698165200650692,
        -0.28824731707572937,
        -0.19855739176273346,
        0.9810073375701904,
        -0.11325361579656601,
        0.1904517412185669,
        0.03863885626196861,
        0.5116746425628662,
        0.9692777991294861,
        -0.08868972212076187,
        -0.5891011357307434,
        -0.5661804676055908,
        -0.657518208026886,
        -0.47419166564941406,
        -0.22956405580043793,
        0.2482319176197052,
        0.3766714930534363,
        -0.6516261696815491,
        0.20864436030387878,
        0.42723196744918823,
        -0.6886785626411438,
        0.5104608535766602,
        0.3667159080505371,
        0.34384843707084656,
        -0.04108661413192749,
        -0.06470490992069244,
        0.2534152567386627,
        0.7809481024742126,
        0.31372693181037903,
        -0.3915554881095886,
        -0.7726678252220154,
        0.9003945589065552,
        -0.10419262945652008,
        -0.45734289288520813,
        0.16816593706607819,
        -0.14657440781593323,
        -0.6857798099517822,
        -0.5206852555274963,
        0.04000889137387276,
        0.26335543394088745,
        -0.18532730638980865,
        0.31675273180007935,
        0.03569701686501503,
        -0.09184621274471283,
        0.2437720149755478,
        -0.03873879462480545,
        -0.04148779809474945,
        0.7085374593734741,
        0.004274176433682442,
        0.4205666780471802,
        -0.16049563884735107,
        -0.47370240092277527,
        -0.4707876443862915,
        0.07047586143016815,
        -0.2005455195903778,
        -0.24742737412452698,
        0.1242423802614212,
        0.19383002817630768,
        0.2092277854681015,
        -0.29427486658096313,
        0.026902977377176285,
        0.22636547684669495,
        -0.11596076935529709,
        -0.20753082633018494,
        -0.48294007778167725,
        -0.10170958936214447,
        -0.6449552178382874,
        0.2746313810348511,
        0.26960229873657227,
        0.381460964679718,
        0.48370423913002014,
        -0.13468818366527557,
        -0.05701671913266182,
        0.1826019585132599,
        0.2844569981098175,
        0.08886788785457611,
        -0.02260814793407917,
        -0.24123777449131012,
        -0.05252460390329361,
        -0.16366828978061676,
        -0.1487630307674408,
        0.052402570843696594,
        0.05952470749616623,
        -0.21239183843135834,
        0.05753535404801369,
        0.11547654867172241,
        0.30253294110298157,
        -0.0038501080125570297,
        -0.07911299914121628,
        -0.23132553696632385,
        -0.4714980721473694,
        -0.003490891307592392,
        -0.0594860278069973,
        0.09534100443124771,
        -0.4133874177932739,
        -0.028280073776841164,
        -0.47189927101135254,
        0.03485577926039696,
        0.07788313925266266,
        -0.2905186116695404,
        0.015803711488842964,
        1.0049419403076172,
        0.13313014805316925,
        0.317929208278656,
        0.258979469537735,
        0.30461758375167847,
        0.20713640749454498,
        0.07849715650081635,
        -1.0153206586837769,
        -0.10854260623455048,
        0.4134747385978699,
        -0.6063991785049438,
        -0.23511025309562683,
        -0.12974335253238678,
        0.24033327400684357,
        -0.42909103631973267,
        0.2207096517086029,
        -0.06533444672822952,
        0.08942937105894089,
        0.6322487592697144,
        -0.19534073770046234,
        -0.4821515679359436,
        0.28294801712036133,
        0.5388398170471191,
        0.011713996529579163,
        -0.20226216316223145,
        0.05378662422299385,
        -0.017432434484362602,
        0.6037583947181702,
        -0.6808287501335144,
        -0.4634754955768585,
        -0.15025269985198975,
        0.29206687211990356,
        0.5613016486167908,
        -0.8872278928756714,
        -0.14429807662963867,
        0.04346425458788872,
        0.3456931710243225,
        0.21949394047260284,
        -0.235373392701149,
        -0.2749669551849365,
        -0.12677334249019623,
        -0.31655675172805786,
        -0.17319022119045258,
        0.017609689384698868,
        -0.2206719070672989,
        -0.4384620487689972,
        0.035651154816150665,
        -0.21600794792175293,
        -0.028100527822971344,
        0.15926092863082886,
        0.1499108523130417,
        -0.5776689648628235,
        0.05441095307469368,
        -0.11591731756925583,
        -0.16306085884571075,
        -0.2783598303794861,
        -0.07926829159259796,
        0.087772898375988,
        -0.012021663598716259,
        -0.5127484798431396,
        0.08401858806610107,
        -0.5463598966598511,
        -0.31180402636528015,
        -0.6715016961097717,
        0.1995684653520584,
        -0.36236318945884705,
        -0.029863949865102768,
        -0.15825146436691284,
        -0.4042677879333496,
        0.20012164115905762,
        -0.14241932332515717,
        0.3250133991241455,
        -0.8321977257728577,
        -0.2779350280761719,
        -0.5294033288955688,
        -0.11436326801776886,
        -0.5377682447433472,
        -0.5243692994117737,
        0.3442690372467041,
        -0.045626334846019745,
        -0.44623783230781555,
        0.0020217259880155325,
        0.4089960753917694,
        0.107779361307621,
        0.8158926367759705,
        0.10397142171859741,
        -0.19852150976657867,
        -0.18559999763965607,
        -0.77812260389328,
        -0.06776419281959534,
        0.1383870393037796,
        -0.03343605995178223,
        -0.8284778594970703,
        -0.4389599859714508,
        0.4216707944869995,
        0.2863549292087555,
        0.13714651763439178,
        -0.0962192639708519,
        -0.4216797351837158,
        -0.053145237267017365,
        0.07825997471809387,
        -0.4521704316139221,
        0.012885871343314648,
        0.24132908880710602,
        0.29190921783447266,
        0.8451614379882812,
        -0.3057950437068939,
        0.3054327964782715,
        0.41071078181266785,
        -0.12357410043478012,
        -0.15422488749027252,
        -0.01969139650464058,
        0.5185484886169434,
        0.19924913346767426,
        -0.5131188035011292,
        0.4664553701877594,
        -0.40187713503837585,
        -0.16617165505886078,
        0.2308870553970337,
        0.4069991111755371,
        -0.2309582680463791,
        -0.42635637521743774,
        -0.2539861500263214,
        -0.15454095602035522,
        -0.5480454564094543,
        0.42692801356315613,
        0.9023451805114746,
        0.2560041844844818,
        0.036059070378541946,
        -0.3226291835308075,
        0.1845993846654892,
        0.07827332615852356,
        0.22303688526153564,
        -0.470085084438324,
        -0.5193161964416504,
        -0.14626853168010712,
        -0.38941919803619385,
        0.025219054892659187,
        -0.8007290959358215,
        -0.4790121614933014,
        -0.1448516696691513,
        0.06498079746961594,
        -0.8661348819732666,
        -0.27268558740615845,
        -0.2880480885505676,
        -0.7297481894493103,
        0.42602020502090454,
        -0.3756611943244934,
        -0.25223079323768616,
        -0.24750447273254395,
        0.04835035279393196,
        -0.1537517011165619,
        -0.03873853012919426,
        -0.29664263129234314,
        0.6511757373809814,
        0.20426002144813538,
        -0.09313666075468063,
        -0.22391636669635773,
        0.0863235592842102,
        0.0426461435854435,
        -0.20078831911087036,
        -0.0796629786491394,
        0.5107093453407288,
        -0.3678252398967743,
        -0.5895131826400757,
        0.24769987165927887,
        0.16373664140701294,
        -0.0421232134103775,
        -0.5145382881164551,
        0.25380292534828186,
        0.03123832307755947,
        -0.012682905420660973,
        0.42102962732315063,
        0.31054043769836426,
        0.27095654606819153,
        0.7316082715988159,
        1.1807366609573364,
        -0.1788463592529297,
        -0.33701997995376587,
        -0.6154436469078064,
        0.415444940328598,
        0.3853663206100464,
        0.07811902463436127,
        0.17278535664081573,
        0.021211277693510056,
        -0.1471087485551834,
        0.6278784871101379,
        0.1542627066373825,
        -0.3010188639163971,
        0.09188900142908096,
        -0.2637229859828949,
        0.16471070051193237,
        -0.33322829008102417,
        -0.3874635398387909,
        -0.27612805366516113,
        -0.12913653254508972,
        0.42270609736442566,
        0.49617981910705566,
        0.4979824423789978,
        0.7252195477485657,
        -1.0949552059173584,
        0.7291237115859985,
        -0.9975131154060364,
        -0.09027981013059616,
        0.4806685745716095,
        0.4488445818424225,
        -0.33298248052597046,
        0.3011781573295593,
        -0.10512908548116684,
        -0.35801997780799866,
        -0.04723960533738136,
        0.13157469034194946,
        0.3239170014858246,
        0.21747595071792603,
        -0.5806176066398621,
        -0.231896311044693,
        -0.5554613471031189,
        -0.6189514994621277,
        -0.17147080600261688,
        0.19001184403896332,
        0.8271056413650513,
        0.08559416234493256,
        0.2068532556295395,
        0.653810441493988,
        -0.6110957264900208,
        0.053166311234235764,
        0.094575896859169,
        0.11445280909538269,
        0.3489091694355011,
        -0.3386114537715912,
        -0.15050318837165833,
        -0.09839620441198349,
        -0.27968543767929077,
        0.36261001229286194,
        -0.44075584411621094,
        -0.6006130576133728,
        0.3338112235069275,
        -0.6389866471290588,
        0.14151321351528168,
        0.42019426822662354,
        -0.1119597926735878,
        -0.3212655484676361,
        0.3018987476825714,
        -1.2568297386169434,
        -0.4468707740306854,
        -0.32097873091697693,
        -0.4612862169742584,
        1.116902470588684,
        -0.8248873353004456,
        0.07182560861110687,
        -0.21574510633945465,
        -0.09838163107633591,
        -0.09151609241962433,
        -0.6020330190658569,
        0.35823503136634827,
        -0.15857797861099243,
        0.14589200913906097,
        0.1349141150712967,
        0.15233995020389557,
        -0.037099357694387436,
        -0.6580840945243835,
        -0.09125472605228424,
        0.9340143799781799,
        -1.3320462703704834,
        0.10037381947040558,
        -0.3065650761127472,
        0.06247672811150551,
        0.4078114628791809,
        -0.25128114223480225,
        0.5661654472351074,
        -0.41126805543899536,
        -0.40183091163635254,
        0.12621815502643585,
        -1.1044466495513916,
        -0.034430284053087234,
        -0.6291045546531677,
        1.1084507703781128,
        0.1474999040365219,
        -0.3415382206439972,
        0.553749144077301,
        -0.2696914076805115,
        -0.07002218812704086,
        -0.13429857790470123,
        -0.1828184872865677,
        -0.04182418808341026,
        -0.16167765855789185,
        0.1995886266231537,
        -0.3284939229488373,
        0.3316098749637604,
        -0.6800604462623596,
        -0.032543644309043884,
        0.1501985788345337,
        0.06146448478102684,
        0.34543561935424805,
        -0.24709473550319672,
        0.3198079764842987,
        -0.0598611980676651,
        -0.029881920665502548,
        -0.20641252398490906,
        0.3765956461429596,
        -0.23197264969348907,
        -1.487382411956787,
        -0.020485784858465195,
        0.36158958077430725,
        -0.41187402606010437,
        -0.1282469779253006,
        0.13601264357566833,
        -0.5323253273963928,
        -0.13550256192684174,
        0.14249543845653534,
        0.8077855706214905,
        0.09727460145950317,
        0.36246973276138306,
        0.07276950031518936,
        0.3727526068687439,
        -0.3047090172767639,
        -0.674228847026825,
        -1.0391327142715454,
        -0.31247949600219727,
        0.254461407661438,
        -0.020880213007330894,
        0.1318134069442749,
        -0.21637411415576935,
        0.011873042210936546,
        -0.5923340320587158,
        -0.17338767647743225,
        0.508752167224884,
        0.43058887124061584,
        -0.4066700041294098,
        -0.2508661150932312,
        -0.2657347619533539,
        -0.2660491466522217,
        -0.39739295840263367,
        0.051277708262205124,
        -0.0036174426786601543,
        -0.15503834187984467,
        -0.4684107005596161,
        0.2084399312734604,
        -0.22697502374649048,
        0.005462499335408211,
        -0.010627190582454205,
        -0.2357630580663681,
        0.09113381803035736,
        0.7895273566246033,
        0.1374354362487793,
        0.22172249853610992,
        -0.6476490497589111,
        -0.19153794646263123,
        -0.4282359778881073,
        0.5247189402580261,
        -0.14682674407958984,
        0.9107407331466675,
        -0.36591801047325134,
        -0.37972337007522583,
        -0.11336085945367813,
        -0.7083153128623962,
        -0.00200113607570529,
        -0.27680864930152893,
        -0.10251083970069885,
        0.08041171729564667,
        0.17837446928024292,
        -0.14469879865646362,
        -0.10615122318267822,
        -0.04619406536221504,
        -0.034910961985588074,
        -0.6186701059341431,
        0.5227001905441284,
        0.08706536889076233,
        -0.24319452047348022,
        0.30440789461135864,
        0.39015713334083557,
        -0.8775606155395508,
        -0.10187903791666031,
        0.4257047176361084,
        -0.2548728883266449,
        1.2176753282546997,
        -0.3157591223716736,
        0.06628374010324478,
        -0.21703720092773438,
        0.2686270773410797,
        -0.5642267465591431,
        0.5474585890769958,
        -0.13597837090492249,
        -0.8997493982315063,
        -0.4059961140155792,
        0.1128849908709526,
        0.11230150610208511,
        -0.4508298337459564,
        -0.07722890377044678,
        -0.15951219201087952,
        -0.501611590385437,
        0.6654035449028015,
        0.4465886950492859,
        -0.7933249473571777,
        -0.26716238260269165,
        0.7404476404190063,
        -0.15625832974910736,
        -0.3809739053249359,
        -0.516762912273407,
        -0.3122361898422241,
        0.05467572063207626,
        0.23513099551200867,
        0.40768197178840637,
        -0.624628484249115,
        0.8908315300941467,
        -0.23807984590530396,
        -0.36706432700157166,
        -0.674843430519104,
        -0.48195844888687134,
        0.032595690339803696,
        -0.7295985221862793,
        0.18452414870262146,
        -0.030565578490495682,
        0.39178434014320374,
        0.18228779733181,
        0.3435896337032318,
        0.01071330439299345,
        -0.5294613838195801,
        0.2597426474094391,
        1.2672311067581177,
        0.2994309961795807,
        -0.05623388662934303,
        -0.1276572048664093,
        0.21220019459724426,
        -0.21023815870285034,
        0.23061922192573547,
        0.04367520660161972,
        -0.24798011779785156,
        0.46831056475639343,
        -0.016924042254686356,
        0.008991002105176449,
        -0.4892324209213257,
        -0.2177673578262329,
        -0.020781302824616432,
        -0.2612553536891937,
        -0.11815293878316879,
        -0.37029916048049927,
        0.08048747479915619,
        0.32849207520484924,
        -0.10527091473340988,
        -0.025285378098487854,
        -0.19513538479804993,
        -0.9656715989112854,
        -0.6320275664329529,
        -0.2486153095960617,
        -0.04671693220734596,
        0.2749740481376648,
        0.5667436122894287,
        0.2097463458776474,
        0.2441565841436386,
        -0.35018986463546753,
        0.032797105610370636,
        0.16689817607402802,
        0.4555133879184723,
        -0.21421092748641968,
        -0.07266684621572495,
        0.3757157623767853,
        -0.3658885955810547,
        -0.5671512484550476,
        -0.4567907750606537,
        0.09630588442087173,
        -0.23589737713336945,
        -0.030848858878016472,
        0.10731596499681473,
        0.04036584869027138,
        0.03597557544708252,
        -0.062043268233537674,
        0.23924954235553741,
        0.2579652667045593,
        0.38201484084129333,
        0.7174761891365051,
        0.3968687653541565,
        -0.05913544446229935,
        -0.12695564329624176,
        -0.15804648399353027,
        -0.5207136869430542,
        -0.1295827329158783,
        0.31955263018608093,
        -0.20250338315963745,
        0.2117007076740265,
        0.05005535110831261,
        0.681742787361145,
        0.429964154958725,
        -0.01352920476347208,
        -0.3476557433605194,
        -0.24510210752487183,
        -0.4562610685825348,
        0.5388204455375671,
        0.016286052763462067,
        0.17517627775669098,
        0.6985343098640442,
        -0.6435978412628174,
        -0.1519666463136673,
        0.6663342118263245,
        -0.18800903856754303,
        -0.5492977499961853,
        0.1515137404203415,
        -0.4089593291282654,
        -0.07854098826646805,
        0.5020062923431396,
        -0.22965463995933533,
        -0.3701806366443634,
        -0.7380551099777222,
        0.03982017934322357,
        -0.0009252111776731908,
        -0.008505476638674736,
        0.382729709148407,
        -0.24084877967834473,
        0.20277099311351776,
        0.8339918851852417,
        -0.4452732503414154,
        0.8992083072662354,
        -0.23190350830554962,
        0.645670473575592,
        -0.8636792302131653,
        -0.008049270138144493,
        0.1968882530927658,
        0.15534798800945282,
        -0.5845028162002563,
        0.4280708134174347,
        -0.4142104685306549,
        0.5357789993286133,
        -0.017508458346128464,
        -0.9014543294906616,
        0.7839213609695435,
        -1.0673866271972656,
        -0.10611377656459808,
        -0.23688188195228577,
        -0.32325705885887146,
        0.014926973730325699,
        0.7499651312828064,
        0.01151126716285944,
        0.12692488729953766,
        0.23510734736919403,
        -0.2666985094547272,
        -2.192652702331543,
        0.6026842594146729,
        -0.08649629354476929,
        0.23491671681404114,
        0.3140973448753357,
        0.26657381653785706,
        0.37947314977645874,
        0.10481970757246017,
        -0.5225290656089783,
        -0.02182554267346859,
        0.5319980978965759,
        0.6526315808296204,
        0.1509609967470169,
        0.5481459498405457,
        -0.3227469325065613,
        -0.21589763462543488,
        0.31151700019836426,
        -0.41358911991119385,
        -0.44183072447776794,
        0.10152146965265274,
        -0.5544381737709045,
        0.2612646818161011,
        0.1619778573513031,
        -0.06605543941259384,
        0.023589804768562317,
        -0.28989145159721375,
        0.17268909513950348,
        -0.10912176966667175,
        -0.4155159294605255,
        -0.136050745844841,
        -0.29464152455329895,
        -0.48422178626060486,
        0.5278241634368896,
        1.526606798171997,
        0.6153229475021362,
        0.024667317047715187,
        0.35237500071525574,
        -0.3277519643306732,
        0.22552236914634705,
        0.03929566591978073,
        0.6484237909317017,
        -0.43609338998794556,
        0.6586008667945862,
        0.2628871202468872,
        0.11009839922189713,
        0.33424994349479675,
        0.08007480949163437,
        -0.3248286247253418,
        -0.26798850297927856,
        0.2676236629486084,
        0.2244907170534134,
        -0.4357862174510956,
        -0.14911872148513794,
        0.6662161946296692,
        0.43784987926483154,
        -0.3962290585041046,
        0.5769950151443481,
        -0.2942667007446289,
        0.7001178860664368,
        -0.769555926322937,
        0.0067229196429252625,
        1.0010740756988525,
        -0.06152871251106262,
        -0.4462316036224365,
        -0.5958852171897888,
        -0.010987529531121254,
        0.3803095817565918,
        0.35041460394859314,
        -0.46211767196655273,
        -0.4603031277656555,
        -0.3722383975982666,
        0.2062811404466629,
        0.44967377185821533,
        0.2640080451965332,
        -0.23903602361679077,
        0.21861815452575684,
        0.3829140365123749,
        -0.3959232568740845,
        0.45160016417503357,
        -0.05230722203850746,
        0.41472792625427246,
        0.3084133267402649,
        0.5899998545646667,
        -0.2287904918193817,
        -0.10872488468885422,
        -0.1158139780163765,
        0.5645096898078918,
        -0.25871843099594116,
        -0.5477724075317383,
        -0.3942822515964508,
        -0.6887176036834717,
        -0.6227892637252808,
        0.3288746476173401,
        0.38548773527145386,
        -0.3163323700428009,
        -0.4433974623680115,
        -1.0441917181015015,
        0.42699000239372253,
        -0.279156893491745,
        0.1701522022485733,
        0.5867545008659363,
        0.4137079119682312,
        -0.14077675342559814,
        0.14564509689807892,
        -0.06616757065057755,
        -0.88076251745224,
        0.36852383613586426,
        -0.17629048228263855,
        0.19491484761238098,
        -0.24905844032764435,
        0.40953007340431213,
        0.25979799032211304,
        0.015906745567917824,
        -0.1171545535326004,
        0.4815105199813843,
        0.13443072140216827,
        -0.05374150350689888,
        -0.15307624638080597,
        -0.029294658452272415,
        0.06649158895015717,
        -0.14024542272090912,
        -0.09695452451705933,
        -0.19597876071929932,
        -0.2609080672264099,
        0.45991072058677673,
        0.020041434094309807,
        -0.5461602807044983,
        -0.2765243649482727,
        0.2139037847518921,
        -0.3497787117958069,
        0.3339785933494568,
        0.3618414103984833,
        -0.1814156323671341,
        0.257609486579895,
        0.21355314552783966,
        0.3511017858982086,
        -0.1731690764427185,
        -0.22275672852993011,
        -0.02582378499209881,
        0.14667488634586334,
        -0.6525456309318542,
        -0.021546082571148872,
        -0.1795443892478943,
        -0.4532260298728943,
        -0.061540018767118454,
        -0.41072526574134827,
        0.5255506634712219,
        -0.2965511977672577,
        -0.10410626977682114,
        -0.08636943250894547,
        -0.3021387755870819,
        0.18671151995658875,
        0.05472421646118164,
        0.4666726887226105,
        -0.6138943433761597,
        -0.3084510564804077,
        -0.6669508814811707,
        -0.23628367483615875,
        0.2965580224990845,
        -0.27558115124702454,
        0.826957643032074,
        0.06359780579805374,
        0.09317467361688614,
        0.3324124813079834,
        -0.24521274864673615,
        -0.20313426852226257,
        0.0748177021741867,
        -0.24346205592155457,
        -0.022530730813741684,
        0.3309972584247589,
        -0.15868517756462097,
        -0.00744752399623394,
        0.16413994133472443,
        -0.043526384979486465,
        -0.11698608100414276,
        0.3351789116859436,
        -0.3170315623283386,
        -0.48403051495552063,
        -0.5604367852210999,
        -0.0563594214618206,
        0.28888362646102905,
        -0.03933681920170784,
        0.4744698405265808,
        0.28220024704933167,
        0.2964809536933899,
        -0.28229033946990967,
        0.18394272029399872,
        0.3599349856376648,
        -0.023956913501024246,
        0.011163494549691677,
        -0.02809366025030613,
        -0.055665843188762665,
        0.847724437713623,
        0.046266108751297,
        0.0784875750541687,
        0.20932340621948242,
        -0.057100702077150345,
        0.3334759473800659,
        0.1830773949623108,
        0.043089818209409714,
        -0.2362206131219864,
        -0.1470097303390503,
        -0.6214497089385986,
        -0.5399504899978638,
        -0.13836997747421265,
        -0.07862637937068939,
        0.45868274569511414,
        0.27520647644996643,
        0.8702427744865417,
        -0.18885862827301025,
        0.33315420150756836,
        0.07647840678691864,
        0.31331998109817505,
        0.11239184439182281,
        -0.5533319115638733,
        -0.18912597000598907,
        1.073154330253601,
        0.6706900000572205,
        0.0017778587061911821,
        -0.02410798706114292,
        0.52414470911026,
        -0.1427869200706482,
        -0.20615454018115997,
        0.2885896563529968,
        0.4012013077735901,
        0.7351440787315369,
        -0.4349835216999054,
        -0.24033954739570618,
        0.7728798985481262,
        -0.19235184788703918,
        0.4291297495365143,
        -0.5081290006637573,
        0.33393174409866333,
        -0.38963472843170166,
        0.1617996245622635,
        -0.43276694416999817,
        0.06570488214492798,
        -0.1948981136083603,
        -0.05695023760199547,
        -0.19432729482650757,
        -0.6703745126724243,
        0.8380502462387085,
        -0.31803590059280396,
        0.18909001350402832,
        -0.33764511346817017,
        0.394077867269516,
        -0.3132452964782715,
        -0.11633621156215668,
        0.534574568271637,
        0.05696719512343407,
        0.9384657740592957,
        -0.12556983530521393,
        0.4179176390171051,
        0.11966869980096817,
        -0.1452663391828537,
        0.39886221289634705,
        -0.527870237827301,
        0.3073345422744751,
        0.4935567378997803,
        -0.02508377842605114,
        0.10792626440525055,
        -0.14337792992591858,
        -0.014112650416791439,
        0.16706547141075134,
        -0.12252849340438843,
        0.133727565407753,
        -0.0017140187555924058,
        0.2694646120071411,
        0.0759306401014328,
        0.6884182691574097,
        0.18368111550807953,
        -0.5844050645828247,
        0.02732388861477375,
        -0.2692788243293762,
        -0.1778968870639801,
        0.17145609855651855,
        -0.5629386305809021,
        -0.3345829248428345,
        1.3140469789505005,
        -0.6616138815879822,
        -0.5587939023971558,
        -0.8810336589813232,
        -0.3935195803642273,
        -0.43970999121665955,
        0.6405319571495056,
        0.23975946009159088,
        -0.9746919274330139,
        -0.44934922456741333,
        -0.5729504823684692,
        0.09707624465227127,
        0.07292060554027557,
        0.04731163755059242,
        -0.021304188296198845,
        0.8298330903053284,
        -0.41729846596717834,
        -0.708419919013977,
        -0.32092878222465515,
        0.05592593550682068,
        0.1514270007610321,
        0.5586775541305542,
        -0.8446431756019592,
        -0.07668600231409073,
        0.417031466960907,
        0.024194084107875824,
        -0.714104950428009,
        -0.08432713896036148,
        0.25697386264801025,
        0.04255479946732521,
        1.1627373695373535,
        0.03932005539536476,
        0.23251961171627045,
        -0.23658737540245056,
        0.1632591336965561,
        0.024371011182665825,
        -0.2069644331932068,
        -0.1054648905992508,
        -1.1149096488952637,
        0.5537403225898743,
        0.217382550239563,
        0.1040739044547081,
        0.33162689208984375,
        -0.06764377653598785,
        -0.09003915637731552,
        -0.08798667043447495,
        -0.35689595341682434,
        0.4681544601917267,
        -0.5449681282043457,
        -0.25224167108535767,
        0.2650202214717865,
        -0.07406717538833618,
        -0.2771762013435364,
        0.4011579155921936,
        0.5932559370994568,
        -0.20868468284606934,
        -0.09008114784955978,
        0.32439568638801575,
        -0.3329237997531891,
        0.23399126529693604,
        0.604500412940979,
        -0.4337725341320038,
        0.11416555196046829,
        -0.6650969386100769,
        0.24927785992622375,
        0.19347141683101654,
        0.04200110584497452,
        -0.4842124283313751,
        -0.21084973216056824,
        -0.47213971614837646,
        0.41717231273651123,
        -0.09462293982505798,
        0.13766781985759735,
        0.3818049132823944,
        -0.22730021178722382,
        -0.1176205426454544,
        -0.2592577040195465,
        -0.3705936074256897,
        0.3084864020347595,
        -0.3963496685028076,
        0.2586997449398041,
        0.024301160126924515,
        0.24250304698944092,
        -0.2229633778333664,
        -0.39383840560913086,
        0.6072344779968262,
        -0.08782728761434555,
        0.6602043509483337,
        0.0655626431107521,
        -0.4870036244392395,
        -0.9563106894493103,
        -0.3236934244632721,
        0.12095422297716141,
        -0.10232332348823547,
        0.6084139347076416,
        0.014274592511355877,
        0.13088327646255493,
        0.5902824997901917,
        0.6856037378311157,
        0.20247812569141388,
        0.4326544404029846,
        0.5668750405311584,
        -0.169325590133667,
        0.18501435220241547,
        0.2684348225593567,
        0.446500688791275,
        -0.03080374374985695,
        0.1880207061767578,
        -0.07732591778039932,
        -0.2254771888256073,
        0.5369167327880859,
        -0.9861070513725281,
        0.1209108978509903,
        0.18911942839622498,
        0.6466972827911377,
        0.026957916095852852,
        -0.30628538131713867,
        -0.01475731935352087,
        0.5319423079490662,
        0.14164045453071594,
        -0.34417563676834106,
        0.08133568614721298,
        -0.15068523585796356,
        0.10229101032018661,
        0.21925148367881775,
        -0.22665250301361084,
        -0.06978210806846619,
        0.08970944583415985,
        0.041359174996614456,
        -0.2948973774909973,
        -0.5365650653839111,
        -0.1851453334093094,
        0.029438020661473274,
        -0.0978989452123642,
        -0.018596768379211426,
        0.32442358136177063,
        -0.014467975124716759,
        0.3569888472557068,
        -0.6097891330718994,
        0.4483889937400818,
        -0.19458487629890442,
        -0.21572163701057434,
        0.039514753967523575
      ],
      "weightsShape": [
        17,
        64
      ],
      "bias": [
        0,
        -0.17992576956748962,
        -0.004218444228172302,
        -0.023361356928944588,
        -0.0009118629386648536,
        -0.07017679512500763,
        -0.4604761302471161,
        0.01166960597038269,
        -0.06977096199989319,
        0.11245221644639969,
        0.0525616779923439,
        -0.318768173456192,
        0.2543303668498993,
        -0.38132572174072266,
        0,
        -0.20165768265724182,
        0.34018319845199585,
        0.19045832753181458,
        0,
        0.04284841567277908,
        0,
        -0.14829936623573303,
        -0.13347874581813812,
        0.0661061480641365,
        0.6259385943412781,
        -0.06949444860219955,
        0.134097620844841,
        0.16378198564052582,
        -0.0019264336442574859,
        0.16676338016986847,
        -0.13653875887393951,
        0.09049168229103088,
        -0.0637626126408577,
        -0.2452525794506073,
        0.1872265338897705,
        0.3032791316509247,
        0.12888728082180023,
        -0.03507118672132492,
        -0.24590903520584106,
        -0.14062397181987762,
        0.03370306268334389,
        0.1226249635219574,
        0,
        -0.1508438140153885,
        -0.0007790070958435535,
        0.38511723279953003,
        0.04944377765059471,
        -0.20260529220104218,
        0.03253505378961563,
        0.29340675473213196,
        -0.25952452421188354,
        -0.009621862322092056,
        -0.07840927690267563,
        0.0026940566021949053,
        0.04082653671503067,
        0.19269274175167084,
        -0.05157693848013878,
        -0.009136900305747986,
        -0.21845652163028717,
        -0.10711586475372314,
        0.10074227303266525,
        -0.052004504948854446,
        0.12595224380493164,
        -0.08783520758152008
      ],
      "biasShape": [
        1,
        64
      ],
      "activation": "relu"
    },
    {
      "weights": [
        0.05635683983564377,
        0.0867559015750885,
        -0.1016518846154213,
        0.04403439164161682,
        0.007143995258957148,
        -0.04037623479962349,
        -0.008326632902026176,
        0.30542826652526855,
        -0.25802814960479736,
        0.26023074984550476,
        -0.11223049461841583,
        -0.18269450962543488,
        0.09212801605463028,
        0.15368004143238068,
        0.12271866947412491,
        0.11055327206850052,
        0.015897801145911217,
        0.306919664144516,
        0.19763405621051788,
        0.12542982399463654,
        0.06983774900436401,
        -0.14110061526298523,
        0.11492276936769485,
        -0.18895845115184784,
        0.099372997879982,
        0.32512474060058594,
        -0.11050581187009811,
        -0.14708782732486725,
        0.09463661909103394,
        -0.021635795012116432,
        0.19876644015312195,
        0.07776874303817749,
        0.33468231558799744,
        -0.1331375241279602,
        0.19377589225769043,
        0.4413864314556122,
        0.1383965164422989,
        -0.2945477366447449,
        0.04849778860807419,
        0.09618514776229858,
        0.11858215928077698,
        0.11366528272628784,
        -0.400443971157074,
        0.29796284437179565,
        -0.6234957575798035,
        0.4760276973247528,
        -0.2925173044204712,
        0.41415658593177795,
        0.017085181549191475,
        -0.057130828499794006,
        -0.1516801416873932,
        -0.14780832827091217,
        0.17512571811676025,
        0.8603419661521912,
        -0.2832881212234497,
        -0.06505100429058075,
        -0.5890328884124756,
        0.4777904450893402,
        0.03739627078175545,
        -0.8128199577331543,
        -0.43577831983566284,
        0.22762306034564972,
        -0.012595596723258495,
        0.21506842970848083,
        -0.12868909537792206,
        -0.07556761056184769,
        -0.05297775939106941,
        0.02487475983798504,
        0.05939873680472374,
        -0.24755029380321503,
        -0.12333120405673981,
        0.011941739358007908,
        -0.12262449413537979,
        -0.24672216176986694,
        0.33084991574287415,
        -0.23193368315696716,
        0.24613870680332184,
        0.04539158195257187,
        -0.14050261676311493,
        -0.0027472982183098793,
        -0.1443469226360321,
        -0.14761102199554443,
        -0.2340555042028427,
        -0.040818121284246445,
        0.19728632271289825,
        -0.30010247230529785,
        0.22180064022541046,
        0.17171710729599,
        0.16548503935337067,
        -0.6943469047546387,
        -0.14137651026248932,
        0.18126632273197174,
        0.24805153906345367,
        -0.21528862416744232,
        0.1251893937587738,
        -0.09544350951910019,
        0.23925866186618805,
        0.2349034994840622,
        0.12162675708532333,
        0.05704377591609955,
        -0.0799613893032074,
        0.08702315390110016,
        0.20221446454524994,
        -0.135025754570961,
        -0.058175064623355865,
        -0.2228977382183075,
        -0.08944340795278549,
        0.06801548600196838,
        -0.651536762714386,
        0.48887908458709717,
        -0.15032143890857697,
        -0.37878069281578064,
        -0.012104954570531845,
        -0.03629482910037041,
        -0.18828719854354858,
        0.24900878965854645,
        0.21262462437152863,
        0.34526944160461426,
        -0.10280707478523254,
        0.19739918410778046,
        -0.39834967255592346,
        0.27914801239967346,
        -0.2026698887348175,
        -0.28850802779197693,
        -0.3743502199649811,
        -0.03532477095723152,
        0.055236976593732834,
        0.7060486078262329,
        0.1178448423743248,
        0.1460237354040146,
        0.13925579190254211,
        -0.088401198387146,
        -0.27340754866600037,
        -0.08145864307880402,
        -0.03865371271967888,
        -0.16031573712825775,
        0.02841646783053875,
        0.12979888916015625,
        -0.10538807511329651,
        0.039723750203847885,
        0.058051127940416336,
        0.006826659198850393,
        0.25896379351615906,
        -0.14666230976581573,
        0.17491377890110016,
        0.11875668913125992,
        0.42237964272499084,
        0.08255255222320557,
        -0.03895389661192894,
        -0.1041649803519249,
        -0.2910430133342743,
        -0.1119801253080368,
        -0.05095184966921806,
        -0.09912984818220139,
        0.35447901487350464,
        0.16392989456653595,
        0.0817951187491417,
        -0.11275313049554825,
        0.15324224531650543,
        0.024899344891309738,
        0.08718688040971756,
        -0.4130747616291046,
        0.032466255128383636,
        -0.1607397496700287,
        -0.3016897141933441,
        0.07055201381444931,
        0.21534404158592224,
        -0.05566281080245972,
        0.18409942090511322,
        -0.000045193690311862156,
        0.1762346625328064,
        0.05378139019012451,
        -0.4337676763534546,
        0.0010030174162238836,
        -0.1298525482416153,
        0.06712587177753448,
        0.000753424596041441,
        0.2567964196205139,
        -0.22720147669315338,
        0.00776553014293313,
        -0.5077556371688843,
        0.2929636836051941,
        -0.06102316826581955,
        -0.33398503065109253,
        0.031417038291692734,
        0.4787328541278839,
        -0.06687451153993607,
        -0.5387688279151917,
        -0.06526155769824982,
        0.03776154667139053,
        0.24351227283477783,
        -0.10255804657936096,
        0.10573335736989975,
        -0.021448589861392975,
        -0.13347962498664856,
        0.13071972131729126,
        0.2285660356283188,
        0.1926131248474121,
        -0.24523209035396576,
        0.06147030368447304,
        0.04012389853596687,
        0.0851324275135994,
        -0.051804911345243454,
        0.4437762498855591,
        0.6725029945373535,
        0.2905246913433075,
        0.3181445598602295,
        0.21896101534366608,
        0.2173459678888321,
        -0.19691705703735352,
        0.13750746846199036,
        -0.0039860219694674015,
        -0.039492905139923096,
        -0.10170881450176239,
        -0.04815887659788132,
        -0.02458636462688446,
        0.33662495017051697,
        -0.18287594616413116,
        0.17422567307949066,
        0.1902974545955658,
        0.25098833441734314,
        0.08725066483020782,
        -0.1418665200471878,
        -0.46473899483680725,
        -0.29472291469573975,
        0.13730673491954803,
        -0.07757194340229034,
        0.20505021512508392,
        0.18491297960281372,
        -0.20092202723026276,
        -0.08706475794315338,
        -0.05971673130989075,
        -0.13603593409061432,
        -0.0613655261695385,
        0.04056123271584511,
        -0.03832213953137398,
        0.21146813035011292,
        0.2995928227901459,
        0.1369500756263733,
        0.2885761559009552,
        -0.1504894196987152,
        0.19686764478683472,
        -0.3007281422615051,
        0.14152969419956207,
        0.2991848289966583,
        -0.18475568294525146,
        0.10805274546146393,
        -0.13497032225131989,
        0.2255334109067917,
        0.008331350050866604,
        0.05561308562755585,
        0.04722294583916664,
        -0.001984145725145936,
        0.11930419504642487,
        -0.11721298843622208,
        -0.2719361186027527,
        0.02054145745933056,
        -0.014607265591621399,
        -0.4091727137565613,
        0.11456920951604843,
        0.38862183690071106,
        0.2666679322719574,
        0.03041668049991131,
        0.03750833123922348,
        0.022835861891508102,
        -0.006010711658746004,
        0.19578516483306885,
        -0.04476260393857956,
        -0.31159287691116333,
        0.2505943477153778,
        0.030340000987052917,
        -0.3002898693084717,
        0.1673814356327057,
        0.23636853694915771,
        -0.054534077644348145,
        0.07556366175413132,
        0.031319510191679,
        0.35908448696136475,
        -0.006936794612556696,
        -0.2929403483867645,
        -0.08164981007575989,
        -0.007468620780855417,
        -0.012100061401724815,
        0.18599247932434082,
        -0.036891255527734756,
        0.0700407475233078,
        -0.06929158419370651,
        0.29784682393074036,
        -0.012216396629810333,
        -0.4679131805896759,
        0.08234208077192307,
        -0.2275329977273941,
        -0.031499866396188736,
        0.41631194949150085,
        0.06250443309545517,
        0.2010299414396286,
        -0.038207102566957474,
        0.10184334218502045,
        -0.05014485493302345,
        -0.0745001882314682,
        -0.08770067244768143,
        0.024415789172053337,
        0.25650322437286377,
        -0.020772259682416916,
        -0.12128641456365585,
        -0.2969812750816345,
        -0.32777541875839233,
        0.5174494981765747,
        -0.05312645435333252,
        -0.015581927262246609,
        -0.023902276530861855,
        0.16654425859451294,
        0.08767445385456085,
        -0.019965223968029022,
        -0.15830601751804352,
        -0.1015244796872139,
        -0.03081461600959301,
        -0.14083966612815857,
        0.37121593952178955,
        -0.036656539887189865,
        -0.7867473363876343,
        0.022231072187423706,
        -0.28274497389793396,
        -0.05573977157473564,
        -0.02150990627706051,
        0.002740425057709217,
        -0.45019012689590454,
        0.3192477524280548,
        -0.3220045268535614,
        -0.4008204936981201,
        -0.17893783748149872,
        -0.24453900754451752,
        0.4696664810180664,
        -0.10365472733974457,
        0.14861822128295898,
        -0.20089587569236755,
        0.29948368668556213,
        -0.07066597044467926,
        0.151228129863739,
        0.09088879078626633,
        0.2668871283531189,
        -0.30812251567840576,
        0.10393441468477249,
        0.116092748939991,
        0.08771917968988419,
        0.2605592906475067,
        -0.12219797074794769,
        0.3426002562046051,
        0.1158069372177124,
        -0.005614935886114836,
        -0.07002443075180054,
        -0.13646537065505981,
        -0.2058098465204239,
        -0.17861954867839813,
        0.362235426902771,
        -0.07627499103546143,
        -0.570949912071228,
        -1.8884109258651733,
        0.29231494665145874,
        -0.2924005091190338,
        0.16038869321346283,
        -1.223095417022705,
        -0.19296997785568237,
        -0.04097616299986839,
        -0.025808708742260933,
        0.20884282886981964,
        -0.1345200389623642,
        -0.19745509326457977,
        0.015789242461323738,
        -0.36632993817329407,
        -0.03437509015202522,
        -0.5371195673942566,
        -0.13809530436992645,
        0.2740885317325592,
        0.1854882538318634,
        0.14416031539440155,
        0.030447332188487053,
        0.49669530987739563,
        0.2268294394016266,
        -0.3190022110939026,
        0.10074746608734131,
        0.1528615802526474,
        0.008989819325506687,
        0.5493028163909912,
        0.2753908038139343,
        -0.016333207488059998,
        0.4109129309654236,
        0.063106007874012,
        -0.12622889876365662,
        -1.0954444408416748,
        -0.08866226673126221,
        0.24684959650039673,
        0.3712926506996155,
        -0.6217722296714783,
        0.0011687694350257516,
        -0.0018088682554662228,
        0.2020782232284546,
        -0.26931583881378174,
        -0.3419845998287201,
        0.18233051896095276,
        -0.007215164601802826,
        -0.28060975670814514,
        -0.12011846899986267,
        -0.6119033694267273,
        -0.017351429909467697,
        -0.028005311265587807,
        0.029770324006676674,
        -0.023814795538783073,
        -0.07001159340143204,
        0.19374293088912964,
        0.044953811913728714,
        0.029678719118237495,
        0.15216462314128876,
        -0.09178388863801956,
        0.09839732944965363,
        0.044595491141080856,
        0.3062300682067871,
        0.2705550193786621,
        0.32757943868637085,
        -0.12116120755672455,
        -0.269113689661026,
        0.21105463802814484,
        0.47318941354751587,
        0.01716957427561283,
        0.2711094617843628,
        0.7108672261238098,
        -0.012512688525021076,
        0.11627453565597534,
        0.08381227403879166,
        -0.06123035028576851,
        0.30973878502845764,
        0.4135615825653076,
        -0.1683279573917389,
        -0.16234110295772552,
        -0.04981916397809982,
        0.31205353140830994,
        0.02264264039695263,
        -0.07016489654779434,
        -0.10088903456926346,
        0.10287518054246902,
        0.04833775386214256,
        0.029425330460071564,
        0.028643041849136353,
        0.026776596903800964,
        -0.11990819126367569,
        -0.10478850454092026,
        0.048995718359947205,
        0.2972254455089569,
        0.04930119216442108,
        -0.034101393073797226,
        -0.053020086139440536,
        -0.09518325328826904,
        0.0836489126086235,
        -0.35706183314323425,
        0.22395475208759308,
        0.14481380581855774,
        0.035318829119205475,
        0.21052369475364685,
        -0.0589822456240654,
        -0.1829909086227417,
        -0.12512731552124023,
        0.32514888048171997,
        0.15234123170375824,
        -0.029773209244012833,
        0.14255091547966003,
        -0.09455496072769165,
        -0.006799483206123114,
        0.11385494470596313,
        0.05138958990573883,
        -0.2737329602241516,
        0.05314672365784645,
        0.3181658387184143,
        -0.05177374556660652,
        -0.03846650570631027,
        0.32878628373146057,
        0.14201806485652924,
        0.10203782469034195,
        -0.062256909906864166,
        -0.054213088005781174,
        -0.17014160752296448,
        -0.17261135578155518,
        -0.13073641061782837,
        -0.3332086503505707,
        0.2239627093076706,
        0.13224828243255615,
        0.49958932399749756,
        -0.5290286540985107,
        -0.19629764556884766,
        -0.15538755059242249,
        -0.7320735454559326,
        -0.2476886808872223,
        -0.10771077126264572,
        0.8188318610191345,
        -0.2785511910915375,
        0.2128397524356842,
        0.04882146418094635,
        0.016321217641234398,
        -0.17825286090373993,
        0.07512140274047852,
        -0.316177636384964,
        0.01703755185008049,
        -0.10053924471139908,
        0.3080049157142639,
        0.02168615721166134,
        0.41154590249061584,
        -0.1382426917552948,
        0.2978360652923584,
        0.019875701516866684,
        0.34347283840179443,
        0.14048895239830017,
        0.12181457877159119,
        -0.7354477643966675,
        -0.006070281378924847,
        0.11731529980897903,
        0.019562024623155594,
        0.3494369089603424,
        -0.29258906841278076,
        -0.13042010366916656,
        -0.05907227843999863,
        0.2861388027667999,
        -0.1780400574207306,
        0.14436371624469757,
        -0.0905429869890213,
        -0.04539183899760246,
        0.22648471593856812,
        -0.3139306902885437,
        0.002547230338677764,
        -0.1854250729084015,
        -0.07328909635543823,
        0.011319629848003387,
        -0.24662970006465912,
        -0.0838397964835167,
        -0.1630896031856537,
        0.22680070996284485,
        0.05052701011300087,
        -0.2977444529533386,
        -0.0799204558134079,
        0.21812602877616882,
        -0.3145046830177307,
        -0.12496152520179749,
        0.12092325091362,
        -0.2419489175081253,
        0.30151039361953735,
        0.031368184834718704,
        -0.07281401008367538,
        -0.33464014530181885,
        -0.13489589095115662,
        -0.027777990326285362,
        0.09929700195789337,
        -0.12446227669715881,
        -0.15986543893814087,
        -0.22764015197753906,
        -0.1147511899471283,
        -0.32056328654289246,
        0.30075010657310486,
        -0.04273305460810661,
        0.4074758291244507,
        0.08807714283466339,
        0.055178117007017136,
        0.15541082620620728,
        0.07240961492061615,
        0.16701410710811615,
        0.3391100764274597,
        0.32314756512641907,
        0.030530132353305817,
        0.08674069494009018,
        0.14965157210826874,
        0.21853433549404144,
        0.0574209950864315,
        -0.16559410095214844,
        -0.1148175522685051,
        0.7720373868942261,
        0.01714756153523922,
        0.029528718441724777,
        0.23801890015602112,
        -0.10412537306547165,
        0.16592927277088165,
        0.028245940804481506,
        -0.011479279026389122,
        0.2623911201953888,
        -0.1656135767698288,
        -0.03525727242231369,
        0.36544856429100037,
        -0.3031279146671295,
        -0.2864540219306946,
        -0.12808208167552948,
        0.2667878568172455,
        0.05073738098144531,
        0.12772098183631897,
        -0.17527098953723907,
        -0.18795375525951385,
        0.19844113290309906,
        0.03356866538524628,
        0.2120274305343628,
        -0.10618364065885544,
        0.29207509756088257,
        -0.11557180434465408,
        0.198727086186409,
        0.1074768528342247,
        -0.41097939014434814,
        0.08566056936979294,
        0.003018394811078906,
        -0.13929052650928497,
        -0.02376832254230976,
        0.37961146235466003,
        -0.04956543445587158,
        0.24174408614635468,
        -0.010264893993735313,
        0.32738280296325684,
        0.31263837218284607,
        -0.22783978283405304,
        0.09542617946863174,
        0.029131291434168816,
        0.34731557965278625,
        0.14823439717292786,
        -0.22411377727985382,
        -0.2080996185541153,
        0.41138017177581787,
        0.11000989377498627,
        0.005476095248013735,
        0.07494792342185974,
        0.32401904463768005,
        -0.028753958642482758,
        0.3590036630630493,
        -0.34744593501091003,
        0.09549383819103241,
        -0.12480180710554123,
        -0.07122192531824112,
        -0.006958866026252508,
        0.2365977168083191,
        -0.23909828066825867,
        -0.20630775392055511,
        -0.05330449342727661,
        -0.2510056495666504,
        0.10474149882793427,
        0.19051818549633026,
        -0.04594406858086586,
        -0.23092599213123322,
        0.029737643897533417,
        -0.29471322894096375,
        0.12031002342700958,
        0.1962754875421524,
        0.005034476052969694,
        -0.11633069068193436,
        -0.21640098094940186,
        -0.2861012816429138,
        -0.16956858336925507,
        0.4130438566207886,
        -0.10843517631292343,
        0.002494991524145007,
        -0.08211473375558853,
        -0.1995442807674408,
        -0.26545703411102295,
        -0.26337307691574097,
        0.029482224956154823,
        -0.07678084820508957,
        0.11448440700769424,
        -0.22072231769561768,
        0.0783141553401947,
        -0.13502401113510132,
        0.3036227226257324,
        0.10679814219474792,
        -0.027445325627923012,
        -0.06134195253252983,
        0.23740841448307037,
        -0.022669563069939613,
        0.21900682151317596,
        -0.3043704032897949,
        -0.14059892296791077,
        -0.15360291302204132,
        -0.0884225144982338,
        -0.3453786075115204,
        0.18912266194820404,
        -0.3186056613922119,
        0.006856291554868221,
        -0.11947441101074219,
        -0.3372965157032013,
        0.15707437694072723,
        0.5980789661407471,
        0.05594472214579582,
        0.1748407930135727,
        -0.17129142582416534,
        0.0399743914604187,
        -0.05629923567175865,
        -0.04330001398921013,
        0.5725952982902527,
        0.046060994267463684,
        0.1960746794939041,
        -0.11317592114210129,
        -0.159088134765625,
        -0.05370752885937691,
        0.12888896465301514,
        0.01957639493048191,
        0.7608988285064697,
        -0.2986948490142822,
        -0.0612722747027874,
        -0.19615991413593292,
        0.6949794888496399,
        0.06316687911748886,
        -0.6627041101455688,
        -0.5367705225944519,
        0.06878448277711868,
        0.1227395087480545,
        0.442314088344574,
        0.4817274212837219,
        -0.039535071700811386,
        0.29184645414352417,
        0.0677444115281105,
        0.015529423020780087,
        0.7399977445602417,
        0.44764479994773865,
        -0.08506066352128983,
        0.09162148088216782,
        0.12705329060554504,
        -0.018129728734493256,
        -0.2010113000869751,
        -0.210178941488266,
        -0.07110702246427536,
        0.3881467878818512,
        0.14456650614738464,
        0.09350892901420593,
        -0.31408411264419556,
        -0.24790146946907043,
        0.24302323162555695,
        -0.10397693514823914,
        0.04741493985056877,
        -0.21319419145584106,
        -0.1100819930434227,
        -0.19588470458984375,
        0.10698466002941132,
        0.024663861840963364,
        -0.6512534022331238,
        0.13209688663482666,
        -0.1100880354642868,
        0.04825969785451889,
        -0.04858572408556938,
        0.02662133425474167,
        0.20249055325984955,
        0.22001180052757263,
        0.4480615556240082,
        0.15311303734779358,
        -0.055916789919137955,
        -0.19560714066028595,
        -0.2574906349182129,
        -0.08150549232959747,
        -0.302251398563385,
        0.07485774904489517,
        -0.18285983800888062,
        0.050915058702230453,
        0.3340791165828705,
        -0.21522362530231476,
        -0.10475762188434601,
        -0.4002777636051178,
        -0.25282955169677734,
        0.11111839860677719,
        -0.1374450922012329,
        -0.18554601073265076,
        0.29142647981643677,
        0.1816512495279312,
        -0.026658225804567337,
        0.044395893812179565,
        -0.2629348635673523,
        0.09386273473501205,
        0.32976290583610535,
        0.1221202090382576,
        -0.2486504316329956,
        0.27723973989486694,
        -0.08073227852582932,
        -0.10464498400688171,
        0.10965020954608917,
        0.009065340273082256,
        -0.2308865487575531,
        0.2952280640602112,
        -0.25531163811683655,
        -0.06525469571352005,
        0.22755083441734314,
        -0.12202784419059753,
        0.13889899849891663,
        0.13986897468566895,
        0.22750984132289886,
        0.08434640616178513,
        -0.1417127400636673,
        0.444179505109787,
        -0.19658620655536652,
        0.12351275980472565,
        -0.015521220862865448,
        0.06612323969602585,
        0.20162256062030792,
        -0.37146419286727905,
        0.2680228650569916,
        -0.23786695301532745,
        0.04135618358850479,
        0.07917637377977371,
        0.5444026589393616,
        0.14147306978702545,
        -0.28803080320358276,
        -0.18942472338676453,
        -0.2782442569732666,
        0.06384558975696564,
        -0.6320639252662659,
        0.212195485830307,
        0.08653932809829712,
        -0.2908414900302887,
        0.07418815046548843,
        -0.054028358310461044,
        0.30389124155044556,
        0.23472177982330322,
        -0.2838294506072998,
        -0.1739630103111267,
        -0.20743635296821594,
        0.1807125359773636,
        -0.10674648731946945,
        -0.3381645083427429,
        0.01479357574135065,
        0.05968243256211281,
        0.21783745288848877,
        0.21620792150497437,
        0.0034207382705062628,
        -0.028707867488265038,
        -0.10974976420402527,
        0.08225656300783157,
        0.07283548265695572,
        0.27841833233833313,
        0.5105848908424377,
        0.4489475190639496,
        -0.17364545166492462,
        0.000803905597422272,
        -0.04889490455389023,
        0.1033494770526886,
        -0.35572126507759094,
        0.09456761181354523,
        -0.1314038634300232,
        0.304004967212677,
        -0.14991647005081177,
        0.18374843895435333,
        0.08042547851800919,
        -0.12525878846645355,
        -0.4302643835544586,
        0.20038293302059174,
        -0.10890021920204163,
        0.1537535935640335,
        -0.04758455976843834,
        0.006170644890516996,
        -0.10518776625394821,
        0.14114703238010406,
        -0.2851948142051697,
        0.055175669491291046,
        0.3602246642112732,
        0.17880137264728546,
        0.04316471144556999,
        0.060257602483034134,
        -0.04515891522169113,
        0.09433792531490326,
        -0.24599240720272064,
        0.24585674703121185,
        0.031313423067331314,
        0.19409793615341187,
        0.12705104053020477,
        -0.013775021769106388,
        0.023629456758499146,
        0.020164670422673225,
        -0.12423890829086304,
        -0.25065743923187256,
        -0.0224628709256649,
        -0.7649941444396973,
        0.008021943271160126,
        -0.33983978629112244,
        0.05002707615494728,
        0.6315703392028809,
        -0.12781037390232086,
        -0.6702509522438049,
        0.07167799770832062,
        -0.1881273090839386,
        -0.13409008085727692,
        -0.27121877670288086,
        0.14625540375709534,
        0.9287979006767273,
        0.12404461205005646,
        0.009442809037864208,
        -0.2872997522354126,
        0.12602925300598145,
        -0.008988003246486187,
        0.4360494613647461,
        0.13222172856330872,
        -0.3906712532043457,
        -0.12401685118675232,
        0.5341449975967407,
        -0.050933461636304855,
        0.7838007807731628,
        -1.4311362504959106,
        -0.015787381678819656,
        1.3482075929641724,
        0.061347052454948425,
        0.018288003280758858,
        -0.14458434283733368,
        -0.3552623391151428,
        0.03515416011214256,
        -0.32083645462989807,
        0.32296818494796753,
        0.153817281126976,
        0.1143660694360733,
        -0.1754838228225708,
        -0.04665788263082504,
        -0.21886493265628815,
        -0.07462847977876663,
        -0.20883828401565552,
        0.03896014392375946,
        -0.4882277846336365,
        0.2053406983613968,
        -0.2960706651210785,
        -0.21184450387954712,
        0.15946654975414276,
        0.1747492551803589,
        0.011078627780079842,
        0.03780965507030487,
        -0.2702253460884094,
        -0.008296240121126175,
        0.2270824909210205,
        -0.3030220866203308,
        0.050807636231184006,
        -0.18069615960121155,
        -0.1240261122584343,
        0.1864292174577713,
        -0.05599352717399597,
        0.31159088015556335,
        -0.24414032697677612,
        0.2558854818344116,
        0.16186833381652832,
        0.2823103368282318,
        0.011290437541902065,
        0.09243407845497131,
        -0.05720207095146179,
        -0.31120845675468445,
        -0.30374953150749207,
        -0.3091164827346802,
        0.19626857340335846,
        0.1261017620563507,
        -0.11207319051027298,
        -0.027576124295592308,
        -0.04723000153899193,
        -0.10880330950021744,
        0.04409604147076607,
        -0.5286327600479126,
        0.08302706480026245,
        0.319621205329895,
        -0.13273963332176208,
        0.1341819316148758,
        -0.06257811933755875,
        -0.3550527095794678,
        0.28027036786079407,
        -0.008673585020005703,
        -0.13877783715724945,
        -0.028161507099866867,
        0.11657918244600296,
        -0.5057249069213867,
        -0.18088647723197937,
        0.08201124519109726,
        -0.11869484931230545,
        -0.2432917356491089,
        -0.2554733455181122,
        0.2038974165916443,
        -0.1819610446691513,
        0.08969322592020035,
        -0.1389375627040863,
        -0.1606234461069107,
        -0.06894128769636154,
        0.1567094922065735,
        0.05056554824113846,
        0.02876000665128231,
        -0.12056109309196472,
        0.030586091801524162,
        -0.32794255018234253,
        -0.3336881101131439,
        0.2804904282093048,
        0.3013617992401123,
        0.42010897397994995,
        -0.013582203537225723,
        -0.05694196745753288,
        -0.274078369140625,
        0.02645629085600376,
        0.1089550033211708,
        0.06149507686495781,
        0.25154542922973633,
        -0.005396915599703789,
        -0.14410154521465302,
        0.08486437052488327,
        0.06448795646429062,
        -0.0224260613322258,
        -0.232225239276886,
        -0.2206062376499176,
        -0.14383035898208618,
        0.17117173969745636,
        -0.35362598299980164,
        0.16837728023529053,
        -0.09456329792737961,
        -0.07758792489767075,
        0.0783236026763916,
        0.15111270546913147,
        0.2230784147977829,
        0.2535967528820038,
        0.0989038422703743,
        0.04819458723068237,
        0.06964123994112015,
        0.1467987298965454,
        -0.2977125346660614,
        0.38666707277297974,
        0.2758159935474396,
        0.24302110075950623,
        -0.39622247219085693,
        0.17278176546096802,
        -0.15067626535892487,
        0.15241514146327972,
        -0.27768415212631226,
        -0.0032354460563510656,
        -0.2322736531496048,
        0.2582804560661316,
        -0.1789519190788269,
        -0.14084625244140625,
        -0.09309854358434677,
        -0.005783501081168652,
        0.05058809742331505,
        -0.20993994176387787,
        0.1456955373287201,
        -0.031428463757038116,
        -0.233420729637146,
        0.3574027419090271,
        -0.05361200496554375,
        -0.24670879542827606,
        0.07670664042234421,
        -0.05738759785890579,
        -0.08886167407035828,
        -0.09307169914245605,
        -0.32260242104530334,
        -0.25461670756340027,
        -0.22434961795806885,
        -0.1005682572722435,
        -0.2492847591638565,
        0.2879657745361328,
        -0.015995202586054802,
        0.324905127286911,
        -0.12852945923805237,
        0.006226886995136738,
        0.045869097113609314,
        0.17221206426620483,
        -0.18258504569530487,
        -0.004466565791517496,
        -0.0006001069559715688,
        0.007233578711748123,
        -0.4402386546134949,
        0.1380089372396469,
        -0.06738007068634033,
        -0.0868712067604065,
        -0.024813257157802582,
        -0.022007538005709648,
        0.011371788568794727,
        0.12573401629924774,
        -0.24209612607955933,
        -0.010477636009454727,
        -0.13668622076511383,
        0.011189313605427742,
        0.06178576499223709,
        -0.21220308542251587,
        0.04696842283010483,
        -0.2694646120071411,
        0.13299152255058289,
        -0.060908254235982895,
        0.2203608602285385,
        -0.048189081251621246,
        -0.2178618311882019,
        0.28801268339157104,
        -0.017051974311470985,
        0.025819793343544006,
        -0.004868711810559034,
        0.033668551594018936,
        0.03501448780298233,
        0.28397613763809204,
        -0.0176496971398592,
        0.4180004894733429,
        -0.06865084171295166,
        0.09070916473865509,
        -0.19851624965667725,
        0.3553166389465332,
        -0.06290335953235626,
        -0.2444687932729721,
        -0.13201911747455597,
        -0.31677010655403137,
        -0.11024472862482071,
        -0.016957778483629227,
        -0.23709316551685333,
        0.17914626002311707,
        -0.1739407628774643,
        -0.1656859815120697,
        -0.30496102571487427,
        0.3167538344860077,
        -0.21058441698551178,
        -0.21211054921150208,
        -0.3815568685531616,
        0.35263118147850037,
        0.1641082912683487,
        0.36992815136909485,
        0.08146379142999649,
        -0.2813149690628052,
        0.16097521781921387,
        0.06210695207118988,
        0.005874015390872955,
        0.12412220239639282,
        -0.10604090988636017,
        -0.04358966648578644,
        0.005623684264719486,
        -0.1334090530872345,
        0.00706622377038002,
        0.38017964363098145,
        -0.2429713010787964,
        0.030819902196526527,
        -0.1368519812822342,
        -0.2982097566127777,
        0.012449543923139572,
        -0.42253488302230835,
        -0.0995253250002861,
        -0.3465043306350708,
        0.1037023738026619,
        0.08632926642894745,
        -0.4084183871746063,
        0.03449567034840584,
        0.15825672447681427,
        0.4964194893836975,
        -0.34194234013557434,
        -0.02119366079568863,
        -0.22367089986801147,
        0.16701547801494598,
        0.16767370700836182,
        -0.39861685037612915,
        -0.03129760921001434,
        0.18396608531475067,
        -0.11668913066387177,
        -0.2259848713874817,
        0.017464231699705124,
        0.06852452456951141,
        0.188972607254982,
        0.105228953063488,
        -0.3954441249370575,
        -0.2583666145801544,
        -0.1480720192193985,
        0.08074340969324112,
        0.10257187485694885,
        0.2464192807674408,
        0.16351614892482758,
        0.19657504558563232,
        -0.1330953687429428,
        0.13909277319908142,
        -0.10261646658182144,
        -0.3371444046497345,
        0.22253736853599548,
        -0.008106986992061138,
        0.4321082830429077,
        0.08005199581384659,
        -0.4093611538410187,
        -0.4345043897628784,
        0.3905293643474579,
        0.011949355714023113,
        0.02770068868994713,
        -0.20614740252494812,
        -0.26743099093437195,
        -0.31375744938850403,
        -0.04071011766791344,
        -0.03601567819714546,
        -0.12515659630298615,
        0.3727370798587799,
        0.10409405082464218,
        0.04320044070482254,
        -0.061938539147377014,
        -0.034614577889442444,
        -0.09527241438627243,
        -0.0843672975897789,
        0.06783565133810043,
        -0.1937893033027649,
        -0.048641473054885864,
        0.25883790850639343,
        0.03719643875956535,
        -0.30175429582595825,
        -0.04145453870296478,
        0.3547534942626953,
        -0.040528327226638794,
        0.11441313475370407,
        -0.08420821279287338,
        0.05040452256798744,
        0.3758171498775482,
        0.01184268668293953,
        0.07581765204668045,
        -0.48987287282943726,
        -0.010391522198915482,
        0.1571493297815323,
        -0.05559101328253746,
        -0.19193992018699646,
        0.10238969326019287,
        0.0057755401358008385,
        -0.06217143312096596,
        0.23794741928577423,
        -0.016207130625844002,
        0.08353433758020401,
        0.038900915533304214,
        0.025294793769717216,
        0.010817700065672398,
        -0.04099804162979126,
        -0.03635849058628082,
        0.546038806438446,
        -0.25723326206207275,
        -0.019764790311455727,
        -0.334671288728714,
        0.40914833545684814,
        -0.14715707302093506,
        -0.38351523876190186,
        0.14244887232780457,
        -0.19378745555877686,
        -0.14872945845127106,
        0.4239823520183563,
        0.22322790324687958,
        -0.0010397470323368907,
        0.09022561460733414,
        -0.13754364848136902,
        0.11299557983875275,
        0.412033349275589,
        -0.11254020035266876,
        0.0600932240486145,
        -0.23288612067699432,
        0.40178996324539185,
        -0.11602472513914108,
        0.4892839193344116,
        -0.2407069206237793,
        0.015115332789719105,
        0.1931425929069519,
        0.07011323422193527,
        -0.040726713836193085,
        0.06867066025733948,
        -0.22137854993343353,
        -0.0011092500062659383,
        -0.11557254940271378,
        0.5615777373313904,
        -0.324461430311203,
        -0.3853096067905426,
        -0.13584934175014496,
        0.19161733984947205,
        -0.13560029864311218,
        -0.7898717522621155,
        0.11459452658891678,
        0.15375493466854095,
        -0.2638416886329651,
        0.43544691801071167,
        -0.183096244931221,
        0.09915290772914886,
        -0.26259464025497437,
        -0.1599016785621643,
        0.28384584188461304,
        -0.013829412870109081,
        -0.32822397351264954,
        -0.24764293432235718,
        -0.3346993327140808,
        -0.25500479340553284,
        0.05677884444594383,
        0.36298882961273193,
        0.40742841362953186,
        0.35286757349967957,
        0.19739466905593872,
        0.011926756240427494,
        0.14943674206733704,
        -0.03125398978590965,
        0.11248588562011719,
        -0.04975774511694908,
        0.054692111909389496,
        0.37782275676727295,
        0.25874361395835876,
        0.0980142131447792,
        0.22130048274993896,
        -1.1278926134109497,
        -0.12403086572885513,
        0.06214797496795654,
        -0.10805239528417587,
        -0.027797317132353783,
        0.012490716762840748,
        -0.49855294823646545,
        0.2604261338710785,
        -0.14743122458457947,
        -0.1584165245294571,
        0.35544392466545105,
        -0.1932651251554489,
        0.3814319968223572,
        0.3048570454120636,
        0.013101591728627682,
        0.005475952289998531,
        0.18790097534656525,
        -0.1917419284582138,
        0.03705562278628349,
        -0.10513993352651596,
        0.14005134999752045,
        0.03936006501317024,
        0.20765092968940735,
        0.09497396647930145,
        0.24503429234027863,
        0.11598700284957886,
        0.47466355562210083,
        0.06302814185619354,
        -0.11004378646612167,
        -0.2168273776769638,
        -0.18523450195789337,
        -0.11812075227499008,
        0.43490779399871826,
        -0.032975535839796066,
        -0.7324290871620178,
        -0.12315498292446136,
        -0.28477686643600464,
        0.0871325358748436,
        0.39568090438842773,
        0.02353750541806221,
        -0.07599139958620071,
        0.061374325305223465,
        -0.02908775582909584,
        0.08371918648481369,
        -0.35520684719085693,
        -0.12313312292098999,
        -0.25929200649261475,
        0.3749105632305145,
        -0.49830684065818787,
        -0.017341529950499535,
        -0.4063231945037842,
        -0.0541248619556427,
        0.260193407535553,
        -0.019704246893525124,
        0.13281944394111633,
        -0.2213674932718277,
        -0.0198559258133173,
        -0.1880916804075241,
        -0.14812782406806946,
        0.14679473638534546,
        -0.09144624322652817,
        -0.3984312117099762,
        0.1458016186952591,
        -0.07797279953956604,
        -0.06431636959314346,
        0.1463988721370697,
        0.40080633759498596,
        0.04099581763148308,
        -0.23461851477622986,
        -0.10949041694402695,
        0.03678615018725395,
        -0.18911096453666687,
        -0.12889505922794342,
        -0.41038593649864197,
        -0.052970074117183685,
        0.2875070571899414,
        0.04637574031949043,
        0.13563543558120728,
        0.011503922753036022,
        0.289839506149292,
        -0.09154197573661804,
        0.055886346846818924,
        -0.2401268631219864,
        0.3901752531528473,
        -0.2228691279888153,
        -0.12476219981908798,
        -0.3172365725040436,
        0.0181779433041811,
        -0.020362108945846558,
        -0.10538148134946823,
        -0.1131523847579956,
        0.1751415729522705,
        0.23108252882957458,
        0.11778374016284943,
        0.19844406843185425,
        -0.22485920786857605,
        -0.3528372645378113,
        -0.13265496492385864,
        0.14860276877880096,
        0.11923349648714066,
        0.14052611589431763,
        -0.1177632287144661,
        -0.06745979189872742,
        0.48464876413345337,
        -0.07745889574289322,
        0.2359035611152649,
        0.21724240481853485,
        0.29469338059425354,
        -0.09339481592178345,
        0.28956320881843567,
        0.056100986897945404,
        0.05780170485377312,
        -0.028791973367333412,
        0.14324061572551727,
        0.3243405818939209,
        -0.14630024135112762,
        0.04489189013838768,
        -0.15510734915733337,
        0.0930570513010025,
        -0.05425775796175003,
        -0.06777016073465347,
        0.1808003932237625,
        0.23818804323673248,
        -0.1509256511926651,
        -0.2965471148490906,
        -0.07872238755226135,
        -0.141426220536232,
        0.013396043330430984,
        0.7935180068016052,
        0.14023007452487946,
        0.2298828512430191,
        0.25979840755462646,
        0.19623295962810516,
        -0.03111642599105835,
        0.14986491203308105,
        0.13352368772029877,
        -0.11280138045549393,
        0.13066701591014862,
        0.021632030606269836,
        -0.10971992462873459,
        0.10687430202960968,
        -0.1377730369567871,
        0.23869186639785767,
        -0.2457202672958374,
        -0.22432038187980652,
        0.0316588394343853,
        0.0824449360370636,
        -0.14674271643161774,
        -0.01578409969806671,
        0.00145988620352,
        0.11708606779575348,
        0.05985120311379433,
        0.0331595353782177,
        0.16861049830913544,
        0.0883481428027153,
        0.06255630403757095,
        0.03064429759979248,
        0.021472714841365814,
        0.1323297917842865,
        -0.04288288578391075,
        -0.028235362842679024,
        -0.08564354479312897,
        0.13802354037761688,
        -0.07005441188812256,
        -0.23760294914245605,
        0.055148568004369736,
        -0.1780090034008026,
        -0.13927623629570007,
        -0.015536545775830746,
        -0.33588066697120667,
        -0.21763983368873596,
        -0.11645500361919403,
        -0.11609607189893723,
        -0.14087925851345062,
        -0.24622687697410583,
        -0.03410514071583748,
        -0.03157255798578262,
        -0.05726504325866699,
        0.046369004994630814,
        0.13573284447193146,
        0.0912279412150383,
        0.15928536653518677,
        -0.18986088037490845,
        -0.09956184029579163,
        0.08653982728719711,
        0.24208468198776245,
        0.6597306728363037,
        -0.09585005044937134,
        -0.34344470500946045,
        0.035924505442380905,
        -0.26291730999946594,
        0.06710957735776901,
        0.38640210032463074,
        0.08697587996721268,
        0.1990521252155304,
        0.01188378594815731,
        -0.3256513178348541,
        -0.1680067926645279,
        -0.08387134224176407,
        0.203820139169693,
        0.08198658376932144,
        0.45135775208473206,
        -0.10931771248579025,
        -0.14216510951519012,
        -0.0984109565615654,
        0.07058101147413254,
        0.1738704890012741,
        0.05711948499083519,
        0.12636937201023102,
        0.04904298856854439,
        0.11727902293205261,
        0.21174919605255127,
        0.03073091432452202,
        -0.11889372020959854,
        0.014143715612590313,
        -0.1273909956216812,
        0.0042544822208583355,
        0.025326352566480637,
        0.18584582209587097,
        -0.04849877581000328,
        0.2262270152568817,
        0.11972803622484207,
        0.2267495095729828,
        0.11102905124425888,
        0.374660462141037,
        0.19652053713798523,
        0.05134174972772598,
        0.07829053699970245,
        -0.14472518861293793,
        0.03975866734981537,
        -0.21080906689167023,
        0.15080685913562775,
        -0.04494402930140495,
        -0.07367340475320816,
        -0.3678857982158661,
        0.18528641760349274,
        0.5297303199768066,
        -0.2019559144973755,
        0.12703606486320496,
        -0.4510311186313629,
        -1.1894265413284302,
        -0.10403472930192947,
        -0.04508030414581299,
        0.4208061993122101,
        -0.1707463562488556,
        0.09855140000581741,
        -0.031607188284397125,
        0.12361282855272293,
        -0.23394790291786194,
        -0.25716671347618103,
        -0.49691474437713623,
        0.06309985369443893,
        -0.03773277997970581,
        0.3648587763309479,
        0.1572790890932083,
        0.18517479300498962,
        -0.09102790802717209,
        -0.055878885090351105,
        0.22489480674266815,
        0.2650420069694519,
        -0.14635685086250305,
        -0.26499027013778687,
        -0.32549968361854553,
        -0.1774810552597046,
        -0.021791568025946617,
        -0.15174967050552368,
        -0.011282876133918762,
        -0.09160417318344116,
        0.07779660075902939,
        0.10073312371969223,
        0.18439383804798126,
        -0.022082775831222534,
        0.305181622505188,
        0.2142217606306076,
        0.0950433537364006,
        -0.21227699518203735,
        -0.1087573990225792,
        0.0648517906665802,
        0.14632529020309448,
        -0.10036320984363556,
        -0.10172826796770096,
        -0.11592663824558258,
        0.22172313928604126,
        0.07514146715402603,
        -0.08428405225276947,
        -0.4260699152946472,
        0.19710120558738708,
        -0.3959692120552063,
        0.5361446738243103,
        -0.2596914768218994,
        -0.4901234209537506,
        0.2456897497177124,
        0.05643560737371445,
        -0.19617779552936554,
        0.010274057276546955,
        0.12658242881298065,
        -0.04440200328826904,
        0.34329649806022644,
        -0.19745266437530518,
        -0.31122466921806335,
        0.039617978036403656,
        0.46427783370018005,
        0.1945217400789261,
        0.171708881855011,
        -0.6674830913543701,
        -0.09167119860649109,
        -0.12167291343212128,
        -0.6673092246055603,
        0.5200626254081726,
        -0.5144603848457336,
        0.0810108557343483,
        -0.03664320707321167,
        0.2179780900478363,
        0.2011653184890747,
        0.13699138164520264,
        0.03828795254230499,
        0.5187994241714478,
        -0.09860746562480927,
        -0.1995173543691635,
        -0.7226433753967285,
        0.34004926681518555,
        0.23417064547538757,
        0.03538728505373001,
        0.2834722697734833,
        0.019930999726057053,
        0.10572781413793564,
        0.23182180523872375,
        -0.3346933126449585,
        -0.001541832578368485,
        0.004775494337081909,
        -0.3210269808769226,
        0.08700697869062424,
        0.0064291576854884624,
        -0.3867155611515045,
        0.05251049995422363,
        -0.2178465574979782,
        -0.5626016855239868,
        -0.47118327021598816,
        0.3808084726333618,
        -0.15623147785663605,
        0.07192137837409973,
        0.144827738404274,
        -0.01692628674209118,
        0.0005538425757549703,
        -0.011792846024036407,
        0.22869208455085754,
        -0.1646723747253418,
        -0.1403409242630005,
        0.2982501685619354,
        -0.04800292104482651,
        -0.19318971037864685,
        -0.42648983001708984,
        -0.4597984850406647,
        0.2532801926136017,
        -0.43103650212287903,
        -0.3927341103553772,
        -0.0181139949709177,
        -0.13649588823318481,
        -0.04739335924386978,
        0.013045771047472954,
        0.16411976516246796,
        0.35969874262809753,
        -0.020153911784291267,
        -0.14050790667533875,
        0.3345089852809906,
        0.12225250154733658,
        0.019543103873729706,
        -0.015485349111258984,
        -0.23534420132637024,
        -0.2534058392047882,
        -0.26596799492836,
        -0.4697265625,
        0.3734750747680664,
        -0.2967289984226227,
        -0.052966829389333725,
        0.011101346462965012,
        -0.08629404753446579,
        0.1972089409828186,
        -0.18405917286872864,
        0.019063668325543404,
        -0.13265974819660187,
        -0.09875652194023132,
        -0.23067554831504822,
        -0.36031821370124817,
        0.6368272304534912,
        -0.01751009374856949,
        0.4108494520187378,
        0.3814540505409241,
        -0.07404084503650665,
        0.018787149339914322,
        0.47321581840515137,
        -0.17493849992752075,
        -0.13514874875545502,
        0.17136059701442719,
        -0.04225992038846016,
        -0.1661205142736435,
        0.39766114950180054,
        -0.09069661796092987,
        -0.0768827423453331,
        0.09361802786588669,
        -0.5320900082588196,
        0.12002801150083542,
        -0.6527328491210938,
        -0.2631237208843231,
        -0.19840022921562195,
        -0.10958545655012131,
        -0.14332610368728638,
        -0.15782426297664642,
        0.24281089007854462,
        -0.0182049423456192,
        0.09328750520944595,
        -0.041759684681892395,
        -0.025418812409043312,
        0.23785273730754852,
        -0.05444604903459549,
        -0.04164354130625725,
        0.2370484173297882,
        0.07973350584506989,
        0.2956485450267792,
        0.27572309970855713,
        -0.22401951253414154,
        0.001978827640414238,
        0.004650119226425886,
        -0.052344463765621185,
        0.03925685957074165,
        0.14979514479637146,
        0.09615134447813034,
        0.21164117753505707,
        -0.41223621368408203,
        -0.2794625163078308,
        0.34107542037963867,
        -0.03912094980478287,
        -0.13713513314723969,
        -0.10468123853206635,
        -0.0007071520085446537,
        -0.1684257686138153,
        -0.08619649708271027,
        -0.03208942711353302,
        -0.15888017416000366,
        -0.2201630026102066,
        -0.05020800605416298,
        0.11137007176876068,
        -0.09000890702009201,
        0.17146828770637512,
        0.014777198433876038,
        0.1685180813074112,
        0.1924649178981781,
        0.0032846133690327406,
        0.03188956901431084,
        0.5036291480064392,
        0.19363288581371307,
        -0.09005128592252731,
        -0.16105158627033234,
        0.003133295336738229,
        -0.28053018450737,
        0.48040586709976196,
        0.39808300137519836,
        -0.13195398449897766,
        0.2042822539806366,
        -0.03511259704828262,
        0.16632486879825592,
        -0.15067635476589203,
        -0.004748864099383354,
        0.007214002311229706,
        0.16903828084468842,
        0.0909227654337883,
        -0.0010709441266953945,
        0.16981160640716553,
        0.08554811775684357,
        -0.24244146049022675,
        -0.07964489609003067,
        0.07913936674594879,
        0.009008975699543953,
        0.24760332703590393,
        0.3352271318435669,
        0.08689501881599426,
        0.18990270793437958,
        -0.03623611107468605,
        0.2975418269634247,
        0.14682839810848236,
        -0.3607860505580902,
        -0.14899025857448578,
        0.15921436250209808,
        -0.220419242978096,
        -0.24161459505558014,
        0.06611835956573486,
        0.2795409858226776,
        -0.47946402430534363,
        0.18487174808979034,
        -0.318572461605072,
        -0.1165897324681282,
        0.22031474113464355,
        1.1906554698944092,
        0.06821681559085846,
        -0.2667669951915741,
        -0.16495296359062195,
        1.49576997756958,
        -0.15338164567947388,
        0.5713167190551758,
        0.23633404076099396,
        0.2402702271938324,
        0.2593812942504883,
        -0.2700715959072113,
        -0.00025193532928824425,
        0.008476358838379383,
        -0.1559208184480667,
        0.38822200894355774,
        0.17248140275478363,
        0.5817095637321472,
        0.039367374032735825,
        -0.1410590261220932,
        -0.2593708336353302,
        0.021589528769254684,
        0.07497894018888474,
        0.1658853143453598,
        -0.5136443376541138,
        -0.21314218640327454,
        0.1255427747964859,
        -0.48901456594467163,
        -0.08400510996580124,
        -0.17693695425987244,
        -0.44119390845298767,
        -0.10841920226812363,
        -0.13283322751522064,
        0.14584484696388245,
        0.13448862731456757,
        0.10351988673210144,
        -0.26101577281951904,
        -0.09202472865581512,
        0.1411258727312088,
        -0.14773236215114594,
        -0.05160200223326683,
        0.1775233894586563,
        0.20971009135246277,
        -0.19782321155071259,
        0.00901149120181799,
        0.04647641256451607,
        -0.2420712262392044,
        0.01805620640516281,
        -0.0025844282936304808,
        -0.10949913412332535,
        0.11960939317941666,
        -0.08548703789710999,
        -0.11123761534690857,
        -0.06211433559656143,
        -0.016666023060679436,
        -0.05716850236058235,
        -0.21889127790927887,
        0.13351522386074066,
        -0.09309613704681396,
        -0.14379237592220306,
        -0.1030038595199585,
        0.06649019569158554,
        -0.04194320738315582,
        -0.0949031412601471,
        -0.052667681127786636,
        0.13982658088207245,
        -0.13848473131656647,
        -0.038347866386175156,
        -0.1357901245355606,
        0.5466760993003845,
        -0.2053353190422058,
        0.03279495984315872,
        0.08629685640335083,
        -0.17972001433372498,
        -0.07064557075500488,
        0.03198973089456558,
        -0.016838286072015762,
        -0.029725266620516777,
        -0.199445441365242,
        0.056858230382204056,
        0.06775880604982376,
        -0.006598955485969782,
        -0.045743536204099655,
        0.11443761736154556,
        -0.404189795255661,
        0.2408243715763092,
        -0.12450266629457474,
        0.056130655109882355,
        -0.13275007903575897,
        0.2558683753013611,
        -0.07636946439743042,
        -0.07296007126569748,
        -0.21236205101013184,
        -0.32343411445617676,
        -0.302901029586792,
        -0.20870055258274078,
        0.0448092520236969,
        0.733421802520752,
        -0.132503941655159,
        0.0711999237537384,
        -0.12945745885372162,
        -0.16746318340301514,
        -2.2126021903545734e-8,
        0.3999241590499878,
        0.7426088452339172,
        -0.2881679832935333,
        0.83184415102005,
        -0.13006484508514404,
        0.15902261435985565,
        -0.3423248827457428,
        0.10760458558797836,
        0.29205575585365295,
        0.3067546486854553,
        -0.11614521592855453,
        0.237646222114563,
        0.46498292684555054,
        0.30571603775024414,
        -0.33674126863479614,
        -0.10844926536083221,
        0.17079058289527893,
        -0.10213811695575714,
        0.1121685579419136,
        -0.10318206995725632,
        -0.15721005201339722,
        -0.5342603325843811,
        -0.01675625704228878,
        0.12400585412979126,
        -0.3957591950893402,
        -0.3893109858036041,
        -1.0552884340286255,
        0.032590921968221664,
        0.11808700859546661,
        -0.051270633935928345,
        -0.9142259955406189,
        -0.12081070989370346,
        -0.5561317205429077,
        0.08082053810358047,
        -0.028780478984117508,
        0.09918837994337082,
        -0.24368426203727722,
        -0.32445624470710754,
        -0.3249082863330841,
        0.05004870519042015,
        -0.5352945327758789,
        -0.18174992501735687,
        -0.42496663331985474,
        -0.2350112944841385,
        -0.021575551480054855,
        0.392656147480011,
        1.057404637336731,
        -0.16027963161468506,
        0.16740205883979797,
        0.13289585709571838,
        0.10717509686946869,
        -0.15758584439754486,
        0.5213028192520142,
        0.1843530237674713,
        0.057914502918720245,
        0.21373850107192993,
        0.16540582478046417,
        -0.2925511300563812,
        0.3549882471561432,
        0.32522067427635193,
        -0.010975953191518784,
        0.14136406779289246,
        0.3899468183517456,
        0.08422144502401352,
        0.37893781065940857,
        -0.5879065990447998,
        0.022292902693152428,
        -0.008535544387996197,
        0.19301943480968475,
        0.212372824549675,
        -0.14956825971603394,
        -0.29239630699157715,
        0.14004291594028473,
        -0.06806225329637527,
        0.5216854214668274,
        -0.0684664323925972,
        0.24207082390785217,
        -0.29232892394065857,
        0.7763245105743408,
        -0.14332759380340576,
        -0.7030115127563477,
        -0.48243841528892517,
        0.044590193778276443,
        -0.2394862025976181,
        0.5512499213218689,
        0.06742019206285477,
        0.16816075146198273,
        0.14831824600696564,
        0.08876050263643265,
        0.007397356443107128,
        0.0029055674094706774,
        0.15927879512310028,
        0.0951727107167244,
        -0.024131542071700096,
        -0.11054880172014236,
        -0.07025176286697388,
        -0.09169390052556992,
        -0.09478624910116196,
        0.11713757365942001,
        -0.12877503037452698,
        0.08209875226020813,
        -0.18501751124858856,
        -0.025132933631539345,
        -0.00008760674245422706,
        0.28957319259643555,
        -0.09860328584909439,
        -0.18219293653964996,
        0.05572640150785446,
        -0.0040206448175013065,
        0.1331554502248764,
        -0.2584112882614136,
        0.15330339968204498,
        0.003523064311593771,
        0.004120304249227047,
        -0.06901708990335464,
        0.0817326083779335,
        -0.3569530248641968,
        0.1551649123430252,
        -0.027710335329174995,
        -0.015158852562308311,
        -0.20623871684074402,
        -0.3285812735557556,
        -0.2582519054412842,
        0.0990692675113678,
        0.15923354029655457,
        -0.03042961284518242,
        0.14411434531211853,
        0.10134053975343704,
        -0.11812032014131546,
        -0.45537084341049194,
        -0.010517757385969162,
        -0.20446015894412994,
        -0.03890462964773178,
        -0.07699059695005417,
        -0.035231441259384155,
        -0.47436466813087463,
        -0.07838203758001328,
        0.23570328950881958,
        0.15889254212379456,
        0.023507630452513695,
        -0.10401974618434906,
        -0.6086437106132507,
        0.15534090995788574,
        -0.0828959196805954,
        -0.09512841701507568,
        -0.15448322892189026,
        0.1786537915468216,
        -0.21826258301734924,
        0.3237050771713257,
        0.0863872841000557,
        -0.47921642661094666,
        0.2912791967391968,
        -0.20773693919181824,
        -0.14670297503471375,
        -0.04789463430643082,
        -0.018745770677924156,
        -0.0726189911365509,
        -0.018712712451815605,
        -0.1486818641424179,
        0.17783044278621674,
        0.24530193209648132,
        -0.2561527192592621,
        -0.005806389264762402,
        -0.06587527692317963,
        0.08561047911643982,
        -0.03657745197415352,
        -0.2011866271495819,
        -0.1725878268480301,
        -0.2669323980808258,
        -0.38768672943115234,
        0.18601836264133453,
        -0.04297169670462608,
        0.17360879480838776,
        -0.13302595913410187,
        0.21985940635204315,
        -0.12041839957237244,
        -0.1797008216381073,
        0.3068294823169708,
        0.39458003640174866,
        0.37776729464530945,
        0.2178581953048706
      ],
      "weightsShape": [
        64,
        32
      ],
      "bias": [
        -0.022509068250656128,
        -0.01838780753314495,
        -0.1346098780632019,
        -0.09939757734537125,
        0.038965385407209396,
        0.06714808940887451,
        -0.06274072080850601,
        -0.017902513965964317,
        -0.12144700437784195,
        -0.010726875625550747,
        0.0003414285311009735,
        0.12629923224449158,
        0.013662549667060375,
        0.277446985244751,
        0.08084947615861893,
        0.0065279072150588036,
        -0.012281948700547218,
        -0.1933191865682602,
        0.03772842884063721,
        0.11391612887382507,
        -0.00214688410051167,
        0.24637404084205627,
        -0.10407132655382156,
        0.00653691915795207,
        -0.06402784585952759,
        0.3510236144065857,
        -0.046267129480838776,
        0.020517703145742416,
        -0.0778917595744133,
        -0.05891130119562149,
        -0.05027014762163162,
        0.04609065502882004
      ],
      "biasShape": [
        1,
        32
      ],
      "activation": "relu"
    },
    {
      "weights": [
        0.45712190866470337,
        -0.2577704191207886,
        0.9495599269866943,
        0.4377470314502716,
        -0.5360779166221619,
        1.8489619493484497,
        0.7607015371322632,
        -0.2058427631855011,
        0.413971483707428,
        2.4376449584960938,
        -0.041010163724422455,
        -0.37187063694000244,
        1.0029910802841187,
        0.7015894651412964,
        0.13610748946666718,
        -0.12692460417747498,
        0.3082667887210846,
        0.8591092228889465,
        0.09960465133190155,
        -0.3673226833343506,
        -0.017722541466355324,
        -0.8882108926773071,
        -0.5996992588043213,
        0.08110042661428452,
        0.7070436477661133,
        -0.3499462306499481,
        0.3019949793815613,
        0.8986251950263977,
        0.5471712350845337,
        0.08059544116258621,
        0.2995569705963135,
        0.44461745023727417
      ],
      "weightsShape": [
        32,
        1
      ],
      "bias": [
        0.3994528651237488
      ],
      "biasShape": [
        1,
        1
      ],
      "activation": "sigmoid"
    }
  ],
  "learningRate": 0.000005931980228999994,
  "l2Lambda": 0.00001
}